{"learner":{"attributes":{"best_iteration":"99","best_ntree_limit":"100","scikit_learn":"{\"n_estimators\": 100, \"objective\": null, \"max_depth\": null, \"max_leaves\": null, \"max_bin\": null, \"grow_policy\": null, \"learning_rate\": null, \"verbosity\": null, \"booster\": null, \"tree_method\": null, \"gamma\": null, \"min_child_weight\": null, \"max_delta_step\": null, \"subsample\": null, \"sampling_method\": null, \"colsample_bytree\": null, \"colsample_bylevel\": null, \"colsample_bynode\": null, \"reg_alpha\": null, \"reg_lambda\": null, \"scale_pos_weight\": null, \"base_score\": null, \"missing\": NaN, \"num_parallel_tree\": null, \"random_state\": null, \"n_jobs\": null, \"monotone_constraints\": null, \"interaction_constraints\": null, \"importance_type\": null, \"gpu_id\": null, \"validate_parameters\": null, \"predictor\": null, \"enable_categorical\": false, \"feature_types\": null, \"max_cat_to_onehot\": null, \"max_cat_threshold\": null, \"eval_metric\": null, \"early_stopping_rounds\": null, \"callbacks\": null, \"_estimator_type\": \"regressor\"}"},"feature_names":["f0","fsw_l_1","fsw_r_1","fsw_l_2","fsw_r_2","ftw_l_1","ftw_r_1","ftw_l_2","ftw_r_2","fiw_l_1","fiw_r_1","fiw_l_2","fiw_r_2"],"feature_types":["float","float","float","float","float","float","float","float","float","float","float","float","float"],"gradient_booster":{"model":{"gbtree_model_param":{"num_parallel_tree":"1","num_trees":"100","size_leaf_vector":"0"},"tree_info":[0,0,0,0,0,0,0,0,0,0,0,0,0,0,0,0,0,0,0,0,0,0,0,0,0,0,0,0,0,0,0,0,0,0,0,0,0,0,0,0,0,0,0,0,0,0,0,0,0,0,0,0,0,0,0,0,0,0,0,0,0,0,0,0,0,0,0,0,0,0,0,0,0,0,0,0,0,0,0,0,0,0,0,0,0,0,0,0,0,0,0,0,0,0,0,0,0,0,0,0],"trees":[{"base_weights":[-4.626416E-1,-1.1267029E0,1.349599E-1,-1.24585E0,-8.546362E-1,-1.6861635E-1,2.4071178E-1,-1.2802716E0,-9.6753633E-1,-9.512075E-1,-6.954483E-1,-3.3688852E-1,-6.929712E-2,-2.9379385E-2,2.7609003E-1,-1.3262862E0,-1.0115701E0,-1.0339869E0,-8.5330665E-1,-9.934969E-1,-7.478172E-1,-7.6104844E-1,-6.0746664E-1,-4.3702534E-1,-2.7481666E-1,-2.729105E-1,-2.6009748E-2,-1.472759E-1,4.0607996E-2,-1.3104045E-2,3.175751E-1,-1.3486596E0,-1.2132281E0,-1.0808614E0,-8.579137E-1,-1.0140054E0,-1.1298771E0,-8.9401746E-1,-7.741153E-1,-1.0517197E0,-7.864629E-1,-6.901846E-1,-8.3654135E-1,-6.2667996E-1,-7.941699E-1,-6.5165144E-1,-5.6369704E-1,-4.8802832E-1,-4.044082E-1,-3.9330003E-1,-2.4337852E-1,-3.4920585E-1,-2.2156732E-1,-2.2289191E-1,3.775028E-2,-2.016602E-1,-8.208074E-2,-6.0294815E-3,8.22603E-2,-1.5733905E-1,5.8567643E-2,2.554573E-1,3.4671286E-1,-4.1332334E-1,-3.7573844E-1,-3.519553E-1,-3.8427845E-1,-3.1378832E-1,-3.5479492E-1,-2.735504E-1,-2.3296891E-1,-3.17482E-1,-2.8364637E-1,-3.5515037E-1,-3.303646E-1,-2.8877693E-1,-2.540616E-1,-2.5509858E-1,-2.1765631E-1,-2.7432007E-1,-3.2195526E-1,-2.0879436E-1,-2.619111E-1,-2.1996684E-1,-1.918426E-1,-2.6959375E-1,-2.3610988E-1,-2.1218058E-1,-1.7893258E-1,-1.9973527E-1,-2.539139E-1,-1.7046785E-1,-2.0240213E-1,-1.752225E-1,-1.5864523E-1,-1.4768876E-1,-1.4235447E-1,-1.3788906E-1,-1.1661295E-1,-9.8114826E-2,-1.2521689E-1,-1.09944224E-1,-5.8410794E-2,-7.69447E-2,-1.1017927E-1,-3.690603E-2,-7.353537E-2,-1.0022971E-1,-4.865843E-2,-9.859348E-3,2.4177603E-2,-8.722054E-2,-4.6727724E-2,-5.198489E-2,-1.0226064E-2,-1.6248683E-2,1.4413298E-2,4.478037E-2,2.0720175E-2,-7.182618E-2,-3.145775E-2,1.2657341E-3,2.907131E-2,7.927642E-2,2.8831882E-2,7.036731E-2,1.0787388E-1],"categories":[],"categories_nodes":[],"categories_segments":[],"categories_sizes":[],"default_left":[0,0,0,0,0,0,0,0,0,0,0,0,0,0,0,0,0,0,0,0,0,0,0,0,0,0,0,0,0,0,0,0,0,0,0,0,0,0,0,0,0,0,0,0,0,0,0,0,0,0,0,0,0,0,0,0,0,0,0,0,0,0,0,0,0,0,0,0,0,0,0,0,0,0,0,0,0,0,0,0,0,0,0,0,0,0,0,0,0,0,0,0,0,0,0,0,0,0,0,0,0,0,0,0,0,0,0,0,0,0,0,0,0,0,0,0,0,0,0,0,0,0,0,0,0,0,0],"id":0,"left_children":[1,3,5,7,9,11,13,15,17,19,21,23,25,27,29,31,33,35,37,39,41,43,45,47,49,51,53,55,57,59,61,63,65,67,69,71,73,75,77,79,81,83,85,87,89,91,93,95,97,99,101,103,105,107,109,111,113,115,117,119,121,123,125,-1,-1,-1,-1,-1,-1,-1,-1,-1,-1,-1,-1,-1,-1,-1,-1,-1,-1,-1,-1,-1,-1,-1,-1,-1,-1,-1,-1,-1,-1,-1,-1,-1,-1,-1,-1,-1,-1,-1,-1,-1,-1,-1,-1,-1,-1,-1,-1,-1,-1,-1,-1,-1,-1,-1,-1,-1,-1,-1,-1,-1,-1,-1,-1],"loss_changes":[2.8446076E7,1.1006E6,1.211221E6,2.26208E5,1.589635E5,1.6290319E5,2.6736862E5,2.59808E5,1.972625E4,5.53575E4,2.253425E4,2.2487E4,5.4024617E4,2.6739492E4,2.9681588E5,4.5378E4,3.27105E4,3.147E3,3.0808125E3,6.42255E4,5.664375E3,9.954E3,3.2249375E3,2.302875E3,8.3190625E3,4.209547E3,6.34546E4,4.2800625E3,3.9501917E3,3.2085572E4,3.916175E4,4.1904E4,8.0335E3,7.52075E3,4.18775E3,4.12325E3,4.3684375E2,2.0400625E3,1.2013438E3,1.2257E4,9.1606875E3,1.46525E3,1.3406562E3,1.0774375E3,1.202725E4,1.5935938E3,5.951875E2,3.0914062E1,7.3184375E2,7.472969E2,1.0576367E4,7.2372656E2,1.4907988E3,8.346609E3,1.1551346E4,2.6908672E3,2.4030962E3,2.4969019E3,9.49584E2,4.4382227E3,4.3201504E3,9.684844E3,2.12535E4,0E0,0E0,0E0,0E0,0E0,0E0,0E0,0E0,0E0,0E0,0E0,0E0,0E0,0E0,0E0,0E0,0E0,0E0,0E0,0E0,0E0,0E0,0E0,0E0,0E0,0E0,0E0,0E0,0E0,0E0,0E0,0E0,0E0,0E0,0E0,0E0,0E0,0E0,0E0,0E0,0E0,0E0,0E0,0E0,0E0,0E0,0E0,0E0,0E0,0E0,0E0,0E0,0E0,0E0,0E0,0E0,0E0,0E0,0E0,0E0,0E0,0E0,0E0,0E0],"parents":[2147483647,0,0,1,1,2,2,3,3,4,4,5,5,6,6,7,7,8,8,9,9,10,10,11,11,12,12,13,13,14,14,15,15,16,16,17,17,18,18,19,19,20,20,21,21,22,22,23,23,24,24,25,25,26,26,27,27,28,28,29,29,30,30,31,31,32,32,33,33,34,34,35,35,36,36,37,37,38,38,39,39,40,40,41,41,42,42,43,43,44,44,45,45,46,46,47,47,48,48,49,49,50,50,51,51,52,52,53,53,54,54,55,55,56,56,57,57,58,58,59,59,60,60,61,61,62,62],"right_children":[2,4,6,8,10,12,14,16,18,20,22,24,26,28,30,32,34,36,38,40,42,44,46,48,50,52,54,56,58,60,62,64,66,68,70,72,74,76,78,80,82,84,86,88,90,92,94,96,98,100,102,104,106,108,110,112,114,116,118,120,122,124,126,-1,-1,-1,-1,-1,-1,-1,-1,-1,-1,-1,-1,-1,-1,-1,-1,-1,-1,-1,-1,-1,-1,-1,-1,-1,-1,-1,-1,-1,-1,-1,-1,-1,-1,-1,-1,-1,-1,-1,-1,-1,-1,-1,-1,-1,-1,-1,-1,-1,-1,-1,-1,-1,-1,-1,-1,-1,-1,-1,-1,-1,-1,-1,-1],"split_conditions":[0E0,-5.8965508E-2,4.8230533E-2,1.3198438E-3,-2.0720597E-2,1.7017761E-2,1.3362478E-3,-1.1783476E-2,7.236929E-2,4.1066863E-2,-8.694317E-3,5.6647034E-3,-3.666958E-2,-6.643239E-2,0E0,-5.713465E-2,7.076574E-2,-1.1428564E-1,1.557414E-1,3.6804713E-2,-1.1428564E-1,-7.022583E-2,-4.3448275E-3,1.3338049E-3,-4.3358713E-2,-9.285118E-2,-2.6975615E-2,1.0688987E-1,-2.5404442E-2,-7.608397E-2,1.128241E-1,-8.0092296E-2,-1.1428564E-1,-1.2762888E-1,1.3729261E-1,-9.9659786E-2,-8.010558E-2,-1.2484957E-1,-1.517847E-1,-8.846865E-2,-1.3046934E-1,1.0885117E-1,-3.4861255E-2,4.538976E-2,-6.2643215E-2,-5.7145305E-2,-1.593465E-3,1.330182E-3,-4.655988E-2,6.1749347E-2,-3.8312096E-2,9.936054E-2,5.858604E-2,-9.065646E-2,2.9706132E-2,-1.4228442E-1,-1.6194806E-1,9.398508E-2,8.699945E-2,-1.4538677E-1,-3.329401E-2,1.5571882E-1,6.1743777E-2,-4.1332334E-1,-3.7573844E-1,-3.519553E-1,-3.8427845E-1,-3.1378832E-1,-3.5479492E-1,-2.735504E-1,-2.3296891E-1,-3.17482E-1,-2.8364637E-1,-3.5515037E-1,-3.303646E-1,-2.8877693E-1,-2.540616E-1,-2.5509858E-1,-2.1765631E-1,-2.7432007E-1,-3.2195526E-1,-2.0879436E-1,-2.619111E-1,-2.1996684E-1,-1.918426E-1,-2.6959375E-1,-2.3610988E-1,-2.1218058E-1,-1.7893258E-1,-1.9973527E-1,-2.539139E-1,-1.7046785E-1,-2.0240213E-1,-1.752225E-1,-1.5864523E-1,-1.4768876E-1,-1.4235447E-1,-1.3788906E-1,-1.1661295E-1,-9.8114826E-2,-1.2521689E-1,-1.09944224E-1,-5.8410794E-2,-7.69447E-2,-1.1017927E-1,-3.690603E-2,-7.353537E-2,-1.0022971E-1,-4.865843E-2,-9.859348E-3,2.4177603E-2,-8.722054E-2,-4.6727724E-2,-5.198489E-2,-1.0226064E-2,-1.6248683E-2,1.4413298E-2,4.478037E-2,2.0720175E-2,-7.182618E-2,-3.145775E-2,1.2657341E-3,2.907131E-2,7.927642E-2,2.8831882E-2,7.036731E-2,1.0787388E-1],"split_indices":[0,0,0,2,0,0,1,1,2,2,0,0,1,1,2,2,1,1,2,1,1,1,0,0,1,1,2,0,1,2,0,1,1,2,1,0,0,0,0,1,2,2,0,2,2,1,0,6,1,2,2,2,2,2,0,1,1,0,2,2,2,1,1,0,0,0,0,0,0,0,0,0,0,0,0,0,0,0,0,0,0,0,0,0,0,0,0,0,0,0,0,0,0,0,0,0,0,0,0,0,0,0,0,0,0,0,0,0,0,0,0,0,0,0,0,0,0,0,0,0,0,0,0,0,0,0,0],"split_type":[0,0,0,0,0,0,0,0,0,0,0,0,0,0,0,0,0,0,0,0,0,0,0,0,0,0,0,0,0,0,0,0,0,0,0,0,0,0,0,0,0,0,0,0,0,0,0,0,0,0,0,0,0,0,0,0,0,0,0,0,0,0,0,0,0,0,0,0,0,0,0,0,0,0,0,0,0,0,0,0,0,0,0,0,0,0,0,0,0,0,0,0,0,0,0,0,0,0,0,0,0,0,0,0,0,0,0,0,0,0,0,0,0,0,0,0,0,0,0,0,0,0,0,0,0,0,0],"sum_hessian":[7.168075E7,3.3952436E7,3.772832E7,2.3611962E7,1.0340475E7,9.747291E6,2.7981028E7,2.1013076E7,2.598887E6,6.436046E6,3.904429E6,3.617804E6,6.129487E6,3.240651E6,2.4740376E7,1.7940756E7,3.07232E6,1.643063E6,9.55824E5,5.328191E6,1.107855E6,2.236706E6,1.667723E6,1.384411E6,2.233393E6,1.074639E6,5.054848E6,1.207153E6,2.033498E6,3.103782E6,2.1636594E7,1.4976915E7,2.96384E6,2.11745E6,9.5487E5,1.359734E6,2.83329E5,6.31283E5,3.24541E5,4.158672E6,1.169519E6,6.71607E5,4.36248E5,4.42317E5,1.794389E6,8.29918E5,8.37805E5,5.40003E5,8.44408E5,4.68334E5,1.765059E6,4.32276E5,6.42363E5,1.23655E6,3.818298E6,6.58143E5,5.4901E5,9.5934E5,1.074158E6,1.030321E6,2.073461E6,6.908539E6,1.4728055E7,1.149997E7,3.476945E6,1.862317E6,1.101523E6,1.576814E6,5.40636E5,5.74241E5,3.80629E5,8.26034E5,5.337E5,9.8277E4,1.85052E5,2.57188E5,3.74095E5,1.26355E5,1.98186E5,5.62176E5,3.596496E6,5.71858E5,5.97661E5,3.63274E5,3.08333E5,1.935E5,2.42748E5,1.20676E5,3.21641E5,5.18758E5,1.275631E6,1.79499E5,6.50419E5,5.28829E5,3.08976E5,4.10372E5,1.29631E5,1.86905E5,6.57503E5,1.24887E5,3.43447E5,5.00154E5,1.264905E6,7.0467E4,3.61809E5,1.23902E5,5.18461E5,4.36608E5,7.99942E5,1.441808E6,2.37649E6,2.23812E5,4.34331E5,1.89294E5,3.59716E5,5.07552E5,4.51788E5,1.76698E5,8.9746E5,4.01831E5,6.2849E5,8.57631E5,1.21583E6,6.547089E6,3.6145E5,1.51575E6,1.3212305E7],"tree_param":{"num_deleted":"0","num_feature":"13","num_nodes":"127","size_leaf_vector":"0"}},{"base_weights":[-3.2384923E-1,-7.8869224E-1,9.44719E-2,-8.63401E-1,-5.7028854E-1,-9.7520486E-2,1.7802373E-1,-8.884215E-1,-6.588759E-1,-6.2589514E-1,-4.5481828E-1,-2.1782081E-1,-2.0363554E-2,6.755291E-3,2.0422556E-1,-9.211036E-1,-6.820676E-1,-6.984451E-1,-5.710409E-1,-6.587747E-1,-5.078019E-1,-4.8858428E-1,-4.03896E-1,-2.9011685E-1,-1.6169888E-1,-1.5646578E-1,1.5775386E-2,-7.978416E-2,5.8408186E-2,3.611765E-2,2.4143516E-1,-9.581582E-1,-8.7577707E-1,-7.23578E-1,-5.6693745E-1,-7.388388E-1,-6.6578686E-1,-6.148449E-1,-5.2678657E-1,-5.1623607E-1,-7.1224713E-1,-4.656635E-1,-5.78733E-1,-5.106691E-1,-4.0515447E-1,-4.2851415E-1,-3.8175154E-1,-3.3225352E-1,-2.594262E-1,-1.3640586E-1,-2.6721394E-1,-1.0308789E-1,-2.1675833E-1,6.406382E-2,-1.4766121E-1,-1.3725603E-1,-3.910028E-2,1.21618025E-1,4.0249504E-2,-7.789915E-2,8.349634E-2,1.6306014E-1,2.5078678E-1,-2.9205316E-1,-2.6092E-1,-2.669911E-1,-2.4022144E-1,-2.1069336E-1,-2.4415681E-1,-1.8834491E-1,-1.583061E-1,-2.173029E-1,-2.3947604E-1,-2.1799915E-1,-1.9300951E-1,-1.9160327E-1,-1.5745261E-1,-1.4633358E-1,-1.8180975E-1,-1.6657457E-1,-1.2924716E-1,-2.3132044E-1,-1.9784404E-1,-1.4979783E-1,-1.298768E-1,-1.88568E-1,-1.6074161E-1,-1.652057E-1,-1.2575679E-1,-1.1816148E-1,-1.3743003E-1,-1.10367015E-1,-1.3301186E-1,-1.0592337E-1,-1.1702267E-1,-1.0248611E-1,-9.431907E-2,-7.328578E-2,-9.5241785E-2,-2.8648466E-2,-7.36317E-2,-9.02781E-2,-6.919003E-2,-4.277493E-2,-1.7339215E-2,-7.962394E-2,-5.6152195E-2,-8.293932E-3,2.6205467E-2,-3.0364057E-2,-7.508846E-2,-5.034762E-2,-1.7742187E-2,-2.0269888E-2,6.0645575E-3,3.002033E-2,5.8264904E-2,6.957694E-4,2.3494914E-2,-4.19486E-2,-9.2192525E-3,4.512619E-2,1.7736154E-2,6.0664453E-2,3.7383016E-2,5.5939782E-2,7.892292E-2],"categories":[],"categories_nodes":[],"categories_segments":[],"categories_sizes":[],"default_left":[0,0,0,0,0,0,0,0,0,0,0,0,0,0,0,0,0,0,0,0,0,0,0,0,0,0,0,0,0,0,0,0,0,0,0,0,0,0,0,0,0,0,0,0,0,0,0,0,0,0,0,0,0,0,0,0,0,0,0,0,0,0,0,0,0,0,0,0,0,0,0,0,0,0,0,0,0,0,0,0,0,0,0,0,0,0,0,0,0,0,0,0,0,0,0,0,0,0,0,0,0,0,0,0,0,0,0,0,0,0,0,0,0,0,0,0,0,0,0,0,0,0,0,0,0,0,0],"id":1,"left_children":[1,3,5,7,9,11,13,15,17,19,21,23,25,27,29,31,33,35,37,39,41,43,45,47,49,51,53,55,57,59,61,63,65,67,69,71,73,75,77,79,81,83,85,87,89,91,93,95,97,99,101,103,105,107,109,111,113,115,117,119,121,123,125,-1,-1,-1,-1,-1,-1,-1,-1,-1,-1,-1,-1,-1,-1,-1,-1,-1,-1,-1,-1,-1,-1,-1,-1,-1,-1,-1,-1,-1,-1,-1,-1,-1,-1,-1,-1,-1,-1,-1,-1,-1,-1,-1,-1,-1,-1,-1,-1,-1,-1,-1,-1,-1,-1,-1,-1,-1,-1,-1,-1,-1,-1,-1,-1],"loss_changes":[1.3938582E7,5.53994E5,6.0521175E5,1.29458E5,5.5565E4,1.0618762E5,1.1796931E5,1.52018E5,9.583625E3,2.26795E4,4.8363125E3,1.8137578E4,3.428204E4,1.5591902E4,1.4261962E5,3.2682E4,1.4728375E4,2.507375E3,1.6599375E3,3.482325E4,3.801875E3,3.1160938E3,6.112344E2,2.5263594E3,6.7163906E3,4.706383E3,4.346571E4,3.0484424E3,2.5071978E3,2.2321174E4,1.36825E4,1.4533E4,9.3215E3,4.348375E3,1.9512812E3,7.3140625E2,1.4344375E3,9.22875E2,1.3166953E3,4.1530312E3,1.0311875E4,8.793125E2,1.0136875E3,4.8952812E3,2.1129688E2,4.7823438E2,1.4079688E2,1.3759375E2,9.933047E2,9.05525E3,6.000469E2,1.3874922E3,9.884258E2,9.079809E3,5.9879375E3,1.2904082E3,1.2889509E3,7.626333E2,2.450091E3,3.543271E3,4.761953E3,2.9959336E3,1.31835E4,0E0,0E0,0E0,0E0,0E0,0E0,0E0,0E0,0E0,0E0,0E0,0E0,0E0,0E0,0E0,0E0,0E0,0E0,0E0,0E0,0E0,0E0,0E0,0E0,0E0,0E0,0E0,0E0,0E0,0E0,0E0,0E0,0E0,0E0,0E0,0E0,0E0,0E0,0E0,0E0,0E0,0E0,0E0,0E0,0E0,0E0,0E0,0E0,0E0,0E0,0E0,0E0,0E0,0E0,0E0,0E0,0E0,0E0,0E0,0E0,0E0,0E0,0E0,0E0],"parents":[2147483647,0,0,1,1,2,2,3,3,4,4,5,5,6,6,7,7,8,8,9,9,10,10,11,11,12,12,13,13,14,14,15,15,16,16,17,17,18,18,19,19,20,20,21,21,22,22,23,23,24,24,25,25,26,26,27,27,28,28,29,29,30,30,31,31,32,32,33,33,34,34,35,35,36,36,37,37,38,38,39,39,40,40,41,41,42,42,43,43,44,44,45,45,46,46,47,47,48,48,49,49,50,50,51,51,52,52,53,53,54,54,55,55,56,56,57,57,58,58,59,59,60,60,61,61,62,62],"right_children":[2,4,6,8,10,12,14,16,18,20,22,24,26,28,30,32,34,36,38,40,42,44,46,48,50,52,54,56,58,60,62,64,66,68,70,72,74,76,78,80,82,84,86,88,90,92,94,96,98,100,102,104,106,108,110,112,114,116,118,120,122,124,126,-1,-1,-1,-1,-1,-1,-1,-1,-1,-1,-1,-1,-1,-1,-1,-1,-1,-1,-1,-1,-1,-1,-1,-1,-1,-1,-1,-1,-1,-1,-1,-1,-1,-1,-1,-1,-1,-1,-1,-1,-1,-1,-1,-1,-1,-1,-1,-1,-1,-1,-1,-1,-1,-1,-1,-1,-1,-1,-1,-1,-1,-1,-1,-1],"split_conditions":[0E0,-4.8273318E-2,5.7130765E-2,8.572373E-3,-1.4792198E-2,2.1329153E-2,1.55818425E-2,0E0,9.048806E-2,3.26368E-2,-5.821894E-3,8.574366E-3,-2.0727057E-2,-5.178082E-2,2.6889069E-2,-1.6191913E-1,9.2185035E-2,3.4082968E-2,-1.0436571E-1,-8.42108E-2,-9.066075E-2,4.983611E-2,-3.0522344E-3,2.7936099E-3,7.560113E-2,1.1917493E-1,9.756453E-2,-1.1946904E-1,1.0885117E-1,-5.5335958E-2,4.700764E-2,-1.04370676E-1,-2.539952E-2,-1.0679133E-1,-1.1946932E-1,-9.7347975E-2,-1.3626127E-1,2.3239908E-1,-2.048737E-1,9.5780596E-2,-3.171972E-2,-3.171972E-2,-2.6984986E-2,4.1177098E-2,-4.1663013E-2,-6.0783897E-2,-5.0028536E-2,1.3338049E-3,6.30873E-2,6.6213995E-2,-7.022583E-2,3.5347342E-2,-1.1946904E-1,-4.34237E-3,1.6478509E-1,1.6790935E-1,1.3247155E-1,8.700744E-2,1.08858794E-1,-1.16836995E-1,1.147607E-1,1.2781109E-1,6.62171E-2,-2.9205316E-1,-2.6092E-1,-2.669911E-1,-2.4022144E-1,-2.1069336E-1,-2.4415681E-1,-1.8834491E-1,-1.583061E-1,-2.173029E-1,-2.3947604E-1,-2.1799915E-1,-1.9300951E-1,-1.9160327E-1,-1.5745261E-1,-1.4633358E-1,-1.8180975E-1,-1.6657457E-1,-1.2924716E-1,-2.3132044E-1,-1.9784404E-1,-1.4979783E-1,-1.298768E-1,-1.88568E-1,-1.6074161E-1,-1.652057E-1,-1.2575679E-1,-1.1816148E-1,-1.3743003E-1,-1.10367015E-1,-1.3301186E-1,-1.0592337E-1,-1.1702267E-1,-1.0248611E-1,-9.431907E-2,-7.328578E-2,-9.5241785E-2,-2.8648466E-2,-7.36317E-2,-9.02781E-2,-6.919003E-2,-4.277493E-2,-1.7339215E-2,-7.962394E-2,-5.6152195E-2,-8.293932E-3,2.6205467E-2,-3.0364057E-2,-7.508846E-2,-5.034762E-2,-1.7742187E-2,-2.0269888E-2,6.0645575E-3,3.002033E-2,5.8264904E-2,6.957694E-4,2.3494914E-2,-4.19486E-2,-9.2192525E-3,4.512619E-2,1.7736154E-2,6.0664453E-2,3.7383016E-2,5.5939782E-2,7.892292E-2],"split_indices":[0,0,0,2,0,0,1,1,2,2,0,0,1,1,2,0,1,2,0,2,1,2,0,0,2,2,1,1,2,2,1,2,2,2,0,1,0,2,1,1,0,0,0,1,1,2,1,0,2,1,1,0,1,2,1,0,0,0,0,2,1,2,2,0,0,0,0,0,0,0,0,0,0,0,0,0,0,0,0,0,0,0,0,0,0,0,0,0,0,0,0,0,0,0,0,0,0,0,0,0,0,0,0,0,0,0,0,0,0,0,0,0,0,0,0,0,0,0,0,0,0,0,0,0,0,0,0],"split_type":[0,0,0,0,0,0,0,0,0,0,0,0,0,0,0,0,0,0,0,0,0,0,0,0,0,0,0,0,0,0,0,0,0,0,0,0,0,0,0,0,0,0,0,0,0,0,0,0,0,0,0,0,0,0,0,0,0,0,0,0,0,0,0,0,0,0,0,0,0,0,0,0,0,0,0,0,0,0,0,0,0,0,0,0,0,0,0,0,0,0,0,0,0,0,0,0,0,0,0,0,0,0,0,0,0,0,0,0,0,0,0,0,0,0,0,0,0,0,0,0,0,0,0,0,0,0,0],"sum_hessian":[7.168075E7,3.3952436E7,3.772832E7,2.5298608E7,8.65383E6,1.144016E7,2.6288158E7,2.2541052E7,2.757554E6,5.840999E6,2.812831E6,4.470271E6,6.969889E6,3.488109E6,2.2800048E7,1.9459136E7,3.081918E6,1.901108E6,8.56446E5,4.568916E6,1.272083E6,1.691324E6,1.121507E6,1.953621E6,2.51665E6,1.462393E6,5.507496E6,1.303769E6,2.18434E6,4.132044E6,1.8668004E7,1.0706509E7,8.752626E6,2.265193E6,8.16725E5,8.49889E5,1.051219E6,4.30407E5,4.26039E5,1.246418E6,3.322498E6,7.98012E5,4.74071E5,1.337316E6,3.54008E5,5.31082E5,5.90425E5,8.23284E5,1.130337E6,2.030033E6,4.86617E5,7.75677E5,6.86716E5,4.251394E6,1.256102E6,5.40389E5,7.6338E5,4.87469E5,1.696871E6,1.212988E6,2.919056E6,1.990004E6,1.6678001E7,9.122629E6,1.58388E6,7.360426E6,1.3922E6,1.833325E6,4.31868E5,3.20148E5,4.96577E5,6.83214E5,1.66675E5,2.82952E5,7.68267E5,3.40292E5,9.0115E4,2.85508E5,1.40531E5,8.55609E5,3.90809E5,1.571115E6,1.751383E6,3.9346E5,4.04552E5,2.19398E5,2.54673E5,9.30345E5,4.06971E5,2.91827E5,6.2181E4,1.04548E5,4.26534E5,1.32848E5,4.57577E5,5.40003E5,2.83281E5,8.96506E5,2.33831E5,1.476157E6,5.53876E5,2.5323E5,2.33387E5,4.14347E5,3.6133E5,2.59663E5,4.27053E5,8.60931E5,3.390463E6,8.64753E5,3.91349E5,3.88395E5,1.51994E5,5.15829E5,2.47551E5,3.75891E5,1.11578E5,8.49961E5,8.4691E5,5.24433E5,6.88555E5,7.79345E5,2.139711E6,9.85966E5,1.004038E6,2.675434E6,1.4002567E7],"tree_param":{"num_deleted":"0","num_feature":"13","num_nodes":"127","size_leaf_vector":"0"}},{"base_weights":[-2.2669455E-1,-5.5208474E-1,6.613031E-2,-6.2339157E-1,-4.3494684E-1,-1.0258624E-1,1.1430257E-1,-6.41102E-1,-5.076635E-1,-4.8868513E-1,-3.5151422E-1,-1.8808872E-1,-6.0442608E-2,-1.3576182E-2,1.347953E-1,-6.678637E-1,-5.258437E-1,-4.7677803E-1,-5.8843786E-1,-3.6163396E-1,-5.109618E-1,-3.890691E-1,-3.0502072E-1,-2.2521594E-1,-1.6335766E-1,-3.5676297E-2,-1.619699E-1,-8.999142E-2,1.390969E-2,9.915153E-3,1.632657E-1,-6.783382E-1,-6.1767817E-1,-4.827431E-1,-6.110484E-1,-5.166761E-1,-4.2979887E-1,-6.471831E-1,-5.6615525E-1,-3.166229E-1,-3.9728233E-1,-3.7896234E-1,-5.480372E-1,-3.1048584E-1,-4.1374272E-1,-2.6103485E-1,-3.189335E-1,-2.1689221E-1,-2.520607E-1,-2.4247755E-1,-1.5129584E-1,-1.274066E-1,6.221702E-3,-1.911874E-1,-1.3500531E-1,-1.3077214E-1,-5.6140214E-2,-1.5488613E-2,4.0560648E-2,-7.499823E-2,4.3559164E-2,9.3848675E-2,1.7043117E-1,-2.0872997E-1,-1.9084446E-1,-1.7288119E-1,-2.0066157E-1,-1.5496495E-1,-1.2434488E-1,-1.9770324E-1,-1.7550477E-1,-1.6630016E-1,-1.3886255E-1,-1.0998953E-1,-1.3909464E-1,-2.0261921E-1,-1.8838242E-1,-1.5567769E-1,-1.7930128E-1,-8.283913E-2,-1.0021821E-1,-1.253871E-1,-1.0325751E-1,-9.254806E-2,-1.262028E-1,-1.7048231E-1,-1.3691236E-1,-8.0622576E-2,-9.852959E-2,-9.920234E-2,-1.4063798E-1,-9.167631E-2,-7.6031014E-2,-8.007088E-2,-1.0431926E-1,-7.230395E-2,-6.020362E-2,-8.0920026E-2,-7.3658586E-2,-8.1854686E-2,-6.556508E-2,-6.309709E-2,-3.6829263E-2,-5.473623E-2,-2.5639785E-2,-2.5930775E-2,1.038773E-2,-6.8095624E-2,-5.3944554E-2,-3.2923277E-2,-4.8002798E-2,-1.8382771E-2,-4.7373973E-2,-4.2524338E-2,-1.0727156E-2,1.3490786E-2,-1.6669111E-2,3.1011505E-2,5.6939772E-3,-3.425147E-2,-5.7675354E-3,3.33555E-2,9.302479E-3,4.2053357E-2,2.0851191E-2,3.4941934E-2,5.3762898E-2],"categories":[],"categories_nodes":[],"categories_segments":[],"categories_sizes":[],"default_left":[0,0,0,0,0,0,0,0,0,0,0,0,0,0,0,0,0,0,0,0,0,0,0,0,0,0,0,0,0,0,0,0,0,0,0,0,0,0,0,0,0,0,0,0,0,0,0,0,0,0,0,0,0,0,0,0,0,0,0,0,0,0,0,0,0,0,0,0,0,0,0,0,0,0,0,0,0,0,0,0,0,0,0,0,0,0,0,0,0,0,0,0,0,0,0,0,0,0,0,0,0,0,0,0,0,0,0,0,0,0,0,0,0,0,0,0,0,0,0,0,0,0,0,0,0,0,0],"id":2,"left_children":[1,3,5,7,9,11,13,15,17,19,21,23,25,27,29,31,33,35,37,39,41,43,45,47,49,51,53,55,57,59,61,63,65,67,69,71,73,75,77,79,81,83,85,87,89,91,93,95,97,99,101,103,105,107,109,111,113,115,117,119,121,123,125,-1,-1,-1,-1,-1,-1,-1,-1,-1,-1,-1,-1,-1,-1,-1,-1,-1,-1,-1,-1,-1,-1,-1,-1,-1,-1,-1,-1,-1,-1,-1,-1,-1,-1,-1,-1,-1,-1,-1,-1,-1,-1,-1,-1,-1,-1,-1,-1,-1,-1,-1,-1,-1,-1,-1,-1,-1,-1,-1,-1,-1,-1,-1,-1],"loss_changes":[6.8299085E6,2.83596E5,3.0663538E5,4.32565E4,5.7602E4,3.0195203E4,7.691059E4,5.6458E4,6.9878125E3,2.21165E4,8.7880625E3,2.5402734E3,1.4113756E4,8.513871E3,8.993381E4,7.808E3,1.2666125E4,3.7979375E3,1.01384375E3,1.8704062E3,3.25375E4,5.3982812E3,1.3761875E3,2.4710547E2,1.5846562E3,1.7342285E4,8.6716406E2,1.4803135E3,2.3357834E3,1.3416163E4,1.0246E4,9.036E3,5.4370625E3,5.2854375E3,1.4462188E3,2.21975E3,1.989625E3,1.1524219E2,8.358281E2,3.6369922E2,7.138906E2,4.2854844E3,9.6285E3,4.983164E2,9.689531E3,1.8286328E2,2.5598594E3,3.3015234E2,3.0154297E1,1.5956836E2,2.4266367E3,3.266371E3,8.152229E3,2.1502734E2,3.6154785E2,9.1740234E2,1.02243823E3,3.4345383E3,2.119588E3,2.9116465E3,2.8548208E3,2.1737812E3,8.8440625E3,0E0,0E0,0E0,0E0,0E0,0E0,0E0,0E0,0E0,0E0,0E0,0E0,0E0,0E0,0E0,0E0,0E0,0E0,0E0,0E0,0E0,0E0,0E0,0E0,0E0,0E0,0E0,0E0,0E0,0E0,0E0,0E0,0E0,0E0,0E0,0E0,0E0,0E0,0E0,0E0,0E0,0E0,0E0,0E0,0E0,0E0,0E0,0E0,0E0,0E0,0E0,0E0,0E0,0E0,0E0,0E0,0E0,0E0,0E0,0E0,0E0,0E0,0E0,0E0],"parents":[2147483647,0,0,1,1,2,2,3,3,4,4,5,5,6,6,7,7,8,8,9,9,10,10,11,11,12,12,13,13,14,14,15,15,16,16,17,17,18,18,19,19,20,20,21,21,22,22,23,23,24,24,25,25,26,26,27,27,28,28,29,29,30,30,31,31,32,32,33,33,34,34,35,35,36,36,37,37,38,38,39,39,40,40,41,41,42,42,43,43,44,44,45,45,46,46,47,47,48,48,49,49,50,50,51,51,52,52,53,53,54,54,55,55,56,56,57,57,58,58,59,59,60,60,61,61,62,62],"right_children":[2,4,6,8,10,12,14,16,18,20,22,24,26,28,30,32,34,36,38,40,42,44,46,48,50,52,54,56,58,60,62,64,66,68,70,72,74,76,78,80,82,84,86,88,90,92,94,96,98,100,102,104,106,108,110,112,114,116,118,120,122,124,126,-1,-1,-1,-1,-1,-1,-1,-1,-1,-1,-1,-1,-1,-1,-1,-1,-1,-1,-1,-1,-1,-1,-1,-1,-1,-1,-1,-1,-1,-1,-1,-1,-1,-1,-1,-1,-1,-1,-1,-1,-1,-1,-1,-1,-1,-1,-1,-1,-1,-1,-1,-1,-1,-1,-1,-1,-1,-1,-1,-1,-1,-1,-1,-1],"split_conditions":[0E0,-7.607792E-2,4.1167475E-2,-2.0727193E-2,-2.6984986E-2,1.2707619E-2,8.582213E-3,-3.9983373E-2,-1.7247277E-1,-1.2485109E-1,-1.1776219E-2,4.245174E-3,8.540747E-2,-8.214649E-2,1.8452628E-2,-7.807652E-2,-1.7247672E-1,-1.3922533E-1,-1.09243475E-1,-1.7986615E-1,-1.11731E-1,-6.265996E-2,-5.0028536E-2,6.464093E-2,-7.214289E-2,-1.9189542E-2,-6.4519696E-2,8.700744E-2,7.874244E-2,-6.452904E-2,3.5344493E-2,-1.1946904E-1,-1.453851E-1,-1.2214335E-1,-1.0436571E-1,5.132538E-2,-2.6465768E-1,-1.3045378E-1,-1.3332392E-1,-2.6465768E-1,-4.3351967E-2,-1.7989746E-1,1.271788E-2,-1.392214E-1,-5.001348E-2,2.1326002E-2,-4.335471E-2,-3.4872577E-2,-9.736167E-2,-1.24846116E-1,-2.698226E-2,-6.832808E-2,-1.0310882E-2,-1.7247277E-1,1.0885117E-1,1.557414E-1,-2.3434824E-1,9.757643E-2,1.528705E-1,1.0516986E-1,7.875556E-2,9.048806E-2,5.262706E-2,-2.0872997E-1,-1.9084446E-1,-1.7288119E-1,-2.0066157E-1,-1.5496495E-1,-1.2434488E-1,-1.9770324E-1,-1.7550477E-1,-1.6630016E-1,-1.3886255E-1,-1.0998953E-1,-1.3909464E-1,-2.0261921E-1,-1.8838242E-1,-1.5567769E-1,-1.7930128E-1,-8.283913E-2,-1.0021821E-1,-1.253871E-1,-1.0325751E-1,-9.254806E-2,-1.262028E-1,-1.7048231E-1,-1.3691236E-1,-8.0622576E-2,-9.852959E-2,-9.920234E-2,-1.4063798E-1,-9.167631E-2,-7.6031014E-2,-8.007088E-2,-1.0431926E-1,-7.230395E-2,-6.020362E-2,-8.0920026E-2,-7.3658586E-2,-8.1854686E-2,-6.556508E-2,-6.309709E-2,-3.6829263E-2,-5.473623E-2,-2.5639785E-2,-2.5930775E-2,1.038773E-2,-6.8095624E-2,-5.3944554E-2,-3.2923277E-2,-4.8002798E-2,-1.8382771E-2,-4.7373973E-2,-4.2524338E-2,-1.0727156E-2,1.3490786E-2,-1.6669111E-2,3.1011505E-2,5.6939772E-3,-3.425147E-2,-5.7675354E-3,3.33555E-2,9.302479E-3,4.2053357E-2,2.0851191E-2,3.4941934E-2,5.3762898E-2],"split_indices":[0,0,0,2,0,0,1,1,1,1,0,0,2,1,2,2,2,0,0,1,2,1,1,1,2,2,1,0,0,2,1,1,1,0,0,2,1,0,1,1,0,2,2,1,2,2,2,1,2,2,1,2,1,1,2,2,1,2,2,0,1,2,2,0,0,0,0,0,0,0,0,0,0,0,0,0,0,0,0,0,0,0,0,0,0,0,0,0,0,0,0,0,0,0,0,0,0,0,0,0,0,0,0,0,0,0,0,0,0,0,0,0,0,0,0,0,0,0,0,0,0,0,0,0,0,0,0],"split_type":[0,0,0,0,0,0,0,0,0,0,0,0,0,0,0,0,0,0,0,0,0,0,0,0,0,0,0,0,0,0,0,0,0,0,0,0,0,0,0,0,0,0,0,0,0,0,0,0,0,0,0,0,0,0,0,0,0,0,0,0,0,0,0,0,0,0,0,0,0,0,0,0,0,0,0,0,0,0,0,0,0,0,0,0,0,0,0,0,0,0,0,0,0,0,0,0,0,0,0,0,0,0,0,0,0,0,0,0,0,0,0,0,0,0,0,0,0,0,0,0,0,0,0,0,0,0,0],"sum_hessian":[7.168075E7,3.3952436E7,3.772832E7,2.1104952E7,1.2847486E7,8.379678E6,2.934864E7,1.8303816E7,2.801136E6,7.814331E6,5.033155E6,2.766633E6,5.613045E6,4.053567E6,2.5295072E7,1.4854711E7,3.449104E6,2.026338E6,7.74798E5,1.16574E6,6.648591E6,2.784214E6,2.248941E6,1.106102E6,1.660531E6,4.512322E6,1.100723E6,1.072325E6,2.981242E6,4.696175E6,2.0598898E7,1.2289668E7,2.565043E6,2.290478E6,1.158626E6,1.095743E6,9.30595E5,2.13061E5,5.61737E5,5.15217E5,6.50523E5,1.457932E6,5.190659E6,6.65301E5,2.118913E6,5.40415E5,1.708526E6,8.44315E5,2.61787E5,2.19658E5,1.440873E6,1.414799E6,3.097523E6,5.28289E5,5.72434E5,4.86379E5,5.85946E5,1.417556E6,1.563686E6,1.332672E6,3.363503E6,1.927342E6,1.8671556E7,8.69701E6,3.592658E6,1.418066E6,1.146977E6,1.531819E6,7.58659E5,4.07613E5,7.51013E5,6.4457E5,4.51173E5,3.24695E5,6.059E5,8.6375E4,1.26686E5,2.24827E5,3.3691E5,1.55092E5,3.60125E5,4.68192E5,1.82331E5,5.42117E5,9.15815E5,4.25192E6,9.38739E5,2.00031E5,4.6527E5,8.44546E5,1.274367E6,7.873E4,4.61685E5,6.08717E5,1.099809E6,3.39389E5,5.04926E5,7.0637E4,1.9115E5,9.679E4,1.22868E5,4.69513E5,9.7136E5,6.11801E5,8.02998E5,7.26755E5,2.370768E6,1.2736E5,4.00929E5,2.84756E5,2.87678E5,1.36603E5,3.49776E5,1.12682E5,4.73264E5,5.65075E5,8.52481E5,3.99866E5,1.16382E6,7.82833E5,5.49839E5,5.26523E5,2.83698E6,6.63901E5,1.263441E6,2.612643E6,1.6058913E7],"tree_param":{"num_deleted":"0","num_feature":"13","num_nodes":"127","size_leaf_vector":"0"}},{"base_weights":[-1.5868625E-1,-3.885095E-1,4.4589233E-2,-4.222577E-1,-2.7164003E-1,-4.464601E-2,9.329192E-2,-4.3437618E-1,-3.1413785E-1,-2.8635225E-1,-1.9698796E-1,-1.0726347E-1,5.9697977E-5,1.26778325E-2,1.0570359E-1,-4.5553225E-1,-3.4696674E-1,-3.3169568E-1,-2.5912225E-1,-3.1781137E-1,-2.2361097E-1,-2.155547E-1,-1.5023062E-1,-1.4341025E-1,-7.705966E-2,2.0049687E-2,-8.716288E-2,5.577935E-2,-1.7921375E-2,3.141499E-2,1.2385287E-1,-4.654231E-1,-3.9871547E-1,-3.7885365E-1,-2.8553382E-1,-3.2425103E-1,-4.063696E-1,-3.4042633E-1,-2.4792956E-1,-3.4169567E-1,-2.616408E-1,-2.4926546E-1,-1.9297814E-1,-2.5974816E-1,-2.0590134E-1,-1.6853212E-1,-1.3365905E-1,-1.6429432E-1,-1.2669154E-1,-1.3546269E-1,-5.8817398E-2,4.7394603E-2,-9.0881586E-2,-5.7106137E-2,-1.19036E-1,4.4289783E-2,1.2733711E-1,-6.081014E-2,2.285092E-2,7.558535E-2,-2.8369779E-2,1.17216624E-1,1.5973909E-1,-1.4155318E-1,-1.2721004E-1,-1.13253E-1,-1.4109147E-1,-1.0888899E-1,-1.3443202E-1,-9.135088E-2,-6.0852434E-2,-1.0587772E-1,-8.741943E-2,-1.2783682E-1,-1.152316E-1,-9.8006345E-2,-1.337769E-1,-7.841196E-2,-5.3939003E-2,-7.7642746E-2,-1.0689217E-1,-7.1816616E-2,-9.2003286E-2,-6.9715545E-2,-8.72913E-2,-6.26614E-2,-5.2328635E-2,-6.988832E-2,-8.16674E-2,-5.4803286E-2,-6.7135125E-2,-6.0562674E-2,-4.7092747E-2,-4.773202E-2,-3.7844177E-2,-5.037655E-2,-4.602669E-2,-3.34851E-2,-5.155981E-2,-2.0681133E-2,-4.349966E-2,-6.2683006E-3,-3.734372E-2,-4.810363E-3,1.83855E-2,-1.992151E-2,-5.2107673E-2,-2.356869E-2,-7.047365E-3,-3.2106373E-2,-4.4466052E-2,2.1094874E-2,4.0407754E-3,3.252193E-2,5.2221276E-2,-9.341905E-3,-3.4538124E-2,2.1993091E-2,-3.7926119E-3,1.4032691E-2,3.2459665E-2,-3.1015718E-2,3.1072758E-3,3.640577E-2,8.325581E-3,1.3090456E-2,5.164819E-2],"categories":[],"categories_nodes":[],"categories_segments":[],"categories_sizes":[],"default_left":[0,0,0,0,0,0,0,0,0,0,0,0,0,0,0,0,0,0,0,0,0,0,0,0,0,0,0,0,0,0,0,0,0,0,0,0,0,0,0,0,0,0,0,0,0,0,0,0,0,0,0,0,0,0,0,0,0,0,0,0,0,0,0,0,0,0,0,0,0,0,0,0,0,0,0,0,0,0,0,0,0,0,0,0,0,0,0,0,0,0,0,0,0,0,0,0,0,0,0,0,0,0,0,0,0,0,0,0,0,0,0,0,0,0,0,0,0,0,0,0,0,0,0,0,0,0,0],"id":3,"left_children":[1,3,5,7,9,11,13,15,17,19,21,23,25,27,29,31,33,35,37,39,41,43,45,47,49,51,53,55,57,59,61,63,65,67,69,71,73,75,77,79,81,83,85,87,89,91,93,95,97,99,101,103,105,107,109,111,113,115,117,119,121,123,125,-1,-1,-1,-1,-1,-1,-1,-1,-1,-1,-1,-1,-1,-1,-1,-1,-1,-1,-1,-1,-1,-1,-1,-1,-1,-1,-1,-1,-1,-1,-1,-1,-1,-1,-1,-1,-1,-1,-1,-1,-1,-1,-1,-1,-1,-1,-1,-1,-1,-1,-1,-1,-1,-1,-1,-1,-1,-1,-1,-1,-1,-1,-1,-1],"loss_changes":[3.3487402E6,1.326945E5,1.6530992E5,3.4204E4,8.27925E3,3.759562E4,2.462089E4,4.34095E4,2.541375E3,1.24294375E4,1.0773633E3,6.1077188E3,1.3662257E4,4.3300444E3,2.8750938E4,1.06205E4,8.9606875E3,1.1086719E3,5.791797E2,5.6269062E3,1.6526719E3,3.7891797E2,1.0695801E2,8.891406E2,3.2470312E3,1.9337256E4,1.399626E3,1.1206924E3,3.3575264E3,1.1056078E4,4.0812188E3,4.2775E3,4.2539375E3,3.313625E3,2.4517266E3,1.7085E3,7.935742E1,1.1148926E2,5.124492E2,3.5640312E3,1.2539844E3,8.056719E2,2.8254688E2,5.3158203E1,3.0273828E2,6.455615E1,3.536792E1,4.463086E1,9.631426E2,4.601709E2,5.7828086E3,4.505824E3,2.5552188E3,5.4232056E2,2.4861328E2,9.4213794E2,1.6682178E2,1.5080327E3,1.7628501E3,2.2623506E3,5.168164E3,5.3515156E3,3.8571719E3,0E0,0E0,0E0,0E0,0E0,0E0,0E0,0E0,0E0,0E0,0E0,0E0,0E0,0E0,0E0,0E0,0E0,0E0,0E0,0E0,0E0,0E0,0E0,0E0,0E0,0E0,0E0,0E0,0E0,0E0,0E0,0E0,0E0,0E0,0E0,0E0,0E0,0E0,0E0,0E0,0E0,0E0,0E0,0E0,0E0,0E0,0E0,0E0,0E0,0E0,0E0,0E0,0E0,0E0,0E0,0E0,0E0,0E0,0E0,0E0,0E0,0E0,0E0,0E0],"parents":[2147483647,0,0,1,1,2,2,3,3,4,4,5,5,6,6,7,7,8,8,9,9,10,10,11,11,12,12,13,13,14,14,15,15,16,16,17,17,18,18,19,19,20,20,21,21,22,22,23,23,24,24,25,25,26,26,27,27,28,28,29,29,30,30,31,31,32,32,33,33,34,34,35,35,36,36,37,37,38,38,39,39,40,40,41,41,42,42,43,43,44,44,45,45,46,46,47,47,48,48,49,49,50,50,51,51,52,52,53,53,54,54,55,55,56,56,57,57,58,58,59,59,60,60,61,61,62,62],"right_children":[2,4,6,8,10,12,14,16,18,20,22,24,26,28,30,32,34,36,38,40,42,44,46,48,50,52,54,56,58,60,62,64,66,68,70,72,74,76,78,80,82,84,86,88,90,92,94,96,98,100,102,104,106,108,110,112,114,116,118,120,122,124,126,-1,-1,-1,-1,-1,-1,-1,-1,-1,-1,-1,-1,-1,-1,-1,-1,-1,-1,-1,-1,-1,-1,-1,-1,-1,-1,-1,-1,-1,-1,-1,-1,-1,-1,-1,-1,-1,-1,-1,-1,-1,-1,-1,-1,-1,-1,-1,-1,-1,-1,-1,-1,-1,-1,-1,-1,-1,-1,-1,-1,-1,-1,-1,-1],"split_conditions":[-1.593465E-3,-4.3351967E-2,6.621648E-2,1.7017761E-2,5.564883E-2,2.5449159E-2,2.1331899E-2,-2.2278596E-2,1.17037624E-1,2.4025954E-2,1.3246624E-1,1.0017578E-2,1.0324143E-1,1.7829908E-1,3.8119998E-2,-3.6654245E-2,5.1319025E-2,-8.0092296E-2,-2.4555092E-1,1.270861E-2,7.076389E-2,-3.32947E-2,1.7469683E-1,2.7936099E-3,-3.0148407E-2,1.0884657E-1,1.4478517E-1,1.1918222E-1,1.372781E-1,2.110179E-1,3.6469746E-1,-5.7145305E-2,-8.0092296E-2,-7.807652E-2,1.7119521E-1,-8.8466525E-2,-5.5329487E-2,-5.0525194E-1,2.65861E-1,-6.643239E-2,-3.6654245E-2,-3.8316794E-2,-1.7658126E-2,-1.5509802E-1,-9.9647604E-2,-3.0149003E-2,-3.171972E-2,1.3338049E-3,5.2638005E-2,3.5349358E-2,5.564883E-2,-3.04281E-3,1.976515E-1,5.2622072E-2,2.2150742E-1,1.3012148E-1,1.5009312E-1,2.5863534E-1,3.1218734E-1,9.398508E-2,1.3247155E-1,3.498484E-1,1.976515E-1,-1.4155318E-1,-1.2721004E-1,-1.13253E-1,-1.4109147E-1,-1.0888899E-1,-1.3443202E-1,-9.135088E-2,-6.0852434E-2,-1.0587772E-1,-8.741943E-2,-1.2783682E-1,-1.152316E-1,-9.8006345E-2,-1.337769E-1,-7.841196E-2,-5.3939003E-2,-7.7642746E-2,-1.0689217E-1,-7.1816616E-2,-9.2003286E-2,-6.9715545E-2,-8.72913E-2,-6.26614E-2,-5.2328635E-2,-6.988832E-2,-8.16674E-2,-5.4803286E-2,-6.7135125E-2,-6.0562674E-2,-4.7092747E-2,-4.773202E-2,-3.7844177E-2,-5.037655E-2,-4.602669E-2,-3.34851E-2,-5.155981E-2,-2.0681133E-2,-4.349966E-2,-6.2683006E-3,-3.734372E-2,-4.810363E-3,1.83855E-2,-1.992151E-2,-5.2107673E-2,-2.356869E-2,-7.047365E-3,-3.2106373E-2,-4.4466052E-2,2.1094874E-2,4.0407754E-3,3.252193E-2,5.2221276E-2,-9.341905E-3,-3.4538124E-2,2.1993091E-2,-3.7926119E-3,1.4032691E-2,3.2459665E-2,-3.1015718E-2,3.1072758E-3,3.640577E-2,8.325581E-3,1.3090456E-2,5.164819E-2],"split_indices":[0,0,0,2,1,0,1,1,2,2,1,0,2,2,2,2,1,1,0,1,2,0,1,0,1,1,2,0,0,1,0,1,1,2,1,0,0,1,2,1,2,1,0,2,2,0,0,0,1,2,1,1,1,0,2,2,0,2,2,0,0,1,1,0,0,0,0,0,0,0,0,0,0,0,0,0,0,0,0,0,0,0,0,0,0,0,0,0,0,0,0,0,0,0,0,0,0,0,0,0,0,0,0,0,0,0,0,0,0,0,0,0,0,0,0,0,0,0,0,0,0,0,0,0,0,0,0],"split_type":[0,0,0,0,0,0,0,0,0,0,0,0,0,0,0,0,0,0,0,0,0,0,0,0,0,0,0,0,0,0,0,0,0,0,0,0,0,0,0,0,0,0,0,0,0,0,0,0,0,0,0,0,0,0,0,0,0,0,0,0,0,0,0,0,0,0,0,0,0,0,0,0,0,0,0,0,0,0,0,0,0,0,0,0,0,0,0,0,0,0,0,0,0,0,0,0,0,0,0,0,0,0,0,0,0,0,0,0,0,0,0,0,0,0,0,0,0,0,0,0,0,0,0,0,0,0,0],"sum_hessian":[7.168075E7,3.364346E7,3.8037296E7,2.6105126E7,7.538335E6,1.3430088E7,2.4607206E7,2.3474064E7,2.631062E6,6.297282E6,1.241053E6,5.594333E6,7.835755E6,3.28314E6,2.1324066E7,1.8899688E7,4.574376E6,1.99452E6,6.36542E5,4.194242E6,2.10304E6,8.88312E5,3.52741E5,2.546625E6,3.047708E6,6.374764E6,1.460991E6,1.3631E6,1.92004E6,4.186773E6,1.7137292E7,1.6097391E7,2.802297E6,3.011333E6,1.563043E6,1.813707E6,1.80813E5,7.7022E4,5.5952E5,2.94289E6,1.251352E6,1.144518E6,9.58522E5,1.59247E5,7.29065E5,1.67617E5,1.85124E5,1.13226E6,1.414365E6,7.2538E5,2.322328E6,5.114118E6,1.260646E6,7.51922E5,7.09069E5,1.174517E6,1.88583E5,9.35733E5,9.84307E5,2.40782E6,1.778953E6,1.4462772E7,2.674521E6,1.3935542E7,2.161849E6,2.161921E6,6.40376E5,2.449332E6,5.62001E5,1.271391E6,2.91652E5,9.68431E5,8.45276E5,9.58E4,8.5013E4,6.8151E4,8.871E3,4.6731E5,9.221E4,4.41039E5,2.501851E6,8.37541E5,4.13811E5,8.14753E5,3.29765E5,5.16216E5,4.42306E5,5.0609E4,1.08638E5,3.1717E5,4.11895E5,4.3137E4,1.2448E5,4.2187E4,1.42937E5,8.48979E5,2.83281E5,1.060488E6,3.53877E5,9.0945E4,6.34435E5,1.472109E6,8.50219E5,9.18747E5,4.195371E6,9.73043E5,2.87603E5,4.58966E5,2.92956E5,5.02288E5,2.06781E5,6.36783E5,5.37734E5,1.34218E5,5.4365E4,6.05165E5,3.30568E5,4.06457E5,5.7785E5,1.278467E6,1.129353E6,6.05698E5,1.173255E6,1.3823705E7,6.39067E5,2.58483E5,2.416038E6],"tree_param":{"num_deleted":"0","num_feature":"13","num_nodes":"127","size_leaf_vector":"0"}},{"base_weights":[-1.1108042E-1,-2.733224E-1,3.0174714E-2,-3.1184244E-1,-2.2137064E-1,-6.3504934E-2,5.5344507E-2,-3.1726032E-1,-2.3085327E-1,-2.4854241E-1,-1.8225132E-1,-9.9636815E-2,-4.1451305E-2,-2.2089506E-2,6.4400256E-2,-3.2767114E-1,-2.6981395E-1,-2.1535085E-1,-2.964496E-1,-1.5712373E-1,-2.6342446E-1,-1.3655894E-1,-1.9408354E-1,-1.1402451E-1,-8.7399185E-2,-2.688419E-2,-1.0098796E-1,6.579369E-2,-2.7938891E-2,-1.9211255E-2,7.523247E-2,-3.3859947E-1,-2.9412526E-1,-2.28838E-1,-3.2244334E-1,-2.5457734E-1,-1.9185749E-1,-3.4180233E-1,-2.757374E-1,-1.052567E-1,-1.775877E-1,-1.9058304E-1,-2.9081038E-1,-1.0260575E-1,-1.5052633E-1,-1.4699131E-1,-2.1955024E-1,-1.2053387E-1,-1.1190663E-1,-7.464119E-2,-1.2341567E-1,2.1552655E-3,-8.736963E-2,-8.50646E-2,-1.3661149E-1,4.2487003E-2,1.1591074E-1,-4.6990942E-2,-1.4957268E-3,-1.1322756E-1,-9.325174E-3,6.3473806E-2,9.547617E-2,-1.05494745E-1,-9.36949E-2,-7.784511E-2,-9.958932E-2,-7.605942E-2,-5.503183E-2,-8.9437045E-2,-1.0694709E-1,-7.233576E-2,-1.02339126E-1,-4.3733027E-2,-6.425868E-2,-1.2954678E-1,-9.9039964E-2,-7.5593255E-2,-9.404381E-2,-2.3265768E-2,-3.6328178E-2,-5.0858352E-2,-5.9155796E-2,-4.7259867E-2,-6.5596536E-2,-7.222887E-2,-9.219336E-2,-3.6279246E-2,-2.7780121E-2,-6.1081026E-2,-4.221635E-2,-5.8522034E-2,-4.1847814E-2,-7.703355E-2,-5.4047752E-2,-3.2169856E-2,-3.7029233E-2,-3.431171E-2,-3.07964E-2,-3.4197696E-2,-1.28329145E-2,-4.3325394E-2,-3.4670524E-2,-1.0448299E-2,6.305487E-3,-2.8644955E-2,-1.5544159E-2,-3.0880047E-2,-2.1340972E-2,-4.6093304E-2,-3.409196E-2,2.889573E-2,4.61274E-3,-1.7807858E-2,3.5637762E-2,-9.482535E-3,-2.6544098E-2,1.2537948E-2,-6.067556E-3,-3.822925E-2,-8.929585E-3,-9.925254E-3,6.0950606E-3,2.0523861E-2,-2.3028824E-2,8.217458E-3,3.233117E-2],"categories":[],"categories_nodes":[],"categories_segments":[],"categories_sizes":[],"default_left":[0,0,0,0,0,0,0,0,0,0,0,0,0,0,0,0,0,0,0,0,0,0,0,0,0,0,0,0,0,0,0,0,0,0,0,0,0,0,0,0,0,0,0,0,0,0,0,0,0,0,0,0,0,0,0,0,0,0,0,0,0,0,0,0,0,0,0,0,0,0,0,0,0,0,0,0,0,0,0,0,0,0,0,0,0,0,0,0,0,0,0,0,0,0,0,0,0,0,0,0,0,0,0,0,0,0,0,0,0,0,0,0,0,0,0,0,0,0,0,0,0,0,0,0,0,0,0],"id":4,"left_children":[1,3,5,7,9,11,13,15,17,19,21,23,25,27,29,31,33,35,37,39,41,43,45,47,49,51,53,55,57,59,61,63,65,67,69,71,73,75,77,79,81,83,85,87,89,91,93,95,97,99,101,103,105,107,109,111,113,115,117,119,121,123,125,-1,-1,-1,-1,-1,-1,-1,-1,-1,-1,-1,-1,-1,-1,-1,-1,-1,-1,-1,-1,-1,-1,-1,-1,-1,-1,-1,-1,-1,-1,-1,-1,-1,-1,-1,-1,-1,-1,-1,-1,-1,-1,-1,-1,-1,-1,-1,-1,-1,-1,-1,-1,-1,-1,-1,-1,-1,-1,-1,-1,-1,-1,-1,-1],"loss_changes":[1.6427448E6,6.67635E4,9.035167E4,8.406E3,1.50985E4,6.466424E3,2.1179484E4,8.8695E3,1.2214492E3,1.1404E4,3.1477031E3,5.4155273E2,4.370462E3,1.6256818E3,2.449118E4,5.398125E3,6.9678594E3,8.9533984E2,2.155957E2,1.2455586E3,1.4380219E4,5.679199E2,5.5462344E3,1.947461E1,7.637217E2,7.11137E3,5.619082E2,2.305133E2,1.49379E3,2.88269E3,5.698578E3,3.809375E3,4.742875E3,2.0365078E3,1.1710312E3,4.2384375E2,6.2547266E2,7.547266E1,1.4127734E2,1.456643E2,1.3288867E2,1.8274297E3,4.3264688E3,6.3988525E1,4.415625E2,5.851992E2,4.4015312E3,1.3358398E1,2.4323242E1,1.5389805E3,7.1635254E1,1.9082443E3,3.7885547E2,1.7037549E2,1.1971484E2,1.9659845E2,3.1648132E1,1.0998784E3,1.0067293E3,3.498186E2,1.976446E3,1.0488992E4,7.3629375E3,0E0,0E0,0E0,0E0,0E0,0E0,0E0,0E0,0E0,0E0,0E0,0E0,0E0,0E0,0E0,0E0,0E0,0E0,0E0,0E0,0E0,0E0,0E0,0E0,0E0,0E0,0E0,0E0,0E0,0E0,0E0,0E0,0E0,0E0,0E0,0E0,0E0,0E0,0E0,0E0,0E0,0E0,0E0,0E0,0E0,0E0,0E0,0E0,0E0,0E0,0E0,0E0,0E0,0E0,0E0,0E0,0E0,0E0,0E0,0E0,0E0,0E0,0E0,0E0],"parents":[2147483647,0,0,1,1,2,2,3,3,4,4,5,5,6,6,7,7,8,8,9,9,10,10,11,11,12,12,13,13,14,14,15,15,16,16,17,17,18,18,19,19,20,20,21,21,22,22,23,23,24,24,25,25,26,26,27,27,28,28,29,29,30,30,31,31,32,32,33,33,34,34,35,35,36,36,37,37,38,38,39,39,40,40,41,41,42,42,43,43,44,44,45,45,46,46,47,47,48,48,49,49,50,50,51,51,52,52,53,53,54,54,55,55,56,56,57,57,58,58,59,59,60,60,61,61,62,62],"right_children":[2,4,6,8,10,12,14,16,18,20,22,24,26,28,30,32,34,36,38,40,42,44,46,48,50,52,54,56,58,60,62,64,66,68,70,72,74,76,78,80,82,84,86,88,90,92,94,96,98,100,102,104,106,108,110,112,114,116,118,120,122,124,126,-1,-1,-1,-1,-1,-1,-1,-1,-1,-1,-1,-1,-1,-1,-1,-1,-1,-1,-1,-1,-1,-1,-1,-1,-1,-1,-1,-1,-1,-1,-1,-1,-1,-1,-1,-1,-1,-1,-1,-1,-1,-1,-1,-1,-1,-1,-1,-1,-1,-1,-1,-1,-1,-1,-1,-1,-1,-1,-1,-1,-1,-1,-1,-1],"split_conditions":[-3.0522344E-3,-9.0659596E-2,3.679551E-2,2.4025954E-2,-3.4861255E-2,1.1278772E-2,-1.1783476E-2,-5.178082E-2,-2.1414667E-1,-1.4229825E-1,-7.408348E-2,2.7936099E-3,8.033755E-2,6.62171E-2,-1.1777207E-2,-8.8473655E-2,-2.1409905E-1,-1.8380085E-1,-1.1946932E-1,-2.3432167E-1,-1.04390636E-1,-1.5182039E-1,-5.178082E-2,-5.178082E-2,5.132538E-2,6.62171E-2,1.4740579E-1,6.001704E-2,9.757643E-2,-1.7989746E-1,1.8574768E-1,-1.4228442E-1,-1.837875E-1,-1.4857745E-1,-1.4229825E-1,-3.4563252E-1,-3.4563252E-1,-1.6898175E-1,-1.5508546E-1,-3.127379E-1,-1.5849508E-1,-1.5848045E-1,-9.065646E-2,-2.5401808E-2,1.3362478E-3,1.3198438E-3,-1.6320989E-2,-1.593465E-3,1.3338049E-3,-1.9189542E-2,-1.09230265E-1,0E0,0E0,-5.3550594E-2,2.6900858E-2,3.1208089E-2,-7.408348E-2,1.9763541E-1,2.2684897E-1,2.0192316E-1,8.888071E-2,2.268368E-1,1.1917493E-1,-1.05494745E-1,-9.36949E-2,-7.784511E-2,-9.958932E-2,-7.605942E-2,-5.503183E-2,-8.9437045E-2,-1.0694709E-1,-7.233576E-2,-1.02339126E-1,-4.3733027E-2,-6.425868E-2,-1.2954678E-1,-9.9039964E-2,-7.5593255E-2,-9.404381E-2,-2.3265768E-2,-3.6328178E-2,-5.0858352E-2,-5.9155796E-2,-4.7259867E-2,-6.5596536E-2,-7.222887E-2,-9.219336E-2,-3.6279246E-2,-2.7780121E-2,-6.1081026E-2,-4.221635E-2,-5.8522034E-2,-4.1847814E-2,-7.703355E-2,-5.4047752E-2,-3.2169856E-2,-3.7029233E-2,-3.431171E-2,-3.07964E-2,-3.4197696E-2,-1.28329145E-2,-4.3325394E-2,-3.4670524E-2,-1.0448299E-2,6.305487E-3,-2.8644955E-2,-1.5544159E-2,-3.0880047E-2,-2.1340972E-2,-4.6093304E-2,-3.409196E-2,2.889573E-2,4.61274E-3,-1.7807858E-2,3.5637762E-2,-9.482535E-3,-2.6544098E-2,1.2537948E-2,-6.067556E-3,-3.822925E-2,-8.929585E-3,-9.925254E-3,6.0950606E-3,2.0523861E-2,-2.3028824E-2,8.217458E-3,3.233117E-2],"split_indices":[0,0,0,2,0,0,1,1,1,2,2,0,1,2,2,2,2,0,0,2,1,2,1,1,2,2,1,0,0,2,0,1,1,0,2,1,1,0,1,2,2,1,2,0,1,2,0,0,0,2,1,2,1,2,0,2,2,2,2,0,0,1,2,0,0,0,0,0,0,0,0,0,0,0,0,0,0,0,0,0,0,0,0,0,0,0,0,0,0,0,0,0,0,0,0,0,0,0,0,0,0,0,0,0,0,0,0,0,0,0,0,0,0,0,0,0,0,0,0,0,0,0,0,0,0,0,0],"split_type":[0,0,0,0,0,0,0,0,0,0,0,0,0,0,0,0,0,0,0,0,0,0,0,0,0,0,0,0,0,0,0,0,0,0,0,0,0,0,0,0,0,0,0,0,0,0,0,0,0,0,0,0,0,0,0,0,0,0,0,0,0,0,0,0,0,0,0,0,0,0,0,0,0,0,0,0,0,0,0,0,0,0,0,0,0,0,0,0,0,0,0,0,0,0,0,0,0,0,0,0,0,0,0,0,0,0,0,0,0,0,0,0,0,0,0,0,0,0,0,0,0,0,0,0,0,0,0],"sum_hessian":[7.168075E7,3.3362012E7,3.8318744E7,1.9157516E7,1.4204495E7,8.115098E6,3.0203644E7,1.7956304E7,1.201212E6,8.382272E6,5.822223E6,3.075805E6,5.039293E6,3.162415E6,2.704123E7,1.4725238E7,3.231067E6,9.71598E5,2.29614E5,1.173515E6,7.208757E6,1.197574E6,4.624649E6,1.413709E6,1.662096E6,4.048684E6,9.90609E5,1.9735E5,2.965065E6,3.101491E6,2.393974E7,1.1106905E7,3.618333E6,1.816663E6,1.414404E6,3.63934E5,6.07664E5,7.1982E4,1.57632E5,3.32014E5,8.41501E5,1.969708E6,5.239049E6,3.49059E5,8.48515E5,1.623159E6,3.00149E6,3.47035E5,1.066674E6,1.227342E6,4.34754E5,2.735401E6,1.313283E6,6.84602E5,3.06007E5,1.34707E5,6.2643E4,1.723383E6,1.241682E6,2.95099E5,2.806392E6,1.5143538E7,8.796201E6,7.4219E6,3.685005E6,1.888984E6,1.729349E6,1.17665E6,6.40013E5,8.25066E5,5.89338E5,3.14964E5,4.897E4,1.98399E5,4.09265E5,8.256E3,6.3726E4,9.6739E4,6.0893E4,1.20765E5,2.11249E5,5.96286E5,2.45215E5,9.04646E5,1.065062E6,1.299039E6,3.94001E6,1.23272E5,2.25787E5,1.32305E5,7.1621E5,2.18983E5,1.404176E6,1.543105E6,1.458385E6,6.2072E4,2.84963E5,8.42207E5,2.24467E5,5.4916E5,6.78182E5,1.18251E5,3.16503E5,9.23933E5,1.811468E6,1.06928E6,2.44003E5,2.99874E5,3.84728E5,1.75714E5,1.30293E5,4.5118E4,8.9589E4,1.013E3,6.163E4,1.25725E6,4.66133E5,3.74986E5,8.66696E5,2.52183E5,4.2916E4,1.557782E6,1.24861E6,1.4628335E7,5.15203E5,1.345425E6,7.450776E6],"tree_param":{"num_deleted":"0","num_feature":"13","num_nodes":"127","size_leaf_vector":"0"}},{"base_weights":[-7.775633E-2,-1.9311032E-1,1.9726194E-2,-2.1459317E-1,-1.4985384E-1,-2.4134392E-2,4.9244467E-2,-2.1961398E-1,-1.5828055E-1,-1.6263014E-1,-1.1287162E-1,-5.6552142E-2,1.5831497E-4,1.4356831E-2,5.780192E-2,-2.2479269E-1,-1.5807354E-1,-9.618394E-2,-1.6942184E-1,-1.8674646E-1,-1.1974881E-1,-1.2111214E-1,-7.676835E-2,-7.687817E-2,-4.2195354E-2,1.0240521E-2,-7.107262E-2,5.0400905E-2,-1.0324105E-2,2.2116764E-2,6.978197E-2,-2.275625E-1,-1.7283031E-1,-8.948422E-2,-1.6649659E-1,-1.8546382E-1,-8.8844635E-2,-1.1986312E-1,-1.847084E-1,-1.4483109E-1,-1.9908881E-1,-1.1302206E-1,-1.6891281E-1,-1.1512807E-1,-1.458687E-1,-8.2539156E-2,-7.6221614E-3,-8.0141716E-2,-6.919775E-2,-2.9171012E-2,-7.476995E-2,3.0521797E-2,-4.3490358E-2,-5.777355E-2,-1.1806404E-1,1.2208341E-2,6.07243E-2,-4.0120047E-2,6.443062E-3,4.67633E-2,-3.7684336E-2,4.0504006E-3,7.152268E-2,-6.917004E-2,-5.227629E-2,-4.389362E-2,-5.838586E-2,-5.9216235E-2,-2.3821644E-2,-3.756228E-2,-5.4857943E-2,-3.280881E-2,-6.555207E-2,-1.2221414E-2,-3.0527309E-2,-2.5963617E-2,-3.9258193E-2,-4.5390885E-2,-5.877003E-2,-5.4534752E-2,-3.6485206E-2,-4.1179955E-2,-6.429501E-2,-3.714876E-2,-2.7906815E-2,-6.2220182E-2,-4.4938616E-2,-3.9864723E-2,-3.0807123E-2,-4.616287E-2,-2.5159312E-2,-2.782177E-2,-1.701572E-2,5.327475E-3,-1.6590811E-2,-2.4660446E-2,-2.1981131E-2,-1.8564312E-2,-3.215963E-2,-3.6995267E-4,-1.9086963E-2,-2.4188308E-2,-1.4990409E-2,1.393514E-2,-1.8040882E-3,-6.807583E-3,-1.9969255E-2,-1.6143488E-2,-4.3627232E-2,-3.1332113E-2,-5.6568686E-2,1.1805633E-2,-9.754381E-4,2.5306009E-2,1.4390964E-2,-7.854258E-3,-2.002547E-2,-1.0380097E-2,5.086196E-3,2.5352323E-2,7.999088E-3,-2.7338324E-2,-1.6744541E-3,8.892226E-3,-5.940664E-3,9.4555697E-4,2.1978632E-2],"categories":[],"categories_nodes":[],"categories_segments":[],"categories_sizes":[],"default_left":[0,0,0,0,0,0,0,0,0,0,0,0,0,0,0,0,0,0,0,0,0,0,0,0,0,0,0,0,0,0,0,0,0,0,0,0,0,0,0,0,0,0,0,0,0,0,0,0,0,0,0,0,0,0,0,0,0,0,0,0,0,0,0,0,0,0,0,0,0,0,0,0,0,0,0,0,0,0,0,0,0,0,0,0,0,0,0,0,0,0,0,0,0,0,0,0,0,0,0,0,0,0,0,0,0,0,0,0,0,0,0,0,0,0,0,0,0,0,0,0,0,0,0,0,0,0,0],"id":5,"left_children":[1,3,5,7,9,11,13,15,17,19,21,23,25,27,29,31,33,35,37,39,41,43,45,47,49,51,53,55,57,59,61,63,65,67,69,71,73,75,77,79,81,83,85,87,89,91,93,95,97,99,101,103,105,107,109,111,113,115,117,119,121,123,125,-1,-1,-1,-1,-1,-1,-1,-1,-1,-1,-1,-1,-1,-1,-1,-1,-1,-1,-1,-1,-1,-1,-1,-1,-1,-1,-1,-1,-1,-1,-1,-1,-1,-1,-1,-1,-1,-1,-1,-1,-1,-1,-1,-1,-1,-1,-1,-1,-1,-1,-1,-1,-1,-1,-1,-1,-1,-1,-1,-1,-1,-1,-1,-1],"loss_changes":[8.0604994E5,3.0508875E4,5.029843E4,6.202125E3,5.1475938E3,1.2307445E4,6.932801E3,6.418875E3,1.2423398E3,8.3735625E3,8.3222656E2,1.9535762E3,6.415834E3,4.0690408E3,7.972047E3,2.67375E3,9.0316016E2,1.7898389E2,1.1534453E3,2.6810781E3,9.6389453E2,3.3738672E2,2.0743042E2,6.9456055E1,1.664542E3,8.528174E3,6.9224414E2,7.329795E2,1.3563751E3,6.9078984E3,1.5973828E3,2.8245E3,5.4319727E2,1.859364E2,9.4066406E2,5.2154358E1,1.5680542E2,1.3150488E2,4.3501172E2,1.01121875E3,3.7690625E3,5.5412695E2,2.580752E2,4.050078E2,2.2010742E2,1.2635718E2,4.8460293E1,2.7517578E1,2.297644E2,2.697705E3,1.6280371E2,3.3063691E3,1.0291487E3,2.9980884E2,2.3465552E2,1.6599854E2,4.410498E2,3.629209E2,7.494846E2,2.5179321E3,2.346857E3,2.1984964E2,1.6174609E3,0E0,0E0,0E0,0E0,0E0,0E0,0E0,0E0,0E0,0E0,0E0,0E0,0E0,0E0,0E0,0E0,0E0,0E0,0E0,0E0,0E0,0E0,0E0,0E0,0E0,0E0,0E0,0E0,0E0,0E0,0E0,0E0,0E0,0E0,0E0,0E0,0E0,0E0,0E0,0E0,0E0,0E0,0E0,0E0,0E0,0E0,0E0,0E0,0E0,0E0,0E0,0E0,0E0,0E0,0E0,0E0,0E0,0E0,0E0,0E0,0E0,0E0,0E0,0E0],"parents":[2147483647,0,0,1,1,2,2,3,3,4,4,5,5,6,6,7,7,8,8,9,9,10,10,11,11,12,12,13,13,14,14,15,15,16,16,17,17,18,18,19,19,20,20,21,21,22,22,23,23,24,24,25,25,26,26,27,27,28,28,29,29,30,30,31,31,32,32,33,33,34,34,35,35,36,36,37,37,38,38,39,39,40,40,41,41,42,42,43,43,44,44,45,45,46,46,47,47,48,48,49,49,50,50,51,51,52,52,53,53,54,54,55,55,56,56,57,57,58,58,59,59,60,60,61,61,62,62],"right_children":[2,4,6,8,10,12,14,16,18,20,22,24,26,28,30,32,34,36,38,40,42,44,46,48,50,52,54,56,58,60,62,64,66,68,70,72,74,76,78,80,82,84,86,88,90,92,94,96,98,100,102,104,106,108,110,112,114,116,118,120,122,124,126,-1,-1,-1,-1,-1,-1,-1,-1,-1,-1,-1,-1,-1,-1,-1,-1,-1,-1,-1,-1,-1,-1,-1,-1,-1,-1,-1,-1,-1,-1,-1,-1,-1,-1,-1,-1,-1,-1,-1,-1,-1,-1,-1,-1,-1,-1,-1,-1,-1,-1,-1,-1,-1,-1,-1,-1,-1,-1,-1,-1,-1,-1,-1,-1],"split_conditions":[-5.821894E-3,-7.0228465E-2,7.395324E-2,-5.8944307E-2,1.9802954E-2,2.6900858E-2,5.2638005E-2,-5.7135377E-2,-2.5811887E-1,1.558533E-2,1.2326663E-1,7.023689E-3,1.2777336E-1,1.6166571E-1,5.713765E-2,-6.0780145E-2,-2.86291E-1,-1.9613728E-1,-2.0046432E-1,-7.214289E-2,-3.3289213E-2,-4.166678E-2,-8.42108E-2,2.7936099E-3,5.562808E-2,9.218151E-2,2.215366E-1,6.1540224E-2,9.9315226E-2,2.5859907E-1,5.2626036E-2,-6.266203E-2,-1.5178896E-1,-2.0942272E-1,-2.0046432E-1,-6.378765E-1,-4.6879455E-1,-3.9305535E-1,-1.5182039E-1,-1.9191284E-2,-7.606975E-2,8.540747E-2,-2.3843748E-2,-3.8322117E-2,7.3958516E-2,2.110179E-1,-1.4792198E-2,4.3910064E-2,7.561073E-2,4.5384474E-2,-3.04281E-3,7.3958516E-2,1.348655E-1,5.262706E-2,-6.452904E-2,9.936054E-2,1.01341136E-1,2.8308308E-1,9.396274E-2,1.3011783E-1,1.6477717E-1,1.5288259E-1,5.2642886E-2,-6.917004E-2,-5.227629E-2,-4.389362E-2,-5.838586E-2,-5.9216235E-2,-2.3821644E-2,-3.756228E-2,-5.4857943E-2,-3.280881E-2,-6.555207E-2,-1.2221414E-2,-3.0527309E-2,-2.5963617E-2,-3.9258193E-2,-4.5390885E-2,-5.877003E-2,-5.4534752E-2,-3.6485206E-2,-4.1179955E-2,-6.429501E-2,-3.714876E-2,-2.7906815E-2,-6.2220182E-2,-4.4938616E-2,-3.9864723E-2,-3.0807123E-2,-4.616287E-2,-2.5159312E-2,-2.782177E-2,-1.701572E-2,5.327475E-3,-1.6590811E-2,-2.4660446E-2,-2.1981131E-2,-1.8564312E-2,-3.215963E-2,-3.6995267E-4,-1.9086963E-2,-2.4188308E-2,-1.4990409E-2,1.393514E-2,-1.8040882E-3,-6.807583E-3,-1.9969255E-2,-1.6143488E-2,-4.3627232E-2,-3.1332113E-2,-5.6568686E-2,1.1805633E-2,-9.754381E-4,2.5306009E-2,1.4390964E-2,-7.854258E-3,-2.002547E-2,-1.0380097E-2,5.086196E-3,2.5352323E-2,7.999088E-3,-2.7338324E-2,-1.6744541E-3,8.892226E-3,-5.940664E-3,9.4555697E-4,2.1978632E-2],"split_indices":[0,0,0,6,1,0,1,5,2,2,1,0,1,2,2,9,2,1,1,2,1,2,2,0,2,2,1,10,10,1,5,10,1,1,1,5,2,1,2,1,1,2,0,0,1,1,0,2,1,1,1,1,2,2,2,2,2,2,9,1,0,6,6,0,0,0,0,0,0,0,0,0,0,0,0,0,0,0,0,0,0,0,0,0,0,0,0,0,0,0,0,0,0,0,0,0,0,0,0,0,0,0,0,0,0,0,0,0,0,0,0,0,0,0,0,0,0,0,0,0,0,0,0,0,0,0,0],"split_type":[0,0,0,0,0,0,0,0,0,0,0,0,0,0,0,0,0,0,0,0,0,0,0,0,0,0,0,0,0,0,0,0,0,0,0,0,0,0,0,0,0,0,0,0,0,0,0,0,0,0,0,0,0,0,0,0,0,0,0,0,0,0,0,0,0,0,0,0,0,0,0,0,0,0,0,0,0,0,0,0,0,0,0,0,0,0,0,0,0,0,0,0,0,0,0,0,0,0,0,0,0,0,0,0,0,0,0,0,0,0,0,0,0,0,0,0,0,0,0,0,0,0,0,0,0,0,0],"sum_hessian":[7.168075E7,3.283093E7,3.8849824E7,2.1936436E7,1.0894495E7,1.5628203E7,2.3221622E7,2.0140698E7,1.795737E6,8.097156E6,2.797339E6,6.694556E6,8.933647E6,4.574003E6,1.864762E7,1.8577384E7,1.563314E6,2.73177E5,1.52256E6,5.18252E6,2.914636E6,2.2775E6,5.19839E5,2.771178E6,3.923378E6,7.825944E6,1.107703E6,1.859047E6,2.714956E6,4.686845E6,1.3960774E7,1.763724E7,9.40144E5,1.70985E5,1.392329E6,2.0749E4,2.52428E5,3.58929E5,1.163631E6,1.178903E6,4.003617E6,2.563847E6,3.50789E5,1.834159E6,4.43341E5,4.79796E5,4.0043E4,1.944791E6,8.26387E5,2.802752E6,1.120626E6,5.68143E6,2.144514E6,8.63364E5,2.44339E5,3.95575E5,1.463472E6,9.77643E5,1.737313E6,3.318962E6,1.367883E6,3.60173E5,1.3600601E7,1.6696281E7,9.40959E5,4.24058E5,5.16086E5,1.4605E4,1.5638E5,3.95182E5,9.97147E5,6.283E3,1.4466E4,5.342E4,1.99008E5,8.9076E4,2.69853E5,2.92018E5,8.71613E5,4.54858E5,7.24045E5,7.91261E5,3.212356E6,1.664428E6,8.99419E5,1.16413E5,2.34376E5,7.55582E5,1.078577E6,3.92633E5,5.0708E4,3.43927E5,1.35869E5,2.6133E4,1.391E4,1.496256E6,4.48535E5,6.92966E5,1.33421E5,1.547699E6,1.255053E6,9.06521E5,2.14105E5,3.956486E6,1.724944E6,1.12787E6,1.016644E6,8.26028E5,3.7336E4,2.0477E5,3.9569E4,1.43544E5,2.52031E5,5.13026E5,9.50446E5,6.41748E5,3.35895E5,3.54204E5,1.383109E6,1.153272E6,2.16569E6,5.13323E5,8.5456E5,1.73757E5,1.86416E5,3.37429E5,1.3263172E7],"tree_param":{"num_deleted":"0","num_feature":"13","num_nodes":"127","size_leaf_vector":"0"}},{"base_weights":[-5.442944E-2,-1.3590045E-1,1.3348056E-2,-1.5694512E-1,-1.1389879E-1,-3.7122972E-2,2.7128166E-2,-1.6057825E-1,-1.1884457E-1,-6.371589E-2,-1.2096806E-1,-4.9947873E-2,-2.2633126E-2,6.3421074E-3,3.803794E-2,-1.6496392E-1,-1.17104836E-1,-6.127759E-2,-1.3651107E-1,-3.175923E-2,-7.375218E-2,-7.161568E-2,-1.3014305E-1,-6.273571E-2,-4.6668176E-2,-1.2484708E-2,-5.58994E-2,1.5016408E-2,-5.573812E-2,1.3312232E-2,4.5333084E-2,-1.702259E-1,-1.4550589E-1,-8.337945E-2,-1.3315345E-1,-1.5374944E-1,-5.1305678E-2,-8.708056E-2,-1.481719E-1,5.945197E-3,-4.4080794E-2,-4.6083752E-2,-8.0620624E-2,-5.1537123E-2,-8.312453E-2,-1.5335783E-1,-9.9043E-2,-4.3939527E-2,-6.9316335E-2,-5.5742342E-2,-3.815157E-2,1.0403934E-2,-4.4833053E-2,-9.255109E-2,-4.9075734E-2,2.915104E-2,-3.493812E-2,-3.3072386E-2,-7.891999E-2,4.52621E-2,-1.9891057E-2,1.9565035E-2,5.7676602E-2,-5.5052254E-2,-4.3262713E-2,-3.353226E-2,-6.18538E-2,-4.8267305E-2,-2.2285905E-2,-1.8306524E-2,-4.465034E-2,-2.9817177E-2,-5.377509E-2,-6.4179827E-3,-2.0823378E-2,-3.485106E-2,-2.043985E-2,-3.4946356E-2,-4.8323367E-2,3.0147502E-2,-9.962863E-4,-2.3309058E-3,-1.565069E-2,-4.355374E-3,-1.6908344E-2,-3.333107E-2,-2.0685155E-2,1.0083743E-3,-1.671689E-2,-2.744222E-2,-2.1599626E-2,-4.752473E-2,-3.3005264E-2,-2.2989996E-2,-3.231953E-2,-9.740397E-3,-1.477897E-2,-1.902007E-2,-2.2003446E-2,-1.2922824E-2,-1.7139828E-2,-1.8780502E-2,-7.2670574E-3,-3.3865042E-3,7.6549705E-3,-1.5259712E-2,-2.6216998E-3,-3.255406E-2,-2.5203569E-2,-9.500512E-3,-1.7141962E-2,-5.5506937E-3,1.0164005E-2,-5.980209E-3,-1.5543142E-2,-8.574424E-3,-3.493473E-2,-2.1739656E-2,-5.5367038E-2,1.9205919E-2,7.937637E-3,-2.6717286E-3,-1.9218773E-2,1.2287428E-2,-1.2647689E-2,9.929095E-3,1.8413527E-2],"categories":[],"categories_nodes":[],"categories_segments":[],"categories_sizes":[],"default_left":[0,0,0,0,0,0,0,0,0,0,0,0,0,0,0,0,0,0,0,0,0,0,0,0,0,0,0,0,0,0,0,0,0,0,0,0,0,0,0,0,0,0,0,0,0,0,0,0,0,0,0,0,0,0,0,0,0,0,0,0,0,0,0,0,0,0,0,0,0,0,0,0,0,0,0,0,0,0,0,0,0,0,0,0,0,0,0,0,0,0,0,0,0,0,0,0,0,0,0,0,0,0,0,0,0,0,0,0,0,0,0,0,0,0,0,0,0,0,0,0,0,0,0,0,0,0,0],"id":6,"left_children":[1,3,5,7,9,11,13,15,17,19,21,23,25,27,29,31,33,35,37,39,41,43,45,47,49,51,53,55,57,59,61,63,65,67,69,71,73,75,77,79,81,83,85,87,89,91,93,95,97,99,101,103,105,107,109,111,113,115,117,119,121,123,125,-1,-1,-1,-1,-1,-1,-1,-1,-1,-1,-1,-1,-1,-1,-1,-1,-1,-1,-1,-1,-1,-1,-1,-1,-1,-1,-1,-1,-1,-1,-1,-1,-1,-1,-1,-1,-1,-1,-1,-1,-1,-1,-1,-1,-1,-1,-1,-1,-1,-1,-1,-1,-1,-1,-1,-1,-1,-1,-1,-1,-1,-1,-1,-1],"loss_changes":[3.95814E5,1.5072125E4,2.721388E4,2.3030625E3,5.6456562E3,1.559498E3,6.9701973E3,2.8959688E3,1.4730352E3,6.302324E2,6.3162656E3,1.8670605E2,1.3302299E3,5.6971616E3,3.635879E3,1.4126875E3,7.533594E2,3.1362476E2,6.3880664E2,2.1818488E2,2.8417773E2,5.053086E2,8.49225E3,1.12393555E2,2.73812E2,2.235447E3,2.3035059E2,6.554344E3,6.815029E2,4.871673E3,4.95066E3,3.7527812E3,6.010879E3,3.1631055E2,1.0667539E3,4.587506E1,1.662721E2,1.1659363E2,3.6666992E2,1.0134111E2,1.0395636E2,9.647772E1,4.2616406E2,1.8308691E2,1.2911719E2,1.4763906E3,9.7889453E2,1.4389313E1,1.6036377E1,3.020752E1,6.224075E2,5.796422E2,2.7241162E2,1.9695679E1,1.0899866E2,1.6305E3,5.182678E2,2.4556317E2,4.3718628E2,8.2543896E2,1.0927366E3,6.6565947E3,9.5754297E2,0E0,0E0,0E0,0E0,0E0,0E0,0E0,0E0,0E0,0E0,0E0,0E0,0E0,0E0,0E0,0E0,0E0,0E0,0E0,0E0,0E0,0E0,0E0,0E0,0E0,0E0,0E0,0E0,0E0,0E0,0E0,0E0,0E0,0E0,0E0,0E0,0E0,0E0,0E0,0E0,0E0,0E0,0E0,0E0,0E0,0E0,0E0,0E0,0E0,0E0,0E0,0E0,0E0,0E0,0E0,0E0,0E0,0E0,0E0,0E0,0E0,0E0,0E0,0E0],"parents":[2147483647,0,0,1,1,2,2,3,3,4,4,5,5,6,6,7,7,8,8,9,9,10,10,11,11,12,12,13,13,14,14,15,15,16,16,17,17,18,18,19,19,20,20,21,21,22,22,23,23,24,24,25,25,26,26,27,27,28,28,29,29,30,30,31,31,32,32,33,33,34,34,35,35,36,36,37,37,38,38,39,39,40,40,41,41,42,42,43,43,44,44,45,45,46,46,47,47,48,48,49,49,50,50,51,51,52,52,53,53,54,54,55,55,56,56,57,57,58,58,59,59,60,60,61,61,62,62],"right_children":[2,4,6,8,10,12,14,16,18,20,22,24,26,28,30,32,34,36,38,40,42,44,46,48,50,52,54,56,58,60,62,64,66,68,70,72,74,76,78,80,82,84,86,88,90,92,94,96,98,100,102,104,106,108,110,112,114,116,118,120,122,124,126,-1,-1,-1,-1,-1,-1,-1,-1,-1,-1,-1,-1,-1,-1,-1,-1,-1,-1,-1,-1,-1,-1,-1,-1,-1,-1,-1,-1,-1,-1,-1,-1,-1,-1,-1,-1,-1,-1,-1,-1,-1,-1,-1,-1,-1,-1,-1,-1,-1,-1,-1,-1,-1,-1,-1,-1,-1,-1,-1,-1,-1,-1,-1,-1],"split_conditions":[-7.2848303E-3,-1.1173343E-1,3.4081325E-2,-9.511157E-2,-1.4855428E-1,1.4150613E-2,9.217354E-2,-9.73467E-2,-2.788099E-1,-2.514451E-1,-1.392214E-1,-5.5334426E-2,7.076574E-2,1.3972768E-1,7.561073E-2,-9.9657744E-2,-2.455397E-1,-1.9613728E-1,-2.455397E-1,7.076574E-2,-1.1783476E-2,-2.0942272E-1,-3.9990373E-2,-1.593465E-3,2.7936099E-3,5.4130655E-2,-1.3924852E-1,1.147622E-1,1.8197624E-1,1.9763541E-1,8.886217E-2,-1.3046934E-1,-1.961485E-1,-1.7247672E-1,-2.5811887E-1,-5.564151E-1,-4.129934E-1,-2.049092E-1,-1.9194491E-1,-1.3290274E-2,-3.9293647E-1,-1.8778384E-1,-8.4209025E-2,1.3198438E-3,-6.4525634E-2,-2.2276703E-2,-5.3550594E-2,-1.2762065E-1,2.7936099E-3,-3.4872577E-2,-2.3837596E-2,5.6634876E-3,7.0490586E-3,-2.1409905E-1,2.1329153E-2,1.413375E-2,1.5864187E-1,6.62171E-2,2.6889069E-2,1.3727678E-1,4.700764E-2,2.8316617E-1,1.0301454E-1,-5.5052254E-2,-4.3262713E-2,-3.353226E-2,-6.18538E-2,-4.8267305E-2,-2.2285905E-2,-1.8306524E-2,-4.465034E-2,-2.9817177E-2,-5.377509E-2,-6.4179827E-3,-2.0823378E-2,-3.485106E-2,-2.043985E-2,-3.4946356E-2,-4.8323367E-2,3.0147502E-2,-9.962863E-4,-2.3309058E-3,-1.565069E-2,-4.355374E-3,-1.6908344E-2,-3.333107E-2,-2.0685155E-2,1.0083743E-3,-1.671689E-2,-2.744222E-2,-2.1599626E-2,-4.752473E-2,-3.3005264E-2,-2.2989996E-2,-3.231953E-2,-9.740397E-3,-1.477897E-2,-1.902007E-2,-2.2003446E-2,-1.2922824E-2,-1.7139828E-2,-1.8780502E-2,-7.2670574E-3,-3.3865042E-3,7.6549705E-3,-1.5259712E-2,-2.6216998E-3,-3.255406E-2,-2.5203569E-2,-9.500512E-3,-1.7141962E-2,-5.5506937E-3,1.0164005E-2,-5.980209E-3,-1.5543142E-2,-8.574424E-3,-3.493473E-2,-2.1739656E-2,-5.5367038E-2,1.9205919E-2,7.937637E-3,-2.6717286E-3,-1.9218773E-2,1.2287428E-2,-1.2647689E-2,9.929095E-3,1.8413527E-2],"split_indices":[0,0,0,10,2,0,0,9,2,2,1,1,1,1,1,1,1,1,1,1,1,1,0,0,0,2,2,2,1,2,2,2,2,2,2,9,2,0,2,1,2,2,0,2,0,5,2,1,0,1,2,2,1,2,0,10,2,2,2,2,1,1,1,0,0,0,0,0,0,0,0,0,0,0,0,0,0,0,0,0,0,0,0,0,0,0,0,0,0,0,0,0,0,0,0,0,0,0,0,0,0,0,0,0,0,0,0,0,0,0,0,0,0,0,0,0,0,0,0,0,0,0,0,0,0,0,0],"split_type":[0,0,0,0,0,0,0,0,0,0,0,0,0,0,0,0,0,0,0,0,0,0,0,0,0,0,0,0,0,0,0,0,0,0,0,0,0,0,0,0,0,0,0,0,0,0,0,0,0,0,0,0,0,0,0,0,0,0,0,0,0,0,0,0,0,0,0,0,0,0,0,0,0,0,0,0,0,0,0,0,0,0,0,0,0,0,0,0,0,0,0,0,0,0,0,0,0,0,0,0,0,0,0,0,0,0,0,0,0,0,0,0,0,0,0,0,0,0,0,0,0,0,0,0,0,0,0],"sum_hessian":[7.168075E7,3.2552032E7,3.912872E7,1.6637849E7,1.5914184E7,8.392039E6,3.0736684E7,1.5189439E7,1.44841E6,1.965021E6,1.3949163E7,4.451783E6,3.940256E6,1.0579635E7,2.0157048E7,1.379752E7,1.391919E6,3.4012E5,1.10829E6,4.6964E5,1.495381E6,2.186728E6,1.1762435E7,9.08692E5,3.543091E6,3.019201E6,9.21055E5,9.282603E6,1.297032E6,4.592274E6,1.5564774E7,1.0860526E7,2.936994E6,4.48798E5,9.43121E5,3.3106E4,3.07014E5,2.11547E5,8.96743E5,1.15674E5,3.53966E5,2.97392E5,1.197989E6,7.96735E5,1.389993E6,6.735031E6,5.027404E6,2.35641E5,6.73051E5,1.715392E6,1.827699E6,1.76813E6,1.251071E6,1.44562E5,7.76493E5,7.235359E6,2.047244E6,6.55818E5,6.41214E5,2.34031E6,2.251964E6,5.041097E6,1.0523677E7,7.190019E6,3.670507E6,1.887585E6,1.049409E6,4.712E4,4.01678E5,1.68417E5,7.74704E5,1.0573E4,2.2533E4,1.15763E5,1.91251E5,8.344E4,1.28107E5,2.59553E5,6.3719E5,1.0324E4,1.0535E5,6.4482E4,2.89484E5,7.3045E4,2.24347E5,3.31662E5,8.66327E5,5.6445E4,7.4029E5,7.94066E5,5.95927E5,6.031175E6,7.03856E5,1.404636E6,3.622768E6,7.4695E4,1.60946E5,2.72655E5,4.00396E5,1.69681E5,1.545711E6,6.633E5,1.164399E6,7.2602E5,1.04211E6,1.071914E6,1.79157E5,5.0378E4,9.4184E4,2.45835E5,5.30658E5,6.53194E5,6.582165E6,1.083617E6,9.63627E5,6.223E5,3.3518E4,6.04293E5,3.6921E4,1.171577E6,1.168733E6,1.803453E6,4.48511E5,3.743596E6,1.297501E6,1.377468E6,9.146209E6],"tree_param":{"num_deleted":"0","num_feature":"13","num_nodes":"127","size_leaf_vector":"0"}},{"base_weights":[-3.8100626E-2,-9.6112326E-2,8.722499E-3,-1.0907912E-1,-7.995913E-2,-1.6874874E-2,2.3055082E-2,-1.1213289E-1,-8.042022E-2,-4.7418345E-2,-8.673005E-2,-3.3137087E-2,-5.565872E-3,-2.3040053E-2,2.645133E-2,-1.1527665E-1,-7.884441E-2,-3.0539436E-2,-8.7661274E-2,-2.7043415E-2,-5.633288E-2,-5.654277E-2,-9.873931E-2,-4.1427772E-2,-2.8617704E-2,4.163905E-3,-3.2543693E-2,-1.1098167E-2,-5.3561896E-2,-2.0703621E-2,2.9906565E-2,-8.331139E-2,-1.1795158E-1,-2.4022961E-2,-8.493864E-2,-4.7207054E-2,-7.4124117E-3,-5.0169855E-2,-9.9621385E-2,-9.516319E-3,-3.862382E-2,-5.9996862E-2,-3.5022855E-2,-6.5992855E-2,-3.9627958E-2,-1.2563299E-1,-8.22354E-2,-3.0734103E-2,-4.7616743E-2,-3.9873835E-2,-1.759826E-2,2.5581006E-2,-2.6232688E-2,-4.8089925E-2,-2.5940482E-2,-1.0782146E-3,-3.1964466E-2,-7.1903974E-2,-2.4577172E-2,-2.0888837E-3,-3.4673315E-2,-1.4380976E-2,3.1549513E-2,-4.6633147E-2,-1.8737048E-4,-2.2152636E-2,-3.655761E-2,-1.3893472E-2,7.9105276E-4,-1.5420795E-2,-2.9489817E-2,-6.0934373E-3,-2.371055E-2,2.6970373E-2,-4.3191803E-3,-3.372095E-2,-1.3758818E-2,-2.2917593E-2,-3.2549094E-2,8.019637E-3,-5.0314413E-3,-4.1581322E-3,-1.3526722E-2,-1.3568561E-2,-2.0582259E-2,-4.894967E-3,-1.1788872E-2,-1.5104501E-2,-2.4038343E-2,-3.9058786E-2,-1.1245685E-2,-3.9267913E-2,-2.3545444E-2,-2.8175201E-2,-1.7941559E-2,-8.2436325E-3,-1.4863686E-2,-8.860132E-3,-1.5802624E-2,-1.01072E-2,-1.4323867E-2,-1.2083479E-2,1.6696871E-3,-2.7082968E-3,1.1323558E-2,-1.0382796E-2,1.260511E-3,-1.1261771E-2,-2.0609932E-2,-1.4630653E-2,-6.3911546E-3,-5.7704505E-3,2.751757E-3,-1.2403718E-2,-2.023616E-3,-1.9440763E-2,-4.1351356E-2,2.770846E-3,-1.3318835E-2,3.1195073E-3,-7.0030824E-3,-3.287575E-2,-9.562936E-3,1.807567E-3,-8.9940075E-3,-4.1323076E-3,9.966036E-3],"categories":[],"categories_nodes":[],"categories_segments":[],"categories_sizes":[],"default_left":[0,0,0,0,0,0,0,0,0,0,0,0,0,0,0,0,0,0,0,0,0,0,0,0,0,0,0,0,0,0,0,0,0,0,0,0,0,0,0,0,0,0,0,0,0,0,0,0,0,0,0,0,0,0,0,0,0,0,0,0,0,0,0,0,0,0,0,0,0,0,0,0,0,0,0,0,0,0,0,0,0,0,0,0,0,0,0,0,0,0,0,0,0,0,0,0,0,0,0,0,0,0,0,0,0,0,0,0,0,0,0,0,0,0,0,0,0,0,0,0,0,0,0,0,0,0,0],"id":7,"left_children":[1,3,5,7,9,11,13,15,17,19,21,23,25,27,29,31,33,35,37,39,41,43,45,47,49,51,53,55,57,59,61,63,65,67,69,71,73,75,77,79,81,83,85,87,89,91,93,95,97,99,101,103,105,107,109,111,113,115,117,119,121,123,125,-1,-1,-1,-1,-1,-1,-1,-1,-1,-1,-1,-1,-1,-1,-1,-1,-1,-1,-1,-1,-1,-1,-1,-1,-1,-1,-1,-1,-1,-1,-1,-1,-1,-1,-1,-1,-1,-1,-1,-1,-1,-1,-1,-1,-1,-1,-1,-1,-1,-1,-1,-1,-1,-1,-1,-1,-1,-1,-1,-1,-1,-1,-1,-1],"loss_changes":[1.9470561E5,6.7057812E3,1.4552327E4,1.5542188E3,3.1410469E3,2.6184368E3,3.9807422E3,1.6795469E3,6.1767773E2,4.459834E2,4.278047E3,2.1881299E2,2.2043054E3,6.36008E2,3.8586875E3,1.2538438E3,4.6268164E2,8.356467E1,6.696133E2,1.5168622E2,1.3336426E2,5.368408E2,3.747039E3,1.3635596E2,4.6880737E2,4.0178958E3,2.2850024E2,2.6223062E2,2.6088464E2,4.2045343E2,1.6055703E3,6.753974E3,2.3320781E3,8.2328514E1,5.584375E2,1.0784781E2,6.1720028E1,9.68067E1,2.3341504E2,7.819387E1,7.204608E1,1.8533887E2,2.0032013E1,4.7647363E2,2.335664E2,7.961992E2,1.3708281E3,4.6250793E1,1.1937671E2,9.100952E1,1.0033705E3,1.5242686E3,6.50374E2,1.4429395E2,1.6536633E2,1.5770436E2,9.626352E1,1.407091E2,1.2745246E2,1.839815E2,1.9352576E2,2.5125084E2,1.611041E3,0E0,0E0,0E0,0E0,0E0,0E0,0E0,0E0,0E0,0E0,0E0,0E0,0E0,0E0,0E0,0E0,0E0,0E0,0E0,0E0,0E0,0E0,0E0,0E0,0E0,0E0,0E0,0E0,0E0,0E0,0E0,0E0,0E0,0E0,0E0,0E0,0E0,0E0,0E0,0E0,0E0,0E0,0E0,0E0,0E0,0E0,0E0,0E0,0E0,0E0,0E0,0E0,0E0,0E0,0E0,0E0,0E0,0E0,0E0,0E0,0E0,0E0,0E0,0E0],"parents":[2147483647,0,0,1,1,2,2,3,3,4,4,5,5,6,6,7,7,8,8,9,9,10,10,11,11,12,12,13,13,14,14,15,15,16,16,17,17,18,18,19,19,20,20,21,21,22,22,23,23,24,24,25,25,26,26,27,27,28,28,29,29,30,30,31,31,32,32,33,33,34,34,35,35,36,36,37,37,38,38,39,39,40,40,41,41,42,42,43,43,44,44,45,45,46,46,47,47,48,48,49,49,50,50,51,51,52,52,53,53,54,54,55,55,56,56,57,57,58,58,59,59,60,60,61,61,62,62],"right_children":[2,4,6,8,10,12,14,16,18,20,22,24,26,28,30,32,34,36,38,40,42,44,46,48,50,52,54,56,58,60,62,64,66,68,70,72,74,76,78,80,82,84,86,88,90,92,94,96,98,100,102,104,106,108,110,112,114,116,118,120,122,124,126,-1,-1,-1,-1,-1,-1,-1,-1,-1,-1,-1,-1,-1,-1,-1,-1,-1,-1,-1,-1,-1,-1,-1,-1,-1,-1,-1,-1,-1,-1,-1,-1,-1,-1,-1,-1,-1,-1,-1,-1,-1,-1,-1,-1,-1,-1,-1,-1,-1,-1,-1,-1,-1,-1,-1,-1,-1,-1,-1,-1,-1,-1,-1,-1],"split_conditions":[-1.0118757E-2,-1.0198934E-1,6.1745957E-2,-9.284916E-2,-1.22127056E-1,1.8462095E-2,4.391978E-2,-8.847436E-2,-3.127379E-1,-2.048961E-1,-9.7347975E-2,-1.765711E-2,7.874607E-2,1.8956442E-1,4.3903686E-2,-5.050885E-1,-3.337346E-1,-1.8380085E-1,-2.2391066E-1,9.2185035E-2,-3.0149003E-2,-5.177803E-2,-5.177803E-2,0E0,4.245174E-3,6.7714944E-2,1.7001553E-2,1.2327499E-1,1.5573972E-1,1.2132089E-1,4.2625614E-2,-3.2293746E-1,-4.363937E-1,-1.9194491E-1,-2.3434824E-1,-1.1783476E-2,-1.1783476E-2,-1.689492E-1,-1.8380085E-1,-3.027391E-1,-3.457189E-1,0E0,3.6804713E-2,-1.5178896E-1,-4.335471E-2,-2.5416803E-2,4.2417976E-3,-2.8582575E-2,2.2769356E-2,-1.9189542E-2,-1.0118966E-2,2.7793893E-3,1.271788E-2,-3.666958E-2,1.7020883E-2,1.272544E-2,1.5009312E-1,2.6889069E-2,3.1226444E-1,1.0324143E-1,-2.8631595E-1,1.2550244E-1,4.2632204E-2,-4.6633147E-2,-1.8737048E-4,-2.2152636E-2,-3.655761E-2,-1.3893472E-2,7.9105276E-4,-1.5420795E-2,-2.9489817E-2,-6.0934373E-3,-2.371055E-2,2.6970373E-2,-4.3191803E-3,-3.372095E-2,-1.3758818E-2,-2.2917593E-2,-3.2549094E-2,8.019637E-3,-5.0314413E-3,-4.1581322E-3,-1.3526722E-2,-1.3568561E-2,-2.0582259E-2,-4.894967E-3,-1.1788872E-2,-1.5104501E-2,-2.4038343E-2,-3.9058786E-2,-1.1245685E-2,-3.9267913E-2,-2.3545444E-2,-2.8175201E-2,-1.7941559E-2,-8.2436325E-3,-1.4863686E-2,-8.860132E-3,-1.5802624E-2,-1.01072E-2,-1.4323867E-2,-1.2083479E-2,1.6696871E-3,-2.7082968E-3,1.1323558E-2,-1.0382796E-2,1.260511E-3,-1.1261771E-2,-2.0609932E-2,-1.4630653E-2,-6.3911546E-3,-5.7704505E-3,2.751757E-3,-1.2403718E-2,-2.023616E-3,-1.9440763E-2,-4.1351356E-2,2.770846E-3,-1.3318835E-2,3.1195073E-3,-7.0030824E-3,-3.287575E-2,-9.562936E-3,1.807567E-3,-8.9940075E-3,-4.1323076E-3,9.966036E-3],"split_indices":[0,0,0,6,2,0,9,5,2,2,1,1,2,1,10,2,2,0,1,1,0,0,0,0,0,1,10,2,0,9,6,1,1,0,1,1,1,2,2,2,2,1,1,1,2,10,1,1,2,2,2,1,2,1,6,9,0,2,1,2,1,5,5,0,0,0,0,0,0,0,0,0,0,0,0,0,0,0,0,0,0,0,0,0,0,0,0,0,0,0,0,0,0,0,0,0,0,0,0,0,0,0,0,0,0,0,0,0,0,0,0,0,0,0,0,0,0,0,0,0,0,0,0,0,0,0,0],"split_type":[0,0,0,0,0,0,0,0,0,0,0,0,0,0,0,0,0,0,0,0,0,0,0,0,0,0,0,0,0,0,0,0,0,0,0,0,0,0,0,0,0,0,0,0,0,0,0,0,0,0,0,0,0,0,0,0,0,0,0,0,0,0,0,0,0,0,0,0,0,0,0,0,0,0,0,0,0,0,0,0,0,0,0,0,0,0,0,0,0,0,0,0,0,0,0,0,0,0,0,0,0,0,0,0,0,0,0,0,0,0,0,0,0,0,0,0,0,0,0,0,0,0,0,0,0,0,0],"sum_hessian":[7.168075E7,3.2015286E7,3.9665468E7,1.7759244E7,1.4256042E7,1.4237647E7,2.5427822E7,1.6049117E7,1.710127E6,2.455416E6,1.1800626E7,5.839916E6,8.397731E6,1.744934E6,2.3682888E7,1.4664227E7,1.38489E6,2.16785E5,1.493342E6,7.47331E5,1.708085E6,3.358495E6,8.442131E6,2.060314E6,3.779602E6,6.171815E6,2.225916E6,1.254215E6,4.90719E5,1.616866E6,2.2066022E7,1.13238E6,1.3531847E7,1.3855E5,1.24634E6,1.25986E5,9.0799E4,3.61174E5,1.132168E6,2.97326E5,4.50005E5,1.457487E6,2.50598E5,2.154693E6,1.203802E6,3.210502E6,5.231629E6,7.55288E5,1.305026E6,1.86972E6,1.909882E6,3.620706E6,2.551109E6,6.6359E5,1.562326E6,8.4733E5,4.06885E5,3.00534E5,1.90185E5,6.93188E5,9.23678E5,7.89308E5,2.1276714E7,6.04788E5,5.27592E5,1.10109E6,1.2430757E7,7.5461E4,6.3089E4,3.5508E5,8.9126E5,6.8285E4,5.7701E4,6.08E3,8.4719E4,2.3377E4,3.37797E5,3.12996E5,8.19172E5,4.9585E4,2.47741E5,9.3165E4,3.5684E5,5.36806E5,9.20681E5,4.6603E4,2.03995E5,1.022736E6,1.131957E6,2.7816E4,1.175986E6,2.888272E6,3.2223E5,3.440021E6,1.791608E6,6.43869E5,1.11419E5,2.85275E5,1.019751E6,1.047216E6,8.22504E5,9.6502E5,9.44862E5,9.41635E5,2.679071E6,2.0005E6,5.50609E5,4.38906E5,2.24684E5,2.6375E5,1.298576E6,3.05757E5,5.41573E5,2.96565E5,1.1032E5,2.71314E5,2.922E4,7.028E4,1.19905E5,4.36653E5,2.56535E5,3.3243E4,8.90435E5,3.41963E5,4.47345E5,7.56367E5,2.0520348E7],"tree_param":{"num_deleted":"0","num_feature":"13","num_nodes":"127","size_leaf_vector":"0"}},{"base_weights":[-2.6670443E-2,-6.805763E-2,5.6296447E-3,-7.119129E-2,-3.5022005E-2,-2.0682866E-2,1.3466691E-2,-7.441629E-2,-3.7336312E-2,-2.5956484E-2,-4.6082582E-2,-2.8897937E-2,-1.5109202E-2,-2.4650324E-2,1.5952436E-2,-7.678927E-2,-4.9689867E-2,-4.7026675E-2,-2.5610957E-2,-4.6206433E-2,-1.7607864E-2,-5.8697015E-2,-1.932372E-2,-2.7361818E-2,-3.9963428E-2,-7.949486E-3,-2.9495632E-2,-1.4192822E-2,-3.7605334E-2,-2.0973962E-2,1.8697254E-2,-8.022557E-2,-5.4847345E-2,-7.8530855E-2,-4.5089453E-2,-3.536191E-2,-5.7005435E-2,-4.3645773E-2,-2.1737361E-2,-4.751759E-3,-5.501726E-2,-6.579142E-3,-2.6308931E-2,-4.0938035E-2,-8.00299E-2,-3.0721227E-2,-7.7262213E-3,-3.2106396E-2,-2.3635466E-2,-1.1093397E-2,-4.9263965E-2,-2.2591818E-2,2.7356504E-3,-3.305042E-2,-9.441709E-3,-2.4870442E-2,-4.542519E-3,-8.947925E-2,-3.471835E-2,-6.231373E-3,-3.2082286E-2,-1.3512246E-2,2.0102812E-2,-1.4366204E-2,-2.43558E-2,-1.5207592E-2,-3.0484056E-2,-1.7421583E-2,-4.0515393E-2,4.7131695E-4,-1.4995785E-2,-1.3846596E-2,-9.189091E-3,-9.330526E-3,-2.4037903E-2,-4.901591E-3,-1.9270228E-2,3.0849618E-3,-7.1138237E-3,-3.2690964E-3,2.4706291E-2,-2.7027057E-2,-1.3782584E-2,-1.0159357E-2,1.3895236E-3,3.8923535E-3,-8.730766E-3,-1.2898221E-2,-5.457222E-3,-2.6840087E-2,-1.3197378E-2,-2.6316447E-3,-1.053712E-2,-1.2309464E-2,-1.4674492E-3,-7.3091015E-3,-1.0940834E-2,-5.748594E-3,-9.516896E-3,-5.9858058E-3,-9.1705535E-4,-1.2236134E-2,-1.7132975E-2,-5.225138E-4,-7.882127E-3,-9.814451E-3,3.259038E-3,-5.5269618E-3,-1.0866327E-2,-1.1996846E-3,-2.6011676E-2,-8.27227E-3,9.72563E-3,1.3261857E-3,-6.4095957E-3,-2.059742E-2,-3.6421817E-2,-1.2736005E-2,-3.3091414E-3,1.448807E-3,-7.798513E-3,-1.1145184E-2,-3.0351495E-3,-2.9714464E-4,-7.910265E-3,-2.6430637E-3,6.4500044E-3],"categories":[],"categories_nodes":[],"categories_segments":[],"categories_sizes":[],"default_left":[0,0,0,0,0,0,0,0,0,0,0,0,0,0,0,0,0,0,0,0,0,0,0,0,0,0,0,0,0,0,0,0,0,0,0,0,0,0,0,0,0,0,0,0,0,0,0,0,0,0,0,0,0,0,0,0,0,0,0,0,0,0,0,0,0,0,0,0,0,0,0,0,0,0,0,0,0,0,0,0,0,0,0,0,0,0,0,0,0,0,0,0,0,0,0,0,0,0,0,0,0,0,0,0,0,0,0,0,0,0,0,0,0,0,0,0,0,0,0,0,0,0,0,0,0,0,0],"id":8,"left_children":[1,3,5,7,9,11,13,15,17,19,21,23,25,27,29,31,33,35,37,39,41,43,45,47,49,51,53,55,57,59,61,63,65,67,69,71,73,75,77,79,81,83,85,87,89,91,93,95,97,99,101,103,105,107,109,111,113,115,117,119,121,123,125,-1,-1,-1,-1,-1,-1,-1,-1,-1,-1,-1,-1,-1,-1,-1,-1,-1,-1,-1,-1,-1,-1,-1,-1,-1,-1,-1,-1,-1,-1,-1,-1,-1,-1,-1,-1,-1,-1,-1,-1,-1,-1,-1,-1,-1,-1,-1,-1,-1,-1,-1,-1,-1,-1,-1,-1,-1,-1,-1,-1,-1,-1,-1,-1],"loss_changes":[9.582353E4,3.2527344E3,8.302151E3,3.1333438E3,2.7295776E2,4.2305322E2,2.9391978E3,1.5374219E3,2.8360327E2,2.5291956E2,4.138982E2,6.3481445E1,5.669945E2,2.5728784E2,2.951665E3,1.802625E3,3.0442188E2,1.5906982E2,7.889984E1,1.5951605E2,1.016535E2,3.1570947E2,5.192769E1,5.798047E1,1.22239075E2,5.750483E2,1.3039734E2,1.0828288E2,1.2703308E2,3.2997186E2,1.2271865E3,6.419844E2,6.2908594E2,3.649757E2,4.521018E2,3.217639E1,4.4111377E2,1.12266235E2,5.880838E1,4.0979225E1,1.1464014E2,1.4290497E2,6.498425E1,2.126831E1,1.2875E2,1.9145477E1,1.83834E1,4.873413E1,6.645532E1,7.8977985E0,2.2898743E1,1.1903827E2,6.1224963E2,7.205957E1,1.1582297E2,7.727573E1,8.3231186E1,2.9719452E1,1.4723077E2,1.892691E2,1.2792322E2,1.824486E2,1.0492549E3,0E0,0E0,0E0,0E0,0E0,0E0,0E0,0E0,0E0,0E0,0E0,0E0,0E0,0E0,0E0,0E0,0E0,0E0,0E0,0E0,0E0,0E0,0E0,0E0,0E0,0E0,0E0,0E0,0E0,0E0,0E0,0E0,0E0,0E0,0E0,0E0,0E0,0E0,0E0,0E0,0E0,0E0,0E0,0E0,0E0,0E0,0E0,0E0,0E0,0E0,0E0,0E0,0E0,0E0,0E0,0E0,0E0,0E0,0E0,0E0,0E0,0E0,0E0,0E0],"parents":[2147483647,0,0,1,1,2,2,3,3,4,4,5,5,6,6,7,7,8,8,9,9,10,10,11,11,12,12,13,13,14,14,15,15,16,16,17,17,18,18,19,19,20,20,21,21,22,22,23,23,24,24,25,25,26,26,27,27,28,28,29,29,30,30,31,31,32,32,33,33,34,34,35,35,36,36,37,37,38,38,39,39,40,40,41,41,42,42,43,43,44,44,45,45,46,46,47,47,48,48,49,49,50,50,51,51,52,52,53,53,54,54,55,55,56,56,57,57,58,58,59,59,60,60,61,61,62,62],"right_children":[2,4,6,8,10,12,14,16,18,20,22,24,26,28,30,32,34,36,38,40,42,44,46,48,50,52,54,56,58,60,62,64,66,68,70,72,74,76,78,80,82,84,86,88,90,92,94,96,98,100,102,104,106,108,110,112,114,116,118,120,122,124,126,-1,-1,-1,-1,-1,-1,-1,-1,-1,-1,-1,-1,-1,-1,-1,-1,-1,-1,-1,-1,-1,-1,-1,-1,-1,-1,-1,-1,-1,-1,-1,-1,-1,-1,-1,-1,-1,-1,-1,-1,-1,-1,-1,-1,-1,-1,-1,-1,-1,-1,-1,-1,-1,-1,-1,-1,-1,-1,-1,-1,-1,-1,-1,-1],"split_conditions":[-1.328654E-2,-1.0348231E-2,3.2637987E-2,-1.1788979E-2,-4.3358713E-2,1.3187914E-3,1.8453343E-2,2.277546E-2,1.8448444E-2,-8.4209025E-2,2.5470434E-2,6.62022E-2,4.8401926E-2,1.08854E-1,2.2759957E-2,2.7909377E-3,-1.7614104E-1,-5.5335958E-2,-1.3334581E-1,-4.1296044E-1,4.1066863E-2,-4.166678E-2,5.858654E-2,1.3334949E-3,1.3338049E-3,-1.3290274E-2,4.2380416E-3,0E0,-2.514558E-1,8.537493E-2,2.2596529E-2,-6.377276E-1,-4.655988E-2,-3.596974E-1,-3.229336E-1,-6.64196E-2,-5.0028536E-2,-3.5998392E-1,-3.028029E-1,-1.4228442E-1,-1.9194491E-1,-1.6315147E-2,-3.4563252E-1,1.5011878E-1,2.1326002E-2,-2.2278596E-2,-1.6544695E-1,-2.3837596E-2,4.3910064E-2,-6.265996E-2,-3.8316794E-2,1.8452628E-2,1.3338049E-3,0E0,1.2550524E-1,1.2548774E-1,7.076389E-2,4.6824983E-1,1.5009312E-1,6.30873E-2,1.5573972E-1,1.0306992E-1,2.5450356E-2,-1.4366204E-2,-2.43558E-2,-1.5207592E-2,-3.0484056E-2,-1.7421583E-2,-4.0515393E-2,4.7131695E-4,-1.4995785E-2,-1.3846596E-2,-9.189091E-3,-9.330526E-3,-2.4037903E-2,-4.901591E-3,-1.9270228E-2,3.0849618E-3,-7.1138237E-3,-3.2690964E-3,2.4706291E-2,-2.7027057E-2,-1.3782584E-2,-1.0159357E-2,1.3895236E-3,3.8923535E-3,-8.730766E-3,-1.2898221E-2,-5.457222E-3,-2.6840087E-2,-1.3197378E-2,-2.6316447E-3,-1.053712E-2,-1.2309464E-2,-1.4674492E-3,-7.3091015E-3,-1.0940834E-2,-5.748594E-3,-9.516896E-3,-5.9858058E-3,-9.1705535E-4,-1.2236134E-2,-1.7132975E-2,-5.225138E-4,-7.882127E-3,-9.814451E-3,3.259038E-3,-5.5269618E-3,-1.0866327E-2,-1.1996846E-3,-2.6011676E-2,-8.27227E-3,9.72563E-3,1.3261857E-3,-6.4095957E-3,-2.059742E-2,-3.6421817E-2,-1.2736005E-2,-3.3091414E-3,1.448807E-3,-7.798513E-3,-1.1145184E-2,-3.0351495E-3,-2.9714464E-4,-7.910265E-3,-2.6430637E-3,6.4500044E-3],"split_indices":[0,9,0,10,1,10,5,1,10,0,9,9,1,6,6,2,0,2,0,10,2,2,9,9,0,1,2,5,5,5,9,2,1,2,2,0,1,9,9,1,0,2,1,1,2,1,0,2,2,1,1,2,0,0,1,0,2,6,0,2,0,10,10,0,0,0,0,0,0,0,0,0,0,0,0,0,0,0,0,0,0,0,0,0,0,0,0,0,0,0,0,0,0,0,0,0,0,0,0,0,0,0,0,0,0,0,0,0,0,0,0,0,0,0,0,0,0,0,0,0,0,0,0,0,0,0,0],"split_type":[0,0,0,0,0,0,0,0,0,0,0,0,0,0,0,0,0,0,0,0,0,0,0,0,0,0,0,0,0,0,0,0,0,0,0,0,0,0,0,0,0,0,0,0,0,0,0,0,0,0,0,0,0,0,0,0,0,0,0,0,0,0,0,0,0,0,0,0,0,0,0,0,0,0,0,0,0,0,0,0,0,0,0,0,0,0,0,0,0,0,0,0,0,0,0,0,0,0,0,0,0,0,0,0,0,0,0,0,0,0,0,0,0,0,0,0,0,0,0,0,0,0,0,0,0,0,0],"sum_hessian":[7.168075E7,3.1420552E7,4.0260204E7,2.8698312E7,2.722239E6,9.239389E6,3.1020816E7,2.62023E7,2.496012E6,1.496046E6,1.226193E6,3.734732E6,5.504657E6,1.899128E6,2.9121688E7,2.3907872E7,2.294428E6,1.366594E6,1.129418E6,4.36731E5,1.059315E6,8.33344E5,3.92849E5,3.279476E6,4.55256E5,3.675478E6,1.829179E6,1.050859E6,8.48269E5,2.014905E6,2.7106782E7,2.0670656E7,3.237217E6,3.15634E5,1.978794E6,6.30071E5,7.36523E5,1.99689E5,9.29729E5,7.6553E4,3.60178E5,4.67171E5,5.92144E5,4.54767E5,3.78577E5,1.98132E5,1.94717E5,1.442634E6,1.836842E6,1.10927E5,3.44329E5,1.550608E6,2.12487E6,1.553757E6,2.75422E5,4.98875E5,5.51984E5,4.4719E4,8.0355E5,8.6582E5,1.149085E6,1.133424E6,2.5973358E7,5.96197E5,2.0074458E7,2.973051E6,2.64166E5,2.31749E5,8.3885E4,1.87931E5,1.790863E6,1.92026E5,4.38045E5,3.47359E5,3.89164E5,8.5839E4,1.1385E5,5.4023E4,8.75706E5,7.1509E4,5.044E3,7.4038E4,2.8614E5,1.36049E5,3.31122E5,3.9314E4,5.5283E5,4.17069E5,3.7698E4,3.00014E5,7.8563E4,3.3102E4,1.6503E5,1.5272E4,1.79445E5,5.19943E5,9.22691E5,1.18267E6,6.54172E5,5.2762E4,5.8165E4,1.65513E5,1.78816E5,2.32726E5,1.317882E6,3.9631E5,1.72856E6,2.76801E5,1.276956E6,2.57298E5,1.8124E4,4.76392E5,2.2483E4,3.60116E5,1.91868E5,2.7069E4,1.765E4,6.05749E5,1.97801E5,5.55138E5,3.10682E5,9.3365E5,2.15435E5,5.74161E5,5.59263E5,1.197287E6,2.4776072E7],"tree_param":{"num_deleted":"0","num_feature":"13","num_nodes":"127","size_leaf_vector":"0"}},{"base_weights":[-1.866931E-2,-4.5615975E-2,6.3229096E-3,-5.1347047E-2,-2.2969432E-2,-1.680653E-2,1.1141969E-2,-6.384403E-2,-4.7107536E-2,-3.135855E-2,-1.9999806E-2,-2.0453157E-2,-7.4757235E-3,5.8496576E-3,1.9487062E-2,-7.2391815E-2,-2.9852489E-2,2.7766556E-4,-5.123338E-2,-1.912088E-2,-3.6394864E-2,-1.7163409E-2,-2.5005924E-2,-1.7320128E-2,-2.7325086E-2,-3.727707E-3,-1.9038782E-2,1.1223979E-2,-4.414767E-2,-3.9962986E-3,2.5776014E-2,-8.866465E-2,-3.2049302E-2,-1.0815678E-3,-7.639122E-2,2.4619943E-2,-2.0517748E-2,-2.4225947E-3,-5.5997446E-2,-3.7198886E-2,-1.6580293E-2,-5.153061E-2,-2.7614951E-2,-5.5811955E-3,-1.966594E-2,-2.0230735E-2,-3.832453E-2,2.2169447E-2,-1.8172856E-2,-2.5955344E-2,-7.473957E-2,-1.6429866E-2,4.941667E-3,-1.2946878E-2,-2.9369902E-2,1.7437343E-2,-3.6542565E-2,-2.8784275E-2,-8.0534995E-2,3.0318454E-2,-4.3805946E-2,3.146987E-3,3.7378374E-2,-1.9012962E-2,-2.81366E-2,-2.5393455E-3,-2.4417821E-2,6.550883E-3,-2.1296253E-2,-1.6738724E-2,-2.9522311E-2,3.588998E-2,4.1488507E-3,1.1033492E-2,-9.471482E-3,4.691379E-3,-5.2301814E-3,-2.3384746E-2,-1.4644311E-2,1.12825725E-2,-1.1602685E-2,-1.3635738E-2,-4.678488E-3,-1.8242262E-2,-6.975181E-3,-6.5088784E-3,-1.1422214E-2,-9.114645E-3,6.525559E-4,-6.994548E-3,-2.7489967E-3,-6.2131374E-3,1.0025263E-2,-1.4465517E-2,-4.4267504E-3,9.134276E-4,1.2859176E-2,-1.41330995E-2,-5.0120866E-3,-8.473251E-3,4.108321E-3,-2.963665E-2,-1.7734023E-2,2.688749E-3,-6.5567903E-3,-9.568548E-3,3.0175594E-3,-3.464719E-3,-1.6990837E-2,-1.063322E-2,2.2777277E-3,2.5647169E-3,9.739992E-3,-7.0705614E-3,-1.8692067E-2,-6.4073177E-3,-2.1499166E-2,-1.5283107E-2,-3.9566513E-2,1.5084999E-2,4.4729216E-3,8.7203074E-4,-2.4770485E-2,1.1714752E-2,-1.2846074E-2,4.558449E-3,1.2309648E-2],"categories":[],"categories_nodes":[],"categories_segments":[],"categories_sizes":[],"default_left":[0,0,0,0,0,0,0,0,0,0,0,0,0,0,0,0,0,0,0,0,0,0,0,0,0,0,0,0,0,0,0,0,0,0,0,0,0,0,0,0,0,0,0,0,0,0,0,0,0,0,0,0,0,0,0,0,0,0,0,0,0,0,0,0,0,0,0,0,0,0,0,0,0,0,0,0,0,0,0,0,0,0,0,0,0,0,0,0,0,0,0,0,0,0,0,0,0,0,0,0,0,0,0,0,0,0,0,0,0,0,0,0,0,0,0,0,0,0,0,0,0,0,0,0,0,0,0],"id":9,"left_children":[1,3,5,7,9,11,13,15,17,19,21,23,25,27,29,31,33,35,37,39,41,43,45,47,49,51,53,55,57,59,61,63,65,67,69,71,73,75,77,79,81,83,85,87,89,91,93,95,97,99,101,103,105,107,109,111,113,115,117,119,121,123,125,-1,-1,-1,-1,-1,-1,-1,-1,-1,-1,-1,-1,-1,-1,-1,-1,-1,-1,-1,-1,-1,-1,-1,-1,-1,-1,-1,-1,-1,-1,-1,-1,-1,-1,-1,-1,-1,-1,-1,-1,-1,-1,-1,-1,-1,-1,-1,-1,-1,-1,-1,-1,-1,-1,-1,-1,-1,-1,-1,-1,-1,-1,-1,-1],"loss_changes":[4.8273902E4,4.4766484E3,4.145171E3,1.4583438E3,1.7353662E2,2.1818701E2,1.3592466E3,2.0258906E3,4.018254E3,1.1224194E2,7.3051025E1,9.9263794E1,7.8090034E1,5.0604795E3,1.7638989E3,3.6576152E3,1.8759594E3,8.333424E2,4.3966016E3,2.4386032E1,1.714519E2,9.518701E1,1.18336426E2,1.06637024E2,9.376453E1,1.498493E2,2.7759506E1,5.0469736E3,1.0218657E3,3.4464377E3,2.4734048E3,5.144258E2,1.863646E3,1.3871003E3,2.4269922E2,7.775811E2,5.622844E2,4.558175E2,2.7161719E3,7.2288513E0,1.3243431E1,1.242616E2,5.054602E1,1.1224484E2,1.0350134E2,3.5249695E1,1.1450659E2,2.6491882E1,1.3149164E2,1.2734558E2,1.5227875E1,7.6056015E1,1.5244685E2,1.694424E1,3.6733658E1,2.0101514E3,6.5428613E2,4.092871E2,8.2462695E2,4.1683167E2,2.1147837E3,5.26956E3,5.047754E2,0E0,0E0,0E0,0E0,0E0,0E0,0E0,0E0,0E0,0E0,0E0,0E0,0E0,0E0,0E0,0E0,0E0,0E0,0E0,0E0,0E0,0E0,0E0,0E0,0E0,0E0,0E0,0E0,0E0,0E0,0E0,0E0,0E0,0E0,0E0,0E0,0E0,0E0,0E0,0E0,0E0,0E0,0E0,0E0,0E0,0E0,0E0,0E0,0E0,0E0,0E0,0E0,0E0,0E0,0E0,0E0,0E0,0E0,0E0,0E0,0E0,0E0,0E0,0E0],"parents":[2147483647,0,0,1,1,2,2,3,3,4,4,5,5,6,6,7,7,8,8,9,9,10,10,11,11,12,12,13,13,14,14,15,15,16,16,17,17,18,18,19,19,20,20,21,21,22,22,23,23,24,24,25,25,26,26,27,27,28,28,29,29,30,30,31,31,32,32,33,33,34,34,35,35,36,36,37,37,38,38,39,39,40,40,41,41,42,42,43,43,44,44,45,45,46,46,47,47,48,48,49,49,50,50,51,51,52,52,53,53,54,54,55,55,56,56,57,57,58,58,59,59,60,60,61,61,62,62],"right_children":[2,4,6,8,10,12,14,16,18,20,22,24,26,28,30,32,34,36,38,40,42,44,46,48,50,52,54,56,58,60,62,64,66,68,70,72,74,76,78,80,82,84,86,88,90,92,94,96,98,100,102,104,106,108,110,112,114,116,118,120,122,124,126,-1,-1,-1,-1,-1,-1,-1,-1,-1,-1,-1,-1,-1,-1,-1,-1,-1,-1,-1,-1,-1,-1,-1,-1,-1,-1,-1,-1,-1,-1,-1,-1,-1,-1,-1,-1,-1,-1,-1,-1,-1,-1,-1,-1,-1,-1,-1,-1,-1,-1,-1,-1,-1,-1,-1,-1,-1,-1,-1,-1,-1,-1,-1,-1],"split_conditions":[1.330182E-3,-1.329541E-2,1.2715945E-2,-2.3436284E-1,1.3295736E-3,-4.3403455E-3,1.5287785E-1,-1.6894689E-1,-2.4557899E-1,-5.3546537E-2,4.1066863E-2,1.7017761E-2,7.076389E-2,1.7119521E-1,1.147607E-1,-1.8380085E-1,-3.337346E-1,-1.1783476E-2,-2.3985755E-1,-4.6557665E-2,0E0,-3.666958E-2,-2.0727057E-2,-4.6887445E-1,5.3575844E-1,-8.693493E-3,-2.0727057E-2,1.679289E-1,2.6889069E-2,2.738852E-1,1.4220032E-1,-5.557157E-1,-3.1269416E-1,-1.1783476E-2,-2.71627E-1,-3.457189E-1,-4.129934E-1,-2.943282E-1,-1.3626127E-1,-5.5585086E-1,-1.2484957E-1,-4.3448275E-3,-2.6975615E-2,-1.1946932E-1,-1.1784472E-2,2.5128967E-1,1.032529E-1,-2.5811887E-1,-1.4228684E-1,1.9765499E-1,2.5863534E-1,2.277546E-2,0E0,3.6469746E-1,1.30131E-1,8.5419506E-2,2.1331899E-2,3.0162868E-1,2.0637062E-1,1.896039E-1,2.1331899E-2,2.7388057E-1,1.5011878E-1,-1.9012962E-2,-2.81366E-2,-2.5393455E-3,-2.4417821E-2,6.550883E-3,-2.1296253E-2,-1.6738724E-2,-2.9522311E-2,3.588998E-2,4.1488507E-3,1.1033492E-2,-9.471482E-3,4.691379E-3,-5.2301814E-3,-2.3384746E-2,-1.4644311E-2,1.12825725E-2,-1.1602685E-2,-1.3635738E-2,-4.678488E-3,-1.8242262E-2,-6.975181E-3,-6.5088784E-3,-1.1422214E-2,-9.114645E-3,6.525559E-4,-6.994548E-3,-2.7489967E-3,-6.2131374E-3,1.0025263E-2,-1.4465517E-2,-4.4267504E-3,9.134276E-4,1.2859176E-2,-1.41330995E-2,-5.0120866E-3,-8.473251E-3,4.108321E-3,-2.963665E-2,-1.7734023E-2,2.688749E-3,-6.5567903E-3,-9.568548E-3,3.0175594E-3,-3.464719E-3,-1.6990837E-2,-1.063322E-2,2.2777277E-3,2.5647169E-3,9.739992E-3,-7.0705614E-3,-1.8692067E-2,-6.4073177E-3,-2.1499166E-2,-1.5283107E-2,-3.9566513E-2,1.5084999E-2,4.4729216E-3,8.7203074E-4,-2.4770485E-2,1.1714752E-2,-1.2846074E-2,4.558449E-3,1.2309648E-2],"split_indices":[6,5,5,0,5,5,0,1,2,1,2,0,2,1,1,2,2,1,1,2,1,1,1,5,6,2,1,2,2,2,2,2,1,1,2,2,2,1,0,6,0,0,2,0,6,0,0,0,0,0,0,1,0,2,0,0,1,1,1,2,1,1,1,0,0,0,0,0,0,0,0,0,0,0,0,0,0,0,0,0,0,0,0,0,0,0,0,0,0,0,0,0,0,0,0,0,0,0,0,0,0,0,0,0,0,0,0,0,0,0,0,0,0,0,0,0,0,0,0,0,0,0,0,0,0,0,0],"split_type":[0,0,0,0,0,0,0,0,0,0,0,0,0,0,0,0,0,0,0,0,0,0,0,0,0,0,0,0,0,0,0,0,0,0,0,0,0,0,0,0,0,0,0,0,0,0,0,0,0,0,0,0,0,0,0,0,0,0,0,0,0,0,0,0,0,0,0,0,0,0,0,0,0,0,0,0,0,0,0,0,0,0,0,0,0,0,0,0,0,0,0,0,0,0,0,0,0,0,0,0,0,0,0,0,0,0,0,0,0,0,0,0,0,0,0,0,0,0,0,0,0,0,0,0,0,0,0],"sum_hessian":[7.168075E7,3.449171E7,3.7189044E7,2.7525852E7,6.965859E6,6.412373E6,3.0776672E7,6.972553E6,2.05533E7,1.821149E6,5.14471E6,4.610511E6,1.801862E6,1.8833072E7,1.19436E7,5.571499E6,1.401054E6,1.646244E6,1.8907056E7,5.30966E5,1.290183E6,3.284029E6,1.860681E6,3.166743E6,1.443768E6,1.360783E6,4.41079E5,1.7005152E7,1.82792E6,2.522905E6,9.420695E6,3.970093E6,1.601406E6,8.65803E5,5.35251E5,7.58442E5,8.87802E5,1.681282E6,1.7225772E7,6.5423E4,4.65543E5,4.7365E5,8.16533E5,5.83496E5,2.700533E6,1.369625E6,4.91056E5,6.6936E4,3.099807E6,1.403232E6,4.0536E4,5.52002E5,8.08781E5,2.77468E5,1.63611E5,1.5047772E7,1.957379E6,1.285261E6,5.42659E5,1.354965E6,1.16794E6,3.193044E6,6.227651E6,6.68906E5,3.301187E6,1.083516E6,5.1789E5,6.5204E5,2.13763E5,2.76552E5,2.58699E5,7.7349E4,6.81093E5,1.43579E5,7.44223E5,7.63135E5,9.18147E5,4.246952E6,1.2978821E7,1.266E3,6.4157E4,1.5362E4,4.50181E5,3.56653E5,1.16997E5,5.21452E5,2.95081E5,1.3901E5,4.44486E5,2.004168E6,6.96365E5,1.357487E6,1.2138E4,3.45865E5,1.45191E5,3.4788E4,3.2148E4,1.49456E5,2.950351E6,1.32665E6,7.6582E4,1.5963E4,2.4573E4,9.7189E4,4.54813E5,9.8642E4,7.10139E5,2.68867E5,8.601E3,1.40519E5,2.3092E4,9.455699E6,5.592073E6,1.301826E6,6.55553E5,1.095523E6,1.89738E5,3.44278E5,1.98381E5,5.90221E5,7.64744E5,5.29653E5,6.38287E5,1.792799E6,1.400245E6,8.80683E5,5.346968E6],"tree_param":{"num_deleted":"0","num_feature":"13","num_nodes":"127","size_leaf_vector":"0"}},{"base_weights":[-1.3068521E-2,-3.2285146E-2,4.7549885E-3,-3.659504E-2,-1.843739E-2,-1.2624223E-2,8.132585E-3,-4.448626E-2,-3.2791816E-2,-1.3616081E-2,-2.2342058E-2,-8.650411E-3,-1.7877186E-2,-1.1754141E-2,9.38322E-3,-5.0027825E-2,-2.5525125E-2,7.125693E-4,-3.728323E-2,-1.1041774E-2,-1.9722262E-2,-1.2617274E-2,-2.8643804E-2,-1.1954118E-2,5.0877605E-4,-7.972138E-3,-2.2701995E-2,-1.5098835E-2,3.811726E-2,-1.733011E-3,1.1688945E-2,-6.2310454E-2,-2.673341E-2,-7.378837E-3,-6.541292E-2,2.37464E-2,-1.9715779E-2,-1.5984002E-3,-4.2953774E-2,-2.149593E-2,-8.127842E-3,-5.8613278E-2,-1.6854588E-2,-4.247451E-2,-1.1278581E-2,-5.3221114E-2,-2.0288208E-2,-2.5720259E-3,-1.5339977E-2,-2.4270076E-2,7.1469536E-3,-2.1520978E-2,1.2506585E-4,-6.4020224E-2,-2.1446975E-2,-1.0106266E-2,-7.503419E-2,1.1123782E-1,1.4025113E-2,-1.1064613E-2,3.1781323E-2,1.8923622E-2,9.35677E-3,-1.9860081E-2,-1.3061467E-2,4.624859E-3,-1.3835657E-2,6.914267E-3,-1.3378695E-2,-1.6801385E-2,-3.946265E-2,4.655075E-5,1.3507462E-2,6.5055746E-3,-8.625527E-3,2.9396769E-3,-4.1890494E-3,-1.8793128E-2,-1.1084357E-2,-1.0821561E-3,-1.4339664E-2,-1.6459163E-2,-2.1861254E-3,-2.3121584E-2,-1.4388789E-2,-5.3455336E-3,1.4516768E-2,-6.2718913E-3,-2.0552639E-2,-1.3945723E-3,-4.3053613E-3,-1.8795999E-2,2.577994E-3,-3.9920197E-3,-1.07561E-2,-7.489877E-3,1.1664459E-3,-7.2693215E-3,-3.9475616E-3,-3.7488013E-3,-9.969372E-3,6.229334E-3,-1.912919E-3,-7.694413E-3,9.093387E-3,-2.101099E-3,5.386182E-3,-1.5058409E-2,-2.3852391E-2,-7.3251505E-3,-7.804584E-4,-3.759369E-3,1.5919032E-2,-1.8005138E-2,-3.312544E-2,2.8773928E-2,4.9551923E-2,-5.855648E-3,1.7251011E-2,8.727443E-3,-4.9785953E-3,1.4878843E-2,2.0371662E-3,1.0803249E-2,-4.5151254E-3,-1.8108441E-4,4.5452374E-3],"categories":[],"categories_nodes":[],"categories_segments":[],"categories_sizes":[],"default_left":[0,0,0,0,0,0,0,0,0,0,0,0,0,0,0,0,0,0,0,0,0,0,0,0,0,0,0,0,0,0,0,0,0,0,0,0,0,0,0,0,0,0,0,0,0,0,0,0,0,0,0,0,0,0,0,0,0,0,0,0,0,0,0,0,0,0,0,0,0,0,0,0,0,0,0,0,0,0,0,0,0,0,0,0,0,0,0,0,0,0,0,0,0,0,0,0,0,0,0,0,0,0,0,0,0,0,0,0,0,0,0,0,0,0,0,0,0,0,0,0,0,0,0,0,0,0,0],"id":10,"left_children":[1,3,5,7,9,11,13,15,17,19,21,23,25,27,29,31,33,35,37,39,41,43,45,47,49,51,53,55,57,59,61,63,65,67,69,71,73,75,77,79,81,83,85,87,89,91,93,95,97,99,101,103,105,107,109,111,113,115,117,119,121,123,125,-1,-1,-1,-1,-1,-1,-1,-1,-1,-1,-1,-1,-1,-1,-1,-1,-1,-1,-1,-1,-1,-1,-1,-1,-1,-1,-1,-1,-1,-1,-1,-1,-1,-1,-1,-1,-1,-1,-1,-1,-1,-1,-1,-1,-1,-1,-1,-1,-1,-1,-1,-1,-1,-1,-1,-1,-1,-1,-1,-1,-1,-1,-1,-1],"loss_changes":[2.4551209E4,2.058586E3,2.182956E3,7.8947266E2,1.5412671E2,1.26318054E2,7.744092E2,8.9889844E2,2.6711152E3,5.7587646E1,2.7721777E2,1.04247925E2,1.2455121E2,3.07302E2,7.508518E2,1.894125E3,1.4004318E3,9.8731335E2,3.167246E3,7.8504395E1,1.2116916E2,7.10936E1,5.636792E2,8.0429504E1,1.5021822E2,9.365507E1,9.087732E1,5.16621E2,2.0397774E2,1.5738663E3,4.0936548E2,3.1650977E2,1.8674833E3,1.5058491E3,3.763877E2,4.950719E2,4.160036E2,3.0245956E2,1.5971621E3,2.64314E2,7.918947E1,1.4664368E1,6.3632355E1,4.285771E1,3.4679825E1,4.060432E2,2.2260449E2,9.713521E1,3.6084442E1,2.03591E1,1.3264487E2,6.831201E1,6.7913376E1,1.1058411E1,9.520636E1,2.4413638E2,7.053558E1,2.3702606E1,1.27023254E2,8.742468E2,4.879646E2,3.4335342E3,1.0588567E3,0E0,0E0,0E0,0E0,0E0,0E0,0E0,0E0,0E0,0E0,0E0,0E0,0E0,0E0,0E0,0E0,0E0,0E0,0E0,0E0,0E0,0E0,0E0,0E0,0E0,0E0,0E0,0E0,0E0,0E0,0E0,0E0,0E0,0E0,0E0,0E0,0E0,0E0,0E0,0E0,0E0,0E0,0E0,0E0,0E0,0E0,0E0,0E0,0E0,0E0,0E0,0E0,0E0,0E0,0E0,0E0,0E0,0E0,0E0,0E0,0E0,0E0,0E0,0E0],"parents":[2147483647,0,0,1,1,2,2,3,3,4,4,5,5,6,6,7,7,8,8,9,9,10,10,11,11,12,12,13,13,14,14,15,15,16,16,17,17,18,18,19,19,20,20,21,21,22,22,23,23,24,24,25,25,26,26,27,27,28,28,29,29,30,30,31,31,32,32,33,33,34,34,35,35,36,36,37,37,38,38,39,39,40,40,41,41,42,42,43,43,44,44,45,45,46,46,47,47,48,48,49,49,50,50,51,51,52,52,53,53,54,54,55,55,56,56,57,57,58,58,59,59,60,60,61,61,62,62],"right_children":[2,4,6,8,10,12,14,16,18,20,22,24,26,28,30,32,34,36,38,40,42,44,46,48,50,52,54,56,58,60,62,64,66,68,70,72,74,76,78,80,82,84,86,88,90,92,94,96,98,100,102,104,106,108,110,112,114,116,118,120,122,124,126,-1,-1,-1,-1,-1,-1,-1,-1,-1,-1,-1,-1,-1,-1,-1,-1,-1,-1,-1,-1,-1,-1,-1,-1,-1,-1,-1,-1,-1,-1,-1,-1,-1,-1,-1,-1,-1,-1,-1,-1,-1,-1,-1,-1,-1,-1,-1,-1,-1,-1,-1,-1,-1,-1,-1,-1,-1,-1,-1,-1,-1,-1,-1,-1],"split_conditions":[1.3334949E-3,-2.229357E-2,8.407519E-3,-2.049092E-1,-3.329401E-2,4.538976E-2,-4.505163E-2,-1.5849508E-1,-2.048961E-1,0E0,-4.3358713E-2,-7.2566466E-3,0E0,2.4490398E-1,1.0021025E-2,-1.837875E-1,-2.7880913E-1,-1.1783476E-2,-2.0046432E-1,-1.4802293E-2,-2.5811887E-1,-1.16841026E-1,-1.0118757E-2,-3.9983373E-2,0E0,-3.8322117E-2,-3.1269416E-1,3.821079E-1,4.6820614E-1,1.2133231E-1,6.62171E-2,-2.048961E-1,-3.9293647E-1,-5.713465E-2,-5.713465E-2,-1.7614104E-1,-3.596974E-1,2.7909377E-3,-1.2484957E-1,-8.0142684E-2,-2.0048828E-1,-3.596974E-1,2.1613328E-1,-3.1269416E-1,3.26368E-2,2.688312E-2,6.1540224E-2,-1.2762293E-1,1.1287164E-2,-2.3837596E-2,3.9706886E-2,3.3671808E-1,-7.022583E-2,4.6820614E-1,1.2548774E-1,1.783133E-1,4.985393E-1,3.1218734E-1,3.5003364E-1,3.5344493E-2,3.2462838E-1,1.1705907E-1,8.033755E-2,-1.9860081E-2,-1.3061467E-2,4.624859E-3,-1.3835657E-2,6.914267E-3,-1.3378695E-2,-1.6801385E-2,-3.946265E-2,4.655075E-5,1.3507462E-2,6.5055746E-3,-8.625527E-3,2.9396769E-3,-4.1890494E-3,-1.8793128E-2,-1.1084357E-2,-1.0821561E-3,-1.4339664E-2,-1.6459163E-2,-2.1861254E-3,-2.3121584E-2,-1.4388789E-2,-5.3455336E-3,1.4516768E-2,-6.2718913E-3,-2.0552639E-2,-1.3945723E-3,-4.3053613E-3,-1.8795999E-2,2.577994E-3,-3.9920197E-3,-1.07561E-2,-7.489877E-3,1.1664459E-3,-7.2693215E-3,-3.9475616E-3,-3.7488013E-3,-9.969372E-3,6.229334E-3,-1.912919E-3,-7.694413E-3,9.093387E-3,-2.101099E-3,5.386182E-3,-1.5058409E-2,-2.3852391E-2,-7.3251505E-3,-7.804584E-4,-3.759369E-3,1.5919032E-2,-1.8005138E-2,-3.312544E-2,2.8773928E-2,4.9551923E-2,-5.855648E-3,1.7251011E-2,8.727443E-3,-4.9785953E-3,1.4878843E-2,2.0371662E-3,1.0803249E-2,-4.5151254E-3,-1.8108441E-4,4.5452374E-3],"split_indices":[9,10,10,0,2,2,1,2,2,0,1,10,0,0,2,1,1,1,1,1,2,0,0,1,0,0,1,2,2,0,2,2,2,2,2,0,2,2,0,9,0,2,0,1,2,10,10,0,9,2,1,2,1,2,0,0,2,0,0,1,1,1,1,0,0,0,0,0,0,0,0,0,0,0,0,0,0,0,0,0,0,0,0,0,0,0,0,0,0,0,0,0,0,0,0,0,0,0,0,0,0,0,0,0,0,0,0,0,0,0,0,0,0,0,0,0,0,0,0,0,0,0,0,0,0,0,0],"split_type":[0,0,0,0,0,0,0,0,0,0,0,0,0,0,0,0,0,0,0,0,0,0,0,0,0,0,0,0,0,0,0,0,0,0,0,0,0,0,0,0,0,0,0,0,0,0,0,0,0,0,0,0,0,0,0,0,0,0,0,0,0,0,0,0,0,0,0,0,0,0,0,0,0,0,0,0,0,0,0,0,0,0,0,0,0,0,0,0,0,0,0,0,0,0,0,0,0,0,0,0,0,0,0,0,0,0,0,0,0,0,0,0,0,0,0,0,0,0,0,0,0,0,0,0,0,0,0],"sum_hessian":[7.168075E7,3.4492384E7,3.718837E7,2.6305284E7,8.187101E6,6.051378E6,3.1136992E7,8.554904E6,1.775038E7,3.663537E6,4.523564E6,3.445156E6,2.606222E6,1.842283E6,2.9294708E7,6.620113E6,1.934791E6,2.09824E6,1.5652141E7,2.577071E6,1.086466E6,1.778699E6,2.744865E6,2.531902E6,9.13254E5,8.53677E5,1.752545E6,1.726494E6,1.15789E5,5.032466E6,2.4262242E7,4.334582E6,2.285531E6,1.329815E6,6.04976E5,9.86227E5,1.112013E6,2.146182E6,1.3505959E7,5.6174E5,2.015331E6,7.4609E4,1.011857E6,7.6327E4,1.702372E6,6.96414E5,2.048451E6,6.71421E5,1.860481E6,1.92963E5,7.20291E5,3.19337E5,5.3434E5,5.1662E4,1.700883E6,1.593738E6,1.32756E5,2.8695E4,8.7094E4,3.936424E6,1.096042E6,5.914567E6,1.8347676E7,3.590572E6,7.4401E5,7.20013E5,1.565518E6,7.31655E5,5.9816E5,5.29627E5,7.5349E4,4.67697E5,5.1853E5,1.99221E5,9.12792E5,1.116795E6,1.029387E6,3.156752E6,1.0349207E7,3.34349E5,2.27391E5,3.5613E4,1.979718E6,2.7296E4,4.7313E4,9.97127E5,1.473E4,4.1745E4,3.4582E4,5.39107E5,1.163265E6,6.04217E5,9.2197E4,1.414166E6,6.34285E5,1.50323E5,5.21098E5,3.66538E5,1.493943E6,8.3394E4,1.09569E5,3.58896E5,3.61395E5,2.95786E5,2.3551E4,3.81715E5,1.52625E5,2.7298E4,2.4364E4,1.469308E6,2.31575E5,1.53482E6,5.8918E4,9.3203E4,3.9553E4,2.2348E4,6.347E3,4.9164E4,3.793E4,4.76531E5,3.459893E6,6.39891E5,4.56151E5,3.935308E6,1.979259E6,6.747752E6,1.1599923E7],"tree_param":{"num_deleted":"0","num_feature":"13","num_nodes":"127","size_leaf_vector":"0"}},{"base_weights":[-9.1479635E-3,-2.361867E-2,2.7102795E-3,-2.6135439E-2,-1.2095484E-2,-7.6881154E-3,5.9546917E-3,-1.3959669E-3,-2.6776029E-2,-5.058132E-3,-1.6321022E-2,-7.008001E-3,-2.398991E-2,2.3747138E-3,1.0180792E-2,-7.2744176E-2,6.215423E-2,5.129124E-3,-2.7593102E-2,4.8076507E-2,-5.8216704E-3,-9.856504E-3,-2.523558E-2,-9.111653E-3,-2.0776368E-3,1.4288004E-3,-3.3622414E-2,7.1719037E-3,-2.7956033E-2,1.1741189E-2,-1.5031378E-2,-9.028445E-2,-3.2731514E-2,7.7170715E-2,9.389732E-3,-4.818375E-2,3.0921372E-2,-4.4802822E-2,-2.5001157E-2,8.9727625E-2,1.1555721E-3,-1.2745703E-2,7.85833E-4,-5.7488523E-2,-9.559048E-3,-4.48535E-2,-2.109077E-2,-4.5770034E-3,-1.1704482E-2,1.9966E-3,-9.850259E-3,1.171274E-2,-1.3079201E-2,-3.756811E-2,2.7483817E-2,1.342854E-2,-2.2510128E-2,-2.0982327E-2,-6.272559E-2,1.5188785E-2,-1.03987055E-2,-6.457181E-2,4.9621936E-2,-2.9221725E-2,-2.3213457E-2,-4.6902043E-3,-2.172934E-2,1.986887E-2,5.2724548E-2,-1.2151249E-2,1.9604875E-2,-9.1981245E-3,-1.8675594E-2,1.5801704E-2,-2.5145842E-3,-2.0646824E-2,-1.2135282E-2,3.0549066E-3,-8.204496E-3,2.0650825E-2,4.337032E-2,4.19387E-3,-2.6520211E-2,-1.0619441E-2,-2.9404599E-3,2.7632925E-3,-1.1353479E-3,-1.01405755E-2,-3.25248E-2,9.731591E-3,-2.958695E-3,-1.6360637E-2,-1.885552E-3,-4.015447E-3,-9.149754E-3,1.683411E-4,-3.5706998E-3,-2.0839637E-3,-5.1432E-3,3.5791518E-3,-2.4542995E-3,-4.331031E-3,7.4051885E-4,1.0350516E-2,1.8594181E-3,-5.7125445E-3,-2.8633054E-3,-9.214271E-3,-2.0471111E-2,1.6743599E-2,-1.2204751E-2,1.9807005E-3,8.079802E-3,-2.7566527E-3,-1.167604E-2,-4.675942E-3,-1.3040762E-2,-1.2734903E-2,-3.93603E-2,5.744485E-3,-3.0579648E-3,-1.4679324E-2,1.4490197E-2,-4.287395E-3,-2.4583627E-2,6.2711793E-3,2.0420862E-2],"categories":[],"categories_nodes":[],"categories_segments":[],"categories_sizes":[],"default_left":[0,0,0,0,0,0,0,0,0,0,0,0,0,0,0,0,0,0,0,0,0,0,0,0,0,0,0,0,0,0,0,0,0,0,0,0,0,0,0,0,0,0,0,0,0,0,0,0,0,0,0,0,0,0,0,0,0,0,0,0,0,0,0,0,0,0,0,0,0,0,0,0,0,0,0,0,0,0,0,0,0,0,0,0,0,0,0,0,0,0,0,0,0,0,0,0,0,0,0,0,0,0,0,0,0,0,0,0,0,0,0,0,0,0,0,0,0,0,0,0,0,0,0,0,0,0,0],"id":11,"left_children":[1,3,5,7,9,11,13,15,17,19,21,23,25,27,29,31,33,35,37,39,41,43,45,47,49,51,53,55,57,59,61,63,65,67,69,71,73,75,77,79,81,83,85,87,89,91,93,95,97,99,101,103,105,107,109,111,113,115,117,119,121,123,125,-1,-1,-1,-1,-1,-1,-1,-1,-1,-1,-1,-1,-1,-1,-1,-1,-1,-1,-1,-1,-1,-1,-1,-1,-1,-1,-1,-1,-1,-1,-1,-1,-1,-1,-1,-1,-1,-1,-1,-1,-1,-1,-1,-1,-1,-1,-1,-1,-1,-1,-1,-1,-1,-1,-1,-1,-1,-1,-1,-1,-1,-1,-1,-1],"loss_changes":[1.2300215E4,9.362793E2,1.3291106E3,4.1991797E2,1.7209113E2,1.03874146E2,4.5429858E2,3.0323862E3,6.7331055E2,8.808658E1,2.08383E2,9.3280914E1,9.187109E1,2.3653657E3,5.4176953E2,2.2111731E2,2.8026575E2,8.868183E2,1.1233398E3,6.0110542E1,9.792648E1,2.9696884E1,1.2359094E2,7.411963E1,8.5177475E1,1.5385E1,6.560739E1,2.6067139E3,5.382998E2,9.898767E2,2.5707832E3,2.0124268E1,6.517518E1,2.9697485E2,2.1880481E2,5.1836792E1,3.7157724E2,3.4457275E2,1.8074844E3,1.865799E1,1.6613838E1,6.970592E1,4.217361E1,1.5687878E1,2.6530792E1,9.8999146E1,9.0976746E1,8.6315186E1,1.0380115E2,1.784189E2,5.2263657E1,7.58333E0,9.013629E-1,5.3725525E1,3.1873875E1,1.0686521E3,5.341858E2,2.2436945E2,5.1493164E2,1.1277246E3,3.9521853E3,3.9696436E2,1.8446906E2,0E0,0E0,0E0,0E0,0E0,0E0,0E0,0E0,0E0,0E0,0E0,0E0,0E0,0E0,0E0,0E0,0E0,0E0,0E0,0E0,0E0,0E0,0E0,0E0,0E0,0E0,0E0,0E0,0E0,0E0,0E0,0E0,0E0,0E0,0E0,0E0,0E0,0E0,0E0,0E0,0E0,0E0,0E0,0E0,0E0,0E0,0E0,0E0,0E0,0E0,0E0,0E0,0E0,0E0,0E0,0E0,0E0,0E0,0E0,0E0,0E0,0E0,0E0,0E0],"parents":[2147483647,0,0,1,1,2,2,3,3,4,4,5,5,6,6,7,7,8,8,9,9,10,10,11,11,12,12,13,13,14,14,15,15,16,16,17,17,18,18,19,19,20,20,21,21,22,22,23,23,24,24,25,25,26,26,27,27,28,28,29,29,30,30,31,31,32,32,33,33,34,34,35,35,36,36,37,37,38,38,39,39,40,40,41,41,42,42,43,43,44,44,45,45,46,46,47,47,48,48,49,49,50,50,51,51,52,52,53,53,54,54,55,55,56,56,57,57,58,58,59,59,60,60,61,61,62,62],"right_children":[2,4,6,8,10,12,14,16,18,20,22,24,26,28,30,32,34,36,38,40,42,44,46,48,50,52,54,56,58,60,62,64,66,68,70,72,74,76,78,80,82,84,86,88,90,92,94,96,98,100,102,104,106,108,110,112,114,116,118,120,122,124,126,-1,-1,-1,-1,-1,-1,-1,-1,-1,-1,-1,-1,-1,-1,-1,-1,-1,-1,-1,-1,-1,-1,-1,-1,-1,-1,-1,-1,-1,-1,-1,-1,-1,-1,-1,-1,-1,-1,-1,-1,-1,-1,-1,-1,-1,-1,-1,-1,-1,-1,-1,-1,-1,-1,-1,-1,-1,-1,-1,-1,-1,-1,-1,-1],"split_conditions":[-8.697206E-3,-1.6121589E-2,2.275954E-2,-6.377276E-1,-3.9983373E-2,2.4495198E-1,1.3487922E-1,-4.685855E-1,-5.55357E-1,-5.5585086E-1,-2.6975615E-2,2.7896399E-3,1.3338049E-3,1.4477986E-1,5.3594726E-1,-6.371158E-1,1.3362478E-3,-3.457189E-1,-2.9428342E-1,0E0,-1.1428564E-1,-2.3985411E-1,-3.0454677E-3,-3.666958E-2,4.3921623E-2,0E0,1.9357102E-1,1.3970853E-1,5.713765E-2,3.994265E-1,3.498484E-1,-7.910494E-1,-7.73817E-1,-4.364454E-1,-3.457045E-1,-7.910494E-1,0E0,-4.6874827E-1,-2.9432097E-1,-2.2900736E-1,2.1329153E-2,-1.5848753E-1,-6.2652215E-2,-5.050885E-1,-5.557157E-1,-4.3448275E-3,1.7017761E-2,-3.0522344E-3,-1.9189542E-2,4.6827853E-2,1.4148535E-2,-5.557157E-1,-2.3837596E-2,1.3198438E-3,5.360865E-1,8.201553E-2,1.3362478E-3,2.4495198E-1,1.8956442E-1,3.499961E-1,2.738852E-1,1.3362478E-3,4.9862185E-1,-2.9221725E-2,-2.3213457E-2,-4.6902043E-3,-2.172934E-2,1.986887E-2,5.2724548E-2,-1.2151249E-2,1.9604875E-2,-9.1981245E-3,-1.8675594E-2,1.5801704E-2,-2.5145842E-3,-2.0646824E-2,-1.2135282E-2,3.0549066E-3,-8.204496E-3,2.0650825E-2,4.337032E-2,4.19387E-3,-2.6520211E-2,-1.0619441E-2,-2.9404599E-3,2.7632925E-3,-1.1353479E-3,-1.01405755E-2,-3.25248E-2,9.731591E-3,-2.958695E-3,-1.6360637E-2,-1.885552E-3,-4.015447E-3,-9.149754E-3,1.683411E-4,-3.5706998E-3,-2.0839637E-3,-5.1432E-3,3.5791518E-3,-2.4542995E-3,-4.331031E-3,7.4051885E-4,1.0350516E-2,1.8594181E-3,-5.7125445E-3,-2.8633054E-3,-9.214271E-3,-2.0471111E-2,1.6743599E-2,-1.2204751E-2,1.9807005E-3,8.079802E-3,-2.7566527E-3,-1.167604E-2,-4.675942E-3,-1.3040762E-2,-1.2734903E-2,-3.93603E-2,5.744485E-3,-3.0579648E-3,-1.4679324E-2,1.4490197E-2,-4.287395E-3,-2.4583627E-2,6.2711793E-3,2.0420862E-2],"split_indices":[6,5,5,2,1,1,0,1,1,6,2,5,0,1,2,1,1,2,0,2,1,0,5,1,1,0,2,2,2,1,1,1,2,0,0,1,2,0,2,1,0,0,6,2,2,0,0,0,2,2,2,2,2,2,1,0,1,1,1,2,2,1,1,0,0,0,0,0,0,0,0,0,0,0,0,0,0,0,0,0,0,0,0,0,0,0,0,0,0,0,0,0,0,0,0,0,0,0,0,0,0,0,0,0,0,0,0,0,0,0,0,0,0,0,0,0,0,0,0,0,0,0,0,0,0,0,0],"split_type":[0,0,0,0,0,0,0,0,0,0,0,0,0,0,0,0,0,0,0,0,0,0,0,0,0,0,0,0,0,0,0,0,0,0,0,0,0,0,0,0,0,0,0,0,0,0,0,0,0,0,0,0,0,0,0,0,0,0,0,0,0,0,0,0,0,0,0,0,0,0,0,0,0,0,0,0,0,0,0,0,0,0,0,0,0,0,0,0,0,0,0,0,0,0,0,0,0,0,0,0,0,0,0,0,0,0,0,0,0,0,0,0,0,0,0,0,0,0,0,0,0,0,0,0,0,0,0],"sum_hessian":[7.168075E7,3.2284152E7,3.9396604E7,2.6496968E7,5.787184E6,9.368953E6,3.002765E7,6.6878E5,2.5828188E7,2.171199E6,3.615985E6,8.993734E6,3.75219E5,1.6256544E7,1.3771106E7,3.1506E5,3.5372E5,6.44929E5,2.518326E7,3.0757E4,2.140442E6,2.096025E6,1.51996E6,6.303992E6,2.689742E6,1.03115E5,2.72104E5,1.4036496E7,2.220048E6,1.2968479E7,8.02627E5,2.19039E5,9.6021E4,2.75355E5,7.8365E4,2.10279E5,4.3465E5,3.296369E6,2.188689E7,1.6293E4,1.4464E4,1.045186E6,1.095256E6,1.3007E4,2.083018E6,2.65117E5,1.254843E6,2.293263E6,4.010729E6,1.764717E6,9.25025E5,6.0342E4,4.2773E4,2.556E5,1.6504E4,1.1592854E7,2.443642E6,1.849164E6,3.70884E5,1.1221138E7,1.747341E6,4.54425E5,3.48202E5,1.4115E5,7.7889E4,6.7117E4,2.8904E4,2.47848E5,2.7507E4,4.1428E4,3.6937E4,9.3642E4,1.16637E5,2.79803E5,1.54847E5,5.0562E5,2.790749E6,1.368778E6,2.0518112E7,1.18E4,4.493E3,1.2653E4,1.811E3,1.20218E5,9.24968E5,3.85186E5,7.1007E5,8.879E3,4.128E3,1.4933E4,2.068085E6,2.11918E5,5.3199E4,6.89836E5,5.65007E5,1.347852E6,9.45411E5,2.139401E6,1.871328E6,8.9305E5,8.71667E5,6.74058E5,2.50967E5,1.1756E4,4.8586E4,1.5918E4,2.6855E4,2.08914E5,4.6686E4,1.1659E4,4.845E3,7.700386E6,3.892468E6,1.348754E6,1.094888E6,1.491316E6,3.57848E5,2.86154E5,8.473E4,9.706898E6,1.51424E6,1.05488E6,6.92461E5,1.16697E5,3.37728E5,1.36191E5,2.12011E5],"tree_param":{"num_deleted":"0","num_feature":"13","num_nodes":"127","size_leaf_vector":"0"}},{"base_weights":[-6.4035724E-3,-1.5940484E-2,2.8655506E-3,-2.3361895E-2,-1.3090731E-2,1.1378651E-3,1.4475907E-2,-7.710109E-3,-2.6579307E-2,4.2056716E-3,-1.6145356E-2,3.046527E-3,-5.1216885E-2,-1.3200814E-2,2.1529105E-2,-4.6336494E-2,1.7974027E-2,2.9065795E-3,-3.3853915E-2,2.0998945E-2,-1.0961752E-2,4.6218107E-3,-1.9910479E-2,5.261348E-3,-4.3313347E-2,-1.5504809E-2,-8.358115E-2,7.827384E-2,-3.1574715E-2,-1.2848045E-2,3.4164175E-2,-5.4237913E-2,-3.437597E-2,3.0824328E-2,-2.9910108E-2,-3.612046E-2,1.7276337E-2,-3.2314155E-2,-8.5162796E-2,5.0474973E-3,4.430972E-2,-2.663075E-2,-2.3397768E-3,1.5960181E-2,-5.5380254E-3,-4.0457115E-2,-1.3034469E-2,2.175681E-3,2.3980668E-2,-2.1338047E-2,-6.5711305E-2,-3.296308E-2,2.244115E-2,-1.22674555E-1,-5.806358E-2,6.442717E-2,1.0968731E-1,8.159258E-3,-7.199449E-2,3.2265782E-2,-4.04452E-2,3.687526E-2,-1.6085763E-3,-1.755637E-2,-1.1463568E-2,5.6782053E-3,-1.6401319E-2,2.9104026E-2,5.57572E-3,-1.5545546E-2,-2.997576E-4,1.9172826E-3,-1.4201482E-2,9.581121E-3,-6.405569E-3,-1.4631234E-2,-8.367763E-3,-2.1126244E-2,-3.5643276E-2,1.1415729E-2,-3.4783357E-3,1.5518779E-2,6.4822077E-3,6.546404E-5,-1.6786449E-2,3.4004704E-3,-3.1636553E-3,-6.0520554E-4,1.1481199E-2,3.993446E-3,-2.968614E-3,-7.3824106E-3,-1.3769755E-2,1.3555639E-3,-4.8290156E-3,1.3073854E-3,-6.9675944E-3,8.747853E-3,-5.9793686E-4,-9.3540605E-3,3.9518243E-3,-2.9742539E-2,-1.46261845E-2,-6.251654E-3,-1.7531252E-2,1.9032184E-2,4.399692E-4,-2.8208243E-2,-4.407884E-2,-1.0444002E-2,-2.6594764E-2,2.6266946E-2,1.4395966E-2,3.5445213E-2,1.152323E-2,1.0970351E-2,-3.768814E-3,-1.5578263E-2,-2.6113244E-2,3.6042966E-2,7.7461265E-3,7.812187E-3,-1.9074427E-2,1.2727234E-2,5.1139686E-3,-1.810884E-2,1.1796146E-2],"categories":[],"categories_nodes":[],"categories_segments":[],"categories_sizes":[],"default_left":[0,0,0,0,0,0,0,0,0,0,0,0,0,0,0,0,0,0,0,0,0,0,0,0,0,0,0,0,0,0,0,0,0,0,0,0,0,0,0,0,0,0,0,0,0,0,0,0,0,0,0,0,0,0,0,0,0,0,0,0,0,0,0,0,0,0,0,0,0,0,0,0,0,0,0,0,0,0,0,0,0,0,0,0,0,0,0,0,0,0,0,0,0,0,0,0,0,0,0,0,0,0,0,0,0,0,0,0,0,0,0,0,0,0,0,0,0,0,0,0,0,0,0,0,0,0,0],"id":12,"left_children":[1,3,5,7,9,11,13,15,17,19,21,23,25,27,29,31,33,35,37,39,41,43,45,47,49,51,53,55,57,59,61,63,65,67,69,71,73,75,77,79,81,83,85,87,89,91,93,95,97,99,101,103,105,107,109,111,113,115,117,119,121,123,125,-1,-1,-1,-1,-1,-1,-1,-1,-1,-1,-1,-1,-1,-1,-1,-1,-1,-1,-1,-1,-1,-1,-1,-1,-1,-1,-1,-1,-1,-1,-1,-1,-1,-1,-1,-1,-1,-1,-1,-1,-1,-1,-1,-1,-1,-1,-1,-1,-1,-1,-1,-1,-1,-1,-1,-1,-1,-1,-1,-1,-1,-1,-1,-1],"loss_changes":[6.336494E3,7.472002E2,7.291609E2,4.9363037E2,1.3487285E3,3.161926E3,9.191502E2,1.6581901E3,1.7440771E3,9.759551E2,1.6964331E3,3.134704E3,1.2863792E3,1.6072043E3,1.6298372E3,6.3082764E1,6.177219E2,9.023722E2,5.1525E2,6.7613727E2,2.7198798E2,3.8358258E2,2.5947563E3,1.683011E3,6.8515137E2,3.505313E2,5.8243115E2,6.956537E1,1.2788843E3,1.2555625E3,2.6610425E2,2.759082E1,2.8727838E2,6.4115204E2,1.3453609E2,2.0649957E2,6.6601166E2,4.607378E2,9.424768E1,5.929851E2,1.2443652E2,5.6262054E2,1.4572487E2,6.311681E2,1.4424252E2,