{"learner":{"attributes":{"best_iteration":"99","best_ntree_limit":"100","scikit_learn":"{\"n_estimators\": 100, \"objective\": null, \"max_depth\": null, \"max_leaves\": null, \"max_bin\": null, \"grow_policy\": null, \"learning_rate\": null, \"verbosity\": null, \"booster\": null, \"tree_method\": null, \"gamma\": null, \"min_child_weight\": null, \"max_delta_step\": null, \"subsample\": null, \"sampling_method\": null, \"colsample_bytree\": null, \"colsample_bylevel\": null, \"colsample_bynode\": null, \"reg_alpha\": null, \"reg_lambda\": null, \"scale_pos_weight\": null, \"base_score\": null, \"missing\": NaN, \"num_parallel_tree\": null, \"random_state\": null, \"n_jobs\": null, \"monotone_constraints\": null, \"interaction_constraints\": null, \"importance_type\": null, \"gpu_id\": null, \"validate_parameters\": null, \"predictor\": null, \"enable_categorical\": false, \"feature_types\": null, \"max_cat_to_onehot\": null, \"max_cat_threshold\": null, \"eval_metric\": null, \"early_stopping_rounds\": null, \"callbacks\": null, \"_estimator_type\": \"regressor\"}"},"feature_names":["f0","fsw_l_1","fsw_r_1","fsw_l_2","fsw_r_2","ftw_l_1","ftw_r_1","ftw_l_2","ftw_r_2","fiw_l_1","fiw_r_1","fiw_l_2","fiw_r_2"],"feature_types":["float","float","float","float","float","float","float","float","float","float","float","float","float"],"gradient_booster":{"model":{"gbtree_model_param":{"num_parallel_tree":"1","num_trees":"100","size_leaf_vector":"0"},"tree_info":[0,0,0,0,0,0,0,0,0,0,0,0,0,0,0,0,0,0,0,0,0,0,0,0,0,0,0,0,0,0,0,0,0,0,0,0,0,0,0,0,0,0,0,0,0,0,0,0,0,0,0,0,0,0,0,0,0,0,0,0,0,0,0,0,0,0,0,0,0,0,0,0,0,0,0,0,0,0,0,0,0,0,0,0,0,0,0,0,0,0,0,0,0,0,0,0,0,0,0,0],"trees":[{"base_weights":[-4.626416E-1,-1.1267029E0,1.349599E-1,-1.2458582E0,-8.5465693E-1,-1.6843513E-1,2.4077511E-1,-1.2802811E0,-9.6756077E-1,-9.513266E-1,-6.9561225E-1,-3.3694455E-1,-6.918076E-2,-2.9366586E-2,2.761313E-1,-1.326299E0,-1.0116076E0,-1.0340215E0,-8.5333675E-1,-9.942469E-1,-7.509381E-1,-7.612328E-1,-6.075276E-1,-4.3701318E-1,-2.7485397E-1,-2.6953197E-1,-2.5169166E-2,-1.472285E-1,4.0610444E-2,-1.3053912E-2,3.1759304E-1,-1.3486758E0,-1.2132846E0,-1.0830888E0,-8.626686E-1,-1.0140378E0,-1.129894E0,-8.9403534E-1,-7.7411E-1,-1.0530294E0,-7.865542E-1,-6.914548E-1,-8.396927E-1,-6.267653E-1,-7.9436165E-1,-6.516106E-1,-5.635636E-1,-4.8830077E-1,-4.04665E-1,-3.951647E-1,-2.4389358E-1,-3.4478953E-1,-2.1525727E-1,-2.2295931E-1,3.9294325E-2,-2.0162757E-1,-8.209715E-2,-5.988676E-3,8.226065E-2,-1.573184E-1,5.8603983E-2,2.5551534E-1,3.4672105E-1,-4.1332918E-1,-3.7574604E-1,-3.5196885E-1,-3.842947E-1,-3.1442797E-1,-3.5507277E-1,-2.7478084E-1,-2.3299055E-1,-3.1749356E-1,-2.8365603E-1,-3.5645145E-1,-3.3101016E-1,-2.8878093E-1,-2.54073E-1,-2.5509852E-1,-2.1765716E-1,-2.7510616E-1,-3.2215467E-1,-2.0881982E-1,-2.619525E-1,-2.2036204E-1,-1.9185813E-1,-2.7060258E-1,-2.3720881E-1,-2.1221589E-1,-1.7896086E-1,-1.9977678E-1,-2.5397146E-1,-1.7045955E-1,-2.023858E-1,-1.7451963E-1,-1.5778735E-1,-1.4775E-1,-1.4245316E-1,-1.3792156E-1,-1.16703264E-1,-9.873267E-2,-1.2550595E-1,-1.09939784E-1,-5.8747526E-2,-7.206495E-2,-1.0857349E-1,-3.591365E-2,-7.178135E-2,-1.00234784E-1,-4.8676897E-2,-9.342382E-3,2.466827E-2,-8.720361E-2,-4.67185E-2,-5.198725E-2,-1.022991E-2,-1.62432E-2,1.4401722E-2,4.4739097E-2,2.0717701E-2,-7.181892E-2,-3.145297E-2,1.2933705E-3,2.9101184E-2,7.94217E-2,3.1060044E-2,7.03595E-2,1.0787681E-1],"categories":[],"categories_nodes":[],"categories_segments":[],"categories_sizes":[],"default_left":[0,0,0,0,0,0,0,0,0,0,0,0,0,0,0,0,0,0,0,0,0,0,0,0,0,0,0,0,0,0,0,0,0,0,0,0,0,0,0,0,0,0,0,0,0,0,0,0,0,0,0,0,0,0,0,0,0,0,0,0,0,0,0,0,0,0,0,0,0,0,0,0,0,0,0,0,0,0,0,0,0,0,0,0,0,0,0,0,0,0,0,0,0,0,0,0,0,0,0,0,0,0,0,0,0,0,0,0,0,0,0,0,0,0,0,0,0,0,0,0,0,0,0,0,0,0,0],"id":0,"left_children":[1,3,5,7,9,11,13,15,17,19,21,23,25,27,29,31,33,35,37,39,41,43,45,47,49,51,53,55,57,59,61,63,65,67,69,71,73,75,77,79,81,83,85,87,89,91,93,95,97,99,101,103,105,107,109,111,113,115,117,119,121,123,125,-1,-1,-1,-1,-1,-1,-1,-1,-1,-1,-1,-1,-1,-1,-1,-1,-1,-1,-1,-1,-1,-1,-1,-1,-1,-1,-1,-1,-1,-1,-1,-1,-1,-1,-1,-1,-1,-1,-1,-1,-1,-1,-1,-1,-1,-1,-1,-1,-1,-1,-1,-1,-1,-1,-1,-1,-1,-1,-1,-1,-1,-1,-1,-1],"loss_changes":[2.8446076E7,1.1006E6,1.2112228E6,2.26184E5,1.58998E5,1.6317097E5,2.6716912E5,2.59784E5,1.9729E4,5.5319E4,2.2597E4,2.2469219E4,5.413779E4,2.670028E4,2.965765E5,4.5364E4,3.271125E4,3.14675E3,3.0818125E3,6.46735E4,5.989625E3,9.98E3,3.234375E3,2.2970625E3,8.312469E3,4.516625E3,6.418255E4,4.273035E3,3.942482E3,3.206415E4,3.911725E4,4.1896E4,8.0385E3,7.29975E3,4.56575E3,4.1235E3,4.3678125E2,2.0399375E3,1.2008281E3,1.16905E4,9.158875E3,1.5194062E3,1.3894062E3,1.0789062E3,1.20535E4,1.5990938E3,5.70625E2,3.003125E1,7.31875E2,6.9946094E2,1.0457375E4,8.295078E2,1.474043E3,8.34898E3,1.148068E4,2.6859941E3,2.4024421E3,2.4927256E3,9.4687695E2,4.4334395E3,4.320467E3,9.685156E3,2.1257375E4,0E0,0E0,0E0,0E0,0E0,0E0,0E0,0E0,0E0,0E0,0E0,0E0,0E0,0E0,0E0,0E0,0E0,0E0,0E0,0E0,0E0,0E0,0E0,0E0,0E0,0E0,0E0,0E0,0E0,0E0,0E0,0E0,0E0,0E0,0E0,0E0,0E0,0E0,0E0,0E0,0E0,0E0,0E0,0E0,0E0,0E0,0E0,0E0,0E0,0E0,0E0,0E0,0E0,0E0,0E0,0E0,0E0,0E0,0E0,0E0,0E0,0E0,0E0,0E0],"parents":[2147483647,0,0,1,1,2,2,3,3,4,4,5,5,6,6,7,7,8,8,9,9,10,10,11,11,12,12,13,13,14,14,15,15,16,16,17,17,18,18,19,19,20,20,21,21,22,22,23,23,24,24,25,25,26,26,27,27,28,28,29,29,30,30,31,31,32,32,33,33,34,34,35,35,36,36,37,37,38,38,39,39,40,40,41,41,42,42,43,43,44,44,45,45,46,46,47,47,48,48,49,49,50,50,51,51,52,52,53,53,54,54,55,55,56,56,57,57,58,58,59,59,60,60,61,61,62,62],"right_children":[2,4,6,8,10,12,14,16,18,20,22,24,26,28,30,32,34,36,38,40,42,44,46,48,50,52,54,56,58,60,62,64,66,68,70,72,74,76,78,80,82,84,86,88,90,92,94,96,98,100,102,104,106,108,110,112,114,116,118,120,122,124,126,-1,-1,-1,-1,-1,-1,-1,-1,-1,-1,-1,-1,-1,-1,-1,-1,-1,-1,-1,-1,-1,-1,-1,-1,-1,-1,-1,-1,-1,-1,-1,-1,-1,-1,-1,-1,-1,-1,-1,-1,-1,-1,-1,-1,-1,-1,-1,-1,-1,-1,-1,-1,-1,-1,-1,-1,-1,-1,-1,-1,-1,-1,-1,-1],"split_conditions":[0E0,-5.8972154E-2,4.8275568E-2,1.310376E-3,-2.0748278E-2,1.7010154E-2,1.3161546E-3,-1.179784E-2,7.23506E-2,3.9577566E-2,-8.701272E-3,5.6661484E-3,-3.5034627E-2,-6.645165E-2,0E0,-5.7164412E-2,6.769882E-2,-1.1429885E-1,1.5576574E-1,3.67864E-2,-1.1429885E-1,-7.026132E-2,-4.3342123E-3,1.3109981E-3,-4.4841893E-2,-8.849617E-2,-2.6992403E-2,1.06892236E-1,-2.5414184E-2,-7.610987E-2,1.1286254E-1,-8.011432E-2,-1.1429885E-1,-1.2763692E-1,1.372111E-1,-9.967113E-2,-8.216034E-2,-1.2487127E-1,-1.5181461E-1,-8.849617E-2,-1.3048348E-1,1.0886055E-1,-3.5039734E-2,4.5372926E-2,-6.2678434E-2,-5.7159945E-2,-1.4052262E-3,1.318345E-3,-4.656251E-2,6.1746012E-2,-3.8323052E-2,9.062748E-2,5.856029E-2,-9.067493E-2,2.9775783E-2,-1.4229494E-1,-1.6196151E-1,9.396824E-2,8.7134875E-2,-1.454216E-1,-3.325355E-2,1.5292369E-1,6.1747618E-2,-4.1332918E-1,-3.7574604E-1,-3.5196885E-1,-3.842947E-1,-3.1442797E-1,-3.5507277E-1,-2.7478084E-1,-2.3299055E-1,-3.1749356E-1,-2.8365603E-1,-3.5645145E-1,-3.3101016E-1,-2.8878093E-1,-2.54073E-1,-2.5509852E-1,-2.1765716E-1,-2.7510616E-1,-3.2215467E-1,-2.0881982E-1,-2.619525E-1,-2.2036204E-1,-1.9185813E-1,-2.7060258E-1,-2.3720881E-1,-2.1221589E-1,-1.7896086E-1,-1.9977678E-1,-2.5397146E-1,-1.7045955E-1,-2.023858E-1,-1.7451963E-1,-1.5778735E-1,-1.4775E-1,-1.4245316E-1,-1.3792156E-1,-1.16703264E-1,-9.873267E-2,-1.2550595E-1,-1.09939784E-1,-5.8747526E-2,-7.206495E-2,-1.0857349E-1,-3.591365E-2,-7.178135E-2,-1.00234784E-1,-4.8676897E-2,-9.342382E-3,2.466827E-2,-8.720361E-2,-4.67185E-2,-5.198725E-2,-1.022991E-2,-1.62432E-2,1.4401722E-2,4.4739097E-2,2.0717701E-2,-7.181892E-2,-3.145297E-2,1.2933705E-3,2.9101184E-2,7.94217E-2,3.1060044E-2,7.03595E-2,1.0787681E-1],"split_indices":[0,0,0,2,0,0,1,1,2,2,0,0,1,1,2,2,1,1,2,1,1,1,0,0,1,1,2,0,1,2,0,1,1,2,1,0,0,0,0,1,2,2,0,2,2,1,0,6,1,2,2,2,2,2,0,1,1,0,2,2,2,1,1,0,0,0,0,0,0,0,0,0,0,0,0,0,0,0,0,0,0,0,0,0,0,0,0,0,0,0,0,0,0,0,0,0,0,0,0,0,0,0,0,0,0,0,0,0,0,0,0,0,0,0,0,0,0,0,0,0,0,0,0,0,0,0,0],"split_type":[0,0,0,0,0,0,0,0,0,0,0,0,0,0,0,0,0,0,0,0,0,0,0,0,0,0,0,0,0,0,0,0,0,0,0,0,0,0,0,0,0,0,0,0,0,0,0,0,0,0,0,0,0,0,0,0,0,0,0,0,0,0,0,0,0,0,0,0,0,0,0,0,0,0,0,0,0,0,0,0,0,0,0,0,0,0,0,0,0,0,0,0,0,0,0,0,0,0,0,0,0,0,0,0,0,0,0,0,0,0,0,0,0,0,0,0,0,0,0,0,0,0,0,0,0,0,0],"sum_hessian":[7.168075E7,3.3952436E7,3.772832E7,2.361092E7,1.0341517E7,9.755938E6,2.797238E7,2.1011926E7,2.598994E6,6.432031E6,3.909486E6,3.616319E6,6.139619E6,3.237327E6,2.4735052E7,1.7939312E7,3.072613E6,1.643008E6,9.55986E5,5.297401E6,1.13463E6,2.240425E6,1.669061E6,1.384682E6,2.231637E6,1.105791E6,5.033828E6,1.206025E6,2.031302E6,3.101673E6,2.163338E7,1.4974371E7,2.964942E6,2.076176E6,9.96437E5,1.35962E6,2.83388E5,6.3155E5,3.24436E5,4.12883E6,1.168571E6,6.79343E5,4.55287E5,4.4287E5,1.797555E6,8.33396E5,8.35665E5,5.35554E5,8.49128E5,4.56743E5,1.774894E6,4.6333E5,6.42461E5,1.237344E6,3.796484E6,6.57154E5,5.48871E5,9.58695E5,1.072607E6,1.029348E6,2.072325E6,6.908967E6,1.4724413E7,1.1497471E7,3.4769E6,1.86279E6,1.102152E6,1.539902E6,5.36274E5,6.15402E5,3.81035E5,8.25922E5,5.33698E5,8.863E4,1.94758E5,2.57242E5,3.74308E5,1.26296E5,1.9814E5,5.48121E5,3.580709E6,5.71531E5,5.9704E5,3.71276E5,3.08067E5,2.00397E5,2.5489E5,1.20766E5,3.22104E5,5.1952E5,1.278035E6,1.8019E5,6.53206E5,5.63437E5,2.72228E5,4.08154E5,1.274E5,1.87931E5,6.61197E5,1.1868E5,3.38063E5,4.99975E5,1.274919E6,6.5191E4,3.98139E5,1.29042E5,5.13419E5,4.37044E5,8.003E5,1.437744E6,2.35874E6,2.23509E5,4.33645E5,1.89267E5,3.59604E5,5.06748E5,4.51947E5,1.76843E5,8.95764E5,4.0144E5,6.27908E5,8.58506E5,1.213819E6,6.513658E6,3.95309E5,1.515127E6,1.3209286E7],"tree_param":{"num_deleted":"0","num_feature":"13","num_nodes":"127","size_leaf_vector":"0"}},{"base_weights":[-3.2384923E-1,-7.8869224E-1,9.447191E-2,-8.6341745E-1,-5.703816E-1,-9.749448E-2,1.7802945E-1,-8.884599E-1,-6.5916115E-1,-6.260588E-1,-4.5491758E-1,-2.1852216E-1,-2.0769875E-2,6.7134914E-3,2.0423223E-1,-9.211354E-1,-6.821406E-1,-6.994038E-1,-5.725132E-1,-6.5364045E-1,-4.852134E-1,-4.8869267E-1,-4.0389472E-1,-2.910883E-1,-1.6304614E-1,-1.5592398E-1,1.516358E-2,-7.9797894E-2,5.835091E-2,3.611348E-2,2.4142209E-1,-9.581812E-1,-8.758253E-1,-7.2385573E-1,-5.664915E-1,-7.3918796E-1,-6.6672343E-1,-6.1632186E-1,-5.2846605E-1,-5.0635207E-1,-6.9768924E-1,-4.5590535E-1,-5.536568E-1,-5.104317E-1,-4.038408E-1,-4.275898E-1,-3.7973684E-1,-3.3251816E-1,-2.6042148E-1,-1.3793765E-1,-2.6818693E-1,-1.0202862E-1,-2.1661334E-1,-1.2221175E-1,7.250443E-2,-1.3725857E-1,-3.912552E-2,1.21531725E-1,4.0205237E-2,-7.791884E-2,8.3520785E-2,1.6272244E-1,2.507558E-1,-2.920547E-1,-2.609415E-1,-2.669879E-1,-2.4024718E-1,-2.1077767E-1,-2.4424954E-1,-1.8819071E-1,-1.5817964E-1,-2.1765612E-1,-2.4070585E-1,-2.1818368E-1,-1.933409E-1,-1.9197091E-1,-1.5744697E-1,-1.4659195E-1,-1.8210365E-1,-1.6298947E-1,-1.2695554E-1,-2.2646339E-1,-1.939023E-1,-1.4622521E-1,-1.2797888E-1,-1.8159264E-1,-1.532612E-1,-1.6498737E-1,-1.2578155E-1,-1.17956325E-1,-1.3672851E-1,-1.10388376E-1,-1.3265201E-1,-1.0566506E-1,-1.16316E-1,-1.02543324E-1,-9.447095E-2,-7.362271E-2,-9.542769E-2,-2.9443081E-2,-7.454198E-2,-9.028746E-2,-6.971151E-2,-4.247306E-2,-1.6804513E-2,-7.9671435E-2,-5.5607364E-2,-2.2763632E-2,-6.9021344E-2,2.7124396E-2,-1.875921E-2,-5.0344158E-2,-1.7735435E-2,-2.0278098E-2,6.064362E-3,3.0014062E-2,5.834193E-2,6.73908E-4,2.348764E-2,-4.1957337E-2,-9.232694E-3,4.507953E-2,1.7756542E-2,6.055463E-2,3.730411E-2,5.59584E-2,7.890873E-2],"categories":[],"categories_nodes":[],"categories_segments":[],"categories_sizes":[],"default_left":[0,0,0,0,0,0,0,0,0,0,0,0,0,0,0,0,0,0,0,0,0,0,0,0,0,0,0,0,0,0,0,0,0,0,0,0,0,0,0,0,0,0,0,0,0,0,0,0,0,0,0,0,0,0,0,0,0,0,0,0,0,0,0,0,0,0,0,0,0,0,0,0,0,0,0,0,0,0,0,0,0,0,0,0,0,0,0,0,0,0,0,0,0,0,0,0,0,0,0,0,0,0,0,0,0,0,0,0,0,0,0,0,0,0,0,0,0,0,0,0,0,0,0,0,0,0,0],"id":1,"left_children":[1,3,5,7,9,11,13,15,17,19,21,23,25,27,29,31,33,35,37,39,41,43,45,47,49,51,53,55,57,59,61,63,65,67,69,71,73,75,77,79,81,83,85,87,89,91,93,95,97,99,101,103,105,107,109,111,113,115,117,119,121,123,125,-1,-1,-1,-1,-1,-1,-1,-1,-1,-1,-1,-1,-1,-1,-1,-1,-1,-1,-1,-1,-1,-1,-1,-1,-1,-1,-1,-1,-1,-1,-1,-1,-1,-1,-1,-1,-1,-1,-1,-1,-1,-1,-1,-1,-1,-1,-1,-1,-1,-1,-1,-1,-1,-1,-1,-1,-1,-1,-1,-1,-1,-1,-1,-1],"loss_changes":[1.3938584E7,5.53878E5,6.051714E5,1.2938E5,5.56595E4,1.0624615E5,1.1799906E5,1.51902E5,9.632125E3,2.26915E4,4.8538125E3,1.7870844E4,3.400833E4,1.5577954E4,1.4254869E5,3.265E4,1.486125E4,2.452125E3,1.6902812E3,3.1691375E4,1.9185781E3,3.126E3,6.4203125E2,2.4435781E3,6.6416797E3,4.8106055E3,4.357536E4,3.046208E3,2.5035498E3,2.2326139E4,1.371375E4,1.4502E4,9.2745E3,4.346875E3,1.9476406E3,7.33875E2,1.3952188E3,9.4740625E2,1.3663281E3,3.4551562E3,1.1041375E4,6.183906E2,6.335078E2,4.861E3,1.9101172E2,4.9234375E2,1.2191406E2,1.338125E2,9.568203E2,8.933137E3,5.691719E2,1.41754E3,1.0585039E3,8.14099E3,9.438928E3,1.289831E3,1.2892993E3,7.635454E2,2.452682E3,3.5412612E3,4.7375625E3,2.9720586E3,1.31565E4,0E0,0E0,0E0,0E0,0E0,0E0,0E0,0E0,0E0,0E0,0E0,0E0,0E0,0E0,0E0,0E0,0E0,0E0,0E0,0E0,0E0,0E0,0E0,0E0,0E0,0E0,0E0,0E0,0E0,0E0,0E0,0E0,0E0,0E0,0E0,0E0,0E0,0E0,0E0,0E0,0E0,0E0,0E0,0E0,0E0,0E0,0E0,0E0,0E0,0E0,0E0,0E0,0E0,0E0,0E0,0E0,0E0,0E0,0E0,0E0,0E0,0E0,0E0,0E0],"parents":[2147483647,0,0,1,1,2,2,3,3,4,4,5,5,6,6,7,7,8,8,9,9,10,10,11,11,12,12,13,13,14,14,15,15,16,16,17,17,18,18,19,19,20,20,21,21,22,22,23,23,24,24,25,25,26,26,27,27,28,28,29,29,30,30,31,31,32,32,33,33,34,34,35,35,36,36,37,37,38,38,39,39,40,40,41,41,42,42,43,43,44,44,45,45,46,46,47,47,48,48,49,49,50,50,51,51,52,52,53,53,54,54,55,55,56,56,57,57,58,58,59,59,60,60,61,61,62,62],"right_children":[2,4,6,8,10,12,14,16,18,20,22,24,26,28,30,32,34,36,38,40,42,44,46,48,50,52,54,56,58,60,62,64,66,68,70,72,74,76,78,80,82,84,86,88,90,92,94,96,98,100,102,104,106,108,110,112,114,116,118,120,122,124,126,-1,-1,-1,-1,-1,-1,-1,-1,-1,-1,-1,-1,-1,-1,-1,-1,-1,-1,-1,-1,-1,-1,-1,-1,-1,-1,-1,-1,-1,-1,-1,-1,-1,-1,-1,-1,-1,-1,-1,-1,-1,-1,-1,-1,-1,-1,-1,-1,-1,-1,-1,-1,-1,-1,-1,-1,-1,-1,-1,-1,-1,-1,-1,-1],"split_conditions":[0E0,-4.829941E-2,5.713904E-2,8.420368E-3,-1.4812487E-2,2.1172546E-2,1.55738285E-2,0E0,8.882113E-2,4.9664747E-2,-5.823839E-3,8.420727E-3,-2.0738633E-2,-5.179054E-2,2.6862908E-2,-1.6197577E-1,9.216726E-2,3.3905424E-2,-1.0439348E-1,-9.067493E-2,-9.285039E-2,5.131998E-2,-2.8714964E-3,2.7670192E-3,7.561038E-2,1.1892946E-1,-1.3294494E-2,-1.1948471E-1,1.0886055E-1,-5.534049E-2,4.686214E-2,-1.0440346E-1,-2.5413105E-2,-1.0681839E-1,-1.1947168E-1,-9.285039E-2,-1.3627295E-1,2.3249316E-1,-2.049351E-1,1.03253774E-1,-3.1666048E-2,-3.1666048E-2,-2.6993116E-2,4.1160904E-2,-4.1669242E-2,-6.082321E-2,-5.0042164E-2,1.3109981E-3,6.30873E-2,6.769882E-2,-7.026132E-2,3.5342835E-2,-1.1688802E-1,1.4472194E-1,9.397368E-2,1.6797861E-1,1.3249512E-1,8.713966E-2,1.088597E-1,-1.1687058E-1,1.1481683E-1,1.2780453E-1,6.6207856E-2,-2.920547E-1,-2.609415E-1,-2.669879E-1,-2.4024718E-1,-2.1077767E-1,-2.4424954E-1,-1.8819071E-1,-1.5817964E-1,-2.1765612E-1,-2.4070585E-1,-2.1818368E-1,-1.933409E-1,-1.9197091E-1,-1.5744697E-1,-1.4659195E-1,-1.8210365E-1,-1.6298947E-1,-1.2695554E-1,-2.2646339E-1,-1.939023E-1,-1.4622521E-1,-1.2797888E-1,-1.8159264E-1,-1.532612E-1,-1.6498737E-1,-1.2578155E-1,-1.17956325E-1,-1.3672851E-1,-1.10388376E-1,-1.3265201E-1,-1.0566506E-1,-1.16316E-1,-1.02543324E-1,-9.447095E-2,-7.362271E-2,-9.542769E-2,-2.9443081E-2,-7.454198E-2,-9.028746E-2,-6.971151E-2,-4.247306E-2,-1.6804513E-2,-7.9671435E-2,-5.5607364E-2,-2.2763632E-2,-6.9021344E-2,2.7124396E-2,-1.875921E-2,-5.0344158E-2,-1.7735435E-2,-2.0278098E-2,6.064362E-3,3.0014062E-2,5.834193E-2,6.73908E-4,2.348764E-2,-4.1957337E-2,-9.232694E-3,4.507953E-2,1.7756542E-2,6.055463E-2,3.730411E-2,5.59584E-2,7.890873E-2],"split_indices":[0,0,0,2,0,0,1,1,2,2,0,0,1,1,2,0,1,2,0,2,1,2,0,0,2,2,2,1,2,2,1,2,2,2,0,1,0,2,1,1,0,0,0,1,1,2,1,0,2,1,1,0,1,1,2,0,0,0,0,2,1,2,2,0,0,0,0,0,0,0,0,0,0,0,0,0,0,0,0,0,0,0,0,0,0,0,0,0,0,0,0,0,0,0,0,0,0,0,0,0,0,0,0,0,0,0,0,0,0,0,0,0,0,0,0,0,0,0,0,0,0,0,0,0,0,0,0],"split_type":[0,0,0,0,0,0,0,0,0,0,0,0,0,0,0,0,0,0,0,0,0,0,0,0,0,0,0,0,0,0,0,0,0,0,0,0,0,0,0,0,0,0,0,0,0,0,0,0,0,0,0,0,0,0,0,0,0,0,0,0,0,0,0,0,0,0,0,0,0,0,0,0,0,0,0,0,0,0,0,0,0,0,0,0,0,0,0,0,0,0,0,0,0,0,0,0,0,0,0,0,0,0,0,0,0,0,0,0,0,0,0,0,0,0,0,0,0,0,0,0,0,0,0,0,0,0,0],"sum_hessian":[7.168075E7,3.3952436E7,3.772832E7,2.529444E7,8.657996E6,1.1441785E7,2.6286532E7,2.253195E7,2.762491E6,5.841293E6,2.816703E6,4.439222E6,7.002563E6,3.487164E6,2.2799368E7,1.9451364E7,3.080587E6,1.886377E6,8.76114E5,4.884721E6,9.56572E5,1.694803E6,1.1219E6,1.923352E6,2.51587E6,1.470745E6,5.531818E6,1.303436E6,2.183728E6,4.129906E6,1.8669464E7,1.0701635E7,8.749728E6,2.263961E6,8.16626E5,8.50718E5,1.035659E6,4.3924E5,4.36874E5,1.124542E6,3.760179E6,6.69776E5,2.86796E5,1.349147E6,3.45656E5,5.66367E5,5.55533E5,8.18107E5,1.105245E6,2.030881E6,4.84989E5,7.78976E5,6.91769E5,1.629033E6,3.902785E6,5.40223E5,7.63213E5,4.87235E5,1.696493E6,1.212761E6,2.917145E6,1.979425E6,1.6690038E7,9.1193E6,1.582335E6,7.362267E6,1.387461E6,1.832503E6,4.31458E5,3.20206E5,4.9642E5,6.99396E5,1.51322E5,2.7831E5,7.57349E5,3.4923E5,9.001E4,2.89893E5,1.46981E5,7.78635E5,3.45907E5,1.778914E6,1.981265E6,3.22751E5,3.47025E5,1.2993E5,1.56866E5,9.41092E5,4.08055E5,2.86816E5,5.884E4,1.11303E5,4.55064E5,1.24926E5,4.30607E5,5.35554E5,2.82553E5,8.76965E5,2.2828E5,1.493284E6,5.37597E5,2.53253E5,2.31736E5,4.18918E5,3.60058E5,2.69547E5,4.22222E5,1.139529E6,4.89504E5,3.445761E6,4.57024E5,3.88361E5,1.51862E5,5.15773E5,2.4744E5,3.76376E5,1.10859E5,8.49675E5,8.46818E5,5.24131E5,6.8863E5,7.79352E5,2.137793E6,9.80121E5,9.99304E5,2.677632E6,1.4012406E7],"tree_param":{"num_deleted":"0","num_feature":"13","num_nodes":"127","size_leaf_vector":"0"}},{"base_weights":[-2.2669455E-1,-5.5208474E-1,6.613031E-2,-6.2341136E-1,-4.3498215E-1,-1.02470726E-1,1.142676E-1,-6.411153E-1,-5.077072E-1,-4.8863876E-1,-3.5166585E-1,-1.8732701E-1,-5.9838556E-2,-1.214048E-2,1.3446493E-1,-6.678766E-1,-5.2583224E-1,-4.76794E-1,-5.886615E-1,-3.634029E-1,-5.11655E-1,-3.8935745E-1,-3.050381E-1,-2.2536172E-1,-1.6268146E-1,-1.476644E-1,-3.4803797E-2,-8.842287E-2,1.6457237E-2,8.356174E-3,1.6319516E-1,-6.783502E-1,-6.1770976E-1,-4.8273036E-1,-6.1106706E-1,-5.1669025E-1,-4.2982647E-1,-6.4705336E-1,-5.6648207E-1,-3.1910047E-1,-3.994796E-1,-3.7961686E-1,-5.4907525E-1,-3.0797583E-1,-4.149027E-1,-2.6065755E-1,-3.190739E-1,-2.1708274E-1,-2.5205097E-1,-2.4175298E-1,-1.5065518E-1,-1.0823267E-1,-1.7830338E-1,4.4307066E-3,-1.4864948E-1,-1.2873356E-1,-5.4654185E-2,-7.7847415E-3,4.815662E-2,-7.471423E-2,4.126318E-2,9.520881E-2,1.7024845E-1,-2.0873329E-1,-1.9084877E-1,-1.7288834E-1,-2.0067641E-1,-1.5494812E-1,-1.24352746E-1,-1.9769324E-1,-1.7552026E-1,-1.662869E-1,-1.3888906E-1,-1.09996304E-1,-1.3912353E-1,-2.0259468E-1,-1.883437E-1,-1.5566623E-1,-1.7945291E-1,-8.3126776E-2,-1.0076097E-1,-1.2780742E-1,-1.04593076E-1,-9.27346E-2,-1.2641189E-1,-1.7087439E-1,-1.3612705E-1,-1.1383848E-1,-8.935009E-2,-9.938802E-2,-1.410782E-1,-9.172399E-2,-7.590194E-2,-8.018312E-2,-1.043717E-1,-7.231479E-2,-6.030354E-2,-8.092022E-2,-7.365935E-2,-8.1609055E-2,-6.5361865E-2,-6.3506715E-2,-3.6683116E-2,-4.2501748E-2,-1.8775385E-2,-6.601487E-2,-4.9409255E-2,5.3669475E-3,-2.8290339E-2,-5.8990642E-2,-3.217448E-2,-1.7709728E-2,-4.7071394E-2,-4.250771E-2,-1.0370073E-2,-1.2303548E-2,6.308837E-3,1.2288358E-3,1.75713E-2,-3.4132548E-2,-5.822172E-3,3.3126783E-2,8.530741E-3,4.035279E-2,2.0624194E-2,3.4517128E-2,5.3769264E-2],"categories":[],"categories_nodes":[],"categories_segments":[],"categories_sizes":[],"default_left":[0,0,0,0,0,0,0,0,0,0,0,0,0,0,0,0,0,0,0,0,0,0,0,0,0,0,0,0,0,0,0,0,0,0,0,0,0,0,0,0,0,0,0,0,0,0,0,0,0,0,0,0,0,0,0,0,0,0,0,0,0,0,0,0,0,0,0,0,0,0,0,0,0,0,0,0,0,0,0,0,0,0,0,0,0,0,0,0,0,0,0,0,0,0,0,0,0,0,0,0,0,0,0,0,0,0,0,0,0,0,0,0,0,0,0,0,0,0,0,0,0,0,0,0,0,0,0],"id":2,"left_children":[1,3,5,7,9,11,13,15,17,19,21,23,25,27,29,31,33,35,37,39,41,43,45,47,49,51,53,55,57,59,61,63,65,67,69,71,73,75,77,79,81,83,85,87,89,91,93,95,97,99,101,103,105,107,109,111,113,115,117,119,121,123,125,-1,-1,-1,-1,-1,-1,-1,-1,-1,-1,-1,-1,-1,-1,-1,-1,-1,-1,-1,-1,-1,-1,-1,-1,-1,-1,-1,-1,-1,-1,-1,-1,-1,-1,-1,-1,-1,-1,-1,-1,-1,-1,-1,-1,-1,-1,-1,-1,-1,-1,-1,-1,-1,-1,-1,-1,-1,-1,-1,-1,-1,-1,-1,-1],"loss_changes":[6.829909E6,2.8359E5,3.0620294E5,4.32215E4,5.74545E4,3.0313398E4,7.4930875E4,5.6458E4,7.00725E3,2.2533625E4,8.8480625E3,2.6266016E3,1.2262871E4,8.820469E3,9.168559E4,7.8035E3,1.2666125E4,3.7968438E3,1.00175E3,1.9396719E3,3.262875E4,5.7877188E3,1.4017969E3,2.4339062E2,1.6168594E3,1.4946582E3,1.9386146E4,1.5007441E3,2.2598843E3,1.28354375E4,9.8831875E3,9.034E3,5.4404375E3,5.2741875E3,1.4419688E3,2.2130625E3,1.9940625E3,1.15390625E2,8.45625E2,3.8367578E2,9.0253906E2,4.292875E3,1.005725E4,4.821211E2,9.80725E3,1.8646875E2,2.5532656E3,3.2383984E2,3.0003906E1,1.6223438E2,2.5561914E3,8.25751E2,3.9540234E2,4.2892207E3,2.2099355E3,9.8680176E2,1.0488834E3,1.5954537E3,5.8477E2,2.8781484E3,2.9835806E3,2.0146191E3,9.2570625E3,0E0,0E0,0E0,0E0,0E0,0E0,0E0,0E0,0E0,0E0,0E0,0E0,0E0,0E0,0E0,0E0,0E0,0E0,0E0,0E0,0E0,0E0,0E0,0E0,0E0,0E0,0E0,0E0,0E0,0E0,0E0,0E0,0E0,0E0,0E0,0E0,0E0,0E0,0E0,0E0,0E0,0E0,0E0,0E0,0E0,0E0,0E0,0E0,0E0,0E0,0E0,0E0,0E0,0E0,0E0,0E0,0E0,0E0,0E0,0E0,0E0,0E0,0E0,0E0],"parents":[2147483647,0,0,1,1,2,2,3,3,4,4,5,5,6,6,7,7,8,8,9,9,10,10,11,11,12,12,13,13,14,14,15,15,16,16,17,17,18,18,19,19,20,20,21,21,22,22,23,23,24,24,25,25,26,26,27,27,28,28,29,29,30,30,31,31,32,32,33,33,34,34,35,35,36,36,37,37,38,38,39,39,40,40,41,41,42,42,43,43,44,44,45,45,46,46,47,47,48,48,49,49,50,50,51,51,52,52,53,53,54,54,55,55,56,56,57,57,58,58,59,59,60,60,61,61,62,62],"right_children":[2,4,6,8,10,12,14,16,18,20,22,24,26,28,30,32,34,36,38,40,42,44,46,48,50,52,54,56,58,60,62,64,66,68,70,72,74,76,78,80,82,84,86,88,90,92,94,96,98,100,102,104,106,108,110,112,114,116,118,120,122,124,126,-1,-1,-1,-1,-1,-1,-1,-1,-1,-1,-1,-1,-1,-1,-1,-1,-1,-1,-1,-1,-1,-1,-1,-1,-1,-1,-1,-1,-1,-1,-1,-1,-1,-1,-1,-1,-1,-1,-1,-1,-1,-1,-1,-1,-1,-1,-1,-1,-1,-1,-1,-1,-1,-1,-1,-1,-1,-1,-1,-1,-1,-1,-1,-1],"split_conditions":[0E0,-7.611249E-2,4.116607E-2,-2.0737704E-2,-2.6993116E-2,1.2887394E-2,8.418485E-3,-3.999179E-2,-1.7243785E-1,-1.22155376E-1,-1.1784521E-2,4.2231544E-3,-2.6991665E-2,-8.011432E-2,1.8435579E-2,-7.810873E-2,-1.7249809E-1,-1.3924538E-1,-1.0923938E-1,-1.7614162E-1,-1.1174397E-1,-6.268103E-2,-5.0042164E-2,6.465703E-2,-7.219607E-2,9.397368E-2,8.2016066E-2,8.713966E-2,-1.6139586E-2,-6.4552724E-2,3.5341915E-2,-1.1948471E-1,-1.454084E-1,-1.2214928E-1,-1.0439348E-1,5.131998E-2,-2.6455972E-1,-1.3047121E-1,-1.3335763E-1,-2.6455972E-1,-4.657869E-2,-1.7990513E-1,1.27141895E-2,5.664371E-3,-5.0049514E-2,2.1190388E-2,-4.313833E-2,-3.5034627E-2,-9.73653E-2,-1.2486677E-1,-2.8560475E-2,2.544397E-2,-1.486043E-1,7.872269E-2,-6.643543E-2,1.5576574E-1,-2.3439373E-1,7.873319E-2,3.6789805E-2,1.0493346E-1,7.872607E-2,9.9338725E-2,5.2625142E-2,-2.0873329E-1,-1.9084877E-1,-1.7288834E-1,-2.0067641E-1,-1.5494812E-1,-1.24352746E-1,-1.9769324E-1,-1.7552026E-1,-1.662869E-1,-1.3888906E-1,-1.09996304E-1,-1.3912353E-1,-2.0259468E-1,-1.883437E-1,-1.5566623E-1,-1.7945291E-1,-8.3126776E-2,-1.0076097E-1,-1.2780742E-1,-1.04593076E-1,-9.27346E-2,-1.2641189E-1,-1.7087439E-1,-1.3612705E-1,-1.1383848E-1,-8.935009E-2,-9.938802E-2,-1.410782E-1,-9.172399E-2,-7.590194E-2,-8.018312E-2,-1.043717E-1,-7.231479E-2,-6.030354E-2,-8.092022E-2,-7.365935E-2,-8.1609055E-2,-6.5361865E-2,-6.3506715E-2,-3.6683116E-2,-4.2501748E-2,-1.8775385E-2,-6.601487E-2,-4.9409255E-2,5.3669475E-3,-2.8290339E-2,-5.8990642E-2,-3.217448E-2,-1.7709728E-2,-4.7071394E-2,-4.250771E-2,-1.0370073E-2,-1.2303548E-2,6.308837E-3,1.2288358E-3,1.75713E-2,-3.4132548E-2,-5.822172E-3,3.3126783E-2,8.530741E-3,4.035279E-2,2.0624194E-2,3.4517128E-2,5.3769264E-2],"split_indices":[0,0,0,2,0,0,1,1,1,1,0,0,1,1,2,2,2,0,0,1,2,1,1,1,2,2,1,0,1,2,1,1,1,0,0,2,1,0,1,1,0,2,2,2,2,2,2,1,2,2,1,0,1,2,2,2,1,0,10,0,1,2,2,0,0,0,0,0,0,0,0,0,0,0,0,0,0,0,0,0,0,0,0,0,0,0,0,0,0,0,0,0,0,0,0,0,0,0,0,0,0,0,0,0,0,0,0,0,0,0,0,0,0,0,0,0,0,0,0,0,0,0,0,0,0,0,0],"split_type":[0,0,0,0,0,0,0,0,0,0,0,0,0,0,0,0,0,0,0,0,0,0,0,0,0,0,0,0,0,0,0,0,0,0,0,0,0,0,0,0,0,0,0,0,0,0,0,0,0,0,0,0,0,0,0,0,0,0,0,0,0,0,0,0,0,0,0,0,0,0,0,0,0,0,0,0,0,0,0,0,0,0,0,0,0,0,0,0,0,0,0,0,0,0,0,0,0,0,0,0,0,0,0,0,0,0,0,0,0,0,0,0,0,0,0,0,0,0,0,0,0,0,0,0,0,0,0],"sum_hessian":[7.168075E7,3.3952436E7,3.772832E7,2.1100328E7,1.285211E7,8.379408E6,2.934891E7,1.8300196E7,2.800132E6,7.817529E6,5.034581E6,2.802075E6,5.577333E6,4.043299E6,2.5305612E7,1.485242E7,3.447775E6,2.026355E6,7.73777E5,1.213677E6,6.603852E6,2.784069E6,2.250512E6,1.101758E6,1.700317E6,1.237164E6,4.340169E6,1.102488E6,2.940811E6,4.695434E6,2.0610176E7,1.2287145E7,2.565275E6,2.289844E6,1.157931E6,1.095651E6,9.30704E5,2.12995E5,5.60782E5,5.44741E5,6.68936E5,1.458285E6,5.145567E6,6.65128E5,2.118941E6,5.40739E5,1.709773E6,8.40916E5,2.60842E5,2.24465E5,1.475852E6,5.40962E5,6.96202E5,3.227783E6,1.112386E6,5.02562E5,5.99926E5,1.666422E6,1.274389E6,1.332265E6,3.363169E6,1.937236E6,1.867294E7,8.695213E6,3.591932E6,1.418297E6,1.146978E6,1.531756E6,7.58088E5,4.07321E5,7.5061E5,6.44561E5,4.5109E5,3.25145E5,6.05559E5,8.6259E4,1.26736E5,2.24169E5,3.36613E5,1.55413E5,3.89328E5,4.39457E5,2.29479E5,5.42436E5,9.15849E5,4.234572E6,9.10995E5,8.2637E4,5.82491E5,8.44088E5,1.274853E6,7.844E4,4.62299E5,6.11397E5,1.098376E6,3.37536E5,5.0338E5,7.0255E4,1.90587E5,9.8971E4,1.25494E5,4.68413E5,1.007439E6,3.12232E5,2.2873E5,1.71127E5,5.25075E5,2.840559E6,3.87224E5,5.15219E5,5.97167E5,1.44656E5,3.57906E5,1.12492E5,4.87434E5,7.73946E5,8.92476E5,2.43635E5,1.030754E6,7.80811E5,5.51454E5,5.26189E5,2.83698E6,7.79509E5,1.157727E6,2.613658E6,1.6059283E7],"tree_param":{"num_deleted":"0","num_feature":"13","num_nodes":"127","size_leaf_vector":"0"}},{"base_weights":[-1.5868627E-1,-3.8827524E-1,4.4800404E-2,-4.2215222E-1,-2.7086604E-1,-4.3041315E-2,9.411194E-2,-4.343266E-1,-3.1377688E-1,-2.8561363E-1,-1.9627096E-1,-1.07245825E-1,9.69926E-4,1.2995588E-2,1.0637424E-1,-4.5556763E-1,-3.4682137E-1,-3.3121482E-1,-2.5904387E-1,-3.175612E-1,-2.1775404E-1,-2.1297424E-1,-1.4730273E-1,-1.4328165E-1,-7.758603E-2,1.9374214E-2,-9.6917264E-2,6.8511486E-2,-1.5181406E-2,3.2775007E-2,1.24054536E-1,-4.6542847E-1,-3.990779E-1,-3.7835342E-1,-2.8602505E-1,-3.237782E-1,-4.0516064E-1,-3.4013695E-1,-2.4791488E-1,-3.4070188E-1,-2.6207733E-1,-2.0643383E-1,-2.6577938E-1,-2.5601614E-1,-2.0374584E-1,-1.7473078E-1,-1.3784127E-1,-1.6407743E-1,-1.272945E-1,-6.0003575E-2,-1.3112289E-1,4.824629E-2,-8.165737E-2,-6.924868E-2,-1.7316014E-1,5.6120723E-2,1.3978134E-1,-5.5045977E-2,1.8923724E-2,7.692278E-2,-2.9077481E-2,9.2684165E-2,1.3164137E-1,-1.4155586E-1,-1.2721948E-1,-1.1351157E-1,-1.418587E-1,-1.0864312E-1,-1.345122E-1,-9.151821E-2,-6.087312E-2,-1.05877735E-1,-8.717395E-2,-1.2668063E-1,-1.1273479E-1,-9.791906E-2,-1.335989E-1,-7.84028E-2,-5.391025E-2,-7.684889E-2,-1.0684677E-1,-7.180069E-2,-9.207319E-2,-6.7056544E-2,-5.490921E-2,-9.873008E-2,-7.019823E-2,-6.927536E-2,-8.049595E-2,-5.394088E-2,-6.615897E-2,-5.4534953E-2,-1.6851993E-2,-4.5450736E-2,-3.716819E-2,-5.030895E-2,-4.611913E-2,-3.3706684E-2,-5.161372E-2,-3.745464E-2,-6.1016264E-3,-4.2633288E-2,-2.4963008E-2,-4.550235E-3,1.8346263E-2,-1.4013993E-2,-3.4626033E-2,-3.2677844E-2,-1.807388E-2,-4.9520593E-2,-8.1991166E-2,3.7049863E-2,1.3288044E-2,3.611202E-2,5.4288954E-2,-7.616199E-3,-3.40873E-2,1.9436883E-2,-5.1526204E-3,1.4354683E-2,3.1989086E-2,-3.154806E-2,3.0360352E-3,3.653585E-2,1.0609696E-2,2.9125523E-2,4.3178946E-2],"categories":[],"categories_nodes":[],"categories_segments":[],"categories_sizes":[],"default_left":[0,0,0,0,0,0,0,0,0,0,0,0,0,0,0,0,0,0,0,0,0,0,0,0,0,0,0,0,0,0,0,0,0,0,0,0,0,0,0,0,0,0,0,0,0,0,0,0,0,0,0,0,0,0,0,0,0,0,0,0,0,0,0,0,0,0,0,0,0,0,0,0,0,0,0,0,0,0,0,0,0,0,0,0,0,0,0,0,0,0,0,0,0,0,0,0,0,0,0,0,0,0,0,0,0,0,0,0,0,0,0,0,0,0,0,0,0,0,0,0,0,0,0,0,0,0,0],"id":3,"left_children":[1,3,5,7,9,11,13,15,17,19,21,23,25,27,29,31,33,35,37,39,41,43,45,47,49,51,53,55,57,59,61,63,65,67,69,71,73,75,77,79,81,83,85,87,89,91,93,95,97,99,101,103,105,107,109,111,113,115,117,119,121,123,125,-1,-1,-1,-1,-1,-1,-1,-1,-1,-1,-1,-1,-1,-1,-1,-1,-1,-1,-1,-1,-1,-1,-1,-1,-1,-1,-1,-1,-1,-1,-1,-1,-1,-1,-1,-1,-1,-1,-1,-1,-1,-1,-1,-1,-1,-1,-1,-1,-1,-1,-1,-1,-1,-1,-1,-1,-1,-1,-1,-1,-1,-1,-1,-1],"loss_changes":[3.3488025E6,1.33962E5,1.646036E5,3.44865E4,8.2968125E3,3.860659E4,2.4208344E4,4.3677E4,2.5193438E3,1.36514375E4,1.01823047E3,5.938918E3,1.4603345E4,4.9994365E3,2.7511094E4,1.053275E4,8.798875E3,1.1007344E3,5.7553125E2,5.496875E3,1.0957422E3,3.6867188E2,8.214844E1,8.340117E2,2.8690293E3,1.9903098E4,2.7062197E3,9.502007E2,2.882338E3,1.1182213E4,4.0571875E3,4.27775E3,4.293125E3,3.43025E3,2.4800156E3,1.7600312E3,9.178125E1,1.1109766E2,5.1366797E2,3.947125E3,1.2846875E3,6.5227344E2,7.7375E2,5.05459E1,3.0714258E2,6.789038E1,4.484082E1,4.0804688E1,9.481582E2,5.901369E3,3.9669336E2,4.343711E3,1.7891719E3,3.362085E2,2.7674707E2,7.3047314E2,1.2735034E2,1.6982112E3,1.8917255E3,2.0638564E3,5.0863843E3,5.537783E3,5.8290625E3,0E0,0E0,0E0,0E0,0E0,0E0,0E0,0E0,0E0,0E0,0E0,0E0,0E0,0E0,0E0,0E0,0E0,0E0,0E0,0E0,0E0,0E0,0E0,0E0,0E0,0E0,0E0,0E0,0E0,0E0,0E0,0E0,0E0,0E0,0E0,0E0,0E0,0E0,0E0,0E0,0E0,0E0,0E0,0E0,0E0,0E0,0E0,0E0,0E0,0E0,0E0,0E0,0E0,0E0,0E0,0E0,0E0,0E0,0E0,0E0,0E0,0E0,0E0,0E0],"parents":[2147483647,0,0,1,1,2,2,3,3,4,4,5,5,6,6,7,7,8,8,9,9,10,10,11,11,12,12,13,13,14,14,15,15,16,16,17,17,18,18,19,19,20,20,21,21,22,22,23,23,24,24,25,25,26,26,27,27,28,28,29,29,30,30,31,31,32,32,33,33,34,34,35,35,36,36,37,37,38,38,39,39,40,40,41,41,42,42,43,43,44,44,45,45,46,46,47,47,48,48,49,49,50,50,51,51,52,52,53,53,54,54,55,55,56,56,57,57,58,58,59,59,60,60,61,61,62,62],"right_children":[2,4,6,8,10,12,14,16,18,20,22,24,26,28,30,32,34,36,38,40,42,44,46,48,50,52,54,56,58,60,62,64,66,68,70,72,74,76,78,80,82,84,86,88,90,92,94,96,98,100,102,104,106,108,110,112,114,116,118,120,122,124,126,-1,-1,-1,-1,-1,-1,-1,-1,-1,-1,-1,-1,-1,-1,-1,-1,-1,-1,-1,-1,-1,-1,-1,-1,-1,-1,-1,-1,-1,-1,-1,-1,-1,-1,-1,-1,-1,-1,-1,-1,-1,-1,-1,-1,-1,-1,-1,-1,-1,-1,-1,-1,-1,-1,-1,-1,-1,-1,-1,-1,-1,-1,-1,-1],"split_conditions":[-1.4052262E-3,-4.3152105E-2,6.7697786E-2,1.699661E-2,5.5634428E-2,2.544397E-2,2.116792E-2,-2.2297673E-2,1.1707588E-1,2.6862908E-2,1.3965078E-1,1.00113405E-2,1.10875E-1,1.6168982E-1,3.821639E-2,-3.668329E-2,5.131784E-2,-8.011432E-2,-2.4559931E-1,1.2696818E-2,-3.999179E-2,-3.3256315E-2,-3.0118953E-2,2.7670192E-3,6.464297E-2,1.0324374E-1,1.8963037E-1,1.14815205E-1,1.2780333E-1,2.1597975E-1,7.3972255E-2,-5.7159945E-2,-7.809593E-2,-7.810873E-2,1.7126258E-1,-8.849031E-2,-5.179508E-2,-5.057034E-1,2.6602495E-1,-6.645165E-2,-3.668329E-2,-1.7672693E-2,-1.7672693E-2,-1.5512168E-1,-1.0440346E-1,-9.067493E-2,1.8578088E-1,1.3109981E-3,5.2619442E-2,-1.919995E-2,-7.274809E-3,-4.3579126E-3,1.4215966E-1,3.5342835E-2,-1.3294494E-2,7.3972486E-2,1.421514E-1,2.4442637E-1,3.0183887E-1,9.396824E-2,1.3482742E-1,1.6796853E-1,9.9338725E-2,-1.4155586E-1,-1.2721948E-1,-1.1351157E-1,-1.418587E-1,-1.0864312E-1,-1.345122E-1,-9.151821E-2,-6.087312E-2,-1.05877735E-1,-8.717395E-2,-1.2668063E-1,-1.1273479E-1,-9.791906E-2,-1.335989E-1,-7.84028E-2,-5.391025E-2,-7.684889E-2,-1.0684677E-1,-7.180069E-2,-9.207319E-2,-6.7056544E-2,-5.490921E-2,-9.873008E-2,-7.019823E-2,-6.927536E-2,-8.049595E-2,-5.394088E-2,-6.615897E-2,-5.4534953E-2,-1.6851993E-2,-4.5450736E-2,-3.716819E-2,-5.030895E-2,-4.611913E-2,-3.3706684E-2,-5.161372E-2,-3.745464E-2,-6.1016264E-3,-4.2633288E-2,-2.4963008E-2,-4.550235E-3,1.8346263E-2,-1.4013993E-2,-3.4626033E-2,-3.2677844E-2,-1.807388E-2,-4.9520593E-2,-8.1991166E-2,3.7049863E-2,1.3288044E-2,3.611202E-2,5.4288954E-2,-7.616199E-3,-3.40873E-2,1.9436883E-2,-5.1526204E-3,1.4354683E-2,3.1989086E-2,-3.154806E-2,3.0360352E-3,3.653585E-2,1.0609696E-2,2.9125523E-2,4.3178946E-2],"split_indices":[0,0,0,2,1,0,1,1,2,2,1,0,1,2,2,2,1,1,0,1,1,0,0,0,2,2,1,0,0,1,1,1,1,2,1,0,0,1,2,1,2,0,0,2,2,2,1,0,1,2,1,1,2,0,2,2,0,2,2,0,0,2,2,0,0,0,0,0,0,0,0,0,0,0,0,0,0,0,0,0,0,0,0,0,0,0,0,0,0,0,0,0,0,0,0,0,0,0,0,0,0,0,0,0,0,0,0,0,0,0,0,0,0,0,0,0,0,0,0,0,0,0,0,0,0,0,0],"split_type":[0,0,0,0,0,0,0,0,0,0,0,0,0,0,0,0,0,0,0,0,0,0,0,0,0,0,0,0,0,0,0,0,0,0,0,0,0,0,0,0,0,0,0,0,0,0,0,0,0,0,0,0,0,0,0,0,0,0,0,0,0,0,0,0,0,0,0,0,0,0,0,0,0,0,0,0,0,0,0,0,0,0,0,0,0,0,0,0,0,0,0,0,0,0,0,0,0,0,0,0,0,0,0,0,0,0,0,0,0,0,0,0,0,0,0,0,0,0,0,0,0,0,0,0,0,0,0],"sum_hessian":[7.168075E7,3.368021E7,3.8000544E7,2.6138312E7,7.541897E6,1.3662566E7,2.433798E7,2.3498592E7,2.639719E6,6.296969E6,1.244928E6,5.556552E6,8.106014E6,3.196015E6,2.1141964E7,1.8908688E7,4.589904E6,2.001907E6,6.37812E5,4.281351E6,2.015618E6,9.28283E5,3.16645E5,2.508631E6,3.047921E6,6.823157E6,1.282857E6,1.076006E6,2.120009E6,4.095072E6,1.7046892E7,1.6098522E7,2.810167E6,3.022353E6,1.567551E6,1.818981E6,1.82926E5,7.6965E4,5.60847E5,3.021267E6,1.260084E6,1.631142E6,3.84476E5,1.63885E5,7.64398E5,8.1209E4,2.35436E5,1.090335E6,1.418296E6,2.294401E6,7.5352E5,5.306659E6,1.516498E6,9.41271E5,3.41586E5,9.16643E5,1.59363E5,9.7747E5,1.142539E6,2.389526E6,1.705546E6,3.31985E6,1.3727043E7,1.3934306E7,2.164216E6,2.194371E6,6.15796E5,2.454212E6,5.68141E5,1.275437E6,2.92114E5,9.68578E5,8.50403E5,1.15596E5,6.733E4,6.8077E4,8.888E3,4.68601E5,9.2246E4,4.66943E5,2.554324E6,8.36019E5,4.24065E5,9.42766E5,6.88376E5,1.28492E5,2.55984E5,5.3918E4,1.09967E5,3.15022E5,4.49376E5,7.6649E4,4.56E3,1.18933E5,1.16503E5,8.07782E5,2.82553E5,1.063336E6,3.5496E5,8.70796E5,1.423605E6,6.12948E5,1.40572E5,8.9749E5,4.409169E6,7.45213E5,7.71285E5,1.74068E5,7.67203E5,3.16052E5,2.5534E4,1.36874E5,7.79769E5,1.08319E5,5.1044E4,6.48919E5,3.28551E5,5.03198E5,6.39341E5,1.207644E6,1.181882E6,5.79919E5,1.125627E6,2.201894E6,1.117956E6,3.600916E6,1.0126127E7],"tree_param":{"num_deleted":"0","num_feature":"13","num_nodes":"127","size_leaf_vector":"0"}},{"base_weights":[-1.1108042E-1,-2.73175E-1,3.0322745E-2,-3.1182882E-1,-2.2117735E-1,-6.3296854E-2,5.5369556E-2,-3.172438E-1,-2.3069322E-1,-2.4843565E-1,-1.8250786E-1,-9.906095E-2,-4.1353997E-2,-1.7946107E-2,6.440854E-2,-3.276448E-1,-2.6983866E-1,-2.1524873E-1,-2.9622734E-1,-1.5727226E-1,-2.6330003E-1,-1.344708E-1,-1.9443104E-1,-1.1117016E-1,-8.488124E-2,-2.4803754E-2,-8.640596E-2,-5.6836553E-2,-2.854405E-3,-3.1822303E-3,7.819014E-2,-3.3860192E-1,-2.9403943E-1,-2.2887638E-1,-3.2243758E-1,-2.544837E-1,-1.9175696E-1,-3.4155828E-1,-2.7552265E-1,-1.0509761E-1,-1.7785034E-1,-1.9016184E-1,-2.9085883E-1,-1.022245E-1,-1.4744082E-1,-1.455441E-1,-2.194868E-1,-1.2222962E-1,-1.07805654E-1,-7.1168646E-2,-1.22913145E-1,-7.879981E-2,1.1726867E-2,-7.578465E-2,-1.4090006E-1,-6.605469E-2,2.3011213E-2,8.211616E-2,-9.735859E-3,-6.8492845E-2,1.0998211E-2,7.293695E-2,1.16223946E-1,-1.05493836E-1,-9.369898E-2,-7.781096E-2,-9.9572904E-2,-7.6064534E-2,-5.504263E-2,-8.942815E-2,-1.0696184E-1,-7.231265E-2,-1.0230743E-1,-4.3694198E-2,-6.4235575E-2,-1.2949851E-1,-9.895895E-2,-7.555261E-2,-9.395096E-2,-2.3164919E-2,-3.6333624E-2,-5.0922357E-2,-5.925632E-2,-4.7232453E-2,-6.53794E-2,-7.379504E-2,-9.281272E-2,-3.553888E-2,-2.7327036E-2,-6.009852E-2,-4.140016E-2,-3.283367E-2,-4.6501715E-2,-7.676074E-2,-5.3969055E-2,-3.3903625E-2,-3.7883826E-2,-3.630645E-2,-3.0735873E-2,-1.278614E-2,-3.3996653E-2,-3.8648732E-2,-2.7769068E-2,-5.0923647E-3,-2.752506E-2,-1.08890915E-2,8.734655E-3,-2.554419E-2,-1.163471E-2,-4.0603027E-2,-6.986946E-2,-3.5383604E-2,-1.508241E-2,2.6363324E-2,1.6653983E-4,1.428393E-2,3.591391E-2,-9.388993E-3,4.9624154E-3,-4.0224437E-2,-1.4487513E-2,-3.6407073E-3,1.10641215E-2,2.3016524E-2,-3.7954233E-3,3.2082086E-3,3.87813E-2],"categories":[],"categories_nodes":[],"categories_segments":[],"categories_sizes":[],"default_left":[0,0,0,0,0,0,0,0,0,0,0,0,0,0,0,0,0,0,0,0,0,0,0,0,0,0,0,0,0,0,0,0,0,0,0,0,0,0,0,0,0,0,0,0,0,0,0,0,0,0,0,0,0,0,0,0,0,0,0,0,0,0,0,0,0,0,0,0,0,0,0,0,0,0,0,0,0,0,0,0,0,0,0,0,0,0,0,0,0,0,0,0,0,0,0,0,0,0,0,0,0,0,0,0,0,0,0,0,0,0,0,0,0,0,0,0,0,0,0,0,0,0,0,0,0,0,0],"id":4,"left_children":[1,3,5,7,9,11,13,15,17,19,21,23,25,27,29,31,33,35,37,39,41,43,45,47,49,51,53,55,57,59,61,63,65,67,69,71,73,75,77,79,81,83,85,87,89,91,93,95,97,99,101,103,105,107,109,111,113,115,117,119,121,123,125,-1,-1,-1,-1,-1,-1,-1,-1,-1,-1,-1,-1,-1,-1,-1,-1,-1,-1,-1,-1,-1,-1,-1,-1,-1,-1,-1,-1,-1,-1,-1,-1,-1,-1,-1,-1,-1,-1,-1,-1,-1,-1,-1,-1,-1,-1,-1,-1,-1,-1,-1,-1,-1,-1,-1,-1,-1,-1,-1,-1,-1,-1,-1,-1],"loss_changes":[1.6429722E6,6.712475E4,8.977074E4,8.416375E3,1.50103125E4,6.341328E3,2.0015727E4,8.854E3,1.2130117E3,1.13184375E4,3.37225E3,5.275703E2,3.7340264E3,1.9456621E3,2.5046695E4,5.422625E3,6.961703E3,8.939375E2,2.1444336E2,1.2572148E3,1.44753125E4,4.8965625E2,5.7778438E3,6.1652344E1,7.380947E2,7.2243086E3,7.787334E2,6.821516E2,1.3964592E3,4.2175444E3,4.4623594E3,3.80575E3,4.7541562E3,2.0346953E3,1.1742656E3,4.224629E2,6.255176E2,7.537695E1,1.3981348E2,1.478794E2,1.3391992E2,1.7858516E3,4.3343125E3,6.0710938E1,4.1684766E2,5.4591016E2,4.491953E3,1.4416504E1,8.987988E1,1.2518296E3,6.73291E1,1.183331E3,1.8242557E3,3.9008398E2,1.1215723E2,6.803274E2,1.3972163E2,2.3209705E2,1.25171E3,1.0763645E3,2.2402769E3,6.3568516E3,3.731871E3,0E0,0E0,0E0,0E0,0E0,0E0,0E0,0E0,0E0,0E0,0E0,0E0,0E0,0E0,0E0,0E0,0E0,0E0,0E0,0E0,0E0,0E0,0E0,0E0,0E0,0E0,0E0,0E0,0E0,0E0,0E0,0E0,0E0,0E0,0E0,0E0,0E0,0E0,0E0,0E0,0E0,0E0,0E0,0E0,0E0,0E0,0E0,0E0,0E0,0E0,0E0,0E0,0E0,0E0,0E0,0E0,0E0,0E0,0E0,0E0,0E0,0E0,0E0,0E0],"parents":[2147483647,0,0,1,1,2,2,3,3,4,4,5,5,6,6,7,7,8,8,9,9,10,10,11,11,12,12,13,13,14,14,15,15,16,16,17,17,18,18,19,19,20,20,21,21,22,22,23,23,24,24,25,25,26,26,27,27,28,28,29,29,30,30,31,31,32,32,33,33,34,34,35,35,36,36,37,37,38,38,39,39,40,40,41,41,42,42,43,43,44,44,45,45,46,46,47,47,48,48,49,49,50,50,51,51,52,52,53,53,54,54,55,55,56,56,57,57,58,58,59,59,60,60,61,61,62,62],"right_children":[2,4,6,8,10,12,14,16,18,20,22,24,26,28,30,32,34,36,38,40,42,44,46,48,50,52,54,56,58,60,62,64,66,68,70,72,74,76,78,80,82,84,86,88,90,92,94,96,98,100,102,104,106,108,110,112,114,116,118,120,122,124,126,-1,-1,-1,-1,-1,-1,-1,-1,-1,-1,-1,-1,-1,-1,-1,-1,-1,-1,-1,-1,-1,-1,-1,-1,-1,-1,-1,-1,-1,-1,-1,-1,-1,-1,-1,-1,-1,-1,-1,-1,-1,-1,-1,-1,-1,-1,-1,-1,-1,-1,-1,-1,-1,-1,-1,-1,-1,-1,-1,-1,-1,-1,-1,-1],"split_conditions":[-2.8714964E-3,-9.066802E-2,3.679715E-2,2.4189128E-2,-3.5039734E-2,1.1440891E-2,-8.689047E-3,-5.179054E-2,-2.1416648E-1,-1.4228949E-1,-7.610987E-2,4.2231544E-3,6.308822E-2,-9.737613E-2,1.14517175E-2,-8.848719E-2,-2.1412289E-1,-1.8381105E-1,-1.1947168E-1,-2.3435248E-1,-1.0438358E-1,-1.5512168E-1,-5.3559765E-2,-5.3559765E-2,5.131998E-2,-1.179784E-2,1.6797769E-1,2.3250489E-1,6.1746012E-2,-1.0440346E-1,3.6438972E-1,-1.4229494E-1,-1.8383265E-1,-1.485596E-1,-1.4228949E-1,-3.4573463E-1,-3.4573463E-1,-1.689321E-1,-1.5512045E-1,-3.125457E-1,-1.585216E-1,-1.5851215E-1,-8.4227614E-2,-2.3867218E-2,1.3161546E-3,-1.5512045E-1,-1.6130246E-2,0E0,-4.313833E-2,4.2617865E-2,-1.179784E-2,4.1161925E-2,-1.5905484E-3,0E0,-2.3869589E-2,-2.1416648E-1,4.986184E-1,5.131931E-2,8.882282E-2,-2.1412289E-1,8.370629E-2,3.3693776E-1,2.1107154E-1,-1.05493836E-1,-9.369898E-2,-7.781096E-2,-9.9572904E-2,-7.6064534E-2,-5.504263E-2,-8.942815E-2,-1.0696184E-1,-7.231265E-2,-1.0230743E-1,-4.3694198E-2,-6.4235575E-2,-1.2949851E-1,-9.895895E-2,-7.555261E-2,-9.395096E-2,-2.3164919E-2,-3.6333624E-2,-5.0922357E-2,-5.925632E-2,-4.7232453E-2,-6.53794E-2,-7.379504E-2,-9.281272E-2,-3.553888E-2,-2.7327036E-2,-6.009852E-2,-4.140016E-2,-3.283367E-2,-4.6501715E-2,-7.676074E-2,-5.3969055E-2,-3.3903625E-2,-3.7883826E-2,-3.630645E-2,-3.0735873E-2,-1.278614E-2,-3.3996653E-2,-3.8648732E-2,-2.7769068E-2,-5.0923647E-3,-2.752506E-2,-1.08890915E-2,8.734655E-3,-2.554419E-2,-1.163471E-2,-4.0603027E-2,-6.986946E-2,-3.5383604E-2,-1.508241E-2,2.6363324E-2,1.6653983E-4,1.428393E-2,3.591391E-2,-9.388993E-3,4.9624154E-3,-4.0224437E-2,-1.4487513E-2,-3.6407073E-3,1.10641215E-2,2.3016524E-2,-3.7954233E-3,3.2082086E-3,3.87813E-2],"split_indices":[0,0,0,2,0,0,1,1,1,2,2,0,1,1,2,2,2,0,0,2,1,2,1,1,2,1,1,0,2,2,0,1,1,0,2,1,1,0,1,2,2,1,2,0,1,1,0,0,2,1,1,2,2,2,2,1,2,0,0,2,0,1,2,0,0,0,0,0,0,0,0,0,0,0,0,0,0,0,0,0,0,0,0,0,0,0,0,0,0,0,0,0,0,0,0,0,0,0,0,0,0,0,0,0,0,0,0,0,0,0,0,0,0,0,0,0,0,0,0,0,0,0,0,0,0,0,0],"split_type":[0,0,0,0,0,0,0,0,0,0,0,0,0,0,0,0,0,0,0,0,0,0,0,0,0,0,0,0,0,0,0,0,0,0,0,0,0,0,0,0,0,0,0,0,0,0,0,0,0,0,0,0,0,0,0,0,0,0,0,0,0,0,0,0,0,0,0,0,0,0,0,0,0,0,0,0,0,0,0,0,0,0,0,0,0,0,0,0,0,0,0,0,0,0,0,0,0,0,0,0,0,0,0,0,0,0,0,0,0,0,0,0,0,0,0,0,0,0,0,0,0,0,0,0,0,0,0],"sum_hessian":[7.168075E7,3.3396904E7,3.8283852E7,1.9156456E7,1.4240449E7,8.080537E6,3.0203314E7,1.795794E7,1.198515E6,8.352634E6,5.887815E6,3.072593E6,5.007944E6,3.31502E6,2.6888294E7,1.4726784E7,3.231156E6,9.69934E5,2.28581E5,1.170984E6,7.18165E6,1.170804E6,4.717011E6,1.657291E6,1.415302E6,3.662495E6,1.345449E6,9.26774E5,2.388246E6,4.553926E6,2.2334368E7,1.1105724E7,3.62106E6,1.816518E6,1.414638E6,3.63246E5,6.06688E5,7.1664E4,1.56917E5,3.31214E5,8.3977E5,1.96548E6,5.21617E6,3.3584E5,8.34964E5,1.598379E6,3.118632E6,3.86568E5,1.270723E6,1.040241E6,3.75061E5,1.477942E6,2.184553E6,1.125988E6,2.19461E5,8.30855E5,9.5919E4,1.78924E5,2.209322E6,8.12376E5,3.74155E6,1.9623934E7,2.710434E6,7.421097E6,3.684627E6,1.89042E6,1.73064E6,1.176936E6,6.39582E5,8.25419E5,5.89219E5,3.14415E5,4.8831E4,1.98137E5,4.08551E5,8.229E3,6.3435E4,9.6331E4,6.0586E4,1.20839E5,2.10375E5,5.94642E5,2.45128E5,9.0231E5,1.06317E6,1.523648E6,3.692522E6,1.36605E5,1.99235E5,1.26462E5,7.08502E5,3.31943E5,1.266436E6,1.625149E6,1.493483E6,1.18007E5,2.68561E5,3.66304E5,9.04419E5,6.2021E5,4.20031E5,3.13875E5,6.1186E4,2.55965E5,1.221977E6,5.80721E5,1.603832E6,8.98612E5,2.27376E5,2.06963E5,1.2498E4,1.93744E5,6.37111E5,2.4666E4,7.1253E4,9.3302E4,8.5622E4,1.213572E6,9.9575E5,1.91291E5,6.21085E5,1.975668E6,1.765882E6,1.8792896E7,8.31037E5,2.9823E5,2.412204E6],"tree_param":{"num_deleted":"0","num_feature":"13","num_nodes":"127","size_leaf_vector":"0"}},{"base_weights":[-7.775632E-2,-1.9310902E-1,1.972295E-2,-2.1462181E-1,-1.4981817E-1,-2.3365572E-2,4.9625292E-2,-2.1963648E-1,-1.5837489E-1,-1.625721E-1,-1.1287667E-1,-5.5359107E-2,1.7410734E-3,7.1843434E-3,5.6168053E-2,-2.2481047E-1,-1.581415E-1,-9.627644E-2,-1.6955388E-1,-1.8738888E-1,-1.1539591E-1,-1.2109573E-1,-7.68664E-2,-7.667952E-2,-4.1352864E-2,1.6191114E-2,-5.1891953E-2,3.7107233E-2,-1.6194757E-2,1.9121708E-2,6.56724E-2,-2.2757739E-1,-1.7288344E-1,-8.9500524E-2,-1.6657303E-1,-1.8550754E-1,-8.894593E-2,-1.1985825E-1,-1.848909E-1,-1.4293063E-1,-1.9931366E-1,-1.0957983E-1,-1.6083802E-1,-1.13073096E-1,-1.4236692E-1,-8.290049E-2,-1.4936586E-2,-8.187666E-2,-6.8968706E-2,-8.400452E-2,-3.2799438E-2,4.300414E-2,-3.6796328E-2,-3.4410194E-2,-1.02539614E-1,2.61536E-2,8.038419E-2,-4.4965375E-2,1.8309291E-2,6.605796E-2,-1.4401955E-2,2.1738936E-3,6.789241E-2,-6.9145516E-2,-5.177388E-2,-4.388476E-2,-5.84227E-2,-5.921122E-2,-2.3827901E-2,-3.7558254E-2,-5.4893028E-2,-3.279244E-2,-6.556349E-2,-1.2232423E-2,-3.0546697E-2,-2.5939303E-2,-3.9261274E-2,-4.5426294E-2,-5.8825742E-2,-5.3977985E-2,-3.6079757E-2,-4.1669946E-2,-6.436009E-2,-3.8490873E-2,-2.9814007E-2,-5.2749302E-2,-3.1515803E-2,-3.893771E-2,-2.9990189E-2,-5.2057527E-2,-3.7475593E-2,-2.80098E-2,-1.7010417E-2,2.2733721E-3,-1.725847E-2,-2.5399363E-2,-2.000106E-2,-2.8694944E-2,-1.7324978E-2,9.814344E-4,-2.5947655E-2,-3.5636008E-3,-2.0946573E-2,-3.7790448E-3,1.4666914E-2,-3.6321378E-3,-1.9905968E-2,-9.3189785E-3,-3.497608E-2,-2.7896093E-2,-5.5494394E-2,1.4768488E-2,1.054613E-3,1.9892704E-2,3.8493488E-2,-7.6191733E-3,-2.5101187E-2,1.759533E-2,-3.5536648E-3,3.0132694E-2,1.5230903E-2,-1.5811002E-2,1.4635562E-3,8.264659E-3,-7.5482875E-3,-4.1530188E-4,2.0995434E-2],"categories":[],"categories_nodes":[],"categories_segments":[],"categories_sizes":[],"default_left":[0,0,0,0,0,0,0,0,0,0,0,0,0,0,0,0,0,0,0,0,0,0,0,0,0,0,0,0,0,0,0,0,0,0,0,0,0,0,0,0,0,0,0,0,0,0,0,0,0,0,0,0,0,0,0,0,0,0,0,0,0,0,0,0,0,0,0,0,0,0,0,0,0,0,0,0,0,0,0,0,0,0,0,0,0,0,0,0,0,0,0,0,0,0,0,0,0,0,0,0,0,0,0,0,0,0,0,0,0,0,0,0,0,0,0,0,0,0,0,0,0,0,0,0,0,0,0],"id":5,"left_children":[1,3,5,7,9,11,13,15,17,19,21,23,25,27,29,31,33,35,37,39,41,43,45,47,49,51,53,55,57,59,61,63,65,67,69,71,73,75,77,79,81,83,85,87,89,91,93,95,97,99,101,103,105,107,109,111,113,115,117,119,121,123,125,-1,-1,-1,-1,-1,-1,-1,-1,-1,-1,-1,-1,-1,-1,-1,-1,-1,-1,-1,-1,-1,-1,-1,-1,-1,-1,-1,-1,-1,-1,-1,-1,-1,-1,-1,-1,-1,-1,-1,-1,-1,-1,-1,-1,-1,-1,-1,-1,-1,-1,-1,-1,-1,-1,-1,-1,-1,-1,-1,-1,-1,-1,-1,-1],"loss_changes":[8.06014E5,3.0575375E4,5.005648E4,6.1860625E3,5.1349062E3,1.2784423E4,6.3684297E3,6.40675E3,1.2462578E3,9.485078E3,8.2783984E2,2.0897676E3,6.911247E3,2.143027E3,6.9966094E3,2.66875E3,9.044219E2,1.7913281E2,1.1595469E3,2.8145156E3,7.3808984E2,3.8860547E2,1.9423413E2,1.1118262E2,1.5408135E3,9.980841E3,1.6758247E3,6.3693384E2,1.7071666E3,6.3837544E3,2.2292422E3,2.8199375E3,5.463379E2,1.8576953E2,9.446719E2,5.231598E1,1.5698206E2,1.3193896E2,4.3558594E2,9.4146875E2,3.8490781E3,4.728047E2,2.6501562E2,3.6232812E2,3.3904297E2,1.2985767E2,4.4254066E1,7.026074E1,3.3438916E2,1.531748E2,2.7248372E3,1.5264658E3,1.7224812E3,3.869917E2,3.8245996E2,5.60108E2,1.8306763E2,7.1025574E2,9.512375E2,8.8859814E2,1.7477424E3,3.705358E2,2.214836E3,0E0,0E0,0E0,0E0,0E0,0E0,0E0,0E0,0E0,0E0,0E0,0E0,0E0,0E0,0E0,0E0,0E0,0E0,0E0,0E0,0E0,0E0,0E0,0E0,0E0,0E0,0E0,0E0,0E0,0E0,0E0,0E0,0E0,0E0,0E0,0E0,0E0,0E0,0E0,0E0,0E0,0E0,0E0,0E0,0E0,0E0,0E0,0E0,0E0,0E0,0E0,0E0,0E0,0E0,0E0,0E0,0E0,0E0,0E0,0E0,0E0,0E0,0E0,0E0],"parents":[2147483647,0,0,1,1,2,2,3,3,4,4,5,5,6,6,7,7,8,8,9,9,10,10,11,11,12,12,13,13,14,14,15,15,16,16,17,17,18,18,19,19,20,20,21,21,22,22,23,23,24,24,25,25,26,26,27,27,28,28,29,29,30,30,31,31,32,32,33,33,34,34,35,35,36,36,37,37,38,38,39,39,40,40,41,41,42,42,43,43,44,44,45,45,46,46,47,47,48,48,49,49,50,50,51,51,52,52,53,53,54,54,55,55,56,56,57,57,58,58,59,59,60,60,61,61,62,62],"right_children":[2,4,6,8,10,12,14,16,18,20,22,24,26,28,30,32,34,36,38,40,42,44,46,48,50,52,54,56,58,60,62,64,66,68,70,72,74,76,78,80,82,84,86,88,90,92,94,96,98,100,102,104,106,108,110,112,114,116,118,120,122,124,126,-1,-1,-1,-1,-1,-1,-1,-1,-1,-1,-1,-1,-1,-1,-1,-1,-1,-1,-1,-1,-1,-1,-1,-1,-1,-1,-1,-1,-1,-1,-1,-1,-1,-1,-1,-1,-1,-1,-1,-1,-1,-1,-1,-1,-1,-1,-1,-1,-1,-1,-1,-1,-1,-1,-1,-1,-1,-1,-1,-1,-1,-1,-1,-1],"split_conditions":[-5.823839E-3,-7.026095E-2,7.559451E-2,-5.8969714E-2,1.9822443E-2,2.8432248E-2,2.6875092E-2,-5.7155717E-2,-2.577962E-1,1.8435579E-2,1.23290785E-1,7.039344E-3,9.936225E-2,1.9361162E-1,4.6860076E-2,-6.079356E-2,-2.863095E-1,-1.9614714E-1,-2.0049463E-1,-7.413779E-2,-3.3245813E-2,-5.534049E-2,-9.067493E-2,1.3109981E-3,-5.179054E-2,8.7134875E-2,1.7828222E-1,1.21091455E-1,1.5871176E-1,1.7471397E-1,5.5638455E-2,-6.082761E-2,-1.5183313E-1,-2.0946068E-1,-2.0049463E-1,-6.379224E-1,-4.688822E-1,-3.9316803E-1,-1.5182039E-1,-1.9205805E-2,-7.6108105E-2,-4.166657E-2,6.0205717E-2,-3.8322676E-2,-2.3867218E-2,2.1108547E-1,-1.4812487E-2,6.30873E-2,-2.856695E-2,-1.5905484E-3,5.131784E-2,7.0169573E-3,1.3249615E-1,7.23506E-2,-1.3294494E-2,1.348471E-1,1.5871176E-1,2.832265E-1,3.502316E-1,1.0689177E-1,1.2553595E-1,1.447189E-1,5.26222E-2,-6.9145516E-2,-5.177388E-2,-4.388476E-2,-5.84227E-2,-5.921122E-2,-2.3827901E-2,-3.7558254E-2,-5.4893028E-2,-3.279244E-2,-6.556349E-2,-1.2232423E-2,-3.0546697E-2,-2.5939303E-2,-3.9261274E-2,-4.5426294E-2,-5.8825742E-2,-5.3977985E-2,-3.6079757E-2,-4.1669946E-2,-6.436009E-2,-3.8490873E-2,-2.9814007E-2,-5.2749302E-2,-3.1515803E-2,-3.893771E-2,-2.9990189E-2,-5.2057527E-2,-3.7475593E-2,-2.80098E-2,-1.7010417E-2,2.2733721E-3,-1.725847E-2,-2.5399363E-2,-2.000106E-2,-2.8694944E-2,-1.7324978E-2,9.814344E-4,-2.5947655E-2,-3.5636008E-3,-2.0946573E-2,-3.7790448E-3,1.4666914E-2,-3.6321378E-3,-1.9905968E-2,-9.3189785E-3,-3.497608E-2,-2.7896093E-2,-5.5494394E-2,1.4768488E-2,1.054613E-3,1.9892704E-2,3.8493488E-2,-7.6191733E-3,-2.5101187E-2,1.759533E-2,-3.5536648E-3,3.0132694E-2,1.5230903E-2,-1.5811002E-2,1.4635562E-3,8.264659E-3,-7.5482875E-3,-4.1530188E-4,2.0995434E-2],"split_indices":[0,0,0,6,1,0,1,5,2,2,1,0,1,2,2,9,2,1,1,2,1,2,2,0,1,2,1,0,0,1,6,10,1,1,1,5,2,1,2,1,1,0,2,0,0,1,0,2,2,2,1,9,2,2,2,2,0,2,2,1,0,5,5,0,0,0,0,0,0,0,0,0,0,0,0,0,0,0,0,0,0,0,0,0,0,0,0,0,0,0,0,0,0,0,0,0,0,0,0,0,0,0,0,0,0,0,0,0,0,0,0,0,0,0,0,0,0,0,0,0,0,0,0,0,0,0,0],"split_type":[0,0,0,0,0,0,0,0,0,0,0,0,0,0,0,0,0,0,0,0,0,0,0,0,0,0,0,0,0,0,0,0,0,0,0,0,0,0,0,0,0,0,0,0,0,0,0,0,0,0,0,0,0,0,0,0,0,0,0,0,0,0,0,0,0,0,0,0,0,0,0,0,0,0,0,0,0,0,0,0,0,0,0,0,0,0,0,0,0,0,0,0,0,0,0,0,0,0,0,0,0,0,0,0,0,0,0,0,0,0,0,0,0,0,0,0,0,0,0,0,0,0,0,0,0,0,0],"sum_hessian":[7.168075E7,3.2830536E7,3.8850216E7,2.1931816E7,1.0898721E7,1.5915862E7,2.2934356E7,2.0136548E7,1.795267E6,8.10165E6,2.797071E6,6.998119E6,8.917743E6,3.063346E6,1.987101E7,1.857381E7,1.562739E6,2.73882E5,1.521385E6,5.308919E6,2.792731E6,2.277294E6,5.19777E5,2.774599E6,4.22352E6,7.02503E6,1.892713E6,1.343632E6,1.719714E6,4.057104E6,1.5813906E7,1.7634172E7,9.39637E5,1.70961E5,1.391778E6,2.079E4,2.53092E5,3.58799E5,1.162586E6,1.122817E6,4.186102E6,2.475853E6,3.16878E5,1.653621E6,6.23673E5,4.73629E5,4.6148E4,1.657454E6,1.117145E6,7.05506E5,3.518014E6,4.664614E6,2.360416E6,1.407051E6,4.85662E5,1.072243E6,2.71389E5,9.3777E5,7.81944E5,1.690394E6,2.36671E6,5.34203E5,1.5279703E7,1.6748686E7,8.85487E5,4.23848E5,5.15789E5,1.4601E4,1.5636E5,3.9511E5,9.96668E5,6.289E3,1.4501E4,5.3384E4,1.99708E5,8.8983E4,2.69816E5,2.91397E5,8.71189E5,4.26549E5,6.96268E5,8.42381E5,3.343721E6,8.73119E5,1.602734E6,2.49752E5,6.7126E4,7.26634E5,9.26987E5,2.23877E5,3.99796E5,3.38435E5,1.35194E5,3.019E4,1.5958E4,1.400659E6,2.56795E5,3.30685E5,7.8646E5,1.9552E4,6.85954E5,2.247814E6,1.2702E6,4.46503E5,4.218111E6,1.286113E6,1.074303E6,1.351988E6,5.5063E4,4.35233E5,5.0429E4,5.31002E5,5.41241E5,2.09783E5,6.1606E4,6.22869E5,3.14901E5,3.34475E5,4.47469E5,5.20269E5,1.170125E6,7.92459E5,1.574251E6,2.77033E5,2.5717E5,4.47964E5,1.4831739E7],"tree_param":{"num_deleted":"0","num_feature":"13","num_nodes":"127","size_leaf_vector":"0"}},{"base_weights":[-5.442945E-2,-1.3593708E-1,1.3273701E-2,-1.5695333E-1,-1.1393064E-1,-3.6838178E-2,2.6993454E-2,-1.6059092E-1,-1.188164E-1,-6.398445E-2,-1.20975144E-1,-4.9723417E-2,-2.21965E-2,6.5512084E-3,3.7729245E-2,-1.6498007E-1,-1.1707391E-1,-6.1374076E-2,-1.3644439E-1,-3.1779084E-2,-7.408675E-2,-7.100399E-2,-1.3075031E-1,-5.9421513E-2,-4.4681486E-2,-1.0928866E-2,-5.468988E-2,1.6023304E-2,-5.2000236E-2,-1.185182E-2,4.1236944E-2,-1.7023614E-1,-1.4554663E-1,-8.331727E-2,-1.3312992E-1,-1.5389822E-1,-5.139661E-2,-8.702699E-2,-1.4809522E-1,6.227484E-3,-4.368065E-2,-4.6134923E-2,-8.102828E-2,-4.9408462E-2,-8.259881E-2,-1.5343785E-1,-1.0039877E-1,-4.7100324E-2,-6.420158E-2,-5.768493E-2,-3.2661457E-2,1.3726857E-2,-4.6033762E-2,-4.8485745E-2,-7.054527E-2,3.1164E-2,-3.6337815E-2,-3.8813267E-2,-1.0442981E-1,5.9339693E-3,-6.528686E-2,-1.1434563E-2,4.5258794E-2,-5.505843E-2,-4.3260567E-2,-3.3541538E-2,-6.1865974E-2,-4.826127E-2,-2.2265738E-2,-1.8353378E-2,-4.464771E-2,-2.9954249E-2,-5.3839315E-2,-6.4570415E-3,-2.0828089E-2,-3.4861676E-2,-2.0405985E-2,-3.4934957E-2,-4.8292E-2,3.0128574E-2,-1.000869E-3,-2.225517E-3,-1.5497478E-2,-4.391224E-3,-1.690811E-2,-3.3310834E-2,-2.0862387E-2,1.0259806E-3,-1.6030744E-2,-2.7819818E-2,-2.0748517E-2,-4.7576804E-2,-3.2793134E-2,-2.3571033E-2,-3.3210784E-2,-1.5533387E-2,-1.1321129E-2,-1.4677231E-2,-2.1028642E-2,-1.4815201E-2,-2.0197803E-2,-1.8137095E-2,-1.8797385E-3,-6.7867255E-3,8.132581E-3,-2.6721576E-2,-1.1843578E-2,-1.1737923E-2,-1.8688442E-2,-1.8501947E-2,-2.6727712E-2,-4.890878E-3,1.0768969E-2,-6.7531825E-3,-1.8884914E-2,-9.9542625E-3,-3.3915456E-2,-2.5653748E-2,-5.3992078E-2,5.3104903E-3,-1.1182798E-2,-2.7892197E-2,-2.7598138E-3,3.8150402E-3,-9.216841E-3,8.049253E-3,1.513825E-2],"categories":[],"categories_nodes":[],"categories_segments":[],"categories_sizes":[],"default_left":[0,0,0,0,0,0,0,0,0,0,0,0,0,0,0,0,0,0,0,0,0,0,0,0,0,0,0,0,0,0,0,0,0,0,0,0,0,0,0,0,0,0,0,0,0,0,0,0,0,0,0,0,0,0,0,0,0,0,0,0,0,0,0,0,0,0,0,0,0,0,0,0,0,0,0,0,0,0,0,0,0,0,0,0,0,0,0,0,0,0,0,0,0,0,0,0,0,0,0,0,0,0,0,0,0,0,0,0,0,0,0,0,0,0,0,0,0,0,0,0,0,0,0,0,0,0,0],"id":6,"left_children":[1,3,5,7,9,11,13,15,17,19,21,23,25,27,29,31,33,35,37,39,41,43,45,47,49,51,53,55,57,59,61,63,65,67,69,71,73,75,77,79,81,83,85,87,89,91,93,95,97,99,101,103,105,107,109,111,113,115,117,119,121,123,125,-1,-1,-1,-1,-1,-1,-1,-1,-1,-1,-1,-1,-1,-1,-1,-1,-1,-1,-1,-1,-1,-1,-1,-1,-1,-1,-1,-1,-1,-1,-1,-1,-1,-1,-1,-1,-1,-1,-1,-1,-1,-1,-1,-1,-1,-1,-1,-1,-1,-1,-1,-1,-1,-1,-1,-1,-1,-1,-1,-1,-1,-1,-1,-1],"loss_changes":[3.9555756E5,1.5042375E4,2.6920781E4,2.3079062E3,5.5901406E3,1.587793E3,6.74634E3,2.9009375E3,1.4668926E3,6.389429E2,6.801578E3,2.1888867E2,1.4423593E3,5.8704927E3,3.505287E3,1.4091875E3,7.541875E2,3.1402698E2,6.382012E2,2.1212E2,2.900586E2,5.7043555E2,8.0194062E3,9.0180664E1,4.6035742E2,2.5318577E3,9.9778076E1,7.2231074E3,1.01905396E3,1.2656235E3,3.9874902E3,3.7577812E3,6.012797E3,3.164663E2,1.0649492E3,4.5738464E1,1.6539032E2,1.17280396E2,3.655371E2,1.0074846E2,1.03307495E2,9.5784485E1,4.1278564E2,1.693252E2,2.0183594E2,1.5149375E3,1.1204453E3,1.8743774E1,9.933545E1,1.1322168E2,1.1229274E3,8.358251E2,3.4047852E2,9.42262E1,4.693799E1,1.5876348E3,7.519851E2,4.924463E2,4.2330273E2,5.0804163E2,5.164335E2,6.220524E2,1.6764609E3,0E0,0E0,0E0,0E0,0E0,0E0,0E0,0E0,0E0,0E0,0E0,0E0,0E0,0E0,0E0,0E0,0E0,0E0,0E0,0E0,0E0,0E0,0E0,0E0,0E0,0E0,0E0,0E0,0E0,0E0,0E0,0E0,0E0,0E0,0E0,0E0,0E0,0E0,0E0,0E0,0E0,0E0,0E0,0E0,0E0,0E0,0E0,0E0,0E0,0E0,0E0,0E0,0E0,0E0,0E0,0E0,0E0,0E0,0E0,0E0,0E0,0E0,0E0,0E0],"parents":[2147483647,0,0,1,1,2,2,3,3,4,4,5,5,6,6,7,7,8,8,9,9,10,10,11,11,12,12,13,13,14,14,15,15,16,16,17,17,18,18,19,19,20,20,21,21,22,22,23,23,24,24,25,25,26,26,27,27,28,28,29,29,30,30,31,31,32,32,33,33,34,34,35,35,36,36,37,37,38,38,39,39,40,40,41,41,42,42,43,43,44,44,45,45,46,46,47,47,48,48,49,49,50,50,51,51,52,52,53,53,54,54,55,55,56,56,57,57,58,58,59,59,60,60,61,61,62,62],"right_children":[2,4,6,8,10,12,14,16,18,20,22,24,26,28,30,32,34,36,38,40,42,44,46,48,50,52,54,56,58,60,62,64,66,68,70,72,74,76,78,80,82,84,86,88,90,92,94,96,98,100,102,104,106,108,110,112,114,116,118,120,122,124,126,-1,-1,-1,-1,-1,-1,-1,-1,-1,-1,-1,-1,-1,-1,-1,-1,-1,-1,-1,-1,-1,-1,-1,-1,-1,-1,-1,-1,-1,-1,-1,-1,-1,-1,-1,-1,-1,-1,-1,-1,-1,-1,-1,-1,-1,-1,-1,-1,-1,-1,-1,-1,-1,-1,-1,-1,-1,-1,-1,-1,-1,-1,-1,-1],"split_conditions":[-7.4291783E-3,-1.1174457E-1,3.406383E-2,-9.513347E-2,-1.485565E-1,1.4136494E-2,9.2185654E-2,-9.7347975E-2,-2.7880988E-1,-2.5152776E-1,-1.3629061E-1,-2.0738633E-2,6.769686E-2,1.3248198E-1,6.620493E-2,-9.9677965E-2,-2.456105E-1,-1.9614714E-1,-2.456105E-1,6.769882E-2,-1.179784E-2,-2.0946068E-1,-3.998573E-2,-1.4052262E-3,2.7670192E-3,5.413006E-2,5.1320333E-2,1.1481487E-1,2.3249365E-1,2.5122952E-1,6.9351405E-2,-1.3048348E-1,-1.9617629E-1,-1.7249809E-1,-2.577962E-1,-5.547747E-1,-4.1322488E-1,-2.0493153E-1,-1.919844E-1,-1.3298362E-2,-3.9310008E-1,-1.878403E-1,-8.4246166E-2,1.310376E-3,-6.454382E-2,-2.229587E-2,-4.6557665E-2,8.03311E-2,2.978582E-2,-1.919995E-2,-1.4825792E-2,-7.274809E-3,-1.3337031E-1,1.1286244E-1,-3.5034627E-2,1.4124801E-2,1.7827551E-1,5.2625142E-2,-6.4552724E-2,2.0644899E-1,2.2140037E-1,1.5867504E-1,8.2016066E-2,-5.505843E-2,-4.3260567E-2,-3.3541538E-2,-6.1865974E-2,-4.826127E-2,-2.2265738E-2,-1.8353378E-2,-4.464771E-2,-2.9954249E-2,-5.3839315E-2,-6.4570415E-3,-2.0828089E-2,-3.4861676E-2,-2.0405985E-2,-3.4934957E-2,-4.8292E-2,3.0128574E-2,-1.000869E-3,-2.225517E-3,-1.5497478E-2,-4.391224E-3,-1.690811E-2,-3.3310834E-2,-2.0862387E-2,1.0259806E-3,-1.6030744E-2,-2.7819818E-2,-2.0748517E-2,-4.7576804E-2,-3.2793134E-2,-2.3571033E-2,-3.3210784E-2,-1.5533387E-2,-1.1321129E-2,-1.4677231E-2,-2.1028642E-2,-1.4815201E-2,-2.0197803E-2,-1.8137095E-2,-1.8797385E-3,-6.7867255E-3,8.132581E-3,-2.6721576E-2,-1.1843578E-2,-1.1737923E-2,-1.8688442E-2,-1.8501947E-2,-2.6727712E-2,-4.890878E-3,1.0768969E-2,-6.7531825E-3,-1.8884914E-2,-9.9542625E-3,-3.3915456E-2,-2.5653748E-2,-5.3992078E-2,5.3104903E-3,-1.1182798E-2,-2.7892197E-2,-2.7598138E-3,3.8150402E-3,-9.216841E-3,8.049253E-3,1.513825E-2],"split_indices":[0,0,0,10,2,0,0,9,2,2,1,1,2,1,9,1,1,1,1,1,1,1,0,0,0,1,9,2,1,1,10,2,2,2,2,9,2,0,2,1,2,2,0,2,0,5,2,2,2,2,2,1,2,2,1,10,2,2,2,2,0,9,1,0,0,0,0,0,0,0,0,0,0,0,0,0,0,0,0,0,0,0,0,0,0,0,0,0,0,0,0,0,0,0,0,0,0,0,0,0,0,0,0,0,0,0,0,0,0,0,0,0,0,0,0,0,0,0,0,0,0,0,0,0,0,0,0],"split_type":[0,0,0,0,0,0,0,0,0,0,0,0,0,0,0,0,0,0,0,0,0,0,0,0,0,0,0,0,0,0,0,0,0,0,0,0,0,0,0,0,0,0,0,0,0,0,0,0,0,0,0,0,0,0,0,0,0,0,0,0,0,0,0,0,0,0,0,0,0,0,0,0,0,0,0,0,0,0,0,0,0,0,0,0,0,0,0,0,0,0,0,0,0,0,0,0,0,0,0,0,0,0,0,0,0,0,0,0,0,0,0,0,0,0,0,0,0,0,0,0,0,0,0,0,0,0,0],"sum_hessian":[7.168075E7,3.2524544E7,3.915621E7,1.6636553E7,1.5887992E7,8.416101E6,3.0740108E7,1.5187897E7,1.448656E6,1.963882E6,1.392411E7,4.476557E6,3.939544E6,1.0584998E7,2.0155112E7,1.3796383E7,1.391514E6,3.40174E5,1.108482E6,4.6894E5,1.494942E6,2.278142E6,1.1645968E7,1.531235E6,2.945322E6,2.925187E6,1.014357E6,9.111066E6,1.473932E6,1.331695E6,1.8823416E7,1.0859303E7,2.93708E6,4.48526E5,9.42988E5,3.3111E4,3.07063E5,2.11482E5,8.97E5,1.11828E5,3.57112E5,2.97399E5,1.197543E6,7.95855E5,1.482287E6,6.664387E6,4.981581E6,4.28007E5,1.103228E6,1.414784E6,1.530538E6,1.718329E6,1.206858E6,7.29077E5,2.8528E5,7.067449E6,2.043617E6,1.177717E6,2.96215E5,9.99135E5,3.3256E5,1.335341E6,1.7488076E7,7.188941E6,3.670362E6,1.887442E6,1.049638E6,4.7092E4,4.01434E5,1.68869E5,7.74119E5,1.0634E4,2.2477E4,1.15576E5,1.91487E5,8.3418E4,1.28064E5,2.59454E5,6.37546E5,1.0306E4,1.01522E5,6.4397E4,2.92715E5,7.2887E4,2.24512E5,3.31513E5,8.6603E5,5.6374E4,7.39481E5,8.45002E5,6.37285E5,5.967708E6,6.96679E5,1.597432E6,3.384149E6,2.85416E5,1.42591E5,3.0713E5,7.96098E5,7.60233E5,6.54551E5,7.455E5,7.85038E5,4.62372E5,1.255957E6,1.59519E5,1.047339E6,4.34554E5,2.94523E5,1.92974E5,9.2306E4,6.40756E5,6.426693E6,1.344851E6,6.98766E5,1.094667E6,8.305E4,2.36895E5,5.932E4,7.85276E5,2.13859E5,2.2265E5,1.0991E5,5.92924E5,7.42417E5,3.849923E6,1.3638152E7],"tree_param":{"num_deleted":"0","num_feature":"13","num_nodes":"127","size_leaf_vector":"0"}},{"base_weights":[-3.8100634E-2,-9.605918E-2,8.669911E-3,-1.0909408E-1,-7.982533E-2,-1.6914204E-2,2.338986E-2,-1.1214814E-1,-8.042754E-2,-4.7564805E-2,-8.653669E-2,-3.3226937E-2,-5.8998936E-3,-2.3659352E-2,2.6103305E-2,-1.1529227E-1,-7.88379E-2,-3.0618384E-2,-8.7673455E-2,-2.6256172E-2,-5.6097433E-2,-5.5454645E-2,-9.890066E-2,-3.7953246E-2,-2.566491E-2,5.0740032E-3,-3.482227E-2,-1.5355575E-2,-7.040084E-2,-2.1040155E-2,2.9169701E-2,-8.331346E-2,-1.17965475E-1,-2.4014207E-2,-8.4929556E-2,-4.7288027E-2,-7.5072106E-3,-5.0155327E-2,-9.9643074E-2,-3.8119867E-3,-3.5420258E-2,-5.9620824E-2,-3.5513863E-2,-6.556193E-2,-3.7355743E-2,-1.2549743E-1,-8.257265E-2,-3.9878614E-2,-3.3685252E-2,-1.6776703E-2,-4.535708E-2,2.6033575E-2,-2.634999E-2,-3.164716E-2,-6.793439E-2,-7.160175E-3,-4.805409E-2,-8.052833E-2,1.8686935E-2,-1.3805718E-2,-6.423922E-2,2.5229828E-2,4.6661854E-2,-4.6632722E-2,-1.7305408E-4,-2.2151733E-2,-3.6560122E-2,-1.3883736E-2,7.938908E-4,-1.541852E-2,-2.9487928E-2,-6.127157E-3,-2.3734832E-2,2.6800523E-2,-4.347847E-3,-3.3681173E-2,-1.3756864E-2,-2.3873167E-2,-3.2967135E-2,8.266073E-3,-3.61235E-3,-3.6825105E-3,-1.2272385E-2,-1.33394925E-2,-2.0470336E-2,-5.422342E-3,-1.1822209E-2,-1.4667776E-2,-2.4184892E-2,-4.017348E-2,-1.0516005E-2,-3.9230935E-2,-2.3476297E-2,-2.843474E-2,-1.7742287E-2,-9.257643E-3,-1.3362767E-2,-7.859978E-3,-1.62018E-2,-1.113738E-2,1.9719482E-3,-1.6983619E-2,-1.22371605E-2,-8.5143475E-3,9.525641E-3,-1.3949161E-2,-5.4433024E-3,-9.1437595E-3,-2.4364104E-2,-1.7854225E-2,-3.713011E-2,-3.3701344E-3,1.1648017E-2,-1.758238E-2,-4.732862E-3,-2.8663142E-2,-1.7010095E-2,1.5464468E-2,-1.8387627E-2,3.2272638E-4,-9.837173E-3,-2.5089035E-2,8.715874E-4,9.388553E-3,-1.7381424E-2,-6.013366E-3,1.7421339E-2],"categories":[],"categories_nodes":[],"categories_segments":[],"categories_sizes":[],"default_left":[0,0,0,0,0,0,0,0,0,0,0,0,0,0,0,0,0,0,0,0,0,0,0,0,0,0,0,0,0,0,0,0,0,0,0,0,0,0,0,0,0,0,0,0,0,0,0,0,0,0,0,0,0,0,0,0,0,0,0,0,0,0,0,0,0,0,0,0,0,0,0,0,0,0,0,0,0,0,0,0,0,0,0,0,0,0,0,0,0,0,0,0,0,0,0,0,0,0,0,0,0,0,0,0,0,0,0,0,0,0,0,0,0,0,0,0,0,0,0,0,0,0,0,0,0,0,0],"id":7,"left_children":[1,3,5,7,9,11,13,15,17,19,21,23,25,27,29,31,33,35,37,39,41,43,45,47,49,51,53,55,57,59,61,63,65,67,69,71,73,75,77,79,81,83,85,87,89,91,93,95,97,99,101,103,105,107,109,111,113,115,117,119,121,123,125,-1,-1,-1,-1,-1,-1,-1,-1,-1,-1,-1,-1,-1,-1,-1,-1,-1,-1,-1,-1,-1,-1,-1,-1,-1,-1,-1,-1,-1,-1,-1,-1,-1,-1,-1,-1,-1,-1,-1,-1,-1,-1,-1,-1,-1,-1,-1,-1,-1,-1,-1,-1,-1,-1,-1,-1,-1,-1,-1,-1,-1,-1,-1,-1],"loss_changes":[1.9430881E5,6.773875E3,1.4939271E4,1.5544219E3,3.0866875E3,2.60312E3,3.214755E3,1.6804844E3,6.169678E2,4.463833E2,4.535211E3,2.0870508E2,2.7449802E3,5.329291E2,3.4416982E3,1.253375E3,4.6218164E2,8.363928E1,6.7018555E2,1.4438763E2,1.27140625E2,6.1436035E2,3.6665078E3,2.952832E1,3.9310742E2,4.1294277E3,2.5010083E2,3.1244443E2,1.868833E2,4.5440265E2,1.5405703E3,6.749915E3,2.3294844E3,8.215112E1,5.581631E2,1.07842255E2,6.1546112E1,9.638641E1,2.3263379E2,5.2534035E1,6.33125E1,1.9540967E2,1.739743E1,5.4078613E2,2.6753552E2,7.999297E2,1.4966562E3,1.0417432E2,1.699248E2,7.352489E2,3.589673E1,1.1703511E3,4.1472522E2,1.2566553E2,9.784985E1,1.7464618E2,7.9597046E1,6.653943E1,5.557411E1,3.518613E2,2.7155432E2,9.203378E3,3.1275195E3,0E0,0E0,0E0,0E0,0E0,0E0,0E0,0E0,0E0,0E0,0E0,0E0,0E0,0E0,0E0,0E0,0E0,0E0,0E0,0E0,0E0,0E0,0E0,0E0,0E0,0E0,0E0,0E0,0E0,0E0,0E0,0E0,0E0,0E0,0E0,0E0,0E0,0E0,0E0,0E0,0E0,0E0,0E0,0E0,0E0,0E0,0E0,0E0,0E0,0E0,0E0,0E0,0E0,0E0,0E0,0E0,0E0,0E0,0E0,0E0,0E0,0E0,0E0,0E0],"parents":[2147483647,0,0,1,1,2,2,3,3,4,4,5,5,6,6,7,7,8,8,9,9,10,10,11,11,12,12,13,13,14,14,15,15,16,16,17,17,18,18,19,19,20,20,21,21,22,22,23,23,24,24,25,25,26,26,27,27,28,28,29,29,30,30,31,31,32,32,33,33,34,34,35,35,36,36,37,37,38,38,39,39,40,40,41,41,42,42,43,43,44,44,45,45,46,46,47,47,48,48,49,49,50,50,51,51,52,52,53,53,54,54,55,55,56,56,57,57,58,58,59,59,60,60,61,61,62,62],"right_children":[2,4,6,8,10,12,14,16,18,20,22,24,26,28,30,32,34,36,38,40,42,44,46,48,50,52,54,56,58,60,62,64,66,68,70,72,74,76,78,80,82,84,86,88,90,92,94,96,98,100,102,104,106,108,110,112,114,116,118,120,122,124,126,-1,-1,-1,-1,-1,-1,-1,-1,-1,-1,-1,-1,-1,-1,-1,-1,-1,-1,-1,-1,-1,-1,-1,-1,-1,-1,-1,-1,-1,-1,-1,-1,-1,-1,-1,-1,-1,-1,-1,-1,-1,-1,-1,-1,-1,-1,-1,-1,-1,-1,-1,-1,-1,-1,-1,-1,-1,-1,-1,-1,-1,-1,-1,-1],"split_conditions":[-1.0138E-2,-1.0202382E-1,6.308404E-2,-9.2872806E-2,-1.2216372E-1,1.8441437E-2,3.8222983E-2,-8.848232E-2,-3.125457E-1,-2.0950691E-1,-9.737613E-2,7.039344E-3,7.559659E-2,2.660193E-1,4.2620536E-2,-5.053255E-1,-3.3387145E-1,-1.8381105E-1,-2.2397089E-1,6.769882E-2,-3.0118953E-2,-5.179508E-2,-5.179508E-2,1.3109981E-3,4.6860076E-2,7.23506E-2,2.2137606E-1,2.2140037E-1,1.6168982E-1,2.4441727E-1,3.0183157E-1,-3.2295695E-1,-4.3668917E-1,-1.9196148E-1,-2.3439373E-1,-1.179784E-2,-1.179784E-2,-1.6888925E-1,-1.6541496E-1,-3.0281985E-1,-3.457357E-1,0E0,3.67864E-2,-1.5183313E-1,-4.313833E-2,-2.544247E-2,4.213858E-3,-2.6992403E-2,4.6860076E-2,-7.2735976E-3,-8.669448E-3,-1.5969385E-3,1.6997296E-2,1.5579349E-1,-6.643543E-2,1.5009569E-1,2.0648645E-1,1.7828651E-1,5.364814E-1,1.2329725E-1,2.3827556E-1,2.9220995E-1,1.8578088E-1,-4.6632722E-2,-1.7305408E-4,-2.2151733E-2,-3.6560122E-2,-1.3883736E-2,7.938908E-4,-1.541852E-2,-2.9487928E-2,-6.127157E-3,-2.3734832E-2,2.6800523E-2,-4.347847E-3,-3.3681173E-2,-1.3756864E-2,-2.3873167E-2,-3.2967135E-2,8.266073E-3,-3.61235E-3,-3.6825105E-3,-1.2272385E-2,-1.33394925E-2,-2.0470336E-2,-5.422342E-3,-1.1822209E-2,-1.4667776E-2,-2.4184892E-2,-4.017348E-2,-1.0516005E-2,-3.9230935E-2,-2.3476297E-2,-2.843474E-2,-1.7742287E-2,-9.257643E-3,-1.3362767E-2,-7.859978E-3,-1.62018E-2,-1.113738E-2,1.9719482E-3,-1.6983619E-2,-1.22371605E-2,-8.5143475E-3,9.525641E-3,-1.3949161E-2,-5.4433024E-3,-9.1437595E-3,-2.4364104E-2,-1.7854225E-2,-3.713011E-2,-3.3701344E-3,1.1648017E-2,-1.758238E-2,-4.732862E-3,-2.8663142E-2,-1.7010095E-2,1.5464468E-2,-1.8387627E-2,3.2272638E-4,-9.837173E-3,-2.5089035E-2,8.715874E-4,9.388553E-3,-1.7381424E-2,-6.013366E-3,1.7421339E-2],"split_indices":[0,0,0,6,2,0,5,5,2,2,1,0,1,1,6,2,2,0,1,1,0,0,0,0,2,2,1,2,2,1,0,1,1,0,1,1,1,2,2,2,2,1,1,1,2,10,1,2,2,2,10,6,10,10,2,0,0,0,1,2,0,1,1,0,0,0,0,0,0,0,0,0,0,0,0,0,0,0,0,0,0,0,0,0,0,0,0,0,0,0,0,0,0,0,0,0,0,0,0,0,0,0,0,0,0,0,0,0,0,0,0,0,0,0,0,0,0,0,0,0,0,0,0,0,0,0,0],"split_type":[0,0,0,0,0,0,0,0,0,0,0,0,0,0,0,0,0,0,0,0,0,0,0,0,0,0,0,0,0,0,0,0,0,0,0,0,0,0,0,0,0,0,0,0,0,0,0,0,0,0,0,0,0,0,0,0,0,0,0,0,0,0,0,0,0,0,0,0,0,0,0,0,0,0,0,0,0,0,0,0,0,0,0,0,0,0,0,0,0,0,0,0,0,0,0,0,0,0,0,0,0,0,0,0,0,0,0,0,0,0,0,0,0,0,0,0,0,0,0,0,0,0,0,0,0,0,0],"sum_hessian":[7.168075E7,3.201162E7,3.9669136E7,1.7755176E7,1.4256443E7,1.4488058E7,2.5181078E7,1.6045706E7,1.70947E6,2.455109E6,1.1801334E7,5.839488E6,8.64857E6,1.373067E6,2.3808012E7,1.4661787E7,1.383919E6,2.17101E5,1.492369E6,7.02E5,1.753109E6,3.358452E6,8.442882E6,3.593517E6,2.245971E6,6.269689E6,2.378881E6,1.165936E6,2.07131E5,1.453993E6,2.2354018E7,1.131073E6,1.3530714E7,1.38395E5,1.245524E6,1.26127E5,9.0974E4,3.60961E5,1.131408E6,2.03529E5,4.98471E5,1.496879E6,2.5623E5,2.154997E6,1.203455E6,3.211556E6,5.231326E6,2.476372E6,1.117145E6,1.547498E6,6.98473E5,3.761078E6,2.508611E6,2.170732E6,2.08149E5,9.32276E5,2.3366E5,1.85988E5,2.1143E4,1.245426E6,2.08567E5,1.8244656E7,4.109361E6,6.04273E5,5.268E5,1.099181E6,1.2431533E7,7.5414E4,6.2981E4,3.54912E5,8.90612E5,6.8398E4,5.7729E4,6.12E3,8.4854E4,2.3364E4,3.37597E5,3.82475E5,7.48933E5,4.23E4,1.61229E5,9.5536E4,4.02935E5,5.42444E5,9.54435E5,4.6766E4,2.09464E5,1.022648E6,1.132349E6,2.8027E4,1.175428E6,2.889127E6,3.22429E5,3.439213E6,1.792113E6,8.44044E5,1.632328E6,8.16414E5,3.00731E5,8.26904E5,7.20594E5,2.01596E5,4.96877E5,3.57671E5,3.403407E6,7.2602E5,1.782591E6,2.120761E6,4.9971E4,1.80873E5,2.7276E4,8.56414E5,7.5862E4,1.76085E5,5.7575E4,1.1409E5,7.1898E4,1.4986E4,6.157E3,6.98164E5,5.47262E5,1.61831E5,4.6736E4,1.7004536E7,1.240122E6,6.00197E5,3.509164E6],"tree_param":{"num_deleted":"0","num_feature":"13","num_nodes":"127","size_leaf_vector":"0"}},{"base_weights":[-2.667046E-2,-6.797523E-2,5.56177E-3,-7.258498E-2,-4.3826494E-2,-2.0882946E-2,1.3436694E-2,-7.7724524E-2,-4.428895E-2,-4.9815908E-2,-2.408142E-2,-2.889389E-2,-1.5467404E-2,-1.943396E-2,1.6125498E-2,-7.88672E-2,-3.184658E-2,-7.888869E-2,-4.055887E-2,-4.6004474E-2,-8.158694E-2,-4.5264658E-2,-1.732892E-2,-2.7604215E-2,-4.0383197E-2,-2.8594008E-2,-9.373824E-3,-7.984238E-3,-3.439642E-2,-1.68324E-2,1.903565E-2,-7.986954E-2,-3.0253872E-2,4.345012E-2,-3.502689E-2,-5.7940766E-2,-1.3684638E-1,1.3801808E-3,-4.4670463E-2,-5.48035E-2,-2.890044E-2,-9.125619E-2,-1.9676477E-2,-2.1721017E-2,-6.2310476E-2,-1.2946286E-2,-4.7354728E-2,-3.2536037E-2,-2.388233E-2,-8.292503E-3,-4.9472846E-2,-2.5356045E-2,-3.900649E-2,-2.5942404E-2,-9.156693E-4,-2.3499008E-3,-2.1294175E-2,-4.0421408E-2,-7.3390743E-3,-6.85599E-4,-2.9701844E-2,1.451209E-2,3.0208223E-2,-1.4450467E-2,-2.4234036E-2,1.8299252E-2,-1.0112563E-2,4.187508E-3,2.4787268E-2,-1.9669738E-2,-8.2392795E-3,-2.5590679E-2,-6.946644E-3,-3.5346344E-2,-5.0707612E-2,9.8567605E-3,-3.0537979E-3,-2.2045981E-2,-1.1645729E-2,-1.2114262E-2,-2.0625215E-2,-4.500104E-3,-1.1296062E-2,-2.9440539E-2,-9.995914E-3,-1.33511955E-2,9.552288E-4,-8.980726E-3,8.196399E-3,-4.633842E-2,-1.6833534E-2,2.903108E-3,-6.781037E-3,-2.1228531E-2,-4.266712E-3,-7.278317E-3,-1.0857226E-2,-8.453506E-3,-5.0963666E-3,-5.1340326E-3,-1.2122582E-3,-1.321931E-2,-1.8090567E-2,-6.837424E-3,-9.565428E-3,-3.0641335E-3,-1.4662367E-2,3.405487E-3,-1.0429399E-2,-6.0800943E-3,6.604348E-3,5.708883E-3,-5.1575494E-3,-7.568345E-3,9.750991E-3,-9.828175E-3,-1.7842421E-2,1.8886512E-3,-1.5174177E-2,3.8708742E-3,-5.9831208E-3,-1.0038987E-2,-8.667875E-4,5.879862E-3,-1.8807955E-2,-3.0054E-3,1.1680369E-2],"categories":[],"categories_nodes":[],"categories_segments":[],"categories_sizes":[],"default_left":[0,0,0,0,0,0,0,0,0,0,0,0,0,0,0,0,0,0,0,0,0,0,0,0,0,0,0,0,0,0,0,0,0,0,0,0,0,0,0,0,0,0,0,0,0,0,0,0,0,0,0,0,0,0,0,0,0,0,0,0,0,0,0,0,0,0,0,0,0,0,0,0,0,0,0,0,0,0,0,0,0,0,0,0,0,0,0,0,0,0,0,0,0,0,0,0,0,0,0,0,0,0,0,0,0,0,0,0,0,0,0,0,0,0,0,0,0,0,0,0,0,0,0,0,0,0,0],"id":8,"left_children":[1,3,5,7,9,11,13,15,17,19,21,23,25,27,29,31,33,35,37,39,41,43,45,47,49,51,53,55,57,59,61,63,65,67,69,71,73,75,77,79,81,83,85,87,89,91,93,95,97,99,101,103,105,107,109,111,113,115,117,119,121,123,125,-1,-1,-1,-1,-1,-1,-1,-1,-1,-1,-1,-1,-1,-1,-1,-1,-1,-1,-1,-1,-1,-1,-1,-1,-1,-1,-1,-1,-1,-1,-1,-1,-1,-1,-1,-1,-1,-1,-1,-1,-1,-1,-1,-1,-1,-1,-1,-1,-1,-1,-1,-1,-1,-1,-1,-1,-1,-1,-1,-1,-1,-1,-1,-1],"loss_changes":[9.54318E4,3.4975156E3,8.384597E3,3.83675E3,5.955801E2,4.0079785E2,2.7419565E3,1.1704844E3,5.233828E2,4.6790527E2,1.6765735E2,5.521338E1,4.4090674E2,4.0187848E2,2.7505625E3,1.0615E3,1.2993323E2,4.7913306E2,6.312417E2,5.1924023E2,2.4776855E2,1.1369916E2,1.1695755E2,6.1495605E1,1.0969495E2,5.8919067E1,5.2756744E2,9.9658615E1,1.6577844E2,4.8350464E2,1.3317773E3,6.16125E2,1.3873856E2,2.5403027E1,1.2023279E2,2.7589832E2,6.412219E1,1.1892109E2,5.621372E2,4.5826172E2,1.4259326E2,1.4266919E2,3.1734173E1,4.793508E1,9.386206E1,1.694485E2,8.7793686E1,4.357617E1,5.6551758E1,3.1130571E0,1.7161255E1,2.2319519E1,1.17780334E2,4.186084E2,1.1059006E3,2.9626712E2,8.364145E1,1.2139929E2,1.09192856E2,2.7005984E2,1.305846E2,7.367255E3,2.6657979E3,0E0,0E0,0E0,0E0,0E0,0E0,0E0,0E0,0E0,0E0,0E0,0E0,0E0,0E0,0E0,0E0,0E0,0E0,0E0,0E0,0E0,0E0,0E0,0E0,0E0,0E0,0E0,0E0,0E0,0E0,0E0,0E0,0E0,0E0,0E0,0E0,0E0,0E0,0E0,0E0,0E0,0E0,0E0,0E0,0E0,0E0,0E0,0E0,0E0,0E0,0E0,0E0,0E0,0E0,0E0,0E0,0E0,0E0,0E0,0E0,0E0,0E0,0E0,0E0],"parents":[2147483647,0,0,1,1,2,2,3,3,4,4,5,5,6,6,7,7,8,8,9,9,10,10,11,11,12,12,13,13,14,14,15,15,16,16,17,17,18,18,19,19,20,20,21,21,22,22,23,23,24,24,25,25,26,26,27,27,28,28,29,29,30,30,31,31,32,32,33,33,34,34,35,35,36,36,37,37,38,38,39,39,40,40,41,41,42,42,43,43,44,44,45,45,46,46,47,47,48,48,49,49,50,50,51,51,52,52,53,53,54,54,55,55,56,56,57,57,58,58,59,59,60,60,61,61,62,62],"right_children":[2,4,6,8,10,12,14,16,18,20,22,24,26,28,30,32,34,36,38,40,42,44,46,48,50,52,54,56,58,60,62,64,66,68,70,72,74,76,78,80,82,84,86,88,90,92,94,96,98,100,102,104,106,108,110,112,114,116,118,120,122,124,126,-1,-1,-1,-1,-1,-1,-1,-1,-1,-1,-1,-1,-1,-1,-1,-1,-1,-1,-1,-1,-1,-1,-1,-1,-1,-1,-1,-1,-1,-1,-1,-1,-1,-1,-1,-1,-1,-1,-1,-1,-1,-1,-1,-1,-1,-1,-1,-1,-1,-1,-1,-1,-1,-1,-1,-1,-1,-1,-1,-1,-1,-1,-1,-1],"split_conditions":[-1.3297098E-2,4.213945E-3,3.2623265E-2,1.6999409E-2,-8.724438E-3,1.3117051E-3,2.4012355E-2,2.7750165E-3,-1.7616436E-1,-4.656251E-2,-6.64383E-2,7.23549E-2,-7.2570373E-3,1.0326264E-1,2.686377E-2,7.043414E-3,-5.058943E-1,-3.589086E-1,-3.230087E-1,-5.3563576E-2,9.995366E-3,-3.125471E-1,-2.6991665E-2,1.318345E-3,0E0,6.4640455E-2,-4.3531954E-3,6.769686E-2,1.7468522E-1,8.5389346E-2,2.1105722E-1,-6.3835853E-1,-5.5439126E-1,-2.2909467E-1,-1.3332745E-1,-2.398851E-1,-2.863095E-1,-4.3644014E-1,-9.7386755E-2,-2.2909467E-1,3.9577566E-2,1.3117051E-3,2.8453194E-2,3.3697212E-1,-1.5512168E-1,3.9577566E-2,1.5576059E-2,-3.6674883E-2,-1.1783016E-2,-6.645165E-2,1.2781225E-1,4.2633258E-2,1.3109981E-3,2.6875092E-2,1.3161546E-3,6.308822E-2,1.21091455E-1,2.1109599E-1,4.9909067E-1,6.6207856E-2,1.9359493E-1,2.3829186E-1,1.3965929E-1,-1.4450467E-2,-2.4234036E-2,1.8299252E-2,-1.0112563E-2,4.187508E-3,2.4787268E-2,-1.9669738E-2,-8.2392795E-3,-2.5590679E-2,-6.946644E-3,-3.5346344E-2,-5.0707612E-2,9.8567605E-3,-3.0537979E-3,-2.2045981E-2,-1.1645729E-2,-1.2114262E-2,-2.0625215E-2,-4.500104E-3,-1.1296062E-2,-2.9440539E-2,-9.995914E-3,-1.33511955E-2,9.552288E-4,-8.980726E-3,8.196399E-3,-4.633842E-2,-1.6833534E-2,2.903108E-3,-6.781037E-3,-2.1228531E-2,-4.266712E-3,-7.278317E-3,-1.0857226E-2,-8.453506E-3,-5.0963666E-3,-5.1340326E-3,-1.2122582E-3,-1.321931E-2,-1.8090567E-2,-6.837424E-3,-9.565428E-3,-3.0641335E-3,-1.4662367E-2,3.405487E-3,-1.0429399E-2,-6.0800943E-3,6.604348E-3,5.708883E-3,-5.1575494E-3,-7.568345E-3,9.750991E-3,-9.828175E-3,-1.7842421E-2,1.8886512E-3,-1.5174177E-2,3.8708742E-3,-5.9831208E-3,-1.0038987E-2,-8.667875E-4,5.879862E-3,-1.8807955E-2,-3.0054E-3,1.1680369E-2],"split_indices":[0,2,0,1,9,5,9,6,0,1,0,6,6,10,10,5,5,2,2,0,10,1,1,6,0,5,2,2,0,9,0,2,6,1,0,0,2,2,0,1,2,5,10,2,0,2,9,1,5,1,6,2,0,1,1,1,0,10,10,2,0,1,2,0,0,0,0,0,0,0,0,0,0,0,0,0,0,0,0,0,0,0,0,0,0,0,0,0,0,0,0,0,0,0,0,0,0,0,0,0,0,0,0,0,0,0,0,0,0,0,0,0,0,0,0,0,0,0,0,0,0,0,0,0,0,0,0],"split_type":[0,0,0,0,0,0,0,0,0,0,0,0,0,0,0,0,0,0,0,0,0,0,0,0,0,0,0,0,0,0,0,0,0,0,0,0,0,0,0,0,0,0,0,0,0,0,0,0,0,0,0,0,0,0,0,0,0,0,0,0,0,0,0,0,0,0,0,0,0,0,0,0,0,0,0,0,0,0,0,0,0,0,0,0,0,0,0,0,0,0,0,0,0,0,0,0,0,0,0,0,0,0,0,0,0,0,0,0,0,0,0,0,0,0,0,0,0,0,0,0,0,0,0,0,0,0,0],"sum_hessian":[7.168075E7,3.1418612E7,4.0262144E7,2.6382468E7,5.036144E6,9.23848E6,3.1023664E7,2.232709E7,4.055378E6,3.864037E6,1.172107E6,3.726317E6,5.512163E6,2.345832E6,2.8677832E7,2.1784504E7,5.42586E5,3.94648E5,3.66073E6,3.450141E6,4.13896E5,2.83315E5,8.88792E5,3.350254E6,3.76063E5,1.747579E6,3.764584E6,1.328911E6,1.016921E6,2.326774E6,2.6351056E7,2.1344412E7,4.40092E5,2.1988E4,5.20598E5,2.89878E5,1.0477E5,3.26845E5,3.333885E6,2.278159E6,1.171982E6,3.57985E5,5.5911E4,1.18981E5,1.64334E5,7.75587E5,1.13205E5,1.440912E6,1.909342E6,8.3008E4,2.93055E5,1.333046E6,4.14533E5,1.272296E6,2.492288E6,9.33672E5,3.95239E5,8.31718E5,1.85203E5,1.031984E6,1.29479E6,1.8756794E7,7.594263E6,5.95975E5,2.0748436E7,1.6053E4,4.24039E5,1.2545E4,9.443E3,1.0333E5,4.17268E5,1.62252E5,1.27626E5,6.5845E4,3.8925E4,8.7792E4,2.39053E5,5.62709E5,2.771176E6,1.119993E6,1.158166E6,4.5285E5,7.19132E5,3.19991E5,3.7994E4,2.6802E4,2.9109E4,1.01911E5,1.707E4,1.0356E4,1.53978E5,2.32028E5,5.43559E5,6.6338E4,4.6867E4,4.41432E5,9.9948E5,1.176343E6,7.32999E5,2.6996E4,5.6012E4,1.95446E5,9.7609E4,9.57085E5,3.75961E5,1.05809E5,3.08724E5,2.43396E5,1.0289E6,1.351622E6,1.140666E6,3.82577E5,5.51095E5,3.68309E5,2.693E4,5.93208E5,2.3851E5,1.40806E5,4.4397E4,6.05057E5,4.26927E5,1.135495E6,1.59295E5,1.7597224E7,1.15957E6,1.353762E6,6.240501E6],"tree_param":{"num_deleted":"0","num_feature":"13","num_nodes":"127","size_leaf_vector":"0"}},{"base_weights":[-1.8669328E-2,-4.544577E-2,6.16202E-3,-5.1496882E-2,-2.2185544E-2,-1.727845E-2,1.0722596E-2,-6.357868E-2,-4.716899E-2,-3.0871755E-2,-1.919426E-2,-1.3247457E-2,-2.301185E-2,-6.016327E-3,1.3909544E-2,-7.228599E-2,-3.0387267E-2,-1.584156E-3,-5.1309798E-2,-2.1308558E-2,-3.6787983E-2,-1.8549109E-2,-3.423471E-2,-1.7110353E-2,-2.6602377E-3,-1.542096E-2,-2.6655752E-2,2.3758782E-2,-1.0770357E-2,-3.449308E-3,1.7729882E-2,-8.839361E-2,-3.2623E-2,5.4103165E-4,-7.500141E-2,2.3730703E-2,-2.3104116E-2,-2.3418847E-3,-5.595259E-2,-3.6018945E-2,-1.725874E-2,-4.7122918E-2,-2.1635642E-2,-1.9198062E-2,6.469332E-3,8.873396E-3,-4.419122E-2,-5.1139537E-3,-2.1476915E-2,-3.0452993E-2,4.6475283E-3,-1.9205578E-2,5.647156E-3,-7.027395E-2,-2.5154408E-2,-2.4900915E-2,3.2147404E-2,-1.2246138E-2,4.5903318E-2,-1.4497106E-2,2.6325773E-2,-3.789612E-2,1.8265983E-2,-1.7615525E-2,-2.7770411E-2,-3.1578143E-3,-2.4962535E-2,6.76662E-3,-1.9299097E-2,-1.6482871E-2,-2.977349E-2,2.9535228E-2,3.1976593E-3,8.534956E-3,-9.664597E-3,4.417362E-3,-4.9025742E-3,-2.3476908E-2,-1.4676097E-2,-3.3204104E-3,-1.5072839E-2,-1.02139665E-2,-4.1479445E-3,-5.996863E-3,-2.0577902E-2,-8.311303E-3,-2.0479127E-3,-5.097823E-3,-8.005422E-3,6.446486E-3,-6.5361457E-3,8.682836E-3,-9.6313056E-4,-1.7234722E-2,-6.8173804E-3,-9.102378E-3,7.125335E-4,-8.921134E-3,-5.208485E-3,-1.7733889E-3,-1.0595741E-2,5.233305E-3,-3.3078718E-3,-7.171922E-3,1.0671982E-3,-1.5391485E-2,4.09041E-3,-1.7067932E-2,-2.7481124E-2,-8.701154E-3,-2.5011774E-3,-2.5477191E-2,-4.5973416E-3,1.3669949E-2,5.6642666E-3,-2.7604287E-3,-1.874974E-2,3.8283493E-2,6.695835E-3,5.4485262E-3,-5.4642935E-3,1.4118787E-2,-1.5227151E-3,-1.0021582E-2,-3.391615E-2,1.2031257E-2,5.023403E-3],"categories":[],"categories_nodes":[],"categories_segments":[],"categories_sizes":[],"default_left":[0,0,0,0,0,0,0,0,0,0,0,0,0,0,0,0,0,0,0,0,0,0,0,0,0,0,0,0,0,0,0,0,0,0,0,0,0,0,0,0,0,0,0,0,0,0,0,0,0,0,0,0,0,0,0,0,0,0,0,0,0,0,0,0,0,0,0,0,0,0,0,0,0,0,0,0,0,0,0,0,0,0,0,0,0,0,0,0,0,0,0,0,0,0,0,0,0,0,0,0,0,0,0,0,0,0,0,0,0,0,0,0,0,0,0,0,0,0,0,0,0,0,0,0,0,0,0],"id":9,"left_children":[1,3,5,7,9,11,13,15,17,19,21,23,25,27,29,31,33,35,37,39,41,43,45,47,49,51,53,55,57,59,61,63,65,67,69,71,73,75,77,79,81,83,85,87,89,91,93,95,97,99,101,103,105,107,109,111,113,115,117,119,121,123,125,-1,-1,-1,-1,-1,-1,-1,-1,-1,-1,-1,-1,-1,-1,-1,-1,-1,-1,-1,-1,-1,-1,-1,-1,-1,-1,-1,-1,-1,-1,-1,-1,-1,-1,-1,-1,-1,-1,-1,-1,-1,-1,-1,-1,-1,-1,-1,-1,-1,-1,-1,-1,-1,-1,-1,-1,-1,-1,-1,-1,-1,-1,-1,-1],"loss_changes":[4.7660188E4,4.854414E3,3.9758157E3,1.4311094E3,1.8500098E2,1.3999377E2,1.6608667E3,2.0861777E3,3.803664E3,1.0319043E2,5.1390747E1,1.454613E2,6.916858E1,7.0486414E2,1.7344648E3,3.6532812E3,2.0699236E3,9.141544E2,4.199797E3,4.1527863E1,1.764524E2,8.245227E1,9.349609E1,1.3650665E2,1.9311307E2,6.467009E1,1.1064209E2,2.7985144E2,3.5913828E2,1.5519003E3,6.392632E2,5.0376758E2,1.8460825E3,1.2652241E3,2.986604E2,7.530928E2,4.2603763E2,3.822407E2,2.6464883E3,5.340486E1,3.149504E1,3.9024255E2,4.1063522E1,8.1726685E1,5.44908E1,9.912414E0,5.0362274E1,1.3138351E2,6.4944336E1,2.3640228E1,1.5100444E2,7.357146E1,5.6186768E1,1.6040558E1,1.0573828E2,5.7946743E1,1.0410449E2,6.4032544E2,2.0999559E2,4.177364E2,8.313816E2,6.9061584E1,7.053784E2,0E0,0E0,0E0,0E0,0E0,0E0,0E0,0E0,0E0,0E0,0E0,0E0,0E0,0E0,0E0,0E0,0E0,0E0,0E0,0E0,0E0,0E0,0E0,0E0,0E0,0E0,0E0,0E0,0E0,0E0,0E0,0E0,0E0,0E0,0E0,0E0,0E0,0E0,0E0,0E0,0E0,0E0,0E0,0E0,0E0,0E0,0E0,0E0,0E0,0E0,0E0,0E0,0E0,0E0,0E0,0E0,0E0,0E0,0E0,0E0,0E0,0E0,0E0,0E0],"parents":[2147483647,0,0,1,1,2,2,3,3,4,4,5,5,6,6,7,7,8,8,9,9,10,10,11,11,12,12,13,13,14,14,15,15,16,16,17,17,18,18,19,19,20,20,21,21,22,22,23,23,24,24,25,25,26,26,27,27,28,28,29,29,30,30,31,31,32,32,33,33,34,34,35,35,36,36,37,37,38,38,39,39,40,40,41,41,42,42,43,43,44,44,45,45,46,46,47,47,48,48,49,49,50,50,51,51,52,52,53,53,54,54,55,55,56,56,57,57,58,58,59,59,60,60,61,61,62,62],"right_children":[2,4,6,8,10,12,14,16,18,20,22,24,26,28,30,32,34,36,38,40,42,44,46,48,50,52,54,56,58,60,62,64,66,68,70,72,74,76,78,80,82,84,86,88,90,92,94,96,98,100,102,104,106,108,110,112,114,116,118,120,122,124,126,-1,-1,-1,-1,-1,-1,-1,-1,-1,-1,-1,-1,-1,-1,-1,-1,-1,-1,-1,-1,-1,-1,-1,-1,-1,-1,-1,-1,-1,-1,-1,-1,-1,-1,-1,-1,-1,-1,-1,-1,-1,-1,-1,-1,-1,-1,-1,-1,-1,-1,-1,-1,-1,-1,-1,-1,-1,-1,-1,-1,-1,-1,-1,-1],"split_conditions":[1.3186916E-3,-1.3321275E-2,8.445796E-3,-2.2911365E-1,1.3046222E-3,4.9664747E-2,1.00031495E-2,-1.6890438E-1,-2.3983744E-1,-3.9992657E-2,3.1224316E-1,-7.237184E-3,0E0,4.6860076E-2,8.420368E-3,-1.7990513E-1,-3.3387145E-1,-1.179784E-2,-2.3986688E-1,-1.4811161E-2,-4.3342123E-3,1.4472827E-1,0E0,-4.1669242E-2,0E0,-6.268103E-2,-3.0283162E-1,1.3109981E-3,3.0183157E-1,1.088597E-1,-8.703427E-3,-6.3835853E-1,-3.0283162E-1,-1.179784E-2,-2.6455456E-1,-3.230087E-1,-4.1322488E-1,-2.9441628E-1,-1.3627295E-1,-9.5087685E-2,-5.3563576E-2,-4.656251E-2,1.3109981E-3,4.9664747E-2,2.9218736E-1,-7.611249E-2,1.8580867E-1,-1.2214928E-1,1.9783758E-2,-3.6674883E-2,4.5371108E-2,2.159607E-1,-3.0118953E-2,4.986184E-1,1.01337396E-1,-7.4138746E-2,2.4189128E-2,3.817515E-1,4.986184E-1,4.1160904E-2,3.1224316E-1,5.3657824E-1,4.8275568E-2,-1.7615525E-2,-2.7770411E-2,-3.1578143E-3,-2.4962535E-2,6.76662E-3,-1.9299097E-2,-1.6482871E-2,-2.977349E-2,2.9535228E-2,3.1976593E-3,8.534956E-3,-9.664597E-3,4.417362E-3,-4.9025742E-3,-2.3476908E-2,-1.4676097E-2,-3.3204104E-3,-1.5072839E-2,-1.02139665E-2,-4.1479445E-3,-5.996863E-3,-2.0577902E-2,-8.311303E-3,-2.0479127E-3,-5.097823E-3,-8.005422E-3,6.446486E-3,-6.5361457E-3,8.682836E-3,-9.6313056E-4,-1.7234722E-2,-6.8173804E-3,-9.102378E-3,7.125335E-4,-8.921134E-3,-5.208485E-3,-1.7733889E-3,-1.0595741E-2,5.233305E-3,-3.3078718E-3,-7.171922E-3,1.0671982E-3,-1.5391485E-2,4.09041E-3,-1.7067932E-2,-2.7481124E-2,-8.701154E-3,-2.5011774E-3,-2.5477191E-2,-4.5973416E-3,1.3669949E-2,5.6642666E-3,-2.7604287E-3,-1.874974E-2,3.8283493E-2,6.695835E-3,5.4485262E-3,-5.4642935E-3,1.4118787E-2,-1.5227151E-3,-1.0021582E-2,-3.391615E-2,1.2031257E-2,5.023403E-3],"split_indices":[9,10,10,0,10,2,1,1,2,2,1,10,0,2,2,2,2,1,1,1,0,0,0,1,0,1,1,0,0,0,5,2,1,1,2,2,2,1,0,9,0,1,0,2,2,0,0,0,9,1,1,2,0,2,0,0,2,2,2,1,1,6,0,0,0,0,0,0,0,0,0,0,0,0,0,0,0,0,0,0,0,0,0,0,0,0,0,0,0,0,0,0,0,0,0,0,0,0,0,0,0,0,0,0,0,0,0,0,0,0,0,0,0,0,0,0,0,0,0,0,0,0,0,0,0,0,0],"split_type":[0,0,0,0,0,0,0,0,0,0,0,0,0,0,0,0,0,0,0,0,0,0,0,0,0,0,0,0,0,0,0,0,0,0,0,0,0,0,0,0,0,0,0,0,0,0,0,0,0,0,0,0,0,0,0,0,0,0,0,0,0,0,0,0,0,0,0,0,0,0,0,0,0,0,0,0,0,0,0,0,0,0,0,0,0,0,0,0,0,0,0,0,0,0,0,0,0,0,0,0,0,0,0,0,0,0,0,0,0,0,0,0,0,0,0,0,0,0,0,0,0,0,0,0,0,0,0],"sum_hessian":[7.168075E7,3.448955E7,3.71912E7,2.7369436E7,7.120117E6,6.057391E6,3.113381E7,7.218416E6,2.015102E7,1.823873E6,5.296244E6,3.556746E6,2.500645E6,4.979548E6,2.6154262E7,5.718298E6,1.500118E6,1.678039E6,1.8472982E7,6.97085E5,1.126788E6,5.078411E6,2.17833E5,2.605934E6,9.50812E5,8.11063E5,1.689582E6,6.85592E5,4.293956E6,4.71775E6,2.1436512E7,4.066743E6,1.651555E6,8.85946E5,6.14172E5,7.71036E5,9.07003E5,1.599797E6,1.6873184E7,1.5048E5,5.46605E5,6.69881E5,4.56907E5,4.950013E6,1.28398E5,4.0872E4,1.76961E5,6.95411E5,1.910523E6,1.97954E5,7.52858E5,6.87553E5,1.2351E5,5.6219E4,1.633363E6,1.00812E5,5.8478E5,4.18498E6,1.08976E5,3.440997E6,1.276753E6,2.04624E5,2.1231888E7,5.01523E5,3.56522E6,1.149449E6,5.02106E5,6.61473E5,2.24473E5,3.36097E5,2.78075E5,1.14803E5,6.56233E5,1.36221E5,7.70782E5,7.20945E5,8.78852E5,4.044742E6,1.2828443E7,5.4638E4,9.5842E4,9.2782E4,4.53823E5,2.95914E5,3.73967E5,3.24095E5,1.32812E5,3.823689E6,1.126324E6,8.3837E4,4.4561E4,1.536E4,2.5512E4,1.09396E5,6.7565E4,1.59185E5,5.36226E5,6.35316E5,1.275207E6,3.2756E4,1.65198E5,4.14467E5,3.38391E5,5.69868E5,1.17685E5,1.5191E4,1.08319E5,3.4549E4,2.167E4,1.329126E6,3.04237E5,1.387E4,8.6942E4,2.90717E5,2.94063E5,3.945908E6,2.39072E5,2.4408E4,8.4568E4,3.51629E5,3.089368E6,7.68953E5,5.078E5,1.93088E5,1.1536E4,1.382743E6,1.9849144E7],"tree_param":{"num_deleted":"0","num_feature":"13","num_nodes":"127","size_leaf_vector":"0"}},{"base_weights":[-1.306854E-2,-3.189477E-2,4.9480493E-3,-3.60646E-2,-1.614766E-2,-1.176679E-2,8.732068E-3,-4.424165E-2,-3.222081E-2,-1.0262948E-2,-1.9306863E-2,-8.511628E-3,-1.804569E-2,5.10063E-3,1.6510915E-2,-4.9691614E-2,-2.6267963E-2,1.418776E-3,-3.668883E-2,-3.0289963E-2,-8.188527E-3,-1.7134618E-2,-3.465265E-2,-1.5418486E-2,-2.6792374E-3,7.265052E-4,-2.4321046E-2,9.673901E-3,-4.9227014E-2,-1.5599395E-2,2.3958711E-2,-6.234575E-2,-2.6884966E-2,-8.334175E-3,-6.633005E-2,2.3270195E-2,-1.6688913E-2,-1.8082017E-3,-4.202975E-2,2.4274452E-2,-3.9142765E-2,-2.090992E-3,-1.6298236E-2,-2.3948038E-2,-1.0823673E-2,-1.4615272E-3,-4.1158397E-2,-8.4953215E-3,-2.0244256E-2,-9.424348E-3,1.4058921E-2,2.881357E-2,-1.9108088E-3,-6.7681216E-2,-2.3133269E-2,1.5753014E-2,-4.051951E-2,-3.5054665E-2,-8.019094E-2,2.816542E-2,-5.2476697E-2,-6.6349013E-3,3.3877477E-2,-1.9916676E-2,-1.29798725E-2,4.812381E-3,-1.3647507E-2,6.4106495E-3,-1.3542946E-2,-1.7167915E-2,-3.915456E-2,2.096735E-2,3.7709281E-3,2.5943005E-3,-8.827979E-3,3.0422767E-3,-4.3720775E-3,-1.8856829E-2,-1.0874638E-2,3.1771096E-3,3.282391E-2,-1.6579374E-3,-1.3148449E-2,1.2982367E-3,-2.800907E-3,-4.2034495E-3,-1.1495497E-2,-3.883433E-3,-1.4599267E-2,-9.342941E-3,-1.6749839E-3,-2.9311134E-2,6.604403E-4,-1.6208217E-2,-4.6606874E-3,-5.0757052E-3,3.7586677E-3,-7.99723E-3,-3.999011E-3,-8.581785E-6,-3.8743569E-3,-9.674957E-3,5.8268867E-3,1.7516741E-3,1.3495847E-2,-9.90932E-3,1.1203244E-3,-1.5544634E-2,-2.8707154E-2,-4.4191564E-3,-8.334033E-3,1.8274768E-3,8.302835E-3,-4.812138E-3,-2.2599185E-2,-7.19976E-3,-1.6131759E-2,-1.6383339E-2,-3.839294E-2,1.4175042E-2,2.0132554E-3,-6.303174E-4,-2.8693505E-2,8.878332E-3,-1.3536778E-2,1.1181403E-2,1.0980824E-3],"categories":[],"categories_nodes":[],"categories_segments":[],"categories_sizes":[],"default_left":[0,0,0,0,0,0,0,0,0,0,0,0,0,0,0,0,0,0,0,0,0,0,0,0,0,0,0,0,0,0,0,0,0,0,0,0,0,0,0,0,0,0,0,0,0,0,0,0,0,0,0,0,0,0,0,0,0,0,0,0,0,0,0,0,0,0,0,0,0,0,0,0,0,0,0,0,0,0,0,0,0,0,0,0,0,0,0,0,0,0,0,0,0,0,0,0,0,0,0,0,0,0,0,0,0,0,0,0,0,0,0,0,0,0,0,0,0,0,0,0,0,0,0,0,0,0,0],"id":10,"left_children":[1,3,5,7,9,11,13,15,17,19,21,23,25,27,29,31,33,35,37,39,41,43,45,47,49,51,53,55,57,59,61,63,65,67,69,71,73,75,77,79,81,83,85,87,89,91,93,95,97,99,101,103,105,107,109,111,113,115,117,119,121,123,125,-1,-1,-1,-1,-1,-1,-1,-1,-1,-1,-1,-1,-1,-1,-1,-1,-1,-1,-1,-1,-1,-1,-1,-1,-1,-1,-1,-1,-1,-1,-1,-1,-1,-1,-1,-1,-1,-1,-1,-1,-1,-1,-1,-1,-1,-1,-1,-1,-1,-1,-1,-1,-1,-1,-1,-1,-1,-1,-1,-1,-1,-1,-1,-1],"loss_changes":[2.4312996E4,2.3016602E3,2.3166934E3,8.710781E2,1.3643323E2,1.3819507E2,8.4368335E2,8.680703E2,2.8335332E3,1.0650055E2,1.591781E2,1.7937811E2,2.7194727E2,5.0588555E3,2.2732122E3,1.9624629E3,1.4813925E3,8.7459875E2,3.100287E3,1.16227615E2,1.1486694E2,1.7986646E2,1.27858215E2,6.811066E1,2.725689E2,4.2842403E1,8.910449E1,5.730469E3,6.9375415E2,2.8883152E3,2.3413438E3,3.3736914E2,1.9381392E3,1.5572415E3,3.7254785E2,4.9968396E2,3.900934E2,3.3707718E2,1.7375566E3,3.9131496E1,3.2607086E1,6.1662613E1,5.0200806E1,5.470276E2,2.3123523E2,3.4210552E1,1.632464E2,1.482987E2,5.326779E1,5.642958E1,1.7225299E2,1.8446186E1,9.288677E1,2.0494705E1,6.5753845E1,1.9296748E3,1.7288577E3,2.2442493E2,6.067551E2,3.35091E2,2.1120735E3,2.6340828E3,5.975425E2,0E0,0E0,0E0,0E0,0E0,0E0,0E0,0E0,0E0,0E0,0E0,0E0,0E0,0E0,0E0,0E0,0E0,0E0,0E0,0E0,0E0,0E0,0E0,0E0,0E0,0E0,0E0,0E0,0E0,0E0,0E0,0E0,0E0,0E0,0E0,0E0,0E0,0E0,0E0,0E0,0E0,0E0,0E0,0E0,0E0,0E0,0E0,0E0,0E0,0E0,0E0,0E0,0E0,0E0,0E0,0E0,0E0,0E0,0E0,0E0,0E0,0E0,0E0,0E0],"parents":[2147483647,0,0,1,1,2,2,3,3,4,4,5,5,6,6,7,7,8,8,9,9,10,10,11,11,12,12,13,13,14,14,15,15,16,16,17,17,18,18,19,19,20,20,21,21,22,22,23,23,24,24,25,25,26,26,27,27,28,28,29,29,30,30,31,31,32,32,33,33,34,34,35,35,36,36,37,37,38,38,39,39,40,40,41,41,42,42,43,43,44,44,45,45,46,46,47,47,48,48,49,49,50,50,51,51,52,52,53,53,54,54,55,55,56,56,57,57,58,58,59,59,60,60,61,61,62,62],"right_children":[2,4,6,8,10,12,14,16,18,20,22,24,26,28,30,32,34,36,38,40,42,44,46,48,50,52,54,56,58,60,62,64,66,68,70,72,74,76,78,80,82,84,86,88,90,92,94,96,98,100,102,104,106,108,110,112,114,116,118,120,122,124,126,-1,-1,-1,-1,-1,-1,-1,-1,-1,-1,-1,-1,-1,-1,-1,-1,-1,-1,-1,-1,-1,-1,-1,-1,-1,-1,-1,-1,-1,-1,-1,-1,-1,-1,-1,-1,-1,-1,-1,-1,-1,-1,-1,-1,-1,-1,-1,-1,-1,-1,-1,-1,-1,-1,-1,-1,-1,-1,-1,-1,-1,-1,-1,-1],"split_conditions":[4.215969E-3,-1.3298091E-2,1.8308062E-2,-2.0048432E-1,-3.6674883E-2,6.4646676E-2,1.8199927E-1,-1.585216E-1,-2.0048432E-1,-1.1947168E-1,5.2625142E-2,1.310376E-3,0E0,2.02028E-1,1.2553082E-1,-1.8383265E-1,-2.7170962E-1,-1.179784E-2,-1.9614714E-1,-5.057762E-1,-2.8714964E-3,-2.8714964E-3,5.6661484E-3,3.263696E-2,2.7723762E-3,-4.687939E-1,-2.7883348E-1,1.8578088E-1,3.5341915E-2,2.9218736E-1,1.3249615E-1,-2.0491555E-1,-3.9310008E-1,-5.7164412E-2,-5.7164412E-2,-2.717643E-1,-3.0281985E-1,4.213945E-3,-1.2214928E-1,-1.8785328E-1,-4.3668917E-1,4.9664747E-2,3.3697212E-1,-2.856695E-2,-3.9984398E-2,-4.483895E-2,9.7605504E-2,1.3109981E-3,8.2016066E-2,3.821639E-2,0E0,-2.863243E-1,-1.3047121E-1,4.6651167E-1,0E0,8.713966E-2,1.8435579E-2,2.7392048E-1,2.4442637E-1,2.269235E-1,3.5341915E-2,3.1224316E-1,5.362677E-1,-1.9916676E-2,-1.29798725E-2,4.812381E-3,-1.3647507E-2,6.4106495E-3,-1.3542946E-2,-1.7167915E-2,-3.915456E-2,2.096735E-2,3.7709281E-3,2.5943005E-3,-8.827979E-3,3.0422767E-3,-4.3720775E-3,-1.8856829E-2,-1.0874638E-2,3.1771096E-3,3.282391E-2,-1.6579374E-3,-1.3148449E-2,1.2982367E-3,-2.800907E-3,-4.2034495E-3,-1.1495497E-2,-3.883433E-3,-1.4599267E-2,-9.342941E-3,-1.6749839E-3,-2.9311134E-2,6.604403E-4,-1.6208217E-2,-4.6606874E-3,-5.0757052E-3,3.7586677E-3,-7.99723E-3,-3.999011E-3,-8.581785E-6,-3.8743569E-3,-9.674957E-3,5.8268867E-3,1.7516741E-3,1.3495847E-2,-9.90932E-3,1.1203244E-3,-1.5544634E-2,-2.8707154E-2,-4.4191564E-3,-8.334033E-3,1.8274768E-3,8.302835E-3,-4.812138E-3,-2.2599185E-2,-7.19976E-3,-1.6131759E-2,-1.6383339E-2,-3.839294E-2,1.4175042E-2,2.0132554E-3,-6.303174E-4,-2.8693505E-2,8.878332E-3,-1.3536778E-2,1.1181403E-2,1.0980824E-3],"split_indices":[6,5,5,0,1,6,0,2,2,0,2,2,0,2,1,1,1,1,1,6,0,0,0,1,1,5,5,1,1,2,2,2,2,2,2,2,2,2,0,1,1,2,2,2,6,0,0,0,1,2,0,0,0,6,2,0,2,2,2,2,1,1,2,0,0,0,0,0,0,0,0,0,0,0,0,0,0,0,0,0,0,0,0,0,0,0,0,0,0,0,0,0,0,0,0,0,0,0,0,0,0,0,0,0,0,0,0,0,0,0,0,0,0,0,0,0,0,0,0,0,0,0,0,0,0,0,0],"split_type":[0,0,0,0,0,0,0,0,0,0,0,0,0,0,0,0,0,0,0,0,0,0,0,0,0,0,0,0,0,0,0,0,0,0,0,0,0,0,0,0,0,0,0,0,0,0,0,0,0,0,0,0,0,0,0,0,0,0,0,0,0,0,0,0,0,0,0,0,0,0,0,0,0,0,0,0,0,0,0,0,0,0,0,0,0,0,0,0,0,0,0,0,0,0,0,0,0,0,0,0,0,0,0,0,0,0,0,0,0,0,0,0,0,0,0,0,0,0,0,0,0,0,0,0,0,0,0],"sum_hessian":[7.168075E7,3.505277E7,3.6627988E7,2.7714082E7,7.338684E6,6.7614E6,2.9866588E7,8.861864E6,1.8852218E7,2.563536E6,4.775148E6,4.452894E6,2.308506E6,2.0361248E7,9.50534E6,6.799979E6,2.061885E6,2.210374E6,1.6641844E7,2.4061E5,2.322926E6,4.183029E6,5.92119E5,2.038661E6,2.414233E6,5.78368E5,1.730138E6,1.8780332E7,1.580917E6,1.789616E6,7.715724E6,4.373414E6,2.426565E6,1.424299E6,6.37586E5,1.001643E6,1.208731E6,2.20983E6,1.4432014E7,3.3588E4,2.07022E5,1.325962E6,9.96964E5,2.011438E6,2.171591E6,9.704E4,4.95079E5,8.37363E5,1.201298E6,1.720792E6,6.93441E5,4.9645E4,5.28723E5,4.6129E4,1.684009E6,1.6751496E7,2.028836E6,1.084526E6,4.96391E5,8.18384E5,9.71232E5,1.889064E6,5.82666E6,3.608689E6,7.64725E5,7.3376E5,1.692805E6,7.88234E5,6.36065E5,5.58389E5,7.9197E4,1.8698E5,8.14663E5,4.04379E5,8.04352E5,1.141408E6,1.068422E6,3.135636E6,1.1296378E7,2.8938E4,4.65E3,2.5325E4,1.81697E5,7.03104E5,6.22858E5,9.03173E5,9.3791E4,1.391822E6,6.19616E5,4.45228E5,1.726363E6,3.557E3,9.3483E4,3.29558E5,1.65521E5,5.97832E5,2.39531E5,6.23229E5,5.78069E5,4.6608E5,1.254712E6,7.1984E4,6.21457E5,2.051E4,2.9135E4,8.1183E4,4.4754E5,2.945E4,1.6679E4,5.99662E5,1.084347E6,9.253379E6,7.498117E6,1.191194E6,8.37642E5,6.8182E5,4.02706E5,3.23319E5,1.73072E5,4.33112E5,3.85272E5,4.48201E5,5.23031E5,9.73081E5,9.15983E5,5.238315E6,5.88345E5],"tree_param":{"num_deleted":"0","num_feature":"13","num_nodes":"127","size_leaf_vector":"0"}},{"base_weights":[-9.147985E-3,-2.2663686E-2,3.3849075E-3,-2.5941359E-2,-1.15425335E-2,-8.076655E-3,6.482413E-3,-2.7090289E-2,-8.23208E-3,-4.8651625E-3,-1.4783814E-2,-4.55597E-3,-1.532673E-2,2.9098168E-3,1.168994E-2,-5.425128E-3,-2.7925078E-2,7.7351564E-5,-1.8217979E-2,-2.0152414E-2,-3.5209819E-3,-7.713431E-3,-2.1949435E-2,-9.090417E-3,4.814365E-3,-9.736208E-3,-2.517618E-2,8.947428E-3,-3.1037668E-2,-6.875368E-3,1.650637E-2,-7.183156E-2,4.1379917E-2,1.162204E-2,-2.8877739E-2,-1.5031123E-2,5.065329E-3,-2.3582159E-3,-2.5390532E-2,1.3223674E-2,-3.0182322E-2,7.9682335E-4,-1.1027486E-2,-3.711242E-3,-1.6097488E-2,-4.449228E-2,-1.4405752E-2,-3.0976757E-3,-1.2548935E-2,1.0042499E-2,-3.58039E-2,-2.1269402E-2,-8.544891E-3,-1.34025235E-2,-3.430904E-2,1.6820434E-2,-2.727642E-2,-1.5358083E-2,-4.649625E-2,2.0406425E-2,-3.522391E-2,9.5937176E-5,2.2914412E-2,-2.579706E-2,-1.2807391E-2,2.4466835E-2,6.1010052E-3,-1.1760739E-2,9.789845E-3,-1.3973076E-2,-7.862445E-3,6.2516322E-3,-7.856792E-3,2.3238244E-3,-3.920551E-3,-1.801124E-2,5.756673E-4,-1.0964556E-2,-2.012298E-3,1.0203019E-2,-6.089673E-3,-2.4627238E-3,-1.0634299E-2,1.8728758E-3,-1.609246E-3,-2.939528E-3,-1.2875209E-2,-8.153039E-3,-7.7366835E-4,-1.039827E-2,-3.5767213E-3,-1.6487129E-2,3.9900653E-3,-2.4133157E-3,-8.124774E-3,-2.5817615E-3,5.977802E-3,-4.817236E-3,-2.0974604E-3,-4.3473314E-4,6.688044E-3,1.675997E-3,-1.3838776E-2,-3.9151963E-3,-1.0774206E-2,-6.534139E-3,-2.221291E-3,-6.4513003E-3,-4.987505E-4,-1.4267185E-2,-3.6696526E-3,2.3883246E-3,9.089022E-3,-4.4576586E-3,-1.4425199E-2,-3.7826234E-3,-1.2891655E-2,-2.7239077E-2,-9.597817E-3,1.3451981E-2,3.1176815E-3,-2.6842465E-3,-2.145968E-2,9.227989E-3,-8.528997E-3,7.678838E-3,6.543056E-4],"categories":[],"categories_nodes":[],"categories_segments":[],"categories_sizes":[],"default_left":[0,0,0,0,0,0,0,0,0,0,0,0,0,0,0,0,0,0,0,0,0,0,0,0,0,0,0,0,0,0,0,0,0,0,0,0,0,0,0,0,0,0,0,0,0,0,0,0,0,0,0,0,0,0,0,0,0,0,0,0,0,0,0,0,0,0,0,0,0,0,0,0,0,0,0,0,0,0,0,0,0,0,0,0,0,0,0,0,0,0,0,0,0,0,0,0,0,0,0,0,0,0,0,0,0,0,0,0,0,0,0,0,0,0,0,0,0,0,0,0,0,0,0,0,0,0,0],"id":11,"left_children":[1,3,5,7,9,11,13,15,17,19,21,23,25,27,29,31,33,35,37,39,41,43,45,47,49,51,53,55,57,59,61,63,65,67,69,71,73,75,77,79,81,83,85,87,89,91,93,95,97,99,101,103,105,107,109,111,113,115,117,119,121,123,125,-1,-1,-1,-1,-1,-1,-1,-1,-1,-1,-1,-1,-1,-1,-1,-1,-1,-1,-1,-1,-1,-1,-1,-1,-1,-1,-1,-1,-1,-1,-1,-1,-1,-1,-1,-1,-1,-1,-1,-1,-1,-1,-1,-1,-1,-1,-1,-1,-1,-1,-1,-1,-1,-1,-1,-1,-1,-1,-1,-1,-1,-1,-1,-1],"loss_changes":[1.21420625E4,1.2571445E3,1.3204224E3,5.419844E2,1.6991443E2,2.0197845E2,5.4473145E2,4.5241016E2,1.3466162E2,5.2717983E1,2.677672E2,2.263139E2,1.4242285E2,3.5593518E3,1.0653148E3,2.8846455E3,9.07459E2,6.675415E1,8.384677E1,6.941202E1,7.643165E1,8.926445E1,4.4638257E2,7.439404E1,3.688592E2,2.2670227E1,1.00701965E2,4.204776E3,6.355781E2,1.8980295E3,9.9476685E2,1.5830566E2,4.60245E2,6.0502747E2,1.1113027E3,8.799634E1,3.2372932E1,5.6627213E1,1.0580444E2,3.338711E1,1.8445923E1,5.023075E1,3.3750496E1,4.7846687E1,6.662009E1,3.9804358E2,1.586036E2,1.6657433E2,4.4376495E1,2.1665071E2,8.465283E1,1.8592567E1,2.2576637E1,3.891339E1,1.5425696E2,1.4459968E3,6.801395E2,9.883234E1,8.4837695E2,3.0599756E2,1.148241E3,2.3237202E3,3.7826147E2,0E0,0E0,0E0,0E0,0E0,0E0,0E0,0E0,0E0,0E0,0E0,0E0,0E0,0E0,0E0,0E0,0E0,0E0,0E0,0E0,0E0,0E0,0E0,0E0,0E0,0E0,0E0,0E0,0E0,0E0,0E0,0E0,0E0,0E0,0E0,0E0,0E0,0E0,0E0,0E0,0E0,0E0,0E0,0E0,0E0,0E0,0E0,0E0,0E0,0E0,0E0,0E0,0E0,0E0,0E0,0E0,0E0,0E0,0E0,0E0,0E0,0E0,0E0,0E0],"parents":[2147483647,0,0,1,1,2,2,3,3,4,4,5,5,6,6,7,7,8,8,9,9,10,10,11,11,12,12,13,13,14,14,15,15,16,16,17,17,18,18,19,19,20,20,21,21,22,22,23,23,24,24,25,25,26,26,27,27,28,28,29,29,30,30,31,31,32,32,33,33,34,34,35,35,36,36,37,37,38,38,39,39,40,40,41,41,42,42,43,43,44,44,45,45,46,46,47,47,48,48,49,49,50,50,51,51,52,52,53,53,54,54,55,55,56,56,57,57,58,58,59,59,60,60,61,61,62,62],"right_children":[2,4,6,8,10,12,14,16,18,20,22,24,26,28,30,32,34,36,38,40,42,44,46,48,50,52,54,56,58,60,62,64,66,68,70,72,74,76,78,80,82,84,86,88,90,92,94,96,98,100,102,104,106,108,110,112,114,116,118,120,122,124,126,-1,-1,-1,-1,-1,-1,-1,-1,-1,-1,-1,-1,-1,-1,-1,-1,-1,-1,-1,-1,-1,-1,-1,-1,-1,-1,-1,-1,-1,-1,-1,-1,-1,-1,-1,-1,-1,-1,-1,-1,-1,-1,-1,-1,-1,-1,-1,-1,-1,-1,-1,-1,-1,-1,-1,-1,-1,-1,-1,-1,-1,-1,-1,-1],"split_conditions":[1.3117051E-3,-2.0758525E-2,2.419611E-2,-1.6312864E-2,-4.4841893E-2,5.2625142E-2,1.5290685E-1,-5.5442715E-1,-6.456599E-2,-1.2764953E-1,-3.0104486E-2,4.213945E-3,-2.5414184E-2,1.5012154E-1,1.1287223E-1,-4.6913785E-1,-5.543787E-1,-1.3047121E-1,-5.7159945E-2,-4.366485E-1,-2.8714964E-3,0E0,-1.0138E-2,3.67864E-2,8.370818E-2,6.464297E-2,6.0193967E-2,1.4738442E-1,1.3161546E-3,2.6602495E-1,1.2329725E-1,-6.376215E-1,-7.911201E-1,-3.3387145E-1,-2.943993E-1,-4.3657196E-1,3.67864E-2,-9.5112085E-2,-1.7672693E-2,0E0,-2.2396012E-1,4.9664747E-2,4.6663323E-1,-1.4232242E-1,-1.6541496E-1,2.2752624E-2,5.4122735E-2,1.00113405E-2,5.7143338E-2,2.7723762E-3,1.3109981E-3,8.420727E-3,-6.8351164E-2,7.0453775E-3,1.03266716E-1,8.202236E-2,2.6862908E-2,3.246311E-1,1.06892236E-1,4.686214E-2,4.686214E-2,2.5872803E-1,4.986184E-1,-2.579706E-2,-1.2807391E-2,2.4466835E-2,6.1010052E-3,-1.1760739E-2,9.789845E-3,-1.3973076E-2,-7.862445E-3,6.2516322E-3,-7.856792E-3,2.3238244E-3,-3.920551E-3,-1.801124E-2,5.756673E-4,-1.0964556E-2,-2.012298E-3,1.0203019E-2,-6.089673E-3,-2.4627238E-3,-1.0634299E-2,1.8728758E-3,-1.609246E-3,-2.939528E-3,-1.2875209E-2,-8.153039E-3,-7.7366835E-4,-1.039827E-2,-3.5767213E-3,-1.6487129E-2,3.9900653E-3,-2.4133157E-3,-8.124774E-3,-2.5817615E-3,5.977802E-3,-4.817236E-3,-2.0974604E-3,-4.3473314E-4,6.688044E-3,1.675997E-3,-1.3838776E-2,-3.9151963E-3,-1.0774206E-2,-6.534139E-3,-2.221291E-3,-6.4513003E-3,-4.987505E-4,-1.4267185E-2,-3.6696526E-3,2.3883246E-3,9.089022E-3,-4.4576586E-3,-1.4425199E-2,-3.7826234E-3,-1.2891655E-2,-2.7239077E-2,-9.597817E-3,1.3451981E-2,3.1176815E-3,-2.6842465E-3,-2.145968E-2,9.227989E-3,-8.528997E-3,7.678838E-3,6.543056E-4],"split_indices":[5,6,6,9,1,2,0,2,10,0,2,2,1,2,1,1,1,0,1,5,0,0,0,1,5,2,5,1,1,2,2,1,2,2,0,10,1,0,0,2,2,2,2,0,2,6,6,0,5,1,0,0,0,1,0,0,2,2,0,1,1,1,2,0,0,0,0,0,0,0,0,0,0,0,0,0,0,0,0,0,0,0,0,0,0,0,0,0,0,0,0,0,0,0,0,0,0,0,0,0,0,0,0,0,0,0,0,0,0,0,0,0,0,0,0,0,0,0,0,0,0,0,0,0,0,0,0],"split_type":[0,0,0,0,0,0,0,0,0,0,0,0,0,0,0,0,0,0,0,0,0,0,0,0,0,0,0,0,0,0,0,0,0,0,0,0,0,0,0,0,0,0,0,0,0,0,0,0,0,0,0,0,0,0,0,0,0,0,0,0,0,0,0,0,0,0,0,0,0,0,0,0,0,0,0,0,0,0,0,0,0,0,0,0,0,0,0,0,0,0,0,0,0,0,0,0,0,0,0,0,0,0,0,0,0,0,0,0,0,0,0,0,0,0,0,0,0,0,0,0,0,0,0,0,0,0,0],"sum_hessian":[7.168075E7,3.4488124E7,3.719263E7,2.663743E7,7.850695E6,7.912895E6,2.9279736E7,2.5014556E7,1.622875E6,2.565501E6,5.285194E6,5.326374E6,2.586521E6,1.7365932E7,1.1913804E7,9.28087E5,2.4086468E7,8.85793E5,7.37082E5,2.07347E5,2.358154E6,2.660277E6,2.624917E6,3.589406E6,1.736968E6,1.649992E6,9.36529E5,1.4743736E7,2.622195E6,2.454138E6,9.459666E6,3.83699E5,5.44388E5,5.66576E5,2.3519892E7,2.19855E5,6.65938E5,2.29537E5,5.07545E5,4.7912E4,1.59435E5,1.497043E6,8.61111E5,1.800701E6,8.59576E5,6.58152E5,1.966765E6,1.313479E6,2.275927E6,1.538892E6,1.98076E5,1.54477E5,1.495515E6,4.09117E5,5.27412E5,1.2111405E7,2.632331E6,1.301793E6,1.320402E6,1.250599E6,1.203539E6,2.656529E6,6.803137E6,2.58229E5,1.2547E5,1.87124E5,3.57264E5,1.65715E5,4.00861E5,3.082583E6,2.0437308E7,5.2164E4,1.67691E5,5.80171E5,8.5767E4,1.5845E4,2.13692E5,3.17765E5,1.8978E5,2.9574E4,1.8338E4,3.082E4,1.28615E5,7.94623E5,7.0242E5,8.29156E5,3.1955E4,8.2893E4,1.717808E6,1.57828E5,7.01748E5,5.57248E5,1.00904E5,1.309597E6,6.57168E5,1.059907E6,2.53572E5,1.39514E6,8.80787E5,7.94056E5,7.44836E5,3.9547E4,1.58529E5,9.8948E4,5.5529E4,1.18651E5,1.376864E6,2.42066E5,1.67051E5,3.29612E5,1.978E5,7.307463E6,4.803942E6,1.648525E6,9.83806E5,1.18392E6,1.17873E5,3.25664E5,9.94738E5,3.63556E5,8.87043E5,6.9823E5,5.05309E5,1.280284E6,1.376245E6,6.023979E6,7.79158E5],"tree_param":{"num_deleted":"0","num_feature":"13","num_nodes":"127","size_leaf_vector":"0"}},{"base_weights":[-6.40359E-3,-1.6079133E-2,2.5676994E-3,-1.8603658E-2,-7.94599E-3,-4.5738838E-4,8.054643E-3,-1.9288102E-2,5.0168694E-4,-2.0105392E-3,-1.1847769E-2,3.0015882E-3,-2.1481138E-2,3.8840245E-2,6.056105E-3,-1.6652323E-2,-2.3887761E-2,1.4925741E-2,-3.2959844E-3,3.6590204E-3,-5.4871826E-3,-4.8269248E-3,-1.682041E-2,8.055039E-3,-1.6365243E-2,-1.0057235E-2,-3.6196478E-2,5.571413E-2,2.0372923E-2,-1.4210431E-2,9.091792E-3,-1.9624084E-2,-2.098036E-3,-8.226266E-3,-4.7098417E-2,1.3037637E-2,4.6247274E-2,5.7318164E-3,-9.889511E-3,6.9889347E-3,-1.3393964E-2,-1.7194062E-2,-4.2944755E-3,-1.8090403E-2,-3.6026358E-3,-4.05639E-2,-1.2138849E-2,2.620417E-4,2.3031093E-2,-9.314481E-3,-3.0160159E-2,-4.669688E-3,-1.9430485E-2,-2.2880075E-2,-7.056022E-2,6.356824E-2,6.708064E-4,-1.4904768E-2,5.4633293E-2,1.3567967E-2,-6.362293E-2,-5.6162938E-3,1.403008E-2,-6.2491572E-3,-1.2221799E-3,1.557742E-3,-3.2105052E-3,-4.7476785E-3,3.3763296E-3,-1.7479314E-2,-4.3328074E-3,5.7286043E-3,-9.23419E-4,-2.6287952E-2,1.446611E-2,-5.4630274E-3,2.8892432E-3,1.6844975E-3,-7.602244E-3,-1.5237771E-3,4.8223017E-3,-4.450243E-3,2.1886488E-2,-3.6441544E-3,-2.1277718E-2,-3.289744E-3,-5.476665E-4,9.170104E-3,-1.0578945E-2,-4.66393E-5,-3.338539E-3,-1.5420382E-2,3.077502E-3,-3.5470522E-3,-2.8709838E-2,1.3083107E-3,-4.440559E-3,8.683083E-3,2.801903E-3,-1.6752607E-3,-8.901974E-3,-5.5555333E-3,-3.7151366E-2,-2.1312383E-3,1.8798173E-3,-2.2564724E-3,-8.774039E-3,-1.7090606E-2,-2.641447E-3,-1.541364E-2,-2.8680915E-2,1.3488077E-2,2.7508946E-2,-8.208166E-3,1.0027354E-2,-1.27839595E-2,1.3095802E-3,1.3042105E-2,2.5064798E-2,9.880944E-3,-3.19911E-3,-3.3630386E-2,-1.5502131E-2,2.3689375E-3,-1.0463694E-2,-5.901956E-4,4.721463E-3],"categories":[],"categories_nodes":[],"categories_segments":[],"categories_sizes":[],"default_left":[0,0,0,0,0,0,0,0,0,0,0,0,0,0,0,0,0,0,0,0,0,0,0,0,0,0,0,0,0,0,0,0,0,0,0,0,0,0,0,0,0,0,0,0,0,0,0,0,0,0,0,0,0,0,0,0,0,0,0,0,0,0,0,0,0,0,0,0,0,0,0,0,0,0,0,0,0,0,0,0,0,0,0,0,0,0,0,0,0,0,0,0,0,0,0,0,0,0,0,0,0,0,0,0,0,0,0,0,0,0,0,0,0,0,0,0,0,0,0,0,0,0,0,0,0,0,0],"id":12,"left_children":[1,3,5,7,9,11,13,15,17,19,21,23,25,27,29,31,33,35,37,39,41,43,45,47,49,51,53,55,57,59,61,63,65,67,69,71,73,75,77,79,81,83,85,87,89,91,93,95,97,99,101,103,105,107,109,111,113,115,117,119,121,123,125,-1,-1,-1,-1,-1,-1,-1,-1,-1,-1,-1,-1,-1,-1,-1,-1,-1,-1,-1,-1,-1,-1,-1,-1,-1,-1,-1,-1,-1,-1,-1,-1,-1,-1,-1,-1,-1,-1,-1,-1,-1,-1,-1,-1,-1,-1,-1,-1,-1,-1,-1,-1,-1,-1,-1,-1,-1,-1,-1,-1,-1,-1,-1,-1],"loss_changes":[6.222039E3,7.0809375E2,6.17364E2,3.441455E2,1.8918481E2,1.743524E3,8.132753E2,3.080332E2,4.985986E1,6.3865993E1,1.7207867E2,2.0149636E3,5.694331E2,2.510979E2,7.636566E2,6.9859863E2,3.3645488E3,1.1218109E1,4.2888866E1,6.9938065E1,2.8044163E1,3.318435E1,3.207224E2,1.9055942E3,4.143933E2,9.629782E1,6.774319E2,1.8203296E2,4.6500177E2,2.2195527E3,7.841088E2,2.5163428E2,1.7178839E2,8.1815405E2,1.3597402E3,1.746689E1,2.8530235E0,2.838958E1,9.975442E1,1.1297987E2,2.5023014E1,5.0358402E1,3.0022991E1,1.4430017E2,4.8536263E1,