{"learner":{"attributes":{"best_iteration":"99","best_ntree_limit":"100","scikit_learn":"{\"n_estimators\": 100, \"objective\": null, \"max_depth\": null, \"max_leaves\": null, \"max_bin\": null, \"grow_policy\": null, \"learning_rate\": null, \"verbosity\": null, \"booster\": null, \"tree_method\": null, \"gamma\": null, \"min_child_weight\": null, \"max_delta_step\": null, \"subsample\": null, \"sampling_method\": null, \"colsample_bytree\": null, \"colsample_bylevel\": null, \"colsample_bynode\": null, \"reg_alpha\": null, \"reg_lambda\": null, \"scale_pos_weight\": null, \"base_score\": null, \"missing\": NaN, \"num_parallel_tree\": null, \"random_state\": null, \"n_jobs\": null, \"monotone_constraints\": null, \"interaction_constraints\": null, \"importance_type\": null, \"gpu_id\": null, \"validate_parameters\": null, \"predictor\": null, \"enable_categorical\": false, \"feature_types\": null, \"max_cat_to_onehot\": null, \"max_cat_threshold\": null, \"eval_metric\": null, \"early_stopping_rounds\": null, \"callbacks\": null, \"_estimator_type\": \"regressor\"}"},"feature_names":["f0","fsw_l_1","fsw_r_1","fsw_l_2","fsw_r_2","fsw_l_3","fsw_r_3","fsw_l_4","fsw_r_4"],"feature_types":["float","float","float","float","float","float","float","float","float"],"gradient_booster":{"model":{"gbtree_model_param":{"num_parallel_tree":"1","num_trees":"100","size_leaf_vector":"0"},"tree_info":[0,0,0,0,0,0,0,0,0,0,0,0,0,0,0,0,0,0,0,0,0,0,0,0,0,0,0,0,0,0,0,0,0,0,0,0,0,0,0,0,0,0,0,0,0,0,0,0,0,0,0,0,0,0,0,0,0,0,0,0,0,0,0,0,0,0,0,0,0,0,0,0,0,0,0,0,0,0,0,0,0,0,0,0,0,0,0,0,0,0,0,0,0,0,0,0,0,0,0,0],"trees":[{"base_weights":[-4.626416E-1,-1.1267029E0,1.349599E-1,-1.245769E0,-8.54456E-1,-1.68436E-1,2.4077466E-1,-1.2801778E0,-9.6724665E-1,-9.517078E-1,-6.965376E-1,-3.3629408E-1,-6.8787664E-2,-2.9093E-2,2.7616587E-1,-1.3261964E0,-1.0114585E0,-1.0336887E0,-8.5315806E-1,-9.939752E-1,-7.4813485E-1,-7.621206E-1,-6.076402E-1,-4.36545E-1,-2.7396435E-1,-2.6920718E-1,-2.4762133E-2,-1.4736377E-1,4.0775757E-2,-1.3059535E-2,3.176431E-1,-1.3486166E0,-1.2130476E0,-1.0807482E0,-8.5781515E-1,-1.0137051E0,-1.1293143E0,-8.9386827E-1,-7.740475E-1,-1.0520827E0,-7.866227E-1,-6.903789E-1,-8.372218E-1,-6.276436E-1,-7.953852E-1,-6.526999E-1,-5.649174E-1,-4.867927E-1,-4.0278623E-1,-3.9270374E-1,-2.4240485E-1,-3.4466454E-1,-2.1492623E-1,-2.2241564E-1,3.9767493E-2,-2.0182179E-1,-8.226332E-2,-6.2048407E-3,8.236867E-2,-1.5719819E-1,5.8663905E-2,2.5558096E-1,3.4674177E-1,-4.13316E-1,-3.7571427E-1,-3.5187823E-1,-3.8420686E-1,-3.1374776E-1,-3.5470602E-1,-2.735193E-1,-2.3294248E-1,-3.174694E-1,-2.8359145E-1,-3.550442E-1,-3.3017373E-1,-2.8877634E-1,-2.540281E-1,-2.5505313E-1,-2.1762377E-1,-2.7428147E-1,-3.220764E-1,-2.0885201E-1,-2.6207465E-1,-2.200323E-1,-1.9191422E-1,-2.6966545E-1,-2.364219E-1,-2.1259494E-1,-1.7914355E-1,-1.9995156E-1,-2.5433418E-1,-1.7066869E-1,-2.0276405E-1,-1.748802E-1,-1.5776499E-1,-1.4900936E-1,-1.4484268E-1,-1.3766538E-1,-1.1606149E-1,-9.7784005E-2,-1.25051E-1,-1.0976303E-1,-5.805921E-2,-7.2670475E-2,-1.0865684E-1,-3.572969E-2,-7.169339E-2,-1.0020055E-1,-4.853154E-2,-9.104854E-3,2.4741376E-2,-8.7194785E-2,-4.676231E-2,-5.193788E-2,-1.0237038E-2,-1.6294299E-2,1.4354763E-2,4.4824135E-2,2.0746024E-2,-7.1767785E-2,-3.1398755E-2,1.2606992E-3,2.9060135E-2,7.9316966E-2,2.8847732E-2,7.0322596E-2,1.0786733E-1],"categories":[],"categories_nodes":[],"categories_segments":[],"categories_sizes":[],"default_left":[0,0,0,0,0,0,0,0,0,0,0,0,0,0,0,0,0,0,0,0,0,0,0,0,0,0,0,0,0,0,0,0,0,0,0,0,0,0,0,0,0,0,0,0,0,0,0,0,0,0,0,0,0,0,0,0,0,0,0,0,0,0,0,0,0,0,0,0,0,0,0,0,0,0,0,0,0,0,0,0,0,0,0,0,0,0,0,0,0,0,0,0,0,0,0,0,0,0,0,0,0,0,0,0,0,0,0,0,0,0,0,0,0,0,0,0,0,0,0,0,0,0,0,0,0,0,0],"id":0,"left_children":[1,3,5,7,9,11,13,15,17,19,21,23,25,27,29,31,33,35,37,39,41,43,45,47,49,51,53,55,57,59,61,63,65,67,69,71,73,75,77,79,81,83,85,87,89,91,93,95,97,99,101,103,105,107,109,111,113,115,117,119,121,123,125,-1,-1,-1,-1,-1,-1,-1,-1,-1,-1,-1,-1,-1,-1,-1,-1,-1,-1,-1,-1,-1,-1,-1,-1,-1,-1,-1,-1,-1,-1,-1,-1,-1,-1,-1,-1,-1,-1,-1,-1,-1,-1,-1,-1,-1,-1,-1,-1,-1,-1,-1,-1,-1,-1,-1,-1,-1,-1,-1,-1,-1,-1,-1,-1],"loss_changes":[2.8446076E7,1.100584E6,1.2112212E6,2.2638E5,1.586575E5,1.631845E5,2.6716288E5,2.59984E5,1.96875E4,5.50125E4,2.295475E4,2.2708312E4,5.401564E4,2.6798951E4,2.9666012E5,4.5536E4,3.272475E4,3.135625E3,3.077875E3,6.37885E4,5.6553125E3,1.013525E4,3.2175625E3,2.3631562E3,8.397359E3,4.5158594E3,6.401733E4,4.2697695E3,3.9837563E3,3.2064672E4,3.9058E4,4.1958E4,8.0545E3,7.516E3,4.189375E3,4.134E3,4.403125E2,2.0423438E3,1.2019688E3,1.22545E4,9.1144375E3,1.4545E3,1.3095625E3,1.1096719E3,1.2265375E4,1.5799375E3,6.03125E2,2.1859375E1,7.4384375E2,7.579219E2,1.0683336E4,8.2796094E2,1.4779531E3,8.359539E3,1.1329826E4,2.6764863E3,2.3995715E3,2.4896033E3,9.580923E2,4.4410215E3,4.309027E3,9.694969E3,2.1197625E4,0E0,0E0,0E0,0E0,0E0,0E0,0E0,0E0,0E0,0E0,0E0,0E0,0E0,0E0,0E0,0E0,0E0,0E0,0E0,0E0,0E0,0E0,0E0,0E0,0E0,0E0,0E0,0E0,0E0,0E0,0E0,0E0,0E0,0E0,0E0,0E0,0E0,0E0,0E0,0E0,0E0,0E0,0E0,0E0,0E0,0E0,0E0,0E0,0E0,0E0,0E0,0E0,0E0,0E0,0E0,0E0,0E0,0E0,0E0,0E0,0E0,0E0,0E0,0E0],"parents":[2147483647,0,0,1,1,2,2,3,3,4,4,5,5,6,6,7,7,8,8,9,9,10,10,11,11,12,12,13,13,14,14,15,15,16,16,17,17,18,18,19,19,20,20,21,21,22,22,23,23,24,24,25,25,26,26,27,27,28,28,29,29,30,30,31,31,32,32,33,33,34,34,35,35,36,36,37,37,38,38,39,39,40,40,41,41,42,42,43,43,44,44,45,45,46,46,47,47,48,48,49,49,50,50,51,51,52,52,53,53,54,54,55,55,56,56,57,57,58,58,59,59,60,60,61,61,62,62],"right_children":[2,4,6,8,10,12,14,16,18,20,22,24,26,28,30,32,34,36,38,40,42,44,46,48,50,52,54,56,58,60,62,64,66,68,70,72,74,76,78,80,82,84,86,88,90,92,94,96,98,100,102,104,106,108,110,112,114,116,118,120,122,124,126,-1,-1,-1,-1,-1,-1,-1,-1,-1,-1,-1,-1,-1,-1,-1,-1,-1,-1,-1,-1,-1,-1,-1,-1,-1,-1,-1,-1,-1,-1,-1,-1,-1,-1,-1,-1,-1,-1,-1,-1,-1,-1,-1,-1,-1,-1,-1,-1,-1,-1,-1,-1,-1,-1,-1,-1,-1,-1,-1,-1,-1,-1,-1,-1],"split_conditions":[0E0,-5.8902558E-2,4.827533E-2,1.4343146E-3,-2.0902041E-2,1.710051E-2,1.4347595E-3,-1.175039E-2,7.2423264E-2,4.1084778E-2,-8.714722E-3,5.7102134E-3,-3.499559E-2,-6.655083E-2,0E0,-5.710586E-2,7.078565E-2,-1.1437283E-1,1.5573637E-1,3.6896847E-2,-1.1437283E-1,-7.0134915E-2,-4.450451E-3,1.4373193E-3,-4.3216523E-2,-8.855584E-2,-2.6872031E-2,1.0683697E-1,-2.5507225E-2,-7.60239E-2,1.128471E-1,-8.006427E-2,-1.1437283E-1,-1.2765248E-1,1.3730918E-1,-9.98306E-2,-8.006467E-2,-1.24912694E-1,-1.5161125E-1,-8.855584E-2,-1.3048272E-1,1.0879741E-1,-3.4988865E-2,4.529212E-2,-6.2797725E-2,-5.7097264E-2,-1.3992357E-3,-5.3525683E-2,-4.6593573E-2,6.157483E-2,-3.8238242E-2,9.225605E-2,5.8586616E-2,-9.0742424E-2,2.982181E-2,-1.4221598E-1,-1.6165102E-1,9.4031826E-2,8.7076716E-2,-1.4525445E-1,-3.3378765E-2,1.5573785E-1,6.1583526E-2,-4.13316E-1,-3.7571427E-1,-3.5187823E-1,-3.8420686E-1,-3.1374776E-1,-3.5470602E-1,-2.735193E-1,-2.3294248E-1,-3.174694E-1,-2.8359145E-1,-3.550442E-1,-3.3017373E-1,-2.8877634E-1,-2.540281E-1,-2.5505313E-1,-2.1762377E-1,-2.7428147E-1,-3.220764E-1,-2.0885201E-1,-2.6207465E-1,-2.200323E-1,-1.9191422E-1,-2.6966545E-1,-2.364219E-1,-2.1259494E-1,-1.7914355E-1,-1.9995156E-1,-2.5433418E-1,-1.7066869E-1,-2.0276405E-1,-1.748802E-1,-1.5776499E-1,-1.4900936E-1,-1.4484268E-1,-1.3766538E-1,-1.1606149E-1,-9.7784005E-2,-1.25051E-1,-1.0976303E-1,-5.805921E-2,-7.2670475E-2,-1.0865684E-1,-3.572969E-2,-7.169339E-2,-1.0020055E-1,-4.853154E-2,-9.104854E-3,2.4741376E-2,-8.7194785E-2,-4.676231E-2,-5.193788E-2,-1.0237038E-2,-1.6294299E-2,1.4354763E-2,4.4824135E-2,2.0746024E-2,-7.1767785E-2,-3.1398755E-2,1.2606992E-3,2.9060135E-2,7.9316966E-2,2.8847732E-2,7.0322596E-2,1.0786733E-1],"split_indices":[0,0,0,2,0,0,1,1,2,2,0,0,1,1,2,2,1,1,2,1,1,1,0,0,1,1,2,0,1,2,0,1,1,2,1,0,0,0,0,1,2,2,0,2,2,1,0,1,1,2,2,2,2,2,0,1,1,0,2,2,2,1,1,0,0,0,0,0,0,0,0,0,0,0,0,0,0,0,0,0,0,0,0,0,0,0,0,0,0,0,0,0,0,0,0,0,0,0,0,0,0,0,0,0,0,0,0,0,0,0,0,0,0,0,0,0,0,0,0,0,0,0,0,0,0,0,0],"split_type":[0,0,0,0,0,0,0,0,0,0,0,0,0,0,0,0,0,0,0,0,0,0,0,0,0,0,0,0,0,0,0,0,0,0,0,0,0,0,0,0,0,0,0,0,0,0,0,0,0,0,0,0,0,0,0,0,0,0,0,0,0,0,0,0,0,0,0,0,0,0,0,0,0,0,0,0,0,0,0,0,0,0,0,0,0,0,0,0,0,0,0,0,0,0,0,0,0,0,0,0,0,0,0,0,0,0,0,0,0,0,0,0,0,0,0,0,0,0,0,0,0,0,0,0,0,0,0],"sum_hessian":[7.168075E7,3.3952436E7,3.772832E7,2.3621612E7,1.0330824E7,9.755887E6,2.7972432E7,2.102426E7,2.597353E6,6.393483E6,3.937341E6,3.634147E6,6.12174E6,3.243076E6,2.4729356E7,1.7950244E7,3.074015E6,1.641425E6,9.55928E5,5.294245E6,1.099238E6,2.265782E6,1.671559E6,1.393247E6,2.2409E6,1.102549E6,5.019191E6,1.20437E6,2.038706E6,3.101594E6,2.162776E7,1.4981654E7,2.968591E6,2.118578E6,9.55437E5,1.357707E6,2.83718E5,6.31136E5,3.24792E5,4.135366E6,1.158879E6,6.66893E5,4.32345E5,4.49328E5,1.816454E6,8.13523E5,8.58036E5,5.59884E5,8.33363E5,4.70538E5,1.770362E6,4.61291E5,6.41258E5,1.235344E6,3.783847E6,6.55787E5,5.48583E5,9.57349E5,1.081357E6,1.030551E6,2.071043E6,6.903618E6,1.4724143E7,1.1502941E7,3.478713E6,1.863383E6,1.105208E6,1.576676E6,5.41902E5,5.74574E5,3.80863E5,8.22363E5,5.35344E5,9.8328E4,1.8539E5,2.5668E5,3.74456E5,1.26602E5,1.9819E5,5.58218E5,3.577148E6,5.68045E5,5.90834E5,3.60487E5,3.06406E5,1.91752E5,2.40593E5,1.22893E5,3.26435E5,5.25027E5,1.291427E6,1.76271E5,6.37252E5,5.87059E5,2.70977E5,1.60556E5,3.99328E5,1.84164E5,6.49199E5,1.2494E5,3.45598E5,5.0204E5,1.268322E6,6.7395E4,3.93896E5,1.28659E5,5.12599E5,4.34975E5,8.00369E5,1.432223E6,2.351624E6,2.23569E5,4.32218E5,1.89986E5,3.58597E5,5.06527E5,4.50822E5,1.78049E5,9.03308E5,4.02342E5,6.28209E5,8.53836E5,1.217207E6,6.54213E6,3.61488E5,1.507839E6,1.3216304E7],"tree_param":{"num_deleted":"0","num_feature":"9","num_nodes":"127","size_leaf_vector":"0"}},{"base_weights":[-3.2384926E-1,-7.8869224E-1,9.447189E-2,-8.634048E-1,-5.7040894E-1,-9.733194E-2,1.7808944E-1,-8.884339E-1,-6.590168E-1,-6.2580794E-1,-4.5417276E-1,-2.1767198E-1,-2.014637E-2,6.92161E-3,2.0427722E-1,-9.2111605E-1,-6.820495E-1,-6.986014E-1,-5.7109755E-1,-6.587462E-1,-5.0773525E-1,-4.8815295E-1,-4.045032E-1,-2.9058555E-1,-1.6201122E-1,-1.5547875E-1,1.5765678E-2,-7.970702E-2,5.859256E-2,3.612854E-2,2.4145828E-1,-9.5810664E-1,-8.7569076E-1,-7.235269E-1,-5.668623E-1,-7.3893434E-1,-6.6575223E-1,-6.149851E-1,-5.269227E-1,-5.161478E-1,-7.1218157E-1,-4.6436325E-1,-5.7622343E-1,-5.0989246E-1,-4.0372658E-1,-4.293776E-1,-3.807799E-1,-3.3153912E-1,-2.5947106E-1,-1.3684177E-1,-2.6728407E-1,-1.01324216E-1,-2.161449E-1,6.3938886E-2,-1.4775212E-1,-1.3718441E-1,-3.90762E-2,1.2193117E-1,4.0462196E-2,-7.7792645E-2,8.351908E-2,1.6290507E-1,2.5075927E-1,-2.9195657E-1,-2.604592E-1,-2.6697105E-1,-2.4024604E-1,-2.1067719E-1,-2.4409288E-1,-1.8835774E-1,-1.5827623E-1,-2.175835E-1,-2.4061246E-1,-2.1798004E-1,-1.9299391E-1,-1.9165938E-1,-1.57502E-1,-1.4636883E-1,-1.8179761E-1,-1.6657658E-1,-1.2922314E-1,-2.3132467E-1,-1.9790547E-1,-1.4936712E-1,-1.2949735E-1,-1.8924306E-1,-1.6124491E-1,-1.6484916E-1,-1.2566882E-1,-1.17992945E-1,-1.3723004E-1,-1.1065369E-1,-1.3325092E-1,-1.0571267E-1,-1.1670742E-1,-1.0222664E-1,-9.3866125E-2,-7.330716E-2,-9.529117E-2,-2.9041983E-2,-7.43051E-2,-9.02337E-2,-6.921957E-2,-4.2305306E-2,-1.679589E-2,-7.9568386E-2,-5.549051E-2,-8.387018E-3,2.6156558E-2,-3.0373238E-2,-7.505337E-2,-5.0326224E-2,-1.7721353E-2,-2.0285768E-2,6.0112476E-3,3.012183E-2,5.8344606E-2,7.5968355E-4,2.3531716E-2,-4.1953523E-2,-9.20266E-3,4.5148246E-2,1.7743902E-2,6.0637537E-2,3.7369866E-2,5.5934418E-2,7.8909E-2],"categories":[],"categories_nodes":[],"categories_segments":[],"categories_sizes":[],"default_left":[0,0,0,0,0,0,0,0,0,0,0,0,0,0,0,0,0,0,0,0,0,0,0,0,0,0,0,0,0,0,0,0,0,0,0,0,0,0,0,0,0,0,0,0,0,0,0,0,0,0,0,0,0,0,0,0,0,0,0,0,0,0,0,0,0,0,0,0,0,0,0,0,0,0,0,0,0,0,0,0,0,0,0,0,0,0,0,0,0,0,0,0,0,0,0,0,0,0,0,0,0,0,0,0,0,0,0,0,0,0,0,0,0,0,0,0,0,0,0,0,0,0,0,0,0,0,0],"id":1,"left_children":[1,3,5,7,9,11,13,15,17,19,21,23,25,27,29,31,33,35,37,39,41,43,45,47,49,51,53,55,57,59,61,63,65,67,69,71,73,75,77,79,81,83,85,87,89,91,93,95,97,99,101,103,105,107,109,111,113,115,117,119,121,123,125,-1,-1,-1,-1,-1,-1,-1,-1,-1,-1,-1,-1,-1,-1,-1,-1,-1,-1,-1,-1,-1,-1,-1,-1,-1,-1,-1,-1,-1,-1,-1,-1,-1,-1,-1,-1,-1,-1,-1,-1,-1,-1,-1,-1,-1,-1,-1,-1,-1,-1,-1,-1,-1,-1,-1,-1,-1,-1,-1,-1,-1,-1,-1,-1],"loss_changes":[1.3938581E7,5.53716E5,6.050931E5,1.29398E5,5.575E4,1.0639311E5,1.177735E5,1.52E5,9.603875E3,2.28025E4,4.71625E3,1.8165047E4,3.391533E4,1.5605741E4,1.4246719E5,3.2689E4,1.4718125E4,2.520625E3,1.6606875E3,3.4931625E4,3.7986562E3,3.04525E3,6.697031E2,2.4689531E3,6.725461E3,4.807918E3,4.344203E4,3.041962E3,2.507791E3,2.2277484E4,1.3634375E4,1.454E4,9.2905E3,4.341125E3,1.9536406E3,7.3553125E2,1.4314688E3,9.230781E2,1.3172969E3,4.173375E3,1.0310875E4,8.583906E2,1.0482812E3,4.7551875E3,1.8990625E2,4.96E2,1.359375E2,1.4370312E2,9.6791406E2,9.090281E3,5.995586E2,1.391501E3,1.0561641E3,9.101502E3,5.978301E3,1.2881426E3,1.2876061E3,7.5893896E2,2.4456511E3,3.5443184E3,4.756914E3,2.9706562E3,1.316725E4,0E0,0E0,0E0,0E0,0E0,0E0,0E0,0E0,0E0,0E0,0E0,0E0,0E0,0E0,0E0,0E0,0E0,0E0,0E0,0E0,0E0,0E0,0E0,0E0,0E0,0E0,0E0,0E0,0E0,0E0,0E0,0E0,0E0,0E0,0E0,0E0,0E0,0E0,0E0,0E0,0E0,0E0,0E0,0E0,0E0,0E0,0E0,0E0,0E0,0E0,0E0,0E0,0E0,0E0,0E0,0E0,0E0,0E0,0E0,0E0,0E0,0E0,0E0,0E0],"parents":[2147483647,0,0,1,1,2,2,3,3,4,4,5,5,6,6,7,7,8,8,9,9,10,10,11,11,12,12,13,13,14,14,15,15,16,16,17,17,18,18,19,19,20,20,21,21,22,22,23,23,24,24,25,25,26,26,27,27,28,28,29,29,30,30,31,31,32,32,33,33,34,34,35,35,36,36,37,37,38,38,39,39,40,40,41,41,42,42,43,43,44,44,45,45,46,46,47,47,48,48,49,49,50,50,51,51,52,52,53,53,54,54,55,55,56,56,57,57,58,58,59,59,60,60,61,61,62,62],"right_children":[2,4,6,8,10,12,14,16,18,20,22,24,26,28,30,32,34,36,38,40,42,44,46,48,50,52,54,56,58,60,62,64,66,68,70,72,74,76,78,80,82,84,86,88,90,92,94,96,98,100,102,104,106,108,110,112,114,116,118,120,122,124,126,-1,-1,-1,-1,-1,-1,-1,-1,-1,-1,-1,-1,-1,-1,-1,-1,-1,-1,-1,-1,-1,-1,-1,-1,-1,-1,-1,-1,-1,-1,-1,-1,-1,-1,-1,-1,-1,-1,-1,-1,-1,-1,-1,-1,-1,-1,-1,-1,-1,-1,-1,-1,-1,-1,-1,-1,-1,-1,-1,-1,-1,-1,-1,-1],"split_conditions":[0E0,-4.8297632E-2,5.7206206E-2,8.494432E-3,-1.4693371E-2,2.1357289E-2,1.5628569E-2,0E0,9.043442E-2,3.2572318E-2,-5.8929073E-3,8.49341E-3,-2.0713253E-2,-5.1771507E-2,2.6877098E-2,-1.616641E-1,9.2256196E-2,3.41382E-2,-1.0453824E-1,-8.425466E-2,-9.295585E-2,5.1132616E-2,-3.0034673E-3,2.8611647E-3,7.56928E-2,1.1891284E-1,9.7724855E-2,-1.1954031E-1,1.0879741E-1,-5.530433E-2,4.687637E-2,-1.0216754E-1,-2.5511866E-2,-1.0691694E-1,-1.1956603E-1,-9.295585E-2,-1.3622333E-1,2.3222324E-1,-2.0508619E-1,9.575366E-2,-3.1736597E-2,-3.1736597E-2,-2.8484313E-2,4.1084204E-2,-3.988376E-2,-6.095283E-2,-5.0025884E-2,1.4373193E-3,6.32395E-2,6.7691155E-2,-7.0134915E-2,3.5340894E-2,-1.1696306E-1,-4.4490583E-3,1.6482264E-1,1.6802764E-1,1.3225813E-1,8.707687E-2,1.08811125E-1,-1.1694261E-1,1.1482461E-1,1.2771362E-1,6.619157E-2,-2.9195657E-1,-2.604592E-1,-2.6697105E-1,-2.4024604E-1,-2.1067719E-1,-2.4409288E-1,-1.8835774E-1,-1.5827623E-1,-2.175835E-1,-2.4061246E-1,-2.1798004E-1,-1.9299391E-1,-1.9165938E-1,-1.57502E-1,-1.4636883E-1,-1.8179761E-1,-1.6657658E-1,-1.2922314E-1,-2.3132467E-1,-1.9790547E-1,-1.4936712E-1,-1.2949735E-1,-1.8924306E-1,-1.6124491E-1,-1.6484916E-1,-1.2566882E-1,-1.17992945E-1,-1.3723004E-1,-1.1065369E-1,-1.3325092E-1,-1.0571267E-1,-1.1670742E-1,-1.0222664E-1,-9.3866125E-2,-7.330716E-2,-9.529117E-2,-2.9041983E-2,-7.43051E-2,-9.02337E-2,-6.921957E-2,-4.2305306E-2,-1.679589E-2,-7.9568386E-2,-5.549051E-2,-8.387018E-3,2.6156558E-2,-3.0373238E-2,-7.505337E-2,-5.0326224E-2,-1.7721353E-2,-2.0285768E-2,6.0112476E-3,3.012183E-2,5.8344606E-2,7.5968355E-4,2.3531716E-2,-4.1953523E-2,-9.20266E-3,4.5148246E-2,1.7743902E-2,6.0637537E-2,3.7369866E-2,5.5934418E-2,7.8909E-2],"split_indices":[0,0,0,2,0,0,1,1,2,2,0,0,1,1,2,0,1,2,0,2,1,2,0,0,2,2,1,1,2,2,1,2,2,2,0,1,0,2,1,1,0,0,0,1,1,2,1,0,2,1,1,0,1,2,1,0,0,0,0,2,1,2,2,0,0,0,0,0,0,0,0,0,0,0,0,0,0,0,0,0,0,0,0,0,0,0,0,0,0,0,0,0,0,0,0,0,0,0,0,0,0,0,0,0,0,0,0,0,0,0,0,0,0,0,0,0,0,0,0,0,0,0,0,0,0,0,0],"split_type":[0,0,0,0,0,0,0,0,0,0,0,0,0,0,0,0,0,0,0,0,0,0,0,0,0,0,0,0,0,0,0,0,0,0,0,0,0,0,0,0,0,0,0,0,0,0,0,0,0,0,0,0,0,0,0,0,0,0,0,0,0,0,0,0,0,0,0,0,0,0,0,0,0,0,0,0,0,0,0,0,0,0,0,0,0,0,0,0,0,0,0,0,0,0,0,0,0,0,0,0,0,0,0,0,0,0,0,0,0,0,0,0,0,0,0,0,0,0,0,0,0,0,0,0,0,0,0],"sum_hessian":[7.168075E7,3.3952436E7,3.772832E7,2.5294724E7,8.657714E6,1.1454266E7,2.6274052E7,2.2535102E7,2.759621E6,5.863246E6,2.794468E6,4.475895E6,6.978371E6,3.486392E6,2.278766E7,1.9454386E7,3.080716E6,1.902869E6,8.56752E5,4.58436E6,1.278886E6,1.659294E6,1.135174E6,1.937646E6,2.538249E6,1.463449E6,5.514922E6,1.302572E6,2.18382E6,4.126385E6,1.8661276E7,1.072269E7,8.731696E6,2.265085E6,8.15631E5,8.54129E5,1.04874E6,4.29767E5,4.26985E5,1.249619E6,3.334741E6,7.83023E5,4.95863E5,1.319518E6,3.39776E5,5.54135E5,5.81039E5,8.3655E5,1.101096E6,2.048484E6,4.89765E5,7.73223E5,6.90226E5,4.259926E6,1.254996E6,5.3945E5,7.63122E5,4.85993E5,1.697827E6,1.212259E6,2.914126E6,1.975643E6,1.6685632E7,9.182379E6,1.540311E6,7.338601E6,1.393095E6,1.832564E6,4.32521E5,3.19464E5,4.96167E5,7.02191E5,1.51938E5,2.82543E5,7.66197E5,3.39627E5,9.014E4,2.85886E5,1.41099E5,8.57126E5,3.92493E5,1.571512E6,1.763229E6,3.86647E5,3.96376E5,2.05828E5,2.90035E5,9.19371E5,4.00147E5,2.84587E5,5.5189E4,1.08826E5,4.45309E5,1.30724E5,4.50315E5,5.59884E5,2.76666E5,8.74001E5,2.27095E5,1.504921E6,5.43563E5,2.55567E5,2.34198E5,4.12274E5,3.60949E5,2.68113E5,4.22113E5,8.60146E5,3.39978E6,8.63096E5,3.919E5,3.87716E5,1.51734E5,5.14632E5,2.4849E5,3.74797E5,1.11196E5,8.49439E5,8.48388E5,5.23205E5,6.89054E5,7.77524E5,2.136602E6,9.76596E5,9.99047E5,2.673542E6,1.401209E7],"tree_param":{"num_deleted":"0","num_feature":"9","num_nodes":"127","size_leaf_vector":"0"}},{"base_weights":[-2.2669455E-1,-5.5208474E-1,6.613031E-2,-6.233582E-1,-4.3487135E-1,-1.02349594E-1,1.1437552E-1,-6.4107287E-1,-5.0766176E-1,-4.883759E-1,-3.5132346E-1,-1.8754315E-1,-5.9843592E-2,-1.1915167E-2,1.3508224E-1,-6.678278E-1,-5.257461E-1,-4.7673687E-1,-5.882347E-1,-3.6139107E-1,-5.1057875E-1,-3.888507E-1,-3.0494976E-1,-2.249202E-1,-1.6286601E-1,-3.511074E-2,-1.6107613E-1,-8.832589E-2,1.5871527E-2,9.837002E-3,1.6367653E-1,-6.782489E-1,-6.178646E-1,-4.8264664E-1,-6.108204E-1,-5.1668274E-1,-4.296399E-1,-6.473236E-1,-5.6605965E-1,-3.1631026E-1,-3.9682165E-1,-3.7841308E-1,-5.47515E-1,-3.1174475E-1,-4.140132E-1,-2.6056325E-1,-3.1898463E-1,-2.1622536E-1,-2.529779E-1,-2.4206397E-1,-1.5079291E-1,-1.2696871E-1,6.7374413E-3,-1.8989663E-1,-1.3350546E-1,-1.2870479E-1,-5.4646317E-2,8.7646395E-2,4.9033086E-3,-7.505568E-2,4.344003E-2,9.7896405E-2,1.7067446E-1,-2.0870924E-1,-1.908374E-1,-1.7297098E-1,-2.006863E-1,-1.5407902E-1,-1.2238275E-1,-1.9776022E-1,-1.7548212E-1,-1.6616328E-1,-1.3862042E-1,-1.0997527E-1,-1.3902493E-1,-2.0259383E-1,-1.8841581E-1,-1.556293E-1,-1.7931432E-1,-8.2052566E-2,-9.981431E-2,-1.2521437E-1,-1.0315613E-1,-9.2404805E-2,-1.2598003E-1,-1.704378E-1,-1.373842E-1,-8.0693066E-2,-9.881143E-2,-9.91826E-2,-1.4098115E-1,-9.170647E-2,-7.586E-2,-8.0110475E-2,-1.0434711E-1,-7.199659E-2,-6.009501E-2,-8.0847405E-2,-7.406276E-2,-8.1749976E-2,-6.544956E-2,-6.3370876E-2,-3.6791056E-2,-5.4640528E-2,-2.5513789E-2,-2.5615603E-2,1.046529E-2,-6.800236E-2,-5.3334396E-2,-3.2358438E-2,-4.7690216E-2,-1.766695E-2,-4.7061656E-2,-4.1741822E-2,-1.0179197E-2,2.0587904E-2,4.6682794E-2,-1.2609658E-2,1.045507E-2,-3.431598E-2,-5.8446913E-3,3.3327024E-2,9.296101E-3,4.2817794E-2,2.1796338E-2,3.4830812E-2,5.3876463E-2],"categories":[],"categories_nodes":[],"categories_segments":[],"categories_sizes":[],"default_left":[0,0,0,0,0,0,0,0,0,0,0,0,0,0,0,0,0,0,0,0,0,0,0,0,0,0,0,0,0,0,0,0,0,0,0,0,0,0,0,0,0,0,0,0,0,0,0,0,0,0,0,0,0,0,0,0,0,0,0,0,0,0,0,0,0,0,0,0,0,0,0,0,0,0,0,0,0,0,0,0,0,0,0,0,0,0,0,0,0,0,0,0,0,0,0,0,0,0,0,0,0,0,0,0,0,0,0,0,0,0,0,0,0,0,0,0,0,0,0,0,0,0,0,0,0,0,0],"id":2,"left_children":[1,3,5,7,9,11,13,15,17,19,21,23,25,27,29,31,33,35,37,39,41,43,45,47,49,51,53,55,57,59,61,63,65,67,69,71,73,75,77,79,81,83,85,87,89,91,93,95,97,99,101,103,105,107,109,111,113,115,117,119,121,123,125,-1,-1,-1,-1,-1,-1,-1,-1,-1,-1,-1,-1,-1,-1,-1,-1,-1,-1,-1,-1,-1,-1,-1,-1,-1,-1,-1,-1,-1,-1,-1,-1,-1,-1,-1,-1,-1,-1,-1,-1,-1,-1,-1,-1,-1,-1,-1,-1,-1,-1,-1,-1,-1,-1,-1,-1,-1,-1,-1,-1,-1,-1,-1,-1],"loss_changes":[6.829909E6,2.83646E5,3.0666888E5,4.32725E4,5.739075E4,3.0413703E4,7.6698875E4,5.64975E4,6.9853125E3,2.2066125E4,8.722375E3,2.5785E3,1.4028912E4,8.772015E3,9.024194E4,7.738E3,1.26421875E4,3.8112812E3,1.01853125E3,1.8603125E3,3.2520125E4,5.37475E3,1.3964688E3,2.7115234E2,1.6100117E3,1.730981E4,8.7415625E2,1.4983301E3,2.385141E3,1.3360669E4,9.443375E3,9.0385E3,5.4110625E3,5.291125E3,1.4512812E3,2.2265625E3,1.9800469E3,1.14015625E2,8.461719E2,3.598086E2,7.1009375E2,4.2529844E3,9.611625E3,5.1375E2,9.742094E3,1.8697266E2,2.5517031E3,3.208047E2,2.6435547E1,1.619541E2,2.4865977E3,3.2594648E3,8.0216104E3,2.3962695E2,3.6711523E2,9.853037E2,1.0514464E3,5.1914014E2,3.694029E3,2.9030596E3,2.8267642E3,2.2321152E3,9.0195E3,0E0,0E0,0E0,0E0,0E0,0E0,0E0,0E0,0E0,0E0,0E0,0E0,0E0,0E0,0E0,0E0,0E0,0E0,0E0,0E0,0E0,0E0,0E0,0E0,0E0,0E0,0E0,0E0,0E0,0E0,0E0,0E0,0E0,0E0,0E0,0E0,0E0,0E0,0E0,0E0,0E0,0E0,0E0,0E0,0E0,0E0,0E0,0E0,0E0,0E0,0E0,0E0,0E0,0E0,0E0,0E0,0E0,0E0,0E0,0E0,0E0,0E0,0E0,0E0],"parents":[2147483647,0,0,1,1,2,2,3,3,4,4,5,5,6,6,7,7,8,8,9,9,10,10,11,11,12,12,13,13,14,14,15,15,16,16,17,17,18,18,19,19,20,20,21,21,22,22,23,23,24,24,25,25,26,26,27,27,28,28,29,29,30,30,31,31,32,32,33,33,34,34,35,35,36,36,37,37,38,38,39,39,40,40,41,41,42,42,43,43,44,44,45,45,46,46,47,47,48,48,49,49,50,50,51,51,52,52,53,53,54,54,55,55,56,56,57,57,58,58,59,59,60,60,61,61,62,62],"right_children":[2,4,6,8,10,12,14,16,18,20,22,24,26,28,30,32,34,36,38,40,42,44,46,48,50,52,54,56,58,60,62,64,66,68,70,72,74,76,78,80,82,84,86,88,90,92,94,96,98,100,102,104,106,108,110,112,114,116,118,120,122,124,126,-1,-1,-1,-1,-1,-1,-1,-1,-1,-1,-1,-1,-1,-1,-1,-1,-1,-1,-1,-1,-1,-1,-1,-1,-1,-1,-1,-1,-1,-1,-1,-1,-1,-1,-1,-1,-1,-1,-1,-1,-1,-1,-1,-1,-1,-1,-1,-1,-1,-1,-1,-1,-1,-1,-1,-1,-1,-1,-1,-1,-1,-1,-1,-1],"split_conditions":[0E0,-7.6013416E-2,4.1265953E-2,-2.0719979E-2,-2.6866151E-2,1.2854188E-2,9.905476E-3,-3.988376E-2,-1.7259194E-1,-1.24919355E-1,-1.173817E-2,4.273681E-3,8.543959E-2,-8.006427E-2,1.8414607E-2,-7.802366E-2,-1.7254342E-1,-1.3916805E-1,-1.0939315E-1,-1.8022607E-1,-1.1188003E-1,-6.0718272E-2,-5.0025884E-2,6.460607E-2,-7.207802E-2,-1.920568E-2,-6.2803596E-2,8.707687E-2,7.56928E-2,-6.466256E-2,3.6896847E-2,-1.1954031E-1,-1.4525612E-1,-1.16944276E-1,-1.0453824E-1,5.2725587E-2,-2.6472557E-1,-1.3047962E-1,-1.3331053E-1,-2.713706E-1,-4.322479E-2,-1.8021764E-1,1.1455127E-2,-1.3916667E-1,-5.0037332E-2,2.134418E-2,-4.3215055E-2,-3.499559E-2,-9.7513735E-2,-1.2492379E-1,-2.8480519E-2,-6.843812E-2,-1.0251977E-2,-1.6886252E-1,1.0879741E-1,1.5573637E-1,-2.2923574E-1,7.077856E-2,7.569123E-2,1.0496146E-1,7.882177E-2,9.225605E-2,5.2725587E-2,-2.0870924E-1,-1.908374E-1,-1.7297098E-1,-2.006863E-1,-1.5407902E-1,-1.2238275E-1,-1.9776022E-1,-1.7548212E-1,-1.6616328E-1,-1.3862042E-1,-1.0997527E-1,-1.3902493E-1,-2.0259383E-1,-1.8841581E-1,-1.556293E-1,-1.7931432E-1,-8.2052566E-2,-9.981431E-2,-1.2521437E-1,-1.0315613E-1,-9.2404805E-2,-1.2598003E-1,-1.704378E-1,-1.373842E-1,-8.0693066E-2,-9.881143E-2,-9.91826E-2,-1.4098115E-1,-9.170647E-2,-7.586E-2,-8.0110475E-2,-1.0434711E-1,-7.199659E-2,-6.009501E-2,-8.0847405E-2,-7.406276E-2,-8.1749976E-2,-6.544956E-2,-6.3370876E-2,-3.6791056E-2,-5.4640528E-2,-2.5513789E-2,-2.5615603E-2,1.046529E-2,-6.800236E-2,-5.3334396E-2,-3.2358438E-2,-4.7690216E-2,-1.766695E-2,-4.7061656E-2,-4.1741822E-2,-1.0179197E-2,2.0587904E-2,4.6682794E-2,-1.2609658E-2,1.045507E-2,-3.431598E-2,-5.8446913E-3,3.3327024E-2,9.296101E-3,4.2817794E-2,2.1796338E-2,3.4830812E-2,5.3876463E-2],"split_indices":[0,0,0,2,0,0,1,1,1,1,0,0,2,1,2,2,2,0,0,1,2,1,1,1,2,2,1,0,2,2,1,1,1,0,0,2,1,0,1,1,0,2,2,1,2,2,2,1,2,2,1,2,1,1,2,2,1,0,0,0,1,2,2,0,0,0,0,0,0,0,0,0,0,0,0,0,0,0,0,0,0,0,0,0,0,0,0,0,0,0,0,0,0,0,0,0,0,0,0,0,0,0,0,0,0,0,0,0,0,0,0,0,0,0,0,0,0,0,0,0,0,0,0,0,0,0,0],"split_type":[0,0,0,0,0,0,0,0,0,0,0,0,0,0,0,0,0,0,0,0,0,0,0,0,0,0,0,0,0,0,0,0,0,0,0,0,0,0,0,0,0,0,0,0,0,0,0,0,0,0,0,0,0,0,0,0,0,0,0,0,0,0,0,0,0,0,0,0,0,0,0,0,0,0,0,0,0,0,0,0,0,0,0,0,0,0,0,0,0,0,0,0,0,0,0,0,0,0,0,0,0,0,0,0,0,0,0,0,0,0,0,0,0,0,0,0,0,0,0,0,0,0,0,0,0,0,0],"sum_hessian":[7.168075E7,3.3952436E7,3.772832E7,2.1113828E7,1.2838609E7,8.398705E6,2.9329612E7,1.8310282E7,2.803546E6,7.826481E6,5.012128E6,2.795587E6,5.603118E6,4.131503E6,2.519811E7,1.4862329E7,3.447953E6,2.025964E6,7.77582E5,1.16478E6,6.661701E6,2.770298E6,2.24183E6,1.11172E6,1.683867E6,4.502967E6,1.100151E6,1.101762E6,3.029741E6,4.683595E6,2.0514516E7,1.229738E7,2.564949E6,2.288556E6,1.159397E6,1.096199E6,9.29765E5,2.12177E5,5.65405E5,5.12588E5,6.52192E5,1.45509E6,5.206611E6,6.81618E5,2.08868E6,5.38571E5,1.703259E6,8.48718E5,2.63002E5,2.22735E5,1.461132E6,1.409366E6,3.093601E6,5.37881E5,5.6227E5,5.01047E5,6.00715E5,4.01614E5,2.628127E6,1.328174E6,3.355421E6,1.972563E6,1.8541952E7,8.695538E6,3.601842E6,1.418455E6,1.146494E6,1.618148E6,6.70408E5,4.04046E5,7.55351E5,6.5209E5,4.44109E5,3.2432E5,6.05445E5,8.6504E4,1.25673E5,2.26704E5,3.38701E5,1.42027E5,3.70561E5,4.69823E5,1.82369E5,5.39828E5,9.15262E5,4.232613E6,9.73998E5,1.98941E5,4.82677E5,8.38361E5,1.250319E6,7.8469E4,4.60102E5,6.08014E5,1.095245E6,3.40335E5,5.08383E5,7.0951E4,1.92051E5,9.7964E4,1.24771E5,4.64332E5,9.968E5,6.08558E5,8.00808E5,7.23999E5,2.369602E6,1.33278E5,4.04603E5,2.80136E5,2.82134E5,1.44039E5,3.57008E5,1.1828E5,4.82435E5,3.13797E5,8.7817E4,1.023697E6,1.60443E6,7.77742E5,5.50432E5,5.21641E5,2.83378E6,7.10577E5,1.261986E6,2.603401E6,1.5938551E7],"tree_param":{"num_deleted":"0","num_feature":"9","num_nodes":"127","size_leaf_vector":"0"}},{"base_weights":[-1.5868625E-1,-3.882695E-1,4.480963E-2,-4.2219445E-1,-2.7095503E-1,-4.4153925E-2,9.3203455E-2,-4.343348E-1,-3.1387106E-1,-2.856849E-1,-1.9647947E-1,-1.06490724E-1,4.7118636E-4,-1.484123E-2,1.02592215E-1,-4.5555055E-1,-3.470322E-1,-3.3139348E-1,-2.5919127E-1,-3.171761E-1,-2.2300147E-1,-2.1442896E-1,-1.4892337E-1,-1.4341295E-1,-7.693567E-2,2.0805253E-2,-8.792893E-2,5.636994E-2,-3.261776E-2,3.2255433E-2,1.18754014E-1,-4.6543172E-1,-3.9886585E-1,-3.7892458E-1,-2.856338E-1,-3.2401332E-1,-4.051849E-1,-3.4087297E-1,-2.4801476E-1,-3.4106478E-1,-2.6078254E-1,-2.4851276E-1,-1.9259435E-1,-2.59213E-1,-2.04943E-1,-1.6444668E-1,-1.3084981E-1,-1.6359822E-1,-1.2716275E-1,-5.8390696E-2,-1.333709E-1,4.8343103E-2,-9.0612605E-2,-5.7846192E-2,-1.2002349E-1,3.52463E-2,1.19171284E-1,-6.103395E-2,1.1674347E-2,7.622945E-2,-2.8527357E-2,7.849717E-2,1.3056716E-1,-1.415424E-1,-1.2723903E-1,-1.13492616E-1,-1.4179923E-1,-1.08875684E-1,-1.3446382E-1,-9.135139E-2,-6.0867786E-2,-1.0584388E-1,-8.736927E-2,-1.2757505E-1,-1.1484724E-1,-9.809999E-2,-1.336027E-1,-7.8419775E-2,-5.399286E-2,-7.745167E-2,-1.0665698E-1,-7.162161E-2,-9.15418E-2,-6.955629E-2,-8.684282E-2,-6.266032E-2,-5.219967E-2,-6.979887E-2,-8.156283E-2,-5.4695234E-2,-6.6741765E-2,-5.912205E-2,-4.5962743E-2,-4.654589E-2,-3.7151318E-2,-5.0191067E-2,-4.5741037E-2,-3.3626184E-2,-5.1740844E-2,-6.1205053E-3,-3.7362292E-2,-4.330459E-2,-2.8095027E-2,-4.3347445E-3,1.8420126E-2,-1.9831114E-2,-5.2012403E-2,-2.3582721E-2,-7.5099827E-3,-3.240554E-2,-4.4744372E-2,2.8998213E-2,4.6159304E-3,2.891729E-2,4.9015258E-2,-1.0690851E-2,-3.7141588E-2,2.1503642E-2,-6.055813E-3,1.4453921E-2,3.254051E-2,-3.1203631E-2,3.030249E-3,3.2631304E-2,1.0792544E-2,2.9867195E-2,4.2560264E-2],"categories":[],"categories_nodes":[],"categories_segments":[],"categories_sizes":[],"default_left":[0,0,0,0,0,0,0,0,0,0,0,0,0,0,0,0,0,0,0,0,0,0,0,0,0,0,0,0,0,0,0,0,0,0,0,0,0,0,0,0,0,0,0,0,0,0,0,0,0,0,0,0,0,0,0,0,0,0,0,0,0,0,0,0,0,0,0,0,0,0,0,0,0,0,0,0,0,0,0,0,0,0,0,0,0,0,0,0,0,0,0,0,0,0,0,0,0,0,0,0,0,0,0,0,0,0,0,0,0,0,0,0,0,0,0,0,0,0,0,0,0,0,0,0,0,0,0],"id":3,"left_children":[1,3,5,7,9,11,13,15,17,19,21,23,25,27,29,31,33,35,37,39,41,43,45,47,49,51,53,55,57,59,61,63,65,67,69,71,73,75,77,79,81,83,85,87,89,91,93,95,97,99,101,103,105,107,109,111,113,115,117,119,121,123,125,-1,-1,-1,-1,-1,-1,-1,-1,-1,-1,-1,-1,-1,-1,-1,-1,-1,-1,-1,-1,-1,-1,-1,-1,-1,-1,-1,-1,-1,-1,-1,-1,-1,-1,-1,-1,-1,-1,-1,-1,-1,-1,-1,-1,-1,-1,-1,-1,-1,-1,-1,-1,-1,-1,-1,-1,-1,-1,-1,-1,-1,-1,-1,-1],"loss_changes":[3.3488715E6,1.34048E5,1.6359788E5,3.4358E4,8.288125E3,3.724237E4,2.4965906E4,4.3514E4,2.5226562E3,1.24510625E4,1.0648789E3,6.095121E3,1.4025104E4,2.490852E3,2.5740656E4,1.0586E4,8.993625E3,1.0857969E3,5.8326953E2,5.655875E3,1.636125E3,3.8470312E2,9.5887695E1,8.1452734E2,3.246789E3,1.9462594E4,1.40875E3,5.214397E2,1.9818154E3,1.1308501E4,8.756391E3,4.23825E3,4.2561562E3,3.3521562E3,2.4515938E3,1.7113281E3,8.117969E1,1.1131738E2,5.1182812E2,3.5344375E3,1.2214688E3,7.8259375E2,2.9116016E2,5.315918E1,2.9638672E2,6.739404E1,2.6898682E1,4.5640625E1,9.3963477E2,5.867756E3,3.3455762E2,4.170173E3,2.5498965E3,5.131194E2,2.4681055E2,3.58752E2,9.962915E1,1.5292173E3,1.1764904E3,2.2199062E3,5.1785215E3,5.3775E3,4.9884375E3,0E0,0E0,0E0,0E0,0E0,0E0,0E0,0E0,0E0,0E0,0E0,0E0,0E0,0E0,0E0,0E0,0E0,0E0,0E0,0E0,0E0,0E0,0E0,0E0,0E0,0E0,0E0,0E0,0E0,0E0,0E0,0E0,0E0,0E0,0E0,0E0,0E0,0E0,0E0,0E0,0E0,0E0,0E0,0E0,0E0,0E0,0E0,0E0,0E0,0E0,0E0,0E0,0E0,0E0,0E0,0E0,0E0,0E0,0E0,0E0,0E0,0E0,0E0,0E0],"parents":[2147483647,0,0,1,1,2,2,3,3,4,4,5,5,6,6,7,7,8,8,9,9,10,10,11,11,12,12,13,13,14,14,15,15,16,16,17,17,18,18,19,19,20,20,21,21,22,22,23,23,24,24,25,25,26,26,27,27,28,28,29,29,30,30,31,31,32,32,33,33,34,34,35,35,36,36,37,37,38,38,39,39,40,40,41,41,42,42,43,43,44,44,45,45,46,46,47,47,48,48,49,49,50,50,51,51,52,52,53,53,54,54,55,55,56,56,57,57,58,58,59,59,60,60,61,61,62,62],"right_children":[2,4,6,8,10,12,14,16,18,20,22,24,26,28,30,32,34,36,38,40,42,44,46,48,50,52,54,56,58,60,62,64,66,68,70,72,74,76,78,80,82,84,86,88,90,92,94,96,98,100,102,104,106,108,110,112,114,116,118,120,122,124,126,-1,-1,-1,-1,-1,-1,-1,-1,-1,-1,-1,-1,-1,-1,-1,-1,-1,-1,-1,-1,-1,-1,-1,-1,-1,-1,-1,-1,-1,-1,-1,-1,-1,-1,-1,-1,-1,-1,-1,-1,-1,-1,-1,-1,-1,-1,-1,-1,-1,-1,-1,-1,-1,-1,-1,-1,-1,-1,-1,-1,-1,-1,-1,-1],"split_conditions":[-1.3992357E-3,-4.322479E-2,6.619391E-2,1.7098144E-2,5.5592835E-2,2.5595814E-2,-1.3225149E-2,-2.2431806E-2,1.1686102E-1,2.4114404E-2,1.3476889E-1,9.889283E-3,1.0311295E-1,1.528943E-1,3.8186476E-2,-3.660401E-2,5.1134694E-2,-8.006427E-2,-2.459182E-1,1.28632905E-2,7.0783466E-2,-3.338188E-2,1.8544164E-1,2.8611647E-3,6.4621136E-2,1.0881072E-1,1.4484361E-1,9.9322885E-2,1.4485188E-1,2.1131459E-1,6.7691155E-2,-5.7097264E-2,-7.8019574E-2,-7.802366E-2,1.7132823E-1,-8.855586E-2,-5.5304695E-2,-5.0699943E-1,2.6586258E-1,-6.655083E-2,-3.660401E-2,-3.8239364E-2,-1.7690333E-2,-1.548738E-1,-9.981715E-2,-3.0094258E-2,-3.1736597E-2,1.4373193E-3,5.27232E-2,5.5592835E-2,-1.3225149E-2,-4.4564586E-3,1.9751291E-1,5.2725453E-2,2.215094E-1,9.225605E-2,1.255172E-1,2.742672E-1,3.2368946E-1,9.4031826E-2,1.3225813E-1,1.5867251E-1,9.932068E-2,-1.415424E-1,-1.2723903E-1,-1.13492616E-1,-1.4179923E-1,-1.08875684E-1,-1.3446382E-1,-9.135139E-2,-6.0867786E-2,-1.0584388E-1,-8.736927E-2,-1.2757505E-1,-1.1484724E-1,-9.809999E-2,-1.336027E-1,-7.8419775E-2,-5.399286E-2,-7.745167E-2,-1.0665698E-1,-7.162161E-2,-9.15418E-2,-6.955629E-2,-8.684282E-2,-6.266032E-2,-5.219967E-2,-6.979887E-2,-8.156283E-2,-5.4695234E-2,-6.6741765E-2,-5.912205E-2,-4.5962743E-2,-4.654589E-2,-3.7151318E-2,-5.0191067E-2,-4.5741037E-2,-3.3626184E-2,-5.1740844E-2,-6.1205053E-3,-3.7362292E-2,-4.330459E-2,-2.8095027E-2,-4.3347445E-3,1.8420126E-2,-1.9831114E-2,-5.2012403E-2,-2.3582721E-2,-7.5099827E-3,-3.240554E-2,-4.4744372E-2,2.8998213E-2,4.6159304E-3,2.891729E-2,4.9015258E-2,-1.0690851E-2,-3.7141588E-2,2.1503642E-2,-6.055813E-3,1.4453921E-2,3.254051E-2,-3.1203631E-2,3.030249E-3,3.2631304E-2,1.0792544E-2,2.9867195E-2,4.2560264E-2],"split_indices":[0,0,0,2,1,0,1,1,2,2,1,0,2,2,2,2,1,1,0,1,2,0,1,0,2,1,2,0,0,1,1,1,1,2,1,0,0,1,2,1,2,1,0,2,2,0,0,0,1,1,1,1,1,0,2,2,0,2,2,0,0,2,2,0,0,0,0,0,0,0,0,0,0,0,0,0,0,0,0,0,0,0,0,0,0,0,0,0,0,0,0,0,0,0,0,0,0,0,0,0,0,0,0,0,0,0,0,0,0,0,0,0,0,0,0,0,0,0,0,0,0,0,0,0,0,0,0],"split_type":[0,0,0,0,0,0,0,0,0,0,0,0,0,0,0,0,0,0,0,0,0,0,0,0,0,0,0,0,0,0,0,0,0,0,0,0,0,0,0,0,0,0,0,0,0,0,0,0,0,0,0,0,0,0,0,0,0,0,0,0,0,0,0,0,0,0,0,0,0,0,0,0,0,0,0,0,0,0,0,0,0,0,0,0,0,0,0,0,0,0,0,0,0,0,0,0,0,0,0,0,0,0,0,0,0,0,0,0,0,0,0,0,0,0,0,0,0,0,0,0,0,0,0,0,0,0,0],"sum_hessian":[7.168075E7,3.368146E7,3.7999296E7,2.6126278E7,7.555182E6,1.3387932E7,2.4611364E7,2.3493264E7,2.633015E6,6.307645E6,1.247537E6,5.58552E6,7.802412E6,1.96767E6,2.2643692E7,1.8900244E7,4.59302E6,1.994017E6,6.38998E5,4.19842E6,2.109225E6,9.05691E5,3.41846E5,2.483258E6,3.102262E6,6.343306E6,1.459106E6,3.93069E5,1.574601E6,4.230854E6,1.841284E7,1.6094645E7,2.805598E6,3.022847E6,1.570173E6,1.812725E6,1.81292E5,7.6907E4,5.62091E5,2.94914E6,1.24928E6,1.146943E6,9.62282E5,1.58303E5,7.47388E5,1.83893E5,1.57953E5,1.107527E6,1.375731E6,2.334976E6,7.67286E5,5.086208E6,1.257098E6,7.5316E5,7.05946E5,2.94136E5,9.8933E4,9.59208E5,6.15393E5,2.454858E6,1.775996E6,4.177333E6,1.4235506E7,1.394219E7,2.152455E6,2.194349E6,6.11249E5,2.455605E6,5.67242E5,1.278567E6,2.91606E5,9.64976E5,8.47749E5,9.5541E4,8.5751E4,6.7895E4,9.012E3,4.69691E5,9.24E4,4.38006E5,2.511134E6,8.34545E5,4.14735E5,8.15366E5,3.31577E5,5.13177E5,4.49105E5,5.1127E4,1.07176E5,3.26274E5,4.21114E5,4.7107E4,1.36786E5,3.5364E4,1.22589E5,8.30861E5,2.76666E5,1.032258E6,3.43473E5,1.4832E6,8.51776E5,6.01144E5,1.66142E5,8.75578E5,4.21063E6,9.69882E5,2.87216E5,4.61278E5,2.91882E5,4.99895E5,2.06051E5,7.1873E4,2.22263E5,6.5294E4,3.3639E4,6.82902E5,2.76306E5,2.13429E5,4.01964E5,1.312719E6,1.142139E6,6.01189E5,1.174807E6,2.440092E6,1.737241E6,3.802078E6,1.0433428E7],"tree_param":{"num_deleted":"0","num_feature":"9","num_nodes":"127","size_leaf_vector":"0"}},{"base_weights":[-1.11080416E-1,-2.7331048E-1,3.0238688E-2,-3.1185123E-1,-2.2143736E-1,-6.31775E-2,5.5393685E-2,-3.1726074E-1,-2.3083292E-1,-2.4864025E-1,-1.8253322E-1,-9.926293E-2,-4.0900573E-2,-1.8877719E-2,6.453644E-2,-3.2767874E-1,-2.6972377E-1,-2.1530472E-1,-2.9659578E-1,-1.5762958E-1,-2.6350534E-1,-1.3671376E-1,-1.9436347E-1,-1.13094695E-1,-8.762366E-2,-2.6020404E-2,-9.94801E-2,-5.553756E-2,-5.8282274E-3,-1.9321097E-2,7.545442E-2,-3.3858064E-1,-2.9423755E-1,-2.2887382E-1,-3.2216164E-1,-2.5454772E-1,-1.9189884E-1,-3.4170854E-1,-2.760209E-1,-1.05772585E-1,-1.779441E-1,-1.9049588E-1,-2.9094997E-1,-1.0287789E-1,-1.5076627E-1,-1.4750214E-1,-2.1970843E-1,-1.1955755E-1,-1.1099436E-1,-7.5024106E-2,-1.2292878E-1,1.0955214E-3,-8.386946E-2,-8.373756E-2,-1.3619815E-1,-6.4151205E-2,2.8391661E-2,8.122186E-2,-1.052185E-2,-1.1082336E-1,-9.1936495E-3,7.0142426E-2,1.1632964E-1,-1.0548448E-1,-9.3687214E-2,-7.7864826E-2,-9.959715E-2,-7.626847E-2,-5.4568857E-2,-8.9308284E-2,-1.0700591E-1,-7.184929E-2,-9.951008E-2,-4.382184E-2,-6.429532E-2,-1.294201E-1,-9.8994374E-2,-7.53279E-2,-9.360886E-2,-2.3497287E-2,-3.648831E-2,-5.099302E-2,-5.93057E-2,-4.729565E-2,-6.5619245E-2,-7.2247714E-2,-9.223151E-2,-3.5812367E-2,-2.751254E-2,-6.1308622E-2,-4.2252667E-2,-5.8834977E-2,-4.1956767E-2,-7.706137E-2,-5.3900864E-2,-3.200371E-2,-3.68136E-2,-3.2101434E-2,-3.5087626E-2,-3.425964E-2,-1.2988979E-2,-3.860822E-2,-2.765071E-2,-1.0165237E-2,5.460928E-3,-2.7689995E-2,-1.3771488E-2,-3.0604823E-2,-2.1017771E-2,-4.595816E-2,-3.416358E-2,-3.8686346E-2,-1.563364E-2,2.9893115E-2,2.5276144E-3,3.4648556E-2,1.8844984E-2,-9.766104E-3,4.363177E-3,-3.7221067E-2,-6.5932036E-3,-9.922769E-3,6.1215395E-3,2.2190906E-2,-4.397827E-3,3.7406546E-3,3.8734697E-2],"categories":[],"categories_nodes":[],"categories_segments":[],"categories_sizes":[],"default_left":[0,0,0,0,0,0,0,0,0,0,0,0,0,0,0,0,0,0,0,0,0,0,0,0,0,0,0,0,0,0,0,0,0,0,0,0,0,0,0,0,0,0,0,0,0,0,0,0,0,0,0,0,0,0,0,0,0,0,0,0,0,0,0,0,0,0,0,0,0,0,0,0,0,0,0,0,0,0,0,0,0,0,0,0,0,0,0,0,0,0,0,0,0,0,0,0,0,0,0,0,0,0,0,0,0,0,0,0,0,0,0,0,0,0,0,0,0,0,0,0,0,0,0,0,0,0,0],"id":4,"left_children":[1,3,5,7,9,11,13,15,17,19,21,23,25,27,29,31,33,35,37,39,41,43,45,47,49,51,53,55,57,59,61,63,65,67,69,71,73,75,77,79,81,83,85,87,89,91,93,95,97,99,101,103,105,107,109,111,113,115,117,119,121,123,125,-1,-1,-1,-1,-1,-1,-1,-1,-1,-1,-1,-1,-1,-1,-1,-1,-1,-1,-1,-1,-1,-1,-1,-1,-1,-1,-1,-1,-1,-1,-1,-1,-1,-1,-1,-1,-1,-1,-1,-1,-1,-1,-1,-1,-1,-1,-1,-1,-1,-1,-1,-1,-1,-1,-1,-1,-1,-1,-1,-1,-1,-1,-1,-1],"loss_changes":[1.643368E6,6.671675E4,9.0022555E4,8.391125E3,1.50545625E4,6.533367E3,2.0494945E4,8.888375E3,1.2236836E3,1.132575E4,3.1729844E3,4.9941992E2,4.380287E3,1.5825931E3,2.4604469E4,5.367E3,6.910953E3,8.9041016E2,2.12375E2,1.2381875E3,1.4419094E4,5.711426E2,5.5256406E3,1.9230469E1,7.493633E2,6.2858887E3,5.88374E2,6.2783057E2,9.968178E2,2.8688489E3,5.1628906E3,3.80425E3,4.7397188E3,2.160039E3,1.1932969E3,4.2047852E2,6.238574E2,7.526953E1,1.4103906E2,1.4397217E2,1.3280273E2,1.8231562E3,4.3225E3,6.4938965E1,4.514004E2,6.070039E2,4.492672E3,1.4111816E1,2.544629E1,1.5431406E3,7.85625E1,1.6327E3,4.0931543E2,1.7811963E2,1.15853516E2,6.1446387E2,1.149953E2,7.872778E1,1.2783887E3,3.6308032E2,1.9703186E3,6.8297734E3,3.6315977E3,0E0,0E0,0E0,0E0,0E0,0E0,0E0,0E0,0E0,0E0,0E0,0E0,0E0,0E0,0E0,0E0,0E0,0E0,0E0,0E0,0E0,0E0,0E0,0E0,0E0,0E0,0E0,0E0,0E0,0E0,0E0,0E0,0E0,0E0,0E0,0E0,0E0,0E0,0E0,0E0,0E0,0E0,0E0,0E0,0E0,0E0,0E0,0E0,0E0,0E0,0E0,0E0,0E0,0E0,0E0,0E0,0E0,0E0,0E0,0E0,0E0,0E0,0E0,0E0],"parents":[2147483647,0,0,1,1,2,2,3,3,4,4,5,5,6,6,7,7,8,8,9,9,10,10,11,11,12,12,13,13,14,14,15,15,16,16,17,17,18,18,19,19,20,20,21,21,22,22,23,23,24,24,25,25,26,26,27,27,28,28,29,29,30,30,31,31,32,32,33,33,34,34,35,35,36,36,37,37,38,38,39,39,40,40,41,41,42,42,43,43,44,44,45,45,46,46,47,47,48,48,49,49,50,50,51,51,52,52,53,53,54,54,55,55,56,56,57,57,58,58,59,59,60,60,61,61,62,62],"right_children":[2,4,6,8,10,12,14,16,18,20,22,24,26,28,30,32,34,36,38,40,42,44,46,48,50,52,54,56,58,60,62,64,66,68,70,72,74,76,78,80,82,84,86,88,90,92,94,96,98,100,102,104,106,108,110,112,114,116,118,120,122,124,126,-1,-1,-1,-1,-1,-1,-1,-1,-1,-1,-1,-1,-1,-1,-1,-1,-1,-1,-1,-1,-1,-1,-1,-1,-1,-1,-1,-1,-1,-1,-1,-1,-1,-1,-1,-1,-1,-1,-1,-1,-1,-1,-1,-1,-1,-1,-1,-1,-1,-1,-1,-1,-1,-1,-1,-1,-1,-1,-1,-1,-1,-1,-1,-1],"split_conditions":[-3.0034673E-3,-9.07482E-2,3.690624E-2,2.4114404E-2,-3.4988865E-2,1.1462227E-2,-8.7162545E-3,-5.1771507E-2,-2.1430905E-1,-1.4220153E-1,-7.4258745E-2,2.8611647E-3,7.882177E-2,-1.02186814E-1,-1.17457975E-2,-8.855548E-2,-2.1429728E-1,-1.8411636E-1,-1.1956603E-1,-2.3460026E-1,-1.0453592E-1,-1.516006E-1,-5.1771507E-2,-5.1771507E-2,5.1132616E-2,6.769166E-2,1.4746879E-1,2.4483462E-1,4.9885787E-2,-1.7638162E-1,3.6490226E-1,-1.4221598E-1,-1.8412842E-1,-1.4842175E-1,-1.4220153E-1,-3.593185E-1,-3.4541538E-1,-1.6889864E-1,-1.5819131E-1,-3.1254423E-1,-1.5819328E-1,-1.5819131E-1,-9.0742424E-2,-2.3972781E-2,1.4347595E-3,1.4343146E-3,-1.6198535E-2,-1.3992357E-3,4.2483147E-2,-1.920568E-2,-1.175039E-2,0E0,0E0,-5.3525455E-2,2.6877392E-2,-2.5819716E-1,4.985838E-1,1.563027E-2,8.542354E-2,2.1128514E-1,8.875383E-2,3.3669826E-1,2.0647265E-1,-1.0548448E-1,-9.3687214E-2,-7.7864826E-2,-9.959715E-2,-7.626847E-2,-5.4568857E-2,-8.9308284E-2,-1.0700591E-1,-7.184929E-2,-9.951008E-2,-4.382184E-2,-6.429532E-2,-1.294201E-1,-9.8994374E-2,-7.53279E-2,-9.360886E-2,-2.3497287E-2,-3.648831E-2,-5.099302E-2,-5.93057E-2,-4.729565E-2,-6.5619245E-2,-7.2247714E-2,-9.223151E-2,-3.5812367E-2,-2.751254E-2,-6.1308622E-2,-4.2252667E-2,-5.8834977E-2,-4.1956767E-2,-7.706137E-2,-5.3900864E-2,-3.200371E-2,-3.68136E-2,-3.2101434E-2,-3.5087626E-2,-3.425964E-2,-1.2988979E-2,-3.860822E-2,-2.765071E-2,-1.0165237E-2,5.460928E-3,-2.7689995E-2,-1.3771488E-2,-3.0604823E-2,-2.1017771E-2,-4.595816E-2,-3.416358E-2,-3.8686346E-2,-1.563364E-2,2.9893115E-2,2.5276144E-3,3.4648556E-2,1.8844984E-2,-9.766104E-3,4.363177E-3,-3.7221067E-2,-6.5932036E-3,-9.922769E-3,6.1215395E-3,2.2190906E-2,-4.397827E-3,3.7406546E-3,3.8734697E-2],"split_indices":[0,0,0,2,0,0,1,1,1,2,2,0,1,1,2,2,2,0,0,2,1,2,1,1,2,2,1,0,2,2,0,1,1,0,2,1,1,0,1,2,2,1,2,0,1,2,0,0,1,2,1,2,1,2,0,1,2,2,0,0,0,1,1,0,0,0,0,0,0,0,0,0,0,0,0,0,0,0,0,0,0,0,0,0,0,0,0,0,0,0,0,0,0,0,0,0,0,0,0,0,0,0,0,0,0,0,0,0,0,0,0,0,0,0,0,0,0,0,0,0,0,0,0,0,0,0,0],"split_type":[0,0,0,0,0,0,0,0,0,0,0,0,0,0,0,0,0,0,0,0,0,0,0,0,0,0,0,0,0,0,0,0,0,0,0,0,0,0,0,0,0,0,0,0,0,0,0,0,0,0,0,0,0,0,0,0,0,0,0,0,0,0,0,0,0,0,0,0,0,0,0,0,0,0,0,0,0,0,0,0,0,0,0,0,0,0,0,0,0,0,0,0,0,0,0,0,0,0,0,0,0,0,0,0,0,0,0,0,0,0,0,0,0,0,0,0,0,0,0,0,0,0,0,0,0,0,0],"sum_hessian":[7.168075E7,3.3371398E7,3.8309356E7,1.9146158E7,1.422524E7,8.127368E6,3.0181988E7,1.7947798E7,1.19836E6,8.371584E6,5.853656E6,3.102218E6,5.02515E6,3.308149E6,2.687384E7,1.472149E7,3.226308E6,9.69453E5,2.28907E5,1.175382E6,7.196202E6,1.201227E6,4.652429E6,1.417589E6,1.684629E6,4.007245E6,1.017905E6,8.68441E5,2.439708E6,3.095821E6,2.377802E7,1.1102155E7,3.619335E6,1.813538E6,1.41277E6,3.62188E5,6.07265E5,7.1694E4,1.57213E5,3.30843E5,8.44539E5,1.966045E6,5.230157E6,3.52494E5,8.48733E5,1.63304E6,3.019389E6,3.47685E5,1.069904E6,1.241552E6,4.43077E5,2.728364E6,1.278881E6,7.12451E5,3.05454E5,7.87609E5,8.0832E4,1.24815E5,2.314893E6,3.08499E5,2.787322E6,2.1043312E7,2.734707E6,7.422263E6,3.679892E6,1.886233E6,1.733102E6,1.177839E6,6.35699E5,8.26819E5,5.85951E5,3.03072E5,5.9116E4,1.99493E5,4.07772E5,8.286E3,6.3408E4,9.2905E4,6.4308E4,1.21137E5,2.09706E5,6.01709E5,2.4283E5,9.0885E5,1.057195E6,1.294607E6,3.93555E6,1.42306E5,2.10188E5,1.32599E5,7.16134E5,2.21939E5,1.411101E6,1.565934E6,1.453455E6,6.8413E4,2.79272E5,6.41094E5,4.2881E5,5.55572E5,6.8598E5,3.73137E5,6.994E4,8.96106E5,1.832258E6,1.046492E6,2.32389E5,3.04944E5,4.07507E5,1.73405E5,1.32049E5,1.23395E5,6.64214E5,1.7692E4,6.314E4,4.3607E4,8.1208E4,1.232007E6,1.082886E6,2.6847E5,4.0029E4,1.542628E6,1.244694E6,2.0134604E7,9.08709E5,2.9976E5,2.434947E6],"tree_param":{"num_deleted":"0","num_feature":"9","num_nodes":"127","size_leaf_vector":"0"}},{"base_weights":[-7.775633E-2,-1.9316465E-1,1.9697206E-2,-2.1458417E-1,-1.4991003E-1,-2.3127528E-2,5.0294925E-2,-2.1867548E-1,-1.5017363E-1,-1.627405E-1,-1.12772234E-1,-5.539852E-2,1.2960021E-3,5.435996E-3,5.6955967E-2,-2.2681549E-1,-1.7901327E-1,-1.23424284E-1,-1.7830141E-1,-1.8731019E-1,-1.2038384E-1,-1.2103808E-1,-7.647213E-2,-7.645671E-2,-4.113798E-2,1.1676554E-2,-7.2358556E-2,3.3136953E-2,-1.781148E-2,1.7702559E-2,6.681331E-2,-2.3257682E-1,-2.0554896E-1,-1.6450861E-1,-2.1848202E-1,-1.6866921E-1,-8.936693E-2,-2.4108627E-1,-1.6361788E-1,-1.4474973E-1,-2.0004243E-1,-1.1303611E-1,-1.6928E-1,-1.150197E-1,-1.4609753E-1,-8.2322426E-2,-6.204516E-3,-8.1103496E-2,-6.943669E-2,-8.028666E-2,-2.7975656E-2,3.1554125E-2,-4.588894E-2,-5.858502E-2,-1.2353237E-1,1.8293932E-2,8.458916E-2,-4.7308333E-2,1.6809551E-2,4.602429E-2,-3.777047E-2,4.676962E-2,7.2007135E-2,-7.201707E-2,-6.430192E-2,-5.376536E-2,-7.644628E-2,-5.5436913E-2,-4.0057268E-2,-7.547763E-2,-6.2757E-2,-4.048041E-2,-6.252191E-2,-3.2929585E-3,-3.1713217E-2,-8.523381E-2,-6.786045E-2,-4.2623986E-2,-5.5362854E-2,-5.4505713E-2,-3.6478106E-2,-4.1596934E-2,-6.448234E-2,-3.7105422E-2,-2.7903195E-2,-6.259149E-2,-4.4859484E-2,-3.9748497E-2,-3.0818813E-2,-4.6256606E-2,-2.5048552E-2,-2.7678102E-2,-1.7123764E-2,5.6379205E-3,-1.6323239E-2,-2.5328847E-2,-2.0754771E-2,-3.0088665E-2,-1.8336918E-2,-3.2243803E-3,-2.5121385E-2,-1.11442016E-4,-1.925808E-2,1.385146E-2,-8.100253E-4,-6.595602E-3,-2.0919284E-2,-1.6289517E-2,-4.4342056E-2,-3.2152448E-2,-6.2162504E-2,1.27132265E-2,-5.61611E-4,2.073371E-2,4.0392447E-2,-9.384841E-3,-2.541912E-2,1.7685326E-2,-3.5335298E-3,2.5755787E-2,7.740825E-3,-2.5880134E-2,-1.2213232E-4,2.1495463E-2,-3.789382E-3,1.4943725E-2,2.4590937E-2],"categories":[],"categories_nodes":[],"categories_segments":[],"categories_sizes":[],"default_left":[0,0,0,0,0,0,0,0,0,0,0,0,0,0,0,0,0,0,0,0,0,0,0,0,0,0,0,0,0,0,0,0,0,0,0,0,0,0,0,0,0,0,0,0,0,0,0,0,0,0,0,0,0,0,0,0,0,0,0,0,0,0,0,0,0,0,0,0,0,0,0,0,0,0,0,0,0,0,0,0,0,0,0,0,0,0,0,0,0,0,0,0,0,0,0,0,0,0,0,0,0,0,0,0,0,0,0,0,0,0,0,0,0,0,0,0,0,0,0,0,0,0,0,0,0,0,0],"id":5,"left_children":[1,3,5,7,9,11,13,15,17,19,21,23,25,27,29,31,33,35,37,39,41,43,45,47,49,51,53,55,57,59,61,63,65,67,69,71,73,75,77,79,81,83,85,87,89,91,93,95,97,99,101,103,105,107,109,111,113,115,117,119,121,123,125,-1,-1,-1,-1,-1,-1,-1,-1,-1,-1,-1,-1,-1,-1,-1,-1,-1,-1,-1,-1,-1,-1,-1,-1,-1,-1,-1,-1,-1,-1,-1,-1,-1,-1,-1,-1,-1,-1,-1,-1,-1,-1,-1,-1,-1,-1,-1,-1,-1,-1,-1,-1,-1,-1,-1,-1,-1,-1,-1,-1,-1,-1,-1,-1],"loss_changes":[8.0618975E5,3.0404875E4,5.092436E4,5.7838125E3,5.178922E3,1.2765058E4,6.7732656E3,6.6629375E3,9.862871E2,8.406672E3,8.37375E2,2.0951992E3,7.0484463E3,1.8873179E3,7.636918E3,2.097875E3,2.0118281E3,1.0353467E3,5.890332E2,2.7703438E3,1.0654336E3,3.428203E2,2.1278857E2,9.188867E1,2.1435552E3,9.245658E3,8.026421E2,1.02128076E3,1.6272504E3,6.223952E3,1.6422734E3,1.837875E3,4.7354688E3,1.6148672E3,2.905078E2,3.8678906E2,4.911482E2,7.75E1,2.3336621E2,1.0068633E3,3.599E3,5.497617E2,3.010957E2,3.9366602E2,2.2296387E2,1.198689E2,4.794356E1,6.7203125E1,2.8784912E2,2.5120654E2,3.1124934E3,3.007296E3,1.1819487E3,3.4316113E2,3.3052563E2,5.0405768E2,2.3192456E2,5.159851E2,8.8314E2,2.1122021E3,2.426192E3,4.7984326E3,2.7703633E3,0E0,0E0,0E0,0E0,0E0,0E0,0E0,0E0,0E0,0E0,0E0,0E0,0E0,0E0,0E0,0E0,0E0,0E0,0E0,0E0,0E0,0E0,0E0,0E0,0E0,0E0,0E0,0E0,0E0,0E0,0E0,0E0,0E0,0E0,0E0,0E0,0E0,0E0,0E0,0E0,0E0,0E0,0E0,0E0,0E0,0E0,0E0,0E0,0E0,0E0,0E0,0E0,0E0,0E0,0E0,0E0,0E0,0E0,0E0,0E0,0E0,0E0,0E0,0E0],"parents":[2147483647,0,0,1,1,2,2,3,3,4,4,5,5,6,6,7,7,8,8,9,9,10,10,11,11,12,12,13,13,14,14,15,15,16,16,17,17,18,18,19,19,20,20,21,21,22,22,23,23,24,24,25,25,26,26,27,27,28,28,29,29,30,30,31,31,32,32,33,33,34,34,35,35,36,36,37,37,38,38,39,39,40,40,41,41,42,42,43,43,44,44,45,45,46,46,47,47,48,48,49,49,50,50,51,51,52,52,53,53,54,54,55,55,56,56,57,57,58,58,59,59,60,60,61,61,62,62],"right_children":[2,4,6,8,10,12,14,16,18,20,22,24,26,28,30,32,34,36,38,40,42,44,46,48,50,52,54,56,58,60,62,64,66,68,70,72,74,76,78,80,82,84,86,88,90,92,94,96,98,100,102,104,106,108,110,112,114,116,118,120,122,124,126,-1,-1,-1,-1,-1,-1,-1,-1,-1,-1,-1,-1,-1,-1,-1,-1,-1,-1,-1,-1,-1,-1,-1,-1,-1,-1,-1,-1,-1,-1,-1,-1,-1,-1,-1,-1,-1,-1,-1,-1,-1,-1,-1,-1,-1,-1,-1,-1,-1,-1,-1,-1,-1,-1,-1,-1,-1,-1,-1,-1,-1,-1,-1,-1],"split_conditions":[-5.8929073E-3,-7.014534E-2,7.7118695E-2,3.6896847E-2,1.9794364E-2,2.8258739E-2,2.561337E-2,-3.1743456E-2,-2.7837273E-1,1.42504005E-2,1.233747E-1,7.187374E-3,1.2997647E-1,2.0194983E-1,4.6870273E-2,-6.2803596E-2,-1.5161116E-1,-1.7635646E-1,-1.2767674E-1,-7.207802E-2,-3.499559E-2,-4.1537743E-2,-8.425466E-2,1.4373193E-3,-2.6869489E-2,9.773069E-2,2.2660941E-1,1.21191785E-1,1.616491E-1,2.5166214E-1,8.219931E-2,-1.1436161E-1,-1.3334638E-1,-1.222222E-1,-1.06929846E-1,-4.66356E-1,-4.38405E-1,-1.6521016E-1,-1.9638081E-1,-1.9211978E-2,-7.601552E-2,8.543959E-2,-2.3972781E-2,-3.8252834E-2,7.3951714E-2,2.1131459E-1,-1.4693371E-2,4.529212E-2,-4.8297983E-2,2.857778E-3,4.687637E-2,7.568768E-2,1.3731511E-1,5.2725587E-2,-6.466256E-2,1.3476004E-1,1.5866229E-1,3.0178854E-1,3.5015228E-1,1.3228236E-1,1.713351E-1,1.8927866E-1,1.1891284E-1,-7.201707E-2,-6.430192E-2,-5.376536E-2,-7.644628E-2,-5.5436913E-2,-4.0057268E-2,-7.547763E-2,-6.2757E-2,-4.048041E-2,-6.252191E-2,-3.2929585E-3,-3.1713217E-2,-8.523381E-2,-6.786045E-2,-4.2623986E-2,-5.5362854E-2,-5.4505713E-2,-3.6478106E-2,-4.1596934E-2,-6.448234E-2,-3.7105422E-2,-2.7903195E-2,-6.259149E-2,-4.4859484E-2,-3.9748497E-2,-3.0818813E-2,-4.6256606E-2,-2.5048552E-2,-2.7678102E-2,-1.7123764E-2,5.6379205E-3,-1.6323239E-2,-2.5328847E-2,-2.0754771E-2,-3.0088665E-2,-1.8336918E-2,-3.2243803E-3,-2.5121385E-2,-1.11442016E-4,-1.925808E-2,1.385146E-2,-8.100253E-4,-6.595602E-3,-2.0919284E-2,-1.6289517E-2,-4.4342056E-2,-3.2152448E-2,-6.2162504E-2,1.27132265E-2,-5.61611E-4,2.073371E-2,4.0392447E-2,-9.384841E-3,-2.541912E-2,1.7685326E-2,-3.5335298E-3,2.5755787E-2,7.740825E-3,-2.5880134E-2,-1.2213232E-4,2.1495463E-2,-3.789382E-3,1.4943725E-2,2.4590937E-2],"split_indices":[0,0,0,1,1,0,1,2,2,2,1,0,1,2,2,1,1,0,0,2,1,2,2,0,1,2,1,0,0,1,1,2,2,0,0,2,2,0,2,1,1,2,0,0,1,1,0,2,2,2,1,1,2,2,2,2,0,2,2,1,0,2,2,0,0,0,0,0,0,0,0,0,0,0,0,0,0,0,0,0,0,0,0,0,0,0,0,0,0,0,0,0,0,0,0,0,0,0,0,0,0,0,0,0,0,0,0,0,0,0,0,0,0,0,0,0,0,0,0,0,0,0,0,0,0,0,0],"split_type":[0,0,0,0,0,0,0,0,0,0,0,0,0,0,0,0,0,0,0,0,0,0,0,0,0,0,0,0,0,0,0,0,0,0,0,0,0,0,0,0,0,0,0,0,0,0,0,0,0,0,0,0,0,0,0,0,0,0,0,0,0,0,0,0,0,0,0,0,0,0,0,0,0,0,0,0,0,0,0,0,0,0,0,0,0,0,0,0,0,0,0,0,0,0,0,0,0,0,0,0,0,0,0,0,0,0,0,0,0,0,0,0,0,0,0,0,0,0,0,0,0,0,0,0,0,0,0],"sum_hessian":[7.168075E7,3.2817264E7,3.8863492E7,2.194846E7,1.0868804E7,1.6195784E7,2.2667708E7,2.0637574E7,1.310885E6,8.077994E6,2.79081E6,6.977009E6,9.218775E6,2.930719E6,1.9736988E7,1.7123292E7,3.514282E6,6.71909E5,6.38976E5,5.112437E6,2.965557E6,2.273184E6,5.17626E5,2.817085E6,4.159924E6,8.080014E6,1.138761E6,1.33727E6,1.593449E6,3.961543E6,1.5775446E7,1.3473243E7,3.650049E6,2.569868E6,9.44414E5,2.88558E5,3.83351E5,1.2111E5,5.17866E5,1.177243E6,3.935194E6,2.578138E6,3.87419E5,1.832975E6,4.40209E5,4.77842E5,3.9784E4,1.695058E6,1.122027E6,1.046705E6,3.113219E6,6.00609E6,2.073924E6,8.97263E5,2.41498E5,1.037866E6,2.99404E5,8.60397E5,7.33052E5,2.622584E6,1.338959E6,3.246551E6,1.2528895E7,9.554418E6,3.918825E6,2.37881E6,1.271239E6,1.553202E6,1.016666E6,2.06954E5,7.3746E5,1.56069E5,1.32489E5,6.6137E4,3.17214E5,3.1124E4,8.9986E4,2.55199E5,2.62667E5,4.5364E5,7.23603E5,7.68561E5,3.166633E6,1.683124E6,8.95014E5,1.29439E5,2.5798E5,7.56838E5,1.076137E6,3.89824E5,5.0385E4,3.4286E5,1.34982E5,2.6199E4,1.3585E4,1.32529E6,3.69768E5,2.38127E5,8.839E5,4.9493E4,9.97212E5,1.766698E6,1.346521E6,4.20968E6,1.79641E6,1.035625E6,1.038299E6,8.56132E5,4.1131E4,2.0201E5,3.9488E4,4.7299E5,5.64876E5,2.28692E5,7.0712E4,6.0242E5,2.57977E5,2.9629E5,4.36762E5,8.83143E5,1.739441E6,5.82669E5,7.5629E5,2.288106E6,9.58445E5,3.881572E6,8.647323E6],"tree_param":{"num_deleted":"0","num_feature":"9","num_nodes":"127","size_leaf_vector":"0"}},{"base_weights":[-5.4429453E-2,-1.358658E-1,1.3373551E-2,-1.5621051E-1,-1.1314702E-1,-3.6891073E-2,2.7019838E-2,-1.5865453E-1,-1.07213646E-1,-6.528416E-2,-1.1962149E-1,-4.97648E-2,-2.2158436E-2,7.1921693E-3,3.8820695E-2,-1.6494767E-1,-1.4104402E-1,-9.2332445E-2,-1.5003848E-1,-3.5618287E-2,-7.452919E-2,-1.3546886E-1,-9.438904E-2,-6.2777415E-2,-4.6541173E-2,-1.2146718E-2,-5.5000115E-2,1.5594639E-2,-5.6034114E-2,1.8436985E-2,4.4613574E-2,-1.7706348E-1,-1.4372785E-1,-1.0806435E-1,-1.9137073E-1,-1.272144E-1,-7.18177E-2,-2.1310838E-1,-1.3815677E-1,4.1701854E-3,-4.787847E-2,-4.474438E-2,-8.083059E-2,-8.371923E-2,-1.4996982E-1,-6.897555E-2,-1.0493884E-1,-4.437446E-2,-6.938037E-2,-5.7002384E-2,-3.8939644E-2,1.1793289E-2,-4.6026636E-2,-9.253078E-2,-4.7996882E-2,2.9729405E-2,-3.9429277E-2,-3.187139E-2,-7.916997E-2,6.568559E-2,-1.4916683E-2,1.9328987E-2,5.6931976E-2,-5.611737E-2,-4.4411927E-2,-3.1964775E-2,-5.2475702E-2,-2.1495912E-2,-3.7531447E-2,-4.9937785E-2,-6.213479E-2,-3.2850992E-2,-5.2228E-2,-7.521902E-3,-2.6136812E-2,-8.539244E-2,-6.017731E-2,-3.4464706E-2,-4.7516417E-2,3.4520764E-2,-1.6519086E-3,-5.949253E-3,-1.6745627E-2,-2.6350822E-3,-1.6086698E-2,-3.4595583E-2,-2.0903287E-2,-1.8497216E-2,-2.892879E-2,-3.6040448E-2,-4.732595E-2,-3.43905E-2,-1.973596E-2,-2.3225028E-2,-3.781511E-2,-1.0013642E-2,-1.4905951E-2,-2.3099964E-2,-1.936008E-2,-1.4315466E-2,-1.9155774E-2,-1.8797645E-2,-7.6113176E-3,-3.260136E-3,8.282469E-3,-1.5575111E-2,-3.1305817E-3,-3.2679643E-2,-2.5145113E-2,-9.155743E-3,-1.6839767E-2,5.5759614E-3,1.4744451E-2,-7.332005E-3,-1.9103948E-2,-8.264511E-3,-3.132719E-2,-2.1243503E-2,-5.3732645E-2,2.4831837E-2,1.3696822E-2,3.0952294E-3,-1.3730286E-2,1.2942922E-2,-6.3281967E-3,1.2732078E-2,1.9100443E-2],"categories":[],"categories_nodes":[],"categories_segments":[],"categories_sizes":[],"default_left":[0,0,0,0,0,0,0,0,0,0,0,0,0,0,0,0,0,0,0,0,0,0,0,0,0,0,0,0,0,0,0,0,0,0,0,0,0,0,0,0,0,0,0,0,0,0,0,0,0,0,0,0,0,0,0,0,0,0,0,0,0,0,0,0,0,0,0,0,0,0,0,0,0,0,0,0,0,0,0,0,0,0,0,0,0,0,0,0,0,0,0,0,0,0,0,0,0,0,0,0,0,0,0,0,0,0,0,0,0,0,0,0,0,0,0,0,0,0,0,0,0,0,0,0,0,0,0],"id":6,"left_children":[1,3,5,7,9,11,13,15,17,19,21,23,25,27,29,31,33,35,37,39,41,43,45,47,49,51,53,55,57,59,61,63,65,67,69,71,73,75,77,79,81,83,85,87,89,91,93,95,97,99,101,103,105,107,109,111,113,115,117,119,121,123,125,-1,-1,-1,-1,-1,-1,-1,-1,-1,-1,-1,-1,-1,-1,-1,-1,-1,-1,-1,-1,-1,-1,-1,-1,-1,-1,-1,-1,-1,-1,-1,-1,-1,-1,-1,-1,-1,-1,-1,-1,-1,-1,-1,-1,-1,-1,-1,-1,-1,-1,-1,-1,-1,-1,-1,-1,-1,-1,-1,-1,-1,-1,-1,-1],"loss_changes":[3.957945E5,1.5052375E4,2.6829615E4,2.0574062E3,4.7677344E3,1.5840234E3,7.1979746E3,1.8135625E3,5.2019434E2,5.0278223E2,5.4190938E3,1.8695996E2,1.2805782E3,6.097676E3,2.277166E3,3.0995938E3,7.150742E3,4.334878E2,1.5771582E2,2.1247632E2,2.6231836E2,6.2466094E3,1.4016719E3,1.0752759E2,2.840581E2,2.4209138E3,2.3915112E2,7.879709E3,7.526782E2,6.725614E3,4.677332E3,2.226125E3,5.0813438E3,1.6148926E3,6.6896094E2,1.862417E2,2.7289844E2,2.98208E1,8.338965E1,1.10102715E2,7.4153076E1,7.791849E1,4.4371777E2,5.1089746E2,1.5099062E3,2.2330469E2,2.1465547E3,1.3646973E1,2.4045654E1,9.560449E1,6.658242E2,6.267771E2,2.5908838E2,2.044043E1,1.09034546E2,1.744186E3,7.5268384E2,2.0656268E2,5.745381E2,6.044136E2,1.9475901E3,4.7356787E3,9.8571484E2,0E0,0E0,0E0,0E0,0E0,0E0,0E0,0E0,0E0,0E0,0E0,0E0,0E0,0E0,0E0,0E0,0E0,0E0,0E0,0E0,0E0,0E0,0E0,0E0,0E0,0E0,0E0,0E0,0E0,0E0,0E0,0E0,0E0,0E0,0E0,0E0,0E0,0E0,0E0,0E0,0E0,0E0,0E0,0E0,0E0,0E0,0E0,0E0,0E0,0E0,0E0,0E0,0E0,0E0,0E0,0E0,0E0,0E0,0E0,0E0,0E0,0E0,0E0,0E0],"parents":[2147483647,0,0,1,1,2,2,3,3,4,4,5,5,6,6,7,7,8,8,9,9,10,10,11,11,12,12,13,13,14,14,15,15,16,16,17,17,18,18,19,19,20,20,21,21,22,22,23,23,24,24,25,25,26,26,27,27,28,28,29,29,30,30,31,31,32,32,33,33,34,34,35,35,36,36,37,37,38,38,39,39,40,40,41,41,42,42,43,43,44,44,45,45,46,46,47,47,48,48,49,49,50,50,51,51,52,52,53,53,54,54,55,55,56,56,57,57,58,58,59,59,60,60,61,61,62,62],"right_children":[2,4,6,8,10,12,14,16,18,20,22,24,26,28,30,32,34,36,38,40,42,44,46,48,50,52,54,56,58,60,62,64,66,68,70,72,74,76,78,80,82,84,86,88,90,92,94,96,98,100,102,104,106,108,110,112,114,116,118,120,122,124,126,-1,-1,-1,-1,-1,-1,-1,-1,-1,-1,-1,-1,-1,-1,-1,-1,-1,-1,-1,-1,-1,-1,-1,-1,-1,-1,-1,-1,-1,-1,-1,-1,-1,-1,-1,-1,-1,-1,-1,-1,-1,-1,-1,-1,-1,-1,-1,-1,-1,-1,-1,-1,-1,-1,-1,-1,-1,-1,-1,-1,-1,-1,-1,-1],"split_conditions":[-7.2104633E-3,-1.06929846E-1,3.394984E-2,3.6903687E-2,-1.4839801E-1,1.424853E-2,9.773069E-2,-9.750996E-2,-2.7837825E-1,-2.5192955E-1,-3.8252834E-2,-5.7097264E-2,7.078565E-2,1.4484008E-1,7.71205E-2,-1.3048272E-1,-1.9638081E-1,-2.1425709E-1,-1.5821305E-1,7.078565E-2,-1.175039E-2,-1.304831E-1,-5.7097264E-2,-1.3992357E-3,1.4373193E-3,5.4165322E-2,-1.3916576E-1,1.2118884E-1,1.8544164E-1,1.8177058E-1,9.402892E-2,-1.6165102E-1,-2.2410993E-1,-3.5940143E-1,-1.548738E-1,-4.664231E-1,-4.383044E-1,-2.0511143E-1,-2.2923574E-1,-1.3225149E-2,-3.752853E-1,-1.9221166E-1,-8.425629E-2,-2.0063953E-1,-1.0216754E-1,-2.3969706E-2,-4.1537743E-2,-1.2769449E-1,-1.24919355E-1,-2.3969706E-2,-2.3969706E-2,5.7102134E-3,7.1898075E-3,-2.1429728E-1,2.1357289E-2,6.9381945E-2,1.7819029E-1,6.619157E-2,1.8414607E-2,1.3730918E-1,2.915311E-1,2.3835663E-1,1.4744516E-1,-5.611737E-2,-4.4411927E-2,-3.1964775E-2,-5.2475702E-2,-2.1495912E-2,-3.7531447E-2,-4.9937785E-2,-6.213479E-2,-3.2850992E-2,-5.2228E-2,-7.521902E-3,-2.6136812E-2,-8.539244E-2,-6.017731E-2,-3.4464706E-2,-4.7516417E-2,3.4520764E-2,-1.6519086E-3,-5.949253E-3,-1.6745627E-2,-2.6350822E-3,-1.6086698E-2,-3.4595583E-2,-2.0903287E-2,-1.8497216E-2,-2.892879E-2,-3.6040448E-2,-4.732595E-2,-3.43905E-2,-1.973596E-2,-2.3225028E-2,-3.781511E-2,-1.0013642E-2,-1.4905951E-2,-2.3099964E-2,-1.936008E-2,-1.4315466E-2,-1.9155774E-2,-1.8797645E-2,-7.6113176E-3,-3.260136E-3,8.282469E-3,-1.5575111E-2,-3.1305817E-3,-3.2679643E-2,-2.5145113E-2,-9.155743E-3,-1.6839767E-2,5.5759614E-3,1.4744451E-2,-7.332005E-3,-1.9103948E-2,-8.264511E-3,-3.132719E-2,-2.1243503E-2,-5.3732645E-2,2.4831837E-2,1.3696822E-2,3.0952294E-3,-1.3730286E-2,1.2942922E-2,-6.3281967E-3,1.2732078E-2,1.9100443E-2],"split_indices":[0,0,0,2,2,0,0,1,1,2,0,1,1,1,2,2,2,0,0,1,1,1,1,0,0,2,2,2,1,1,1,1,1,2,2,1,1,0,1,1,2,2,0,1,2,2,2,1,1,2,2,2,1,2,0,0,2,2,2,1,1,2,2,0,0,0,0,0,0,0,0,0,0,0,0,0,0,0,0,0,0,0,0,0,0,0,0,0,0,0,0,0,0,0,0,0,0,0,0,0,0,0,0,0,0,0,0,0,0,0,0,0,0,0,0,0,0,0,0,0,0,0,0,0,0,0,0],"split_type":[0,0,0,0,0,0,0,0,0,0,0,0,0,0,0,0,0,0,0,0,0,0,0,0,0,0,0,0,0,0,0,0,0,0,0,0,0,0,0,0,0,0,0,0,0,0,0,0,0,0,0,0,0,0,0,0,0,0,0,0,0,0,0,0,0,0,0,0,0,0,0,0,0,0,0,0,0,0,0,0,0,0,0,0,0,0,0,0,0,0,0,0,0,0,0,0,0,0,0,0,0,0,0,0,0,0,0,0,0,0,0,0,0,0,0,0,0,0,0,0,0,0,0,0,0,0,0],"sum_hessian":[7.168075E7,3.256628E7,3.9114476E7,1.718082E7,1.538546E7,8.35174E6,3.0762736E7,1.6364533E7,8.16286E5,1.833229E6,1.3552231E7,4.457056E6,3.894684E6,1.1477825E7,1.9284912E7,1.2056217E7,4.308316E6,6.05785E5,2.10501E5,4.35567E5,1.397662E6,8.324183E6,5.228048E6,8.84923E5,3.572133E6,2.984781E6,9.09903E5,1.013141E7,1.346415E6,4.267752E6,1.5017159E7,7.67439E6,4.381827E6,2.602724E6,1.705592E6,2.24335E5,3.8145E5,3.3367E4,1.77134E5,1.02599E5,3.32968E5,2.44062E5,1.1536E6,1.822003E6,6.50218E6,1.533646E6,3.694402E6,2.33671E5,6.51252E5,1.503295E6,2.068838E6,1.74895E6,1.235831E6,1.43086E5,7.66817E5,8.060736E6,2.070674E6,6.58593E5,6.87822E5,1.766019E6,2.501733E6,4.919488E6,1.0097671E7,5.708607E6,1.965783E6,1.999047E6,2.38278E6,8.29752E5,1.772972E6,6.60534E5,1.045058E6,1.62823E5,6.1512E4,9.4088E4,2.87362E5,4.966E3,2.8401E4,8.2375E4,9.4759E4,8.233E3,9.4366E4,7.3466E4,2.59502E5,4.8324E4,1.95738E5,2.81895E5,8.71705E5,6.65993E5,1.15601E6,1.345322E6,5.156858E6,1.0012E5,1.433526E6,1.603717E6,2.090685E6,7.6118E4,1.57553E5,2.53195E5,3.98057E5,6.3826E5,8.65035E5,7.52825E5,1.316013E6,7.1889E5,1.03006E6,1.060343E6,1.75488E5,4.964E4,9.3446E4,2.43568E5,5.23249E5,5.121767E6,2.938969E6,1.279696E6,7.90978E5,6.21559E5,3.7034E4,6.34738E5,5.3084E4,9.53006E5,8.13013E5,1.376139E6,1.125594E6,3.095726E6,1.823762E6,3.204257E6,6.893414E6],"tree_param":{"num_deleted":"0","num_feature":"9","num_nodes":"127","size_leaf_vector":"0"}},{"base_weights":[-3.8100634E-2,-9.6154846E-2,8.694559E-3,-1.12010136E-1,-8.224245E-2,-2.4618054E-2,1.9554062E-2,-7.848658E-2,-1.1495215E-1,-4.6240214E-2,-8.73403E-2,-3.5049338E-2,-1.3511667E-2,9.319375E-3,3.1656448E-2,-1.53605E-1,-9.056235E-3,-7.416427E-2,-1.1983756E-1,-1.46598695E-2,-5.285949E-2,-5.3042635E-2,-9.445954E-2,-3.2282013E-2,-4.3261617E-2,-4.6384474E-3,-3.6802314E-2,1.5950866E-2,-4.8310548E-2,1.3282402E-2,3.7053175E-2,-1.7256525E-1,-1.1248537E-1,2.9000882E-2,-4.4321775E-2,-1.3796364E-1,-4.4684965E-2,-1.4278966E-1,-1.1288629E-1,1.4499116E-1,-1.8499795E-2,-2.3967342E-2,-6.1963994E-2,-3.4826342E-2,-6.2294636E-2,-1.1277003E-1,-7.602182E-2,-3.893325E-2,-2.0827658E-2,-2.8567126E-2,-5.1713094E-2,-2.9219637E-2,2.036353E-2,-6.1069366E-2,-3.257584E-2,2.605216E-2,-2.9547023E-2,-3.5989936E-2,-9.715911E-2,4.9702328E-2,-3.1621534E-2,1.2750559E-2,4.826321E-2,-5.418024E-2,-4.556147E-2,-1.2987182E-2,-4.5066085E-2,1.9277032E-2,-1.1958272E-2,-2.8960802E-2,-4.941888E-3,-2.8362596E-2,-4.66557E-2,-6.707418E-3,-2.0312792E-2,-4.5947287E-2,-3.3154372E-2,-1.8172922E-2,-3.6126245E-2,7.212071E-2,3.076214E-2,2.1987318E-3,-8.570905E-3,-1.4444547E-4,-1.1742405E-2,-3.0086279E-2,-1.4660836E-2,1.1788908E-2,-1.1738634E-2,-2.1093322E-2,-1.4326228E-2,-2.6518485E-2,-3.5448153E-2,-2.5732419E-2,-1.6838135E-2,-1.0392262E-2,-1.2917796E-2,-3.3440406E-4,-1.2686238E-2,-1.0305835E-2,-4.177403E-3,-1.9074818E-2,-1.4997055E-2,4.110694E-3,-1.0936635E-2,-1.3929056E-3,1.0727682E-2,-2.4669437E-2,-1.7152624E-2,-1.0956575E-2,-4.5572943E-3,4.0491195E-3,1.352238E-2,-4.3983976E-3,-1.4392257E-2,-6.821378E-3,-2.3568993E-2,-1.908581E-2,-5.751142E-2,2.255897E-2,9.223652E-3,2.5641937E-3,-2.4562467E-2,1.1737433E-2,-8.0654835E-3,9.373588E-3,1.6067918E-2],"categories":[],"categories_nodes":[],"categories_segments":[],"categories_sizes":[],"default_left":[0,0,0,0,0,0,0,0,0,0,0,0,0,0,0,0,0,0,0,0,0,0,0,0,0,0,0,0,0,0,0,0,0,0,0,0,0,0,0,0,0,0,0,0,0,0,0,0,0,0,0,0,0,0,0,0,0,0,0,0,0,0,0,0,0,0,0,0,0,0,0,0,0,0,0,0,0,0,0,0,0,0,0,0,0,0,0,0,0,0,0,0,0,0,0,0,0,0,0,0,0,0,0,0,0,0,0,0,0,0,0,0,0,0,0,0,0,0,0,0,0,0,0,0,0,0,0],"id":7,"left_children":[1,3,5,7,9,11,13,15,17,19,21,23,25,27,29,31,33,35,37,39,41,43,45,47,49,51,53,55,57,59,61,63,65,67,69,71,73,75,77,79,81,83,85,87,89,91,93,95,97,99,101,103,105,107,109,111,113,115,117,119,121,123,125,-1,-1,-1,-1,-1,-1,-1,-1,-1,-1,-1,-1,-1,-1,-1,-1,-1,-1,-1,-1,-1,-1,-1,-1,-1,-1,-1,-1,-1,-1,-1,-1,-1,-1,-1,-1,-1,-1,-1,-1,-1,-1,-1,-1,-1,-1,-1,-1,-1,-1,-1,-1,-1,-1,-1,-1,-1,-1,-1,-1,-1,-1,-1,-1],"loss_changes":[1.947321E5,7.0569062E3,1.4357839E4,1.4746406E3,3.1273984E3,1.1304272E3,3.707459E3,6.2914785E3,2.7390156E3,4.418125E2,3.6446094E3,1.1434717E2,9.76639E2,6.197762E3,1.3599219E3,4.5171777E2,8.4135065E2,2.7652515E3,1.9584531E3,2.2452481E2,4.5962598E2,4.3241748E2,4.1729844E3,2.8671826E2,1.5749316E2,2.103111E3,1.3371301E2,6.684082E3,1.00720825E3,5.092019E3,2.8880244E3,6.591504E1,4.7744604E2,7.32006E2,4.7313196E2,3.5418848E2,5.1695264E2,9.5483594E2,3.7133984E3,3.481581E1,9.301974E1,1.4920683E2,6.667407E2,2.7560278E2,1.9833203E2,8.1485156E2,1.1950156E3,4.216577E1,5.848599E2,3.922827E1,1.646167E1,5.359104E2,6.531284E2,1.5930664E1,7.617078E1,2.8423804E3,7.2478516E2,7.540061E2,1.068887E3,8.3088184E2,2.8147651E3,3.4980728E3,6.538926E2,0E0,0E0,0E0,0E0,0E0,0E0,0E0,0E0,0E0,0E0,0E0,0E0,0E0,0E0,0E0,0E0,0E0,0E0,0E0,0E0,0E0,0E0,0E0,0E0,0E0,0E0,0E0,0E0,0E0,0E0,0E0,0E0,0E0,0E0,0E0,0E0,0E0,0E0,0E0,0E0,0E0,0E0,0E0,0E0,0E0,0E0,0E0,0E0,0E0,0E0,0E0,0E0,0E0,0E0,0E0,0E0,0E0,0E0,0E0,0E0,0E0,0E0,0E0,0E0],"parents":[2147483647,0,0,1,1,2,2,3,3,4,4,5,5,6,6,7,7,8,8,9,9,10,10,11,11,12,12,13,13,14,14,15,15,16,16,17,17,18,18,19,19,20,20,21,21,22,22,23,23,24,24,25,25,26,26,27,27,28,28,29,29,30,30,31,31,32,32,33,33,34,34,35,35,36,36,37,37,38,38,39,39,40,40,41,41,42,42,43,43,44,44,45,45,46,46,47,47,48,48,49,49,50,50,51,51,52,52,53,53,54,54,55,55,56,56,57,57,58,58,59,59,60,60,61,61,62,62],"right_children":[2,4,6,8,10,12,14,16,18,20,22,24,26,28,30,32,34,36,38,40,42,44,46,48,50,52,54,56,58,60,62,64,66,68,70,72,74,76,78,80,82,84,86,88,90,92,94,96,98,100,102,104,106,108,110,112,114,116,118,120,122,124,126,-1,-1,-1,-1,-1,-1,-1,-1,-1,-1,-1,-1,-1,-1,-1,-1,-1,-1,-1,-1,-1,-1,-1,-1,-1,-1,-1,-1,-1,-1,-1,-1,-1,-1,-1,-1,-1,-1,-1,-1,-1,-1,-1,-1,-1,-1,-1,-1,-1,-1,-1,-1,-1,-1,-1,-1,-1,-1,-1,-1,-1,-1,-1,-1],"split_conditions":[-1.0243782E-2,-1.2767674E-1,3.818098E-2,-5.073189E-1,-1.5819328E-1,1.424853E-2,1.3977763E-1,-3.4541538E-1,-4.1258094E-1,-2.860344E-1,-1.4221598E-1,4.6870273E-2,6.323369E-2,1.746873E-1,1.0879741E-1,-5.0699943E-1,-6.362237E-1,-2.6478088E-1,-2.783889E-1,-1.175039E-2,-1.175039E-2,-2.1908636E-1,-5.1774677E-2,4.273681E-3,0E0,1.4347595E-3,-1.3048272E-1,1.4744516E-1,2.6877098E-2,2.6592278E-1,1.2119947E-1,-6.356769E-1,-7.852582E-1,-1.175039E-2,-4.38405E-1,-6.356769E-1,-5.710586E-2,-1.9638011E-1,-2.860344E-1,-3.3420295E-1,9.2256196E-2,-1.8815652E-1,-9.75237E-2,-2.0719979E-2,-6.654949E-2,-1.19566634E-1,5.7102097E-3,-1.920568E-2,3.533615E-2,-5.0025884E-2,-1.5819131E-1,3.1191181E-2,8.494432E-3,-2.6478088E-1,5.7102134E-3,8.542354E-2,1.9755252E-1,2.8284502E-1,2.2153205E-1,1.7818497E-1,2.6877098E-2,2.8287944E-1,1.6480364E-1,-5.418024E-2,-4.556147E-2,-1.2987182E-2,-4.5066085E-2,1.9277032E-2,-1.1958272E-2,-2.8960802E-2,-4.941888E-3,-2.8362596E-2,-4.66557E-2,-6.707418E-3,-2.0312792E-2,-4.5947287E-2,-3.3154372E-2,-1.8172922E-2,-3.6126245E-2,7.212071E-2,3.076214E-2,2.1987318E-3,-8.570905E-3,-1.4444547E-4,-1.1742405E-2,-3.0086279E-2,-1.4660836E-2,1.1788908E-2,-1.1738634E-2,-2.1093322E-2,-1.4326228E-2,-2.6518485E-2,-3.5448153E-2,-2.5732419E-2,-1.6838135E-2,-1.0392262E-2,-1.2917796E-2,-3.3440406E-4,-1.2686238E-2,-1.0305835E-2,-4.177403E-3,-1.9074818E-2,-1.4997055E-2,4.110694E-3,-1.0936635E-2,-1.3929056E-3,1.0727682E-2,-2.4669437E-2,-1.7152624E-2,-1.0956575E-2,-4.5572943E-3,4.0491195E-3,1.352238E-2,-4.3983976E-3,-1.4392257E-2,-6.821378E-3,-2.3568993E-2,-1.908581E-2,-5.751142E-2,2.255897E-2,9.223652E-3,2.5641937E-3,-2.4562467E-2,1.1737433E-2,-8.0654835E-3,9.373588E-3,1.6067918E-2],"split_indices":[0,0,0,2,2,0,0,1,1,2,1,2,1,1,2,1,2,2,0,1,1,1,0,0,0,1,2,2,2,1,1,1,2,1,0,1,2,1,2,2,1,2,0,2,0,2,1,2,1,1,1,2,2,2,2,0,2,1,1,1,2,2,2,0,0,0,0,0,0,0,0,0,0,0,0,0,0,0,0,0,0,0,0,0,0,0,0,0,0,0,0,0,0,0,0,0,0,0,0,0,0,0,0,0,0,0,0,0,0,0,0,0,0,0,0,0,0,0,0,0,0,0,0,0,0,0,0],"split_type":[0,0,0,0,0,0,0,0,0,0,0,0,0,0,0,0,0,0,0,0,0,0,0,0,0,0,0,0,0,0,0,0,0,0,0,0,0,0,0,0,0,0,0,0,0,0,0,0,0,0,0,0,0,0,0,0,0,0,0,0,0,0,0,0,0,0,0,0,0,0,0,0,0,0,0,0,0,0,0,0,0,0,0,0,0,0,0,0,0,0,0,0,0,0,0,0,0,0,0,0,0,0,0,0,0,0,0,0,0,0,0,0,0,0,0,0,0,0,0,0,0,0,0,0,0,0,0],"sum_hessian":[7.168075E7,3.1991736E7,3.968902E7,1.4951841E7,1.7039896E7,9.757355E6,2.9931664E7,1.206304E6,1.3745537E7,2.113545E6,1.492635E7,5.031599E6,4.725756E6,1.6217191E7,1.3714473E7,5.79417E5,6.26887E5,1.470285E6,1.2275252E7,3.66238E5,1.747307E6,2.565724E6,1.2360626E7,3.763426E6,1.268173E6,3.422037E6,1.303719E6,1.454365E7,1.673541E6,3.113625E6,1.0600848E7,3.9656E5,1.82857E5,3.0151E5,3.25377E5,4.6466E5,1.005625E6,2.853473E6,9.421779E6,8.601E3,3.57637E5,4.18679E5,1.328628E6,8.64201E5,1.701523E6,6.201709E6,6.158917E6,2.380899E6,1.382527E6,4.6306E5,8.05113E5,1.725539E6,1.696498E6,1.9338E5,1.110339E6,1.1901351E7,2.642299E6,1.33646E6,3.37081E5,1.719225E6,1.3944E6,3.346298E6,7.25455E6,2.85637E5,1.10923E5,6.453E4,1.18327E5,1.99414E5,1.02096E5,1.13177E5,2.122E5,1.33778E5,3.30882E5,5.10546E5,4.95079E5,2.159695E6,6.93778E5,1.18622E6,8.235559E6,2.647E3,5.954E3,1.0032E5,2.57317E5,1.64332E5,2.54347E5,3.38357E5,9.90271E5,4.741E4,8.16791E5,1.096823E6,6.047E5,1.123118E6,5.078591E6,4.132872E6,2.026045E6,1.166936E6,1.213963E6,7.20592E5,6.61935E5,3.31911E5,1.31149E5,1.02047E5,7.03066E5,2.48928E5,1.476611E6,6.46461E5,1.050037E6,3.005E4,1.6333E5,9.04933E5,2.05406E5,7.169425E6,4.731926E6,1.461601E6,1.180698E6,1.019208E6,3.17252E5,2.48816E5,8.8265E4,7.33188E5,9.86037E5,7.74957E5,6.19443E5,2.009283E6,1.337015E6,1.721929E6,5.532621E6],"tree_param":{"num_deleted":"0","num_feature":"9","num_nodes":"127","size_leaf_vector":"0"}},{"base_weights":[-2.6670452E-2,-6.803973E-2,5.642219E-3,-7.598934E-2,-5.4150045E-2,-1.2720163E-2,1.6307473E-2,-8.298908E-2,-7.016583E-2,-3.2552768E-2,-6.1762754E-2,-2.3316542E-2,-3.9729024E-3,1.046696E-2,2.60486E-2,-8.917898E-2,-6.381179E-2,-2.3074698E-2,-7.719155E-2,-4.1181106E-2,-2.3614319E-2,-4.0242918E-2,-7.907634E-2,-2.213448E-2,-4.0463034E-2,5.0554248E-3,-2.8795527E-2,1.690867E-2,-3.6686532E-2,7.6848357E-3,3.142411E-2,-1.0059508E-1,-6.723198E-2,-4.0000513E-2,-1.06479496E-1,1.1420735E-2,-4.5748163E-2,-3.189923E-2,-8.861669E-2,-3.7227377E-2,-6.0897917E-2,-1.1106978E-1,-2.1505183E-2,-7.553062E-2,-3.4462254E-2,-9.085554E-2,-5.011577E-2,-2.7945867E-2,-1.7406372E-2,-6.9100074E-3,-5.431034E-2,2.5043758E-2,-2.2829732E-2,-2.2429144E-2,-3.760961E-2,2.5363712E-2,-2.349E-2,-1.9121876E-2,-6.998308E-2,4.706314E-2,-3.055644E-2,8.746927E-3,4.1735277E-2,-2.3567917E-2,-3.1320255E-2,-1.0200238E-2,-2.909706E-2,-2.9809743E-3,-2.2037543E-2,-2.8853549E-2,-5.2254003E-2,3.0122275E-2,7.303769E-4,2.2826032E-3,-1.84215E-2,-1.6248386E-3,-1.3587876E-2,-3.150467E-2,-2.3928106E-2,-6.1286525E-3,-1.401582E-2,-1.46063E-2,-1.9459154E-2,-4.533521E-2,-2.5785508E-2,-2.5094685E-4,-9.051737E-3,-1.4695017E-2,-2.7316375E-2,-1.4427251E-2,-8.8388845E-3,-3.0264301E-2,-1.9473987E-2,-6.6525918E-3,-1.7998273E-2,-5.25946E-3,-8.926435E-3,-9.007125E-3,-2.0108393E-3,-2.6442339E-3,8.93551E-3,-1.1325786E-2,-1.8248167E-2,-9.669711E-4,1.0991667E-2,-8.865983E-3,1.199421E-3,-8.402239E-3,-3.4493553E-3,-7.698028E-3,-1.9330332E-2,5.6031453E-3,1.3196164E-2,-2.1969455E-3,-1.1596194E-2,-9.274867E-4,-1.8821646E-2,-1.1801449E-2,-4.0293507E-2,2.0110942E-2,7.912661E-3,8.561492E-3,-1.8208798E-2,1.1808307E-2,-8.311588E-3,6.569513E-3,1.3930653E-2],"categories":[],"categories_nodes":[],"categories_segments":[],"categories_sizes":[],"default_left":[0,0,0,0,0,0,0,0,0,0,0,0,0,0,0,0,0,0,0,0,0,0,0,0,0,0,0,0,0,0,0,0,0,0,0,0,0,0,0,0,0,0,0,0,0,0,0,0,0,0,0,0,0,0,0,0,0,0,0,0,0,0,0,0,0,0,0,0,0,0,0,0,0,0,0,0,0,0,0,0,0,0,0,0,0,0,0,0,0,0,0,0,0,0,0,0,0,0,0,0,0,0,0,0,0,0,0,0,0,0,0,0,0,0,0,0,0,0,0,0,0,0,0,0,0,0,0],"id":8,"left_children":[1,3,5,7,9,11,13,15,17,19,21,23,25,27,29,31,33,35,37,39,41,43,45,47,49,51,53,55,57,59,61,63,65,67,69,71,73,75,77,79,81,83,85,87,89,91,93,95,97,99,101,103,105,107,109,111,113,115,117,119,121,123,125,-1,-1,-1,-1,-1,-1,-1,-1,-1,-1,-1,-1,-1,-1,-1,-1,-1,-1,-1,-1,-1,-1,-1,-1,-1,-1,-1,-1,-1,-1,-1,-1,-1,-1,-1,-1,-1,-1,-1,-1,-1,-1,-1,-1,-1,-1,-1,-1,-1,-1,-1,-1,-1,-1,-1,-1,-1,-1,-1,-1,-1,-1,-1,-1],"loss_changes":[9.5819375E4,3.4709844E3,7.8816953E3,8.1496094E2,1.8813086E3,1.370593E3,1.4484272E3,1.0777617E3,3.6106133E3,2.2999463E2,3.152209E3,1.3552686E2,1.8153206E3,4.834459E3,9.4201025E2,1.7197344E3,2.2508584E3,1.1081285E3,4.9140977E3,1.1828638E2,2.701801E2,7.694326E2,1.5993535E3,1.7188013E2,2.003642E2,3.3107385E3,1.2122766E2,4.783038E3,1.1187844E3,3.2539912E3,1.7260981E3,3.7864453E2,2.3225967E3,1.4303018E3,5.533799E2,4.493327E2,7.1417834E2,6.7853467E2,1.1013633E3,2.0153821E2,1.2270264E1,3.4684204E1,2.562193E2,2.1880347E2,2.2082324E2,8.6680273E2,3.7414673E2,5.2865723E1,4.6582007E2,8.802847E0,3.293701E1,1.1339885E3,4.4734253E2,7.648926E1,2.9042004E2,1.4419639E3,5.9412463E2,8.75622E2,1.302332E3,4.3989307E2,1.9525347E3,2.574909E3,4.7313965E2,0E0,0E0,0E0,0E0,0E0,0E0,0E0,0E0,0E0,0E0,0E0,0E0,0E0,0E0,0E0,0E0,0E0,0E0,0E0,0E0,0E0,0E0,0E0,0E0,0E0,0E0,0E0,0E0,0E0,0E0,0E0,0E0,0E0,0E0,0E0,0E0,0E0,0E0,0E0,0E0,0E0,0E0,0E0,0E0,0E0,0E0,0E0,0E0,0E0,0E0,0E0,0E0,0E0,0E0,0E0,0E0,0E0,0E0,0E0,0E0,0E0,0E0,0E0,0E0],"parents":[2147483647,0,0,1,1,2,2,3,3,4,4,5,5,6,6,7,7,8,8,9,9,10,10,11,11,12,12,13,13,14,14,15,15,16,16,17,17,18,18,19,19,20,20,21,21,22,22,23,23,24,24,25,25,26,26,27,27,28,28,29,29,30,30,31,31,32,32,33,33,34,34,35,35,36,36,37,37,38,38,39,39,40,40,41,41,42,42,43,43,44,44,45,45,46,46,47,47,48,48,49,49,50,50,51,51,52,52,53,53,54,54,55,55,56,56,57,57,58,58,59,59,60,60,61,61,62,62],"right_children":[2,4,6,8,10,12,14,16,18,20,22,24,26,28,30,32,34,36,38,40,42,44,46,48,50,52,54,56,58,60,62,64,66,68,70,72,74,76,78,80,82,84,86,88,90,92,94,96,98,100,102,104,106,108,110,112,114,116,118,120,122,124,126,-1,-1,-1,-1,-1,-1,-1,-1,-1,-1,-1,-1,-1,-1,-1,-1,-1,-1,-1,-1,-1,-1,-1,-1,-1,-1,-1,-1,-1,-1,-1,-1,-1,-1,-1,-1,-1,-1,-1,-1,-1,-1,-1,-1,-1,-1,-1,-1,-1,-1,-1,-1,-1,-1,-1,-1,-1,-1,-1,-1,-1,-1,-1,-1],"split_conditions":[-1.3208245E-2,-8.425629E-2,6.1578803E-2,-2.0066619E-1,-8.4269404E-2,1.9807246E-2,1.854719E-1,-1.616657E-1,-2.2923988E-1,-5.3526867E-2,-6.843812E-2,1.3730918E-1,7.8809015E-2,1.9751291E-1,1.4226317E-1,-1.7632455E-1,-2.859966E-1,-1.175039E-2,-2.0508619E-1,-9.750996E-2,-5.530433E-2,-3.3375934E-2,-2.5515506E-2,-5.896171E-3,0E0,6.7691155E-2,-2.0713253E-2,1.8176827E-1,2.6877098E-2,3.0181175E-1,1.5573785E-1,-5.575549E-1,-3.3420295E-1,-5.710586E-2,-5.710586E-2,-3.2291636E-1,-3.752853E-1,-2.859966E-1,-1.3916805E-1,1.4343146E-3,-5.710586E-2,-8.425466E-2,3.2572318E-2,-9.981715E-2,-6.444666E-2,-3.0087463E-3,-4.1544106E-2,-8.714722E-3,2.8611647E-3,-4.3215055E-2,1.4373193E-3,7.1898075E-3,1.563027E-2,-5.3525683E-2,1.1686102E-1,1.2772408E-1,2.2660771E-1,3.129589E-1,2.4481407E-1,2.2660941E-1,1.4343146E-3,3.2368946E-1,1.9334885E-1,-2.3567917E-2,-3.1320255E-2,-1.0200238E-2,-2.909706E-2,-2.9809743E-3,-2.2037543E-2,-2.8853549E-2,-5.2254003E-2,3.0122275E-2,7.303769E-4,2.2826032E-3,-1.84215E-2,-1.6248386E-3,-1.3587876E-2,-3.150467E-2,-2.3928106E-2,-6.1286525E-3,-1.401582E-2,-1.46063E-2,-1.9459154E-2,-4.533521E-2,-2.5785508E-2,-2.5094685E-4,-9.051737E-3,-1.4695017E-2,-2.7316375E-2,-1.4427251E-2,-8.8388845E-3,-3.0264301E-2,-1.9473987E-2,-6.6525918E-3,-1.7998273E-2,-5.25946E-3,-8.926435E-3,-9.007125E-3,-2.0108393E-3,-2.6442339E-3,8.93551E-3,-1.1325786E-2,-1.8248167E-2,-9.669711E-4,1.0991667E-2,-8.865983E-3,1.199421E-3,-8.402239E-3,-3.4493553E-3,-7.698028E-3,-1.9330332E-2,5.6031453E-3,1.3196164E-2,-2.1969455E-3,-1.1596194E-2,-9.274867E-4,-1.8821646E-2,-1.1801449E-2,-4.0293507E-2,2.0110942E-2,7.912661E-3,8.561492E-3,-1.8208798E-2,1.1808307E-2,-8.311588E-3,6.569513E-3,1.3930653E-2],"split_indices":[0,0,0,0,1,0,0,2,2,0,2,1,2,1,2,1,1,1,1,1,2,1,0,1,0,1,1,2,2,1,1,2,2,2,2,2,2,1,0,2,2,2,2,2,0,2,1,0,0,2,0,1,2,1,2,0,2,1,1,1,2,2,2,0,0,0,0,0,0,0,0,0,0,0,0,0,0,0,0,0,0,0,0,0,0,0,0,0,0,0,0,0,0,0,0,0,0,0,0,0,0,0,0,0,0,0,0,0,0,0,0,0,0,0,0,0,0,0,0,0,0,0,0,0,0,0,0],"split_type":[0,0,0,0,0,0,0,0,0,0,0,0,0,0,0,0,0,0,0,0,0,0,0,0,0,0,0,0,0,0,0,0,0,0,0,0,0,0,0,0,0,0,0,0,0,0,0,0,0,0,0,0,0,0,0,0,0,0,0,0,0,0,0,0,0,0,0,0,0,0,0,0,0,0,0,0,0,0,0,0,0,0,0,0,0,0,0,0,0,0,0,0,0,0,0,0,0,0,0,0,0,0,0,0,0,0,0,0,0,0,0,0,0,0,0,0,0,0,0,0,0,0,0,0,0,0,0],"sum_hessian":[7.168075E7,3.1435062E7,4.0245692E7,1.9992538E7,1.1442524E7,1.4786961E7,2.5458732E7,9.079356E6,1.0913182E7,2.982153E6,8.460371E6,6.686714E6,8.100247E6,1.5915962E7,9.54277E6,6.863881E6,2.215475E6,1.416805E6,9.496377E6,1.517397E6,1.464756E6,3.771994E6,4.688377E6,6.25547E6,4.31244E5,5.939845E6,2.160402E6,1.4002993E7,1.912969E6,2.16086E6,7.38191E6,4.515213E6,2.348668E6,1.421943E6,7.93532E5,5.61912E5,8.54893E5,1.912947E6,7.58343E6,1.263946E6,2.53451E5,3.4492E4,1.430264E6,5.30933E5,3.241061E6,3.332813E6,1.355564E6,2.806255E6,3.449215E6,1.25982E5,3.05262E5,3.459817E6,2.480028E6,1.254375E6,9.06027E5,1.1579515E7,2.423478E6,1.252336E6,6.60633E5,1.064603E6,1.096257E6,2.307364E6,5.074546E6,6.64984E5,3.850229E6,1.109587E6,1.239081E6,7.4896E5,6.72983E5,6.88739E5,1.04793E5,5.1538E4,5.10374E5,1.93946E5,6.60947E5,6.42515E5,1.270432E6,2.659307E6,4.924123E6,4.5634E5,8.07606E5,6.2142E4,1.91309E5,1.3293E4,2.1199E4,4.2257E5,1.007694E6,1.95912E5,3.35021E5,8.69826E5,2.371235E6,2.403839E6,9.28974E5,3.5408E5,1.001484E6,4.15299E5,2.390956E6,1.583079E6,1.866136E6,1.19768E5,6.214E3,8.6216E4,2.19046E5,1.006395E6,2.453422E6,1.983041E6,4.96987E5,8.30542E5,4.23833E5,6.26808E5,2.79219E5,8.520372E6,3.059143E6,1.172953E6,1.250525E6,9.1577E5,3.36566E5,4.47469E5,2.13164E5,5.41651E5,5.22952E5,3.70269E5,7.25988E5,1.25411E6,1.053254E6,9.7206E5,4.102486E6],"tree_param":{"num_deleted":"0","num_feature":"9","num_nodes":"127","size_leaf_vector":"0"}},{"base_weights":[-1.8669324E-2,-4.833628E-2,3.4323132E-3,-5.628665E-2,-4.2237714E-2,-7.08749E-3,1.4088651E-2,-3.8533866E-2,-5.8909863E-2,-1.7024035E-2,-4.6169743E-2,-3.8279686E-3,-2.970309E-2,1.5098403E-2,-8.942503E-3,-8.131463E-2,1.7565846E-3,-3.0950764E-2,-6.544285E-2,7.009104E-3,-2.576981E-2,-1.7919123E-2,-5.1192254E-2,-1.41729815E-2,6.948792E-3,-2.7635109E-2,-9.195361E-2,1.7575243E-2,-8.202592E-3,-4.9041875E-2,5.3556778E-2,-9.265535E-2,-5.7744347E-2,2.5278226E-2,-5.0417986E-2,-6.800344E-2,-1.3651465E-2,-7.88151E-2,-5.7870485E-2,3.0585492E-2,-7.385056E-3,-5.747715E-3,-3.6584135E-2,1.2622093E-2,-2.5588153E-2,-6.7763895E-2,-4.3372743E-2,-1.9156765E-2,-9.1186585E-3,1.9582897E-2,-1.6234834E-2,-1.4140197E-3,-3.0025562E-2,-4.74417E-2,-1.0311596E-1,1.2296392E-2,3.296083E-2,-4.24405E-2,4.9515955E-2,-6.3704946E-3,-7.3570974E-2,2.5191095E-2,6.973361E-2,-2.9726176E-2,-2.5185784E-2,5.7699694E-3,-2.3449065E-2,2.2816159E-2,1.8818474E-3,-2.6100088E-2,9.43943E-4,-6.9444547E-3,-2.4829717E-2,1.5199588E-3,-8.9190565E-3,-2.3134436E-2,-5.0180435E-2,-7.5159417E-3,-1.9539075E-2,3.4615576E-2,7.89021E-3,-6.3690236E-3,1.982297E-3,1.2376149E-2,-2.6867427E-3,-2.0829605E-2,-7.345178E-3,1.0256231E-2,-9.892867E-4,-3.8154547E-5,-9.142723E-3,-1.4981454E-2,-2.2052916E-2,-8.124363E-3,-1.4906404E-2,-3.7756653E-3,-6.772663E-3,-3.9639248E-4,-6.622528E-3,-1.310596E-4,8.937128E-3,-1.6270735E-3,-6.510514E-3,-1.1861708E-3,1.0938506E-2,-7.975697E-3,-1.3992742E-2,-1.6769795E-2,1.0523245E-3,-2.4089921E-2,-3.8870893E-2,5.000553E-3,-8.335182E-3,1.2369889E-2,1.4693079E-3,-4.1134856E-3,-1.6950514E-2,7.5198314E-3,1.9034188E-2,-1.6047442E-2,1.4707409E-2,-2.9411117E-2,-8.967951E-3,1.4453057E-2,-5.2863085E-3,2.159907E-2,1.1763511E-2],"categories":[],"categories_nodes":[],"categories_segments":[],"categories_sizes":[],"default_left":[0,0,0,0,0,0,0,0,0,0,0,0,0,0,0,0,0,0,0,0,0,0,0,0,0,0,0,0,0,0,0,0,0,0,0,0,0,0,0,0,0,0,0,0,0,0,0,0,0,0,0,0,0,0,0,0,0,0,0,0,0,0,0,0,0,0,0,0,0,0,0,0,0,0,0,0,0,0,0,0,0,0,0,0,0,0,0,0,0,0,0,0,0,0,0,0,0,0,0,0,0,0,0,0,0,0,0,0,0,0,0,0,0,0,0,0,0,0,0,0,0,0,0,0,0,0,0],"id":9,"left_children":[1,3,5,7,9,11,13,15,17,19,21,23,25,27,29,31,33,35,37,39,41,43,45,47,49,51,53,55,57,59,61,63,65,67,69,71,73,75,77,79,81,83,85,87,89,91,93,95,97,99,101,103,105,107,109,111,113,115,117,119,121,123,125,-1,-1,-1,-1,-1,-1,-1,-1,-1,-1,-1,-1,-1,-1,-1,-1,-1,-1,-1,-1,-1,-1,-1,-1,-1,-1,-1,-1,-1,-1,-1,-1,-1,-1,-1,-1,-1,-1,-1,-1,-1,-1,-1,-1,-1,-1,-1,-1,-1,-1,-1,-1,-1,-1,-1,-1,-1,-1,-1,-1,-1,-1,-1,-1],"loss_changes":[4.7000227E4,1.4837969E3,4.6049487E3,6.1864844E2,1.7169531E3,1.5238151E3,4.745703E2,2.9478872E3,2.1141016E3,4.910844E2,2.1257637E3,2.0142593E3,3.352185E2,1.1282559E3,2.1480635E3,2.217207E2,1.0809003E3,1.4051821E3,9.500117E2,2.1155122E2,3.7091284E2,5.296893E2,1.6483359E3,2.3220728E2,2.591927E3,1.5797205E2,4.1593994E1,1.4352129E3,3.7120134E3,5.464945E2,1.537138E2,3.1339355E1,4.235443E2,5.858357E2,5.36291E2,4.620227E2,4.4978036E2,5.1013672E2,1.4270977E3,8.586192E1,7.4985825E1,9.058587E1,4.4208643E2,1.5582869E2,2.249419E2,4.176797E2,8.8917285E2,1.0427515E2,4.6237466E2,1.1704678E3,1.8448389E2,2.0256659E1,1.3202344E2,7.2343216E0,4.039093E1,2.3055613E3,1.0479307E3,4.7627832E2,2.3821973E2,4.974715E2,3.5428552E2,1.19724655E2,1.4733765E1,0E0,0E0,0E0,0E0,0E0,0E0,0E0,0E0,0E0,0E0,0E0,0E0,0E0,0E0,0E0,0E0,0E0,0E0,0E0,0E0,0E0,0E0,0E0,0E0,0E0,0E0,0E0,0E0,0E0,0E0,0E0,0E0,0E0,0E0,0E0,0E0,0E0,0E0,0E0,0E0,0E0,0E0,0E0,0E0,0E0,0E0,0E0,0E0,0E0,0E0,0E0,0E0,0E0,0E0,0E0,0E0,0E0,0E0,0E0,0E0,0E0,0E0,0E0,0E0],"parents":[2147483647,0,0,1,1,2,2,3,3,4,4,5,5,6,6,7,7,8,8,9,9,10,10,11,11,12,12,13,13,14,14,15,15,16,16,17,17,18,18,19,19,20,20,21,21,22,22,23,23,24,24,25,25,26,26,27,27,28,28,29,29,30,30,31,31,32,32,33,33,34,34,35,35,36,36,37,37,38,38,39,39,40,40,41,41,42,42,43,43,44,44,45,45,46,46,47,47,48,48,49,49,50,50,51,51,52,52,53,53,54,54,55,55,56,56,57,57,58,58,59,59,60,60,61,61,62,62],"right_children":[2,4,6,8,10,12,14,16,18,20,22,24,26,28,30,32,34,36,38,40,42,44,46,48,50,52,54,56,58,60,62,64,66,68,70,72,74,76,78,80,82,84,86,88,90,92,94,96,98,100,102,104,106,108,110,112,114,116,118,120,122,124,126,-1,-1,-1,-1,-1,-1,-1,-1,-1,-1,-1,-1,-1,-1,-1,-1,-1,-1,-1,-1,-1,-1,-1,-1,-1,-1,-1,-1,-1,-1,-1,-1,-1,-1,-1,-1,-1,-1,-1,-1,-1,-1,-1,-1,-1,-1,-1,-1,-1,-1,-1,-1,-1,-1,-1,-1,-1,-1,-1,-1,-1,-1,-1,-1],"split_conditions":[-1.7690333E-2,-1.4527373E-1,9.062612E-2,-4.38405E-1,-1.6521016E-1,1.2119947E-1,5.35924E-1,-2.9422557E-1,-3.4541538E-1,-1.175039E-2,-1.652447E-1,3.2630343E-2,6.619157E-2,3.9886713E-1,3.6488128E-1,-4.383044E-1,-1.175039E-2,-2.3460026E-1,-2.4012332E-1,-2.0066297E-1,-2.5825086E-1,-2.5511866E-2,-8.214438E-2,7.187374E-3,8.8746116E-2,0E0,5.7206206E-2,2.266128E-1,2.742672E-1,4.687637E-2,4.985809E-1,-6.356769E-1,-7.852582E-1,-6.362237E-1,-2.5190768E-1,-5.571014E-1,-7.802366E-2,-1.175039E-2,-2.5192955E-1,-3.0299395E-1,-1.222222E-1,-5.073189E-1,-1.0453824E-1,-1.9638011E-1,-3.1256166E-1,-1.222175E-1,-7.231466E-2,-3.3375934E-2,4.6870273E-2,2.134418E-2,1.128398E-1,-4.8297983E-2,2.38339E-1,1.2551764E-1,9.225605E-2,2.38339E-1,3.81403E-1,1.8414607E-2,3.5015228E-1,3.3674532E-1,2.5822058E-1,6.8945E-1,1E0,-2.9726176E-2,-2.5185784E-2,5.7699694E-3,-2.3449065E-2,2.2816159E-2,1.8818474E-3,-2.6100088E-2,9.43943E-4,-6.9444547E-3,-2.4829717E-2,1.5199588E-3,-8.9190565E-3,-2.3134436E-2,-5.0180435E-2,-7.5159417E-3,-1.9539075E-2,3.4615576E-2,7.89021E-3,-6.3690236E-3,1.982297E-3,1.2376149E-2,-2.6867427E-3,-2.0829605E-2,-7.345178E-3,1.0256231E-2,-9.892867E-4,-3.8154547E-5,-9.142723E-3,-1.4981454E-2,-2.2052916E-2,-8.124363E-3,-1.4906404E-2,-3.7756653E-3,-6.772663E-3,-3.9639248E-4,-6.622528E-3,-1.310596E-4,8.937128E-3,-1.6270735E-3,-6.510514E-3,-1.1861708E-3,1.0938506E-2,-7.975697E-3,-1.3992742E-2,-1.6769795E-2,1.0523245E-3,-2.4089921E-2,-3.8870893E-2,5.000553E-3,-8.335182E-3,1.2369889E-2,1.4693079E-3,-4.1134856E-3,-1.6950514E-2,7.5198314E-3,1.9034188E-2,-1.6047442E-2,1.4707409E-2,-2.9411117E-2,-8.967951E-3,1.4453057E-2,-5.2863085E-3,2.159907E-2,1.1763511E-2],"split_indices":[0,0,0,2,2,1,2,1,1,1,1,0,2,1,1,1,1,2,0,2,2,2,0,0,2,0,0,0,2,1,1,1,2,2,0,1,2,1,2,2,0,2,0,1,1,1,1,1,2,2,2,2,1,2,2,1,2,2,2,0,1,2,2,0,0,0,0,0,0,0,0,0,0,0,0,0,0,0,0,0,0,0,0,0,0,0,0,0,0,0,0,0,0,0,0,0,0,0,0,0,0,0,0,0,0,0,0,0,0,0,0,0,0,0,0,0,0,0,0,0,0,0,0,0,0,0,0],"split_type":[0,0,0,0,0,0,0,0,0,0,0,0,0,0,0,0,0,0,0,0,0,0,0,0,0,0,0,0,0,0,0,0,0,0,0,0,0,0,0,0,0,0,0,0,0,0,0,0,0,0,0,0,0,0,0,0,0,0,0,0,0,0,0,0,0,0,0,0,0,0,0,0,0,0,0,0,0,0,0,0,0,0,0,0,0,0,0,0,0,0,0,0,0,0,0,0,0,0,0,0,0,0,0,0,0,0,0,0,0,0,0,0,0,0,0,0,0,0,0,0,0,0,0,0,0,0,0],"sum_hessian":[7.168075E7,3.0602764E7,4.107799E7,1.3284483E7,1.7318282E7,2.0671422E7,2.0406568E7,1.710251E6,1.1574232E7,2.336399E6,1.4981883E7,1.8067418E7,2.604004E6,1.9549464E7,8.57104E5,8.2949E5,8.80761E5,2.192223E6,9.382009E6,6.23377E5,1.713022E6,2.261486E6,1.2720397E7,9.218366E6,8.849052E6,2.520281E6,8.3723E4,1.7671072E7,1.878393E6,5.22116E5,3.34988E5,5.60031E5,2.69459E5,6.07076E5,2.73685E5,6.97746E5,1.494477E6,3.391989E6,5.99002E6,2.36314E5,3.87063E5,6.00757E5,1.112265E6,4.53894E5,1.807592E6,4.078005E6,8.642392E6,4.641571E6,4.576795E6,5.727697E6,3.121355E6,2.10566E5,2.309715E6,1.6787E4,6.6936E4,1.3156893E7,4.514178E6,1.179016E6,6.99377E5,1.9058E5,3.31536E5,1.21661E5,2.13327E5,3.22024E5,2.38007E5,5.6492E4,2.12967E5,1.65341E5,4.41735E5,1.62621E5,1.11064E5,1.72774E5,5.24972E5,6.90562E5,8.03915E5,3.328017E6,6.3972E4,1.085062E6,4.904958E6,1.1365E4,2.24949E5,1.94558E5,1.92505E5,3.8384E4,5.62373E5,2.99425E5,8.1284E5,1.92766E5,2.61128E5,2.9111E5,1.516482E6,9.94061E5,3.083944E6,2.414275E6,6.228117E6,1.588441E6,3.05313E6,2.85726E6,1.719535E6,1.9342E6,3.793497E6,1.048282E6,2.073073E6,1.97334E5,1.3232E4,1.913582E6,3.96133E5,1.4397E4,2.39E3,3.5941E4,3.0995E4,1.1862848E7,1.294045E6,3.486474E6,1.027704E6,3.87436E5,7.9158E5,2.53856E5,4.45521E5,1.02981E5,8.7599E4,2.12502E5,1.19034E5,7.916E4,4.2501E4,1.98599E5,1.4728E4],"tree_param":{"num_deleted":"0","num_feature":"9","num_nodes":"127","size_leaf_vector":"0"}},{"base_weights":[-1.3068528E-2,-3.336929E-2,2.7879719E-3,-3.8911957E-2,-2.7365316E-2,-5.2050017E-3,9.552677E-3,-3.7398715E-2,-5.5951014E-2,-1.1527082E-2,-3.1133097E-2,-1.6215725E-3,-1.9127337E-2,4.920533E-3,1.3491881E-2,-2.585714E-2,-3.9017387E-2,-7.6844454E-2,-3.7530717E-2,2.2472837E-3,-1.8603792E-2,-1.596489E-2,-3.8231045E-2,-1.1649696E-2,5.2607413E-3,-1.7820653E-2,-6.906406E-2,1.17387315E-2,-2.2072507E-2,1.47864465E-2,-1.1750579E-2,-5.6092612E-2,2.2105172E-2,-2.0180749E-2,-4.4040874E-2,-8.880454E-2,-5.3471815E-2,-6.2080085E-2,-2.5070734E-2,8.79247E-3,-1.0776606E-2,-9.08866E-3,-2.4765845E-2,-2.1078257E-2,-9.315535E-3,-4.6560265E-2,-1.4762958E-2,-1.4030292E-2,-6.975625E-4,-9.692393E-3,1.5584056E-2,-1.5221578E-2,-2.605905E-2,-1.2475289E-2,-7.695842E-2,2.5156377E-2,-1.3253935E-2,-5.5577396E-3,-4.2239275E-2,1.7735168E-2,-5.6818244E-3,-4.258965E-2,4.1124385E-2,-1.1451067E-2,-1.879465E-2,2.629782E-3,2.2885876E-2,-1.1410714E-2,1.575337E-3,-1.7306106E-2,-1.1485411E-2,-1.8981488E-2,-3.4697402E-2,-1.6731916E-3,-2.1882633E-2,-3.3364652E-3,-2.5231939E-2,-1.632974E-4,-1.2339621E-2,2.3152826E-3,1.613801E-2,-8.967072E-3,-1.0063906E-4,1.6699216E-3,-5.1292568E-3,-1.2403868E-2,-4.3474333E-3,-3.0595416E-3,-1.0104724E-2,7.7233167E-4,-4.4755563E-3,-1.6233496E-2,-6.3124574E-3,-4.921036E-3,2.1886926E-2,-1.4178749E-3,-5.011913E-3,1.6603533E-2,-8.090381E-4,3.8956627E-4,-5.110915E-3,8.005295E-3,-5.140533E-3,-6.150755E-4,-4.873223E-3,-4.8222695E-3,-1.5966302E-2,-1.00415E-2,4.428446E-3,-1.6778922E-2,-2.9409634E-2,9.252849E-3,2.6224707E-3,-1.4246692E-3,-9.064198E-3,1.4162344E-4,-1.3106895E-2,-8.70633E-3,-3.0542232E-2,1.6674394E-2,4.8580077E-3,-9.16392E-3,1.11212805E-2,5.3134863E-4,-1.8138226E-2,6.521043E-3,1.6680222E-2],"categories":[],"categories_nodes":[],"categories_segments":[],"categories_sizes":[],"default_left":[0,0,0,0,0,0,0,0,0,0,0,0,0,0,0,0,0,0,0,0,0,0,0,0,0,0,0,0,0,0,0,0,0,0,0,0,0,0,0,0,0,0,0,0,0,0,0,0,0,0,0,0,0,0,0,0,0,0,0,0,0,0,0,0,0,0,0,0,0,0,0,0,0,0,0,0,0,0,0,0,0,0,0,0,0,0,0,0,0,0,0,0,0,0,0,0,0,0,0,0,0,0,0,0,0,0,0,0,0,0,0,0,0,0,0,0,0,0,0,0,0,0,0,0,0,0,0],"id":10,"left_children":[1,3,5,7,9,11,13,15,17,19,21,23,25,27,29,31,33,35,37,39,41,43,45,47,49,51,53,55,57,59,61,63,65,67,69,71,73,75,77,79,81,83,85,87,89,91,93,95,97,99,101,103,105,107,109,111,113,115,117,119,121,123,125,-1,-1,-1,-1,-1,-1,-1,-1,-1,-1,-1,-1,-1,-1,-1,-1,-1,-1,-1,-1,-1,-1,-1,-1,-1,-1,-1,-1,-1,-1,-1,-1,-1,-1,-1,-1,-1,-1,-1,-1,-1,-1,-1,-1,-1,-1,-1,-1,-1,-1,-1,-1,-1,-1,-1,-1,-1,-1,-1,-1,-1,-1,-1,-1],"loss_changes":[2.3073965E4,1.0460977E3,2.1760894E3,4.2145312E2,9.004707E2,9.203672E2,3.9774084E2,2.8045898E2,5.131118E2,2.8266818E2,1.3123857E3,1.0125943E3,2.4640906E2,1.8437019E3,3.8494482E2,2.6776826E3,1.2458184E3,1.7461816E2,2.1673517E2,8.389584E1,1.12319885E2,1.3211987E2,1.6231748E3,1.5568457E2,1.343067E3,7.8796875E1,4.3016632E1,2.6819387E3,6.7280066E2,6.762969E2,9.3705896E2,1.3307275E2,5.1599164E2,1.2586835E3,8.1643164E2,2.833208E2,1.971875E2,2.6775525E2,1.8514874E2,3.1682247E1,6.569324E1,8.837602E1,1.980675E2,3.012226E2,1.1253374E2,1.1810186E3,3.1301825E2,1.22127014E2,1.1945668E2,2.8682465E2,1.8693806E3,3.7675354E1,2.3935364E2,6.7428837E0,3.7443085E1,4.857373E2,4.0298776E2,2.5536407E2,7.161212E2,5.71511E2,1.4999287E3,2.8775183E2,5.941452E1,0E0,0E0,0E0,0E0,0E0,0E0,0E0,0E0,0E0,0E0,0E0,0E0,0E0,0E0,0E0,0E0,0E0,0E0,0E0,0E0,0E0,0E0,0E0,0E0,0E0,0E0,0E0,0E0,0E0,0E0,0E0,0E0,0E0,0E0,0E0,0E0,0E0,0E0,0E0,0E0,0E0,0E0,0E0,0E0,0E0,0E0,0E0,0E0,0E0,0E0,0E0,0E0,0E0,0E0,0E0,0E0,0E0,0E0,0E0,0E0,0E0,0E0,0E0,0E0],"parents":[2147483647,0,0,1,1,2,2,3,3,4,4,5,5,6,6,7,7,8,8,9,9,10,10,11,11,12,12,13,13,14,14,15,15,16,16,17,17,18,18,19,19,20,20,21,21,22,22,23,23,24,24,25,25,26,26,27,27,28,28,29,29,30,30,31,31,32,32,33,33,34,34,35,35,36,36,37,37,38,38,39,39,40,40,41,41,42,42,43,43,44,44,45,45,46,46,47,47,48,48,49,49,50,50,51,51,52,52,53,53,54,54,55,55,56,56,57,57,58,58,59,59,60,60,61,61,62,62],"right_children":[2,4,6,8,10,12,14,16,18,20,22,24,26,28,30,32,34,36,38,40,42,44,46,48,50,52,54,56,58,60,62,64,66,68,70,72,74,76,78,80,82,84,86,88,90,92,94,96,98,100,102,104,106,108,110,112,114,116,118,120,122,124,126,-1,-1,-1,-1,-1,-1,-1,-1,-1,-1,-1,-1,-1,-1,-1,-1,-1,-1,-1,-1,-1,-1,-1,-1,-1,-1,-1,-1,-1,-1,-1,-1,-1,-1,-1,-1,-1,-1,-1,-1,-1,-1,-1,-1,-1,-1,-1,-1,-1,-1,-1,-1,-1,-1,-1,-1,-1,-1,-1,-1,-1,-1,-1,-1],"split_conditions":[-1.3208245E-2,-1.1437698E-1,8.220045E-2,-1.175039E-2,-1.2224001E-1,9.063156E-2,1.5866229E-1,-3.9350304E-1,3.6896847E-2,1.4347595E-3,-9.750996E-2,-1.3939124E-3,8.0396146E-2,1.6167073E-1,5.9245753E-1,-2.4592638E-1,-3.1256166E-1,-1.422103E-1,-1.964247E-1,-1.3916576E-1,-2.050994E-1,-6.654949E-2,1.4347595E-3,5.2725453E-2,1.1455127E-2,1.7818497E-1,4.1265953E-2,1.3977382E-1,1.8414607E-2,4.4135758E-1,4.19522E-1,-7.852582E-1,-3.0303773E-1,-3.0303773E-1,-2.292384E-1,-3.0299395E-1,-2.3460026E-1,-6.362237E-1,-3.3420295E-1,-3.0094258E-2,-9.75237E-2,9.2256196E-2,-6.8218306E-2,1.4343146E-3,3.2572318E-2,4.268727E-3,1.4227341E-1,2.4114404E-2,3.5343323E-2,3.9692074E-2,8.220353E-2,0E0,-6.466256E-2,1.07060365E-1,1.0129065E-1,1.2553193E-1,2.1128014E-1,3.3669826E-1,2.2660941E-1,0E0,3.0178854E-1,9.905476E-3,5.930299E-1,-1.1451067E-2,-1.879465E-2,2.629782E-3,2.2885876E-2,-1.1410714E-2,1.575337E-3,-1.7306106E-2,-1.1485411E-2,-1.8981488E-2,-3.4697402E-2,-1.6731916E-3,-2.1882633E-2,-3.3364652E-3,-2.5231939E-2,-1.632974E-4,-1.2339621E-2,2.3152826E-3,1.613801E-2,-8.967072E-3,-1.0063906E-4,1.6699216E-3,-5.1292568E-3,-1.2403868E-2,-4.3474333E-3,-3.0595416E-3,-1.0104724E-2,7.7233167E-4,-4.4755563E-3,-1.6233496E-2,-6.3124574E-3,-4.921036E-3,2.1886926E-2,-1.4178749E-3,-5.011913E-3,1.6603533E-2,-8.090381E-4,3.8956627E-4,-5.110915E-3,8.005295E-3,-5.140533E-3,-6.150755E-4,-4.873223E-3,-4.8222695E-3,-1.5966302E-2,-1.00415E-2,4.428446E-3,-1.6778922E-2,-2.9409634E-2,9.252849E-3,2.6224707E-3,-1.4246692E-3,-9.064198E-3,1.4162344E-4,-1.3106895E-2,-8.70633E-3,-3.0542232E-2,1.6674394E-2,4.8580077E-3,-9.16392E-3,1.11212805E-2,5.3134863E-4,-1.8138226E-2,6.521043E-3,1.6680222E-2],"split_indices":[0,0,0,1,2,1,0,2,1,1,1,1,2,1,2,1,1,0,0,2,2,0,1,0,2,1,0,2,2,1,1,2,0,0,0,2,2,2,2,0,0,1,0,2,2,2,1,2,2,1,2,0,2,2,2,1,2,1,1,2,2,1,1,0,0,0,0,0,0,0,0,0,0,0,0,0,0,0,0,0,0,0,0,0,0,0,0,0,0,0,0,0,0,0,0,0,0,0,0,0,0,0,0,0,0,0,0,0,0,0,0,0,0,0,0,0,0,0,0,0,0,0,0,0,0,0,0],"split_type":[0,0,0,0,0,0,0,0,0,0,0,0,0,0,0,0,0,0,0,0,0,0,0,0,0,0,0,0,0,0,0,0,0,0,0,0,0,0,0,0,0,0,0,0,0,0,0,0,0,0,0,0,0,0,0,0,0,0,0,0,0,0,0,0,0,0,0,0,0,0,0,0,0,0,0,0,0,0,0,0,0,0,0,0,0,0,0,0,0,0,0,0,0,0,0,0,0,0,0,0,0,0,0,0,0,0,0,0,0,0,0,0,0,0,0,0,0,0,0,0,0,0,0,0,0,0,0],"sum_hessian":[7.168075E7,3.1435062E7,4.0245692E7,1.634548E7,1.5089582E7,1.844804E7,2.1797652E7,1.5012242E7,1.333238E6,2.899838E6,1.2189744E7,1.4671728E7,3.776312E6,1.0017725E7,1.1779928E7,1.846468E6,1.3165774E7,6.24682E5,7.08556E5,9.84185E5,1.915653E6,3.885817E6,8.303927E6,5.97119E6,8.700538E6,3.680019E6,9.6293E4,7.997603E6,2.020122E6,1.1205264E7,5.74664E5,1.132524E6,7.13944E5,2.771909E6,1.0393865E7,4.13226E5,2.11456E5,2.38549E5,4.70007E5,6.55009E5,3.29176E5,7.52965E5,1.162688E6,2.196614E6,1.689203E6,6.128735E6,2.175192E6,4.905017E6,1.066173E6,3.553442E6,5.147096E6,2.797468E6,8.82551E5,1.1789E4,8.4504E4,5.203848E6,2.793755E6,1.110623E6,9.09499E5,9.794271E6,1.410993E6,3.62966E5,2.11698E5,3.03331E5,8.29193E5,5.72899E5,1.41045E5,1.628551E6,1.143358E6,3.083592E6,7.310273E6,2.11823E5,2.01403E5,6.1117E4,1.50339E5,7.1993E4,1.66556E5,1.85991E5,2.84016E5,6.3973E5,1.5279E4,1.16291E5,2.12885E5,2.66079E5,4.86886E5,4.44833E5,7.17855E5,1.178954E6,1.01766E6,5.41051E5,1.148152E6,4.72927E6,1.399465E6,2.13526E6,3.9932E4,1.095668E6,3.809349E6,3.6723E4,1.02945E6,1.423318E6,2.130124E6,3.843243E6,1.303853E6,2.01525E5,2.595943E6,6.45328E5,2.37223E5,6.657E3,5.132E3,4.2299E4,4.2205E4,3.864945E6,1.338903E6,1.860675E6,9.3308E5,9.5898E5,1.51643E5,7.44333E5,1.65166E5,3.83388E5,9.410883E6,8.92136E5,5.18857E5,1.04233E5,2.58733E5,9.0499E4,1.21199E5],"tree_param":{"num_deleted":"0","num_feature":"9","num_nodes":"127","size_leaf_vector":"0"}},{"base_weights":[-9.147977E-3,-2.2666007E-2,2.6276212E-3,-2.6104523E-2,-1.5576468E-2,-1.7162442E-3,8.902702E-3,-8.642387E-3,-2.6893267E-2,-5.097056E-3,-2.0888302E-2,1.2153966E-3,-1.749897E-2,2.7902992E-2,7.620816E-3,-4.859601E-2,2.3651363E-2,6.8268566E-3,-2.7928233E-2,-2.6616741E-2,-1.8460996E-3,-6.2320824E-3,-3.3891864E-2,4.9692043E-3,-1.640502E-2,-1.6093167E-2,-6.9236346E-2,5.467086E-2,-1.0771072E-3,1.9348549E-2,5.902484E-3,-5.8057908E-2,-2.3345025E-2,1.4343593E-2,5.718621E-2,-2.8465098E-2,1.9539203E-2,-4.79509E-2,-2.5971623E-2,-1.1915212E-2,-3.4108445E-2,1.0046126E-2,-1.1496526E-2,-2.6150413E-2,-2.8767139E-3,-5.07627E-2,-1.815937E-2,-1.7184374E-3,1.8945165E-2,-5.322067E-3,-3.8815487E-2,-1.3151917E-2,-2.681346E-2,-4.8279196E-2,-8.198103E-2,4.4438664E-2,7.4526034E-2,-2.2127958E-2,5.274025E-2,1.1241029E-2,4.2761244E-2,-1.002627E-2,8.8585345E-3,-1.9785522E-2,-1.465506E-2,7.525761E-4,-1.4332527E-2,7.767151E-3,-1.8577376E-2,4.9535245E-2,1.0683406E-2,-2.6782039E-3,-1.2992251E-2,1.1971609E-2,-1.1642902E-3,-1.3991029E-2,-4.984525E-2,-2.5306488E-3,-8.598587E-3,1.1911463E-3,-8.568431E-3,-2.3276696E-2,-8.336476E-3,4.625961E-3,-6.49195E-3,-5.3255786E-3,-1.5403705E-3,-9.590691E-3,-1.0804128E-3,2.5214348E-3,-2.7060565E-3,-1.5788665E-2,1.9528702E-2,-7.053734E-3,7.783003E-3,-3.928116E-3,5.1706185E-4,-6.943057E-4,7.2753686E-3,-9.944324E-4,-1.1135687E-2,-7.4709514E-3,-2.2448432E-2,-3.1643228E-3,-8.2306955E-3,-6.0896743E-3,-2.0383654E-2,-1.027932E-2,-2.8495586E-2,-5.730831E-4,-2.6046256E-2,1.7799798E-2,9.310757E-3,2.6693E-2,1.6812894E-2,1.3424607E-3,-1.1483526E-2,1.0675575E-2,2.2386586E-2,7.486789E-3,-9.563661E-3,2.3432303E-2,5.37827E-3,2.7645875E-3,-1.3407604E-2,-1.1650701E-3,3.6294328E-3],"categories":[],"categories_nodes":[],"categories_segments":[],"categories_sizes":[],"default_left":[0,0,0,0,0,0,0,0,0,0,0,0,0,0,0,0,0,0,0,0,0,0,0,0,0,0,0,0,0,0,0,0,0,0,0,0,0,0,0,0,0,0,0,0,0,0,0,0,0,0,0,0,0,0,0,0,0,0,0,0,0,0,0,0,0,0,0,0,0,0,0,0,0,0,0,0,0,0,0,0,0,0,0,0,0,0,0,0,0,0,0,0,0,0,0,0,0,0,0,0,0,0,0,0,0,0,0,0,0,0,0,0,0,0,0,0,0,0,0,0,0,0,0,0,0,0,0],"id":11,"left_children":[1,3,5,7,9,11,13,15,17,19,21,23,25,27,29,31,33,35,37,39,41,43,45,47,49,51,53,55,57,59,61,63,65,67,69,71,73,75,77,79,81,83,85,87,89,91,93,95,97,99,101,103,105,107,109,111,113,115,117,119,121,123,125,-1,-1,-1,-1,-1,-1,-1,-1,-1,-1,-1,-1,-1,-1,-1,-1,-1,-1,-1,-1,-1,-1,-1,-1,-1,-1,-1,-1,-1,-1,-1,-1,-1,-1,-1,-1,-1,-1,-1,-1,-1,-1,-1,-1,-1,-1,-1,-1,-1,-1,-1,-1,-1,-1,-1,-1,-1,-1,-1,-1,-1,-1,-1,-1],"loss_changes":[1.141035E4,8.135117E2,1.0442405E3,3.0951074E2,6.0670703E2,1.0474554E3,3.8168848E2,1.2530607E3,7.5036816E2,2.564913E2,1.3784844E3,1.2628097E3,2.57932E2,7.683304E2,2.9584662E2,1.037157E2,1.6763763E2,2.872558E2,8.1724805E2,5.2995544E1,3.655394E2,2.2726074E2,1.0172427E3,1.4710593E3,8.32794E2,1.08861145E2,2.5052246E1,1.04600586E2,5.3878174E2,3.5611993E2,6.0291797E2,2.294873E1,7.4736725E1,3.7022385E2,2.7169766E2,4.9168686E1,2.2452367E2,2.8844775E2,8.965547E2,4.2952343E1,8.759012E1,2.429497E2,6.997356E1,6.4320404E1,2.0169727E2,3.998628E2,4.682041E2,4.1679385E2,5.746034E2,1.4319171E2,5.558788E2,1.00775055E2,1.9917218E2,2.3219803E1,2.2605865E1,6.78255E1,4.6762756E1,1.4687875E2,5.01929E1,8.241228E2,4.235855E2,1.3369186E3,4.4582336E2,0E0,0E0,0E0,0E0,0E0,0E0,0E0,0E0,0E0,0E0,0E0,0E0,0E0,0E0,0E0,0E0,0E0,0E0,0E0,0E0,0E0,0E0,0E0,0E0,0E0,0E0,0E0,0E0,0E0,0E0,0E0,0E0,0E0,0E0,0E0,0E0,0E0,0E0,0E0,0E0,0E0,0E0,0E0,0E0,0E0,0E0,0E0,0E0,0E0,0E0,0E0,0E0,0E0,0E0,0E0,0E0,0E0,0E0,0E0,0E0,0E0,0E0,0E0,0E0],"parents":[2147483647,0,0,1,1,2,2,3,3,4,4,5,5,6,6,7,7,8,8,9,9,10,10,11,11,12,12,13,13,14,14,15,15,16,16,17,17,18,18,19,19,20,20,21,21,22,22,23,23,24,24,25,25,26,26,27,27,28,28,29,29,30,30,31,31,32,32,33,33,34,34,35,35,36,36,37,37,38,38,39,39,40,40,41,41,42,42,43,43,44,44,45,45,46,46,47,47,48,48,49,49,50,50,51,51,52,52,53,53,54,54,55,55,56,56,57,57,58,58,59,59,60,60,61,61,62,62],"right_children":[2,4,6,8,10,12,14,16,18,20,22,24,26,28,30,32,34,36,38,40,42,44,46,48,50,52,54,56,58,60,62,64,66,68,70,72,74,76,78,80,82,84,86,88,90,92,94,96,98,100,102,104,106,108,110,112,114,116,118,120,122,124,126,-1,-1,-1,-1,-1,-1,-1,-1,-1,-1,-1,-1,-1,-1,-1,-1,-1,-1,-1,-1,-1,-1,-1,-1,-1,-1,-1,-1,-1,-1,-1,-1,-1,-1,-1,-1,-1,-1,-1,-1,-1,-1,-1,-1,-1,-1,-1,-1,-1,-1,-1,-1,-1,-1,-1,-1,-1,-1,-1,-1,-1,-1,-1,-1],"split_conditions":[-3.0034673E-3,-6.654949E-2,1.2336891E-1,-5.575549E-1,-5.710586E-2,1.2774073E-1,0E0,-4.1258094E-1,-5.571014E-1,-2.8480519E-2,-5.530445E-2,1.2997317E-1,1.0879741E-1,3.2369545E-1,4.687637E-2,-5.571014E-1,-3.4542707E-1,-3.3420295E-1,-3.4542707E-1,-5.8902558E-2,3.6896847E-2,-1.6195776E-2,-2.3972781E-2,6.324107E-2,1.4347595E-3,2.6877098E-2,1.2335692E-1,1.6478883E-1,2.6591572E-1,2.163141E-1,1.0495849E-1,-7.871581E-1,-7.852582E-1,0E0,0E0,-7.871581E-1,-3.660401E-2,0E0,-2.713706E-1,-7.802366E-2,-8.855584E-2,-2.0902041E-2,-3.0094258E-2,-3.6607772E-2,3.2572318E-2,8.040174E-2,4.529212E-2,-1.6181981E-2,3.262851E-2,3.5015228E-1,1.746902E-1,2.6592278E-1,1.9335686E-1,1.7132823E-1,6.619391E-2,2.2660941E-1,2.7428234E-1,3.816528E-1,3.3674532E-1,3.1302556E-1,4.195064E-1,2.215094E-1,9.225605E-2,-1.9785522E-2,-1.465506E-2,7.525761E-4,-1.4332527E-2,7.767151E-3,-1.8577376E-2,4.9535245E-2,1.0683406E-2,-2.6782039E-3,-1.2992251E-2,1.1971609E-2,-1.1642902E-3,-1.3991029E-2,-4.984525E-2,-2.5306488E-3,-8.598587E-3,1.1911463E-3,-8.568431E-3,-2.3276696E-2,-8.336476E-3,4.625961E-3,-6.49195E-3,-5.3255786E-3,-1.5403705E-3,-9.590691E-3,-1.0804128E-3,2.5214348E-3,-2.7060565E-3,-1.5788665E-2,1.9528702E-2,-7.053734E-3,7.783003E-3,-3.928116E-3,5.1706185E-4,-6.943057E-4,7.2753686E-3,-9.944324E-4,-1.1135687E-2,-7.4709514E-3,-2.2448432E-2,-3.1643228E-3,-8.2306955E-3,-6.0896743E-3,-2.0383654E-2,-1.027932E-2,-2.8495586E-2,-5.730831E-4,-2.6046256E-2,1.7799798E-2,9.310757E-3,2.6693E-2,1.6812894E-2,1.3424607E-3,-1.1483526E-2,1.0675575E-2,2.2386586E-2,7.486789E-3,-9.563661E-3,2.3432303E-2,5.37827E-3,2.7645875E-3,-1.3407604E-2,-1.1650701E-3,3.6294328E-3],"split_indices":[0,0,0,2,2,1,2,1,1,1,1,2,2,1,1,1,0,2,0,0,1,2,0,0,1,2,2,0,0,0,1,1,2,1,1,1,2,2,1,2,1,0,0,0,2,1,2,1,1,2,2,1,1,1,0,1,1,1,0,2,2,2,2,0,0,0,0,0,0,0,0,0,0,0,0,0,0,0,0,0,0,0,0,0,0,0,0,0,0,0,0,0,0,0,0,0,0,0,0,0,0,0,0,0,0,0,0,0,0,0,0,0,0,0,0,0,0,0,0,0,0,0,0,0,0,0,0],"split_type":[0,0,0,0,0,0,0,0,0,0,0,0,0,0,0,0,0,0,0,0,0,0,0,0,0,0,0,0,0,0,0,0,0,0,0,0,0,0,0,0,0,0,0,0,0,0,0,0,0,0,0,0,0,0,0,0,0,0,0,0,0,0,0,0,0,0,0,0,0,0,0,0,0,0,0,0,0,0,0,0,0,0,0,0,0,0,0,0,0,0,0,0,0,0,0,0,0,0,0,0,0,0,0,0,0,0,0,0,0,0,0,0,0,0,0,0,0,0,0,0,0,0,0,0,0,0,0],"sum_hessian":[7.168075E7,3.3371398E7,3.8309356E7,2.2472132E7,1.0899266E7,2.2638244E7,1.5671112E7,9.71173E5,2.150096E7,3.666279E6,7.232987E6,1.9091922E7,3.546323E6,9.90453E5,1.4680659E7,4.34103E5,5.3707E5,6.40274E5,2.0860684E7,4.8117E5,3.185109E6,3.40041E6,3.832577E6,1.573894E7,3.352982E6,3.452513E6,9.381E4,5.14878E5,4.75575E5,1.876105E6,1.2804554E7,3.15776E5,1.18327E5,4.2039E5,1.1668E5,1.69555E5,4.70719E5,1.85703E6,1.9003656E7,1.62428E5,3.18742E5,1.426828E6,1.758281E6,4.90236E5,2.910174E6,1.84938E6,1.983197E6,1.0645134E7,5.093806E6,2.243483E6,1.109499E6,2.709209E6,7.43304E5,3.5477E4,5.8333E4,3.39779E5,1.75099E5,3.41857E5,1.33718E5,1.393541E6,4.82564E5,2.004305E6,1.0800249E7,1.70015E5,1.45761E5,5.7489E4,6.0838E4,3.65113E5,5.5277E4,1.9437E4,9.7243E4,7.32E4,9.6355E4,2.51775E5,2.18944E5,1.836612E6,2.0418E4,2.527686E6,1.6475969E7,8.3113E4,7.9315E4,4.045E4,2.78292E5,1.219935E6,2.06893E5,8.86564E5,8.71717E5,3.89682E5,1.00554E5,1.026032E6,1.884142E6,1.820064E6,2.9316E4,1.768537E6,2.1466E5,2.472812E6,8.172322E6,1.017409E6,4.076397E6,2.110266E6,1.33217E5,8.00322E5,3.09177E5,2.291441E6,4.17768E5,6.41676E5,1.01628E5,2.729E4,8.187E3,3.325E3,5.5008E4,1.60935E5,1.78844E5,9.8267E4,7.6832E4,1.2914E5,2.12717E5,7.4956E4,5.8762E4,1.057263E6,3.36278E5,1.99132E5,2.83432E5,1.288893E6,7.15412E5,2.18927E6,8.610979E6],"tree_param":{"num_deleted":"0","num_feature":"9","num_nodes":"127","size_leaf_vector":"0"}},{"base_weights":[-6.403588E-3,-1.5012395E-2,2.9352526E-3,-1.778598E-2,-8.040706E-3,-6.732446E-4,6.045421E-3,-2.2156697E-2,-1.5201785E-2,-3.383442E-3,-1.0282668E-2,3.0860477E-3,-1.3016381E-2,7.2246385E-3,-5.9967656E-3,-2.087198E-2,-5.16513E-2,7.243685E-3,-1.9043772E-2,6.448331E-4,-1.5405621E-2,-2.9364382E-3,-1.5566278E-2,7.959776E-3,-9.802952E-3,-1.1932118E-2,-6.0866985E-2,9.8919105E-3,-1.1244977E-2,-3.304026E-2,2.7808987E-2,-1.1782393E-2,-2.5238551E-2,-3.0744568E-2,-9.045879E-2,3.8759835E-2,-5.6556053E-3,4.2188107E-3,-2.3635825E-2,-1.7784E-2,3.257711E-3,-2.5731511E-2,-1.0944251E-2,9.174759E-4,-1.440166E-2,-2.8416783E-2,-2.633177E-3,1.2455166E-3,1.7619383E-2,-7.913416E-4,-2.7638076E-2,-4.419403E-3,-1.6153831E-2,1.3340084E-2,-6.860567E-2,7.2601526E-3,2.9648684E-2,-3.1575847E-2,2.1077923E-2,-7.312217E-3,-5.1089615E-2,3.457593E-2,6.4175013E-3,-9.421222E-3,4.5542116E-3,-1.5399887E-3,-9.967161E-3,3.0549907E-4,-1.3868173E-2,-3.415512E-2,-2.0822724E-2,2.5060821E-2,8.845467E-3,4.2558936E-3,-3.5007405E-3,6.1482918E-3,-2.3887174E-3,-1.2052771E-2,-5.585976E-3,-1.5623525E-2,-4.4447808E-3,4.2457436E-3,-1.1618737E-3,-1.7846338E-3,-9.108476E-3,1.2998654E-3,-4.035242E-3,2.5329925E-3,-1.3247895E-3,-7.9563465E-3,-1.9863418E-3,-9.582197E-3,6.672396E-3,5.771218E-4,-5.7190866E-3,1.963573E-3,-4.2639617E-3,-9.570026E-4,7.2301803E-3,-1.0595138E-2,7.8772864E-5,-5.1978067E-3,-1.8001819E-2,-2.051995E-3,3.2906097E-3,-7.754824E-3,-3.6615233E-3,1.4928567E-3,2.1815568E-2,-1.5022968E-2,-2.266472E-2,3.365599E-3,-7.261343E-3,3.0820318E-2,8.140213E-3,-1.8185048E-3,-1.4741615E-2,9.190891E-3,-6.905275E-3,-1.2160296E-2,9.0148635E-3,-2.7948024E-2,-1.097167E-2,4.743978E-3,1.1146382E-2,-7.2527425E-3,9.2416145E-3],"categories":[],"categories_nodes":[],"categories_segments":[],"categories_sizes":[],"default_left":[0,0,0,0,0,0,0,0,0,0,0,0,0,0,0,0,0,0,0,0,0,0,0,0,0,0,0,0,0,0,0,0,0,0,0,0,0,0,0,0,0,0,0,0,0,0,0,0,0,0,0,0,0,0,0,0,0,0,0,0,0,0,0,0,0,0,0,0,0,0,0,0,0,0,0,0,0,0,0,0,0,0,0,0,0,0,0,0,0,0,0,0,0,0,0,0,0,0,0,0,0,0,0,0,0,0,0,0,0,0,0,0,0,0,0,0,0,0,0,0,0,0,0,0,0,0,0],"id":12,"left_children":[1,3,5,7,9,11,13,15,17,19,21,23,25,27,29,31,33,35,37,39,41,43,45,47,49,51,53,55,57,59,61,63,65,67,69,71,73,75,77,79,81,83,85,87,89,91,93,95,97,99,101,103,105,107,109,111,113,115,117,119,121,123,125,-1,-1,-1,-1,-1,-1,-1,-1,-1,-1,-1,-1,-1,-1,-1,-1,-1,-1,-1,-1,-1,-1,-1,-1,-1,-1,-1,-1,-1,-1,-1,-1,-1,-1,-1,-1,-1,-1,-1,-1,-1,-1,-1,-1,-1,-1,-1,-1,-1,-1,-1,-1,-1,-1,-1,-1,-1,-1,-1,-1,-1,-1,-1,-1],"loss_changes":[5.7628643E3,7.212207E2,3.858765E2,3.0137598E2,1.1083948E2,7.3853406E2,2.6222894E2,3.7567773E2,1.4460312E3,1.6705754E2,2.7813873E2,7.6639667E2,1.927854E2,8.285797E2,1.5057452E3,3.7708008E2,3.3574658E2,9.9632153E2,1.52946E3,1.2441618E2,3.9883026E1,1.3245967E2,6.9271655E2,5.741696E2,5.38026E2,1.1524133E2,4.728128E1,7.6416626E2,1.3947678E3,4.2491443E2,1.05959045E2,1.6310792E3,1.030324E3,1.322574E2,7.1331055E1,2.955885E2,2.0749768E2,4.6795847E2,9.9201855E2,3.2657616E1,1.7580136E2,2.3924637E1,2.31503E1,9.005538E1,7.111464E1,