{"learner":{"attributes":{"best_iteration":"99","best_ntree_limit":"100","scikit_learn":"{\"n_estimators\": 100, \"objective\": null, \"max_depth\": null, \"max_leaves\": null, \"max_bin\": null, \"grow_policy\": null, \"learning_rate\": null, \"verbosity\": null, \"booster\": null, \"tree_method\": null, \"gamma\": null, \"min_child_weight\": null, \"max_delta_step\": null, \"subsample\": null, \"sampling_method\": null, \"colsample_bytree\": null, \"colsample_bylevel\": null, \"colsample_bynode\": null, \"reg_alpha\": null, \"reg_lambda\": null, \"scale_pos_weight\": null, \"base_score\": null, \"missing\": NaN, \"num_parallel_tree\": null, \"random_state\": null, \"n_jobs\": null, \"monotone_constraints\": null, \"interaction_constraints\": null, \"importance_type\": null, \"gpu_id\": null, \"validate_parameters\": null, \"predictor\": null, \"enable_categorical\": false, \"feature_types\": null, \"max_cat_to_onehot\": null, \"max_cat_threshold\": null, \"eval_metric\": null, \"early_stopping_rounds\": null, \"callbacks\": null, \"_estimator_type\": \"regressor\"}"},"feature_names":["f0","fsw_l_1","fsw_r_1","ftw_l_1","ftw_r_1","fiw_l_1","fiw_r_1"],"feature_types":["float","float","float","float","float","float","float"],"gradient_booster":{"model":{"gbtree_model_param":{"num_parallel_tree":"1","num_trees":"100","size_leaf_vector":"0"},"tree_info":[0,0,0,0,0,0,0,0,0,0,0,0,0,0,0,0,0,0,0,0,0,0,0,0,0,0,0,0,0,0,0,0,0,0,0,0,0,0,0,0,0,0,0,0,0,0,0,0,0,0,0,0,0,0,0,0,0,0,0,0,0,0,0,0,0,0,0,0,0,0,0,0,0,0,0,0,0,0,0,0,0,0,0,0,0,0,0,0,0,0,0,0,0,0,0,0,0,0,0,0],"trees":[{"base_weights":[-2.4684066E-1,2.2212467E-1,-2.677564E-1,4.4943923E-1,9.2897415E-2,-2.9516256E-1,1.0093101E-2,5.2420354E-1,3.7492844E-1,4.334019E-1,6.113153E-2,-8.010692E-2,-3.095953E-1,-5.7649527E-2,1.8770826E-1,5.177794E-1,5.8452225E-1,5.2160186E-1,3.232485E-1,5.196849E-1,3.2741982E-1,3.5765025E-1,3.1376258E-2,2.4011767E-1,-1.2551484E-1,-1.0298108E-1,-3.2629898E-1,-7.009915E-2,1.9037968E-1,1.1774936E-1,3.21126E-1,5.1477766E-1,5.934202E-1,5.877575E-1,1.1555813E-1,4.714664E-1,5.5375886E-1,4.5213598E-1,2.604683E-1,4.7512743E-1,5.758502E-1,2.952653E-1,4.1302684E-1,2.708318E-1,4.8244554E-1,9.3947016E-2,-7.0603564E-3,6.674223E-2,3.349201E-1,-1.5289618E-1,1.243769E-1,-1.376522E-1,2.0545447E-1,-3.4577677E-1,-2.2952041E-1,-9.282607E-2,7.404608E-2,3.8855597E-1,1.3337588E-1,1.0392907E-1,3.3104125E-1,2.4151313E-1,3.9346784E-1,1.5804526E-1,1.5050122E-1,1.7386591E-1,1.9641538E-1,1.725945E-1,1.8983625E-1,1.4508843E-1,1.1400645E-1,1.6022319E-1,1.8293777E-1,1.2194239E-1,1.5464559E-1,9.4751574E-2,6.7439646E-2,9.605356E-2,1.4743714E-1,1.6665524E-1,1.8870643E-1,7.600027E-2,1.0200313E-1,1.3395432E-1,1.09296724E-1,1.0160783E-1,6.749752E-2,1.3399912E-1,1.8102372E-1,4.1893482E-2,2.24865E-2,3.899236E-2,-5.3051068E-3,8.150015E-2,8.052726E-3,1.3345104E-1,7.517979E-2,-2.6833173E-2,-5.3722028E-2,1.86121E-2,6.973656E-2,2.34956E-3,-5.0889276E-2,1.1921071E-1,2.7650366E-2,-8.226007E-2,-1.078636E-1,-7.2884575E-2,-2.4498032E-2,-3.7311085E-2,-1.2583963E-2,7.745518E-2,1.1819832E-2,9.4364524E-2,1.4043424E-1,3.0685281E-2,8.630931E-2,2.77626E-2,8.1051834E-2,1.2861161E-1,8.2176305E-2,1.1354253E-1,6.757566E-2,1.07173495E-1,1.3397422E-1],"categories":[],"categories_nodes":[],"categories_segments":[],"categories_sizes":[],"default_left":[0,0,0,0,0,0,0,0,0,0,0,0,0,0,0,0,0,0,0,0,0,0,0,0,0,0,0,0,0,0,0,0,0,0,0,0,0,0,0,0,0,0,0,0,0,0,0,0,0,0,0,0,0,0,0,0,0,0,0,0,0,0,0,0,0,0,0,0,0,0,0,0,0,0,0,0,0,0,0,0,0,0,0,0,0,0,0,0,0,0,0,0,0,0,0,0,0,0,0,0,0,0,0,0,0,0,0,0,0,0,0,0,0,0,0,0,0,0,0,0,0,0,0,0,0],"id":0,"left_children":[1,3,5,7,9,11,13,15,17,19,21,23,25,27,29,31,33,35,37,39,41,43,45,47,49,51,53,55,57,59,61,63,65,67,-1,69,71,73,75,77,79,81,83,85,87,89,91,93,95,97,99,101,103,105,107,109,111,113,115,117,119,121,123,-1,-1,-1,-1,-1,-1,-1,-1,-1,-1,-1,-1,-1,-1,-1,-1,-1,-1,-1,-1,-1,-1,-1,-1,-1,-1,-1,-1,-1,-1,-1,-1,-1,-1,-1,-1,-1,-1,-1,-1,-1,-1,-1,-1,-1,-1,-1,-1,-1,-1,-1,-1,-1,-1,-1,-1,-1,-1,-1,-1,-1,-1],"loss_changes":[1.753371E4,2.2419053E3,1.3030672E4,1.5390137E2,5.263008E2,4.8345156E3,1.8485892E3,5.046875E0,1.048761E2,3.7797607E1,3.9269147E2,1.4244401E3,5.0374844E3,3.4344333E2,3.9589087E2,2.5290527E0,6.2545776E-1,5.557373E0,8.2821045E1,5.449829E0,5.014496E0,4.384674E1,9.728566E1,1.9994305E2,5.870602E2,1.1675673E3,2.5455781E3,3.4694586E2,6.000197E1,8.199869E1,8.3939575E1,1.6320801E0,2.0080566E-2,3.632202E-1,0E0,1.3920898E0,2.0928345E0,9.498108E0,1.3546814E1,3.0839233E0,7.392578E-1,2.4655151E0,6.642456E-1,7.377136E0,6.9329224E0,1.3349045E1,3.6482372E1,3.5167862E1,7.278345E1,1.2841785E2,5.7070114E1,4.5661975E2,2.398356E2,1.1078125E3,4.4921973E2,1.4681763E2,9.201146E1,6.84169E0,1.9786774E1,4.9453125E1,9.327133E0,1.5391083E1,1.4544922E1,0E0,0E0,0E0,0E0,0E0,0E0,0E0,0E0,0E0,0E0,0E0,0E0,0E0,0E0,0E0,0E0,0E0,0E0,0E0,0E0,0E0,0E0,0E0,0E0,0E0,0E0,0E0,0E0,0E0,0E0,0E0,0E0,0E0,0E0,0E0,0E0,0E0,0E0,0E0,0E0,0E0,0E0,0E0,0E0,0E0,0E0,0E0,0E0,0E0,0E0,0E0,0E0,0E0,0E0,0E0,0E0,0E0,0E0,0E0,0E0,0E0,0E0],"parents":[2147483647,0,0,1,1,2,2,3,3,4,4,5,5,6,6,7,7,8,8,9,9,10,10,11,11,12,12,13,13,14,14,15,15,16,16,17,17,18,18,19,19,20,20,21,21,22,22,23,23,24,24,25,25,26,26,27,27,28,28,29,29,30,30,31,31,32,32,33,33,35,35,36,36,37,37,38,38,39,39,40,40,41,41,42,42,43,43,44,44,45,45,46,46,47,47,48,48,49,49,50,50,51,51,52,52,53,53,54,54,55,55,56,56,57,57,58,58,59,59,60,60,61,61,62,62],"right_children":[2,4,6,8,10,12,14,16,18,20,22,24,26,28,30,32,34,36,38,40,42,44,46,48,50,52,54,56,58,60,62,64,66,68,-1,70,72,74,76,78,80,82,84,86,88,90,92,94,96,98,100,102,104,106,108,110,112,114,116,118,120,122,124,-1,-1,-1,-1,-1,-1,-1,-1,-1,-1,-1,-1,-1,-1,-1,-1,-1,-1,-1,-1,-1,-1,-1,-1,-1,-1,-1,-1,-1,-1,-1,-1,-1,-1,-1,-1,-1,-1,-1,-1,-1,-1,-1,-1,-1,-1,-1,-1,-1,-1,-1,-1,-1,-1,-1,-1,-1,-1,-1,-1,-1,-1],"split_conditions":[-3.842459E-1,-6.28692E-1,2.7332035E-1,-8.534078E-1,-7.221854E-1,-2.613506E-1,4.7759295E-1,-5.178314E-1,-8.534078E-1,-8.534078E-1,-7.2211105E-1,-4.8130792E-1,-2.3671305E-1,5.7239354E-1,6.235286E-1,-3.5351756E-1,-8.534078E-1,-3.1864965E-1,-8.5335517E-1,9.6939184E-4,-2.9941487E-1,8.34932E-3,-4.8130792E-1,6.101999E-2,2.1756965E-1,2.4813175E-1,1.4018755E-1,4.7755143E-1,-1.2554185E-1,7.123871E-1,7.123871E-1,-8.534078E-1,-1.7364122E-1,-3.5358194E-1,1.1555813E-1,-7.221854E-1,-1.2554185E-1,-2.112673E-1,-7.221854E-1,-2.3127241E-1,1.623194E-1,-1.09619915E-1,-7.219082E-1,-8.5335517E-1,2.3209223E-1,-5.6536496E-1,-5.6536496E-1,-6.28692E-1,-6.28692E-1,-3.5351756E-1,6.1027378E-2,-4.0290406E-1,-4.812413E-1,-1.2009922E-1,3.2223496E-1,3.5538918E-1,-6.219755E-2,7.123871E-1,7.123871E-1,7.1166646E-1,7.958398E-2,2.6026815E-1,7.123871E-1,1.5804526E-1,1.5050122E-1,1.7386591E-1,1.9641538E-1,1.725945E-1,1.8983625E-1,1.4508843E-1,1.1400645E-1,1.6022319E-1,1.8293777E-1,1.2194239E-1,1.5464559E-1,9.4751574E-2,6.7439646E-2,9.605356E-2,1.4743714E-1,1.6665524E-1,1.8870643E-1,7.600027E-2,1.0200313E-1,1.3395432E-1,1.09296724E-1,1.0160783E-1,6.749752E-2,1.3399912E-1,1.8102372E-1,4.1893482E-2,2.24865E-2,3.899236E-2,-5.3051068E-3,8.150015E-2,8.052726E-3,1.3345104E-1,7.517979E-2,-2.6833173E-2,-5.3722028E-2,1.86121E-2,6.973656E-2,2.34956E-3,-5.0889276E-2,1.1921071E-1,2.7650366E-2,-8.226007E-2,-1.078636E-1,-7.2884575E-2,-2.4498032E-2,-3.7311085E-2,-1.2583963E-2,7.745518E-2,1.1819832E-2,9.4364524E-2,1.4043424E-1,3.0685281E-2,8.630931E-2,2.77626E-2,8.1051834E-2,1.2861161E-1,8.2176305E-2,1.1354253E-1,6.757566E-2,1.07173495E-1,1.3397422E-1],"split_indices":[0,0,0,0,2,2,0,1,2,2,1,2,1,2,0,2,2,1,1,1,4,2,0,1,1,2,0,1,1,2,0,2,2,1,0,0,1,2,0,1,1,1,3,1,2,0,2,2,2,2,0,1,1,1,1,0,2,2,2,1,1,1,2,0,0,0,0,0,0,0,0,0,0,0,0,0,0,0,0,0,0,0,0,0,0,0,0,0,0,0,0,0,0,0,0,0,0,0,0,0,0,0,0,0,0,0,0,0,0,0,0,0,0,0,0,0,0,0,0,0,0,0,0,0,0],"split_type":[0,0,0,0,0,0,0,0,0,0,0,0,0,0,0,0,0,0,0,0,0,0,0,0,0,0,0,0,0,0,0,0,0,0,0,0,0,0,0,0,0,0,0,0,0,0,0,0,0,0,0,0,0,0,0,0,0,0,0,0,0,0,0,0,0,0,0,0,0,0,0,0,0,0,0,0,0,0,0,0,0,0,0,0,0,0,0,0,0,0,0,0,0,0,0,0,0,0,0,0,0,0,0,0,0,0,0,0,0,0,0,0,0,0,0,0,0,0,0,0,0,0,0,0,0],"sum_hessian":[1.78755E6,7.632E4,1.71123E6,2.7661E4,4.8659E4,1.557594E6,1.53636E5,1.3804E4,1.3857E4,4.151E3,4.4508E4,9.7959E4,1.459635E6,1.11218E5,4.2418E4,1.2484E4,1.32E3,3.608E3,1.0249E4,2.286E3,1.865E3,4.058E3,4.045E4,1.2165E4,8.5794E4,1.09178E5,1.350457E6,1.05903E5,5.315E3,2.7828E4,1.459E4,1.2015E4,4.69E2,1.297E3,2.3E1,1.416E3,2.192E3,3.355E3,6.894E3,1.28E3,1.006E3,1.359E3,5.06E2,2.395E3,1.663E3,1.5392E4,2.5058E4,4.301E3,7.864E3,7.7322E4,8.472E3,9.8146E4,1.1032E4,1.124197E6,2.2626E5,9.148E4,1.4423E4,1.186E3,4.129E3,2.6136E4,1.692E3,6.948E3,7.642E3,6.242E3,5.773E3,3.91E2,7.8E1,1.027E3,2.7E2,1.246E3,1.7E2,1.63E3,5.62E2,1.954E3,1.401E3,2.698E3,4.196E3,1.24E2,1.156E3,7.36E2,2.7E2,7.05E2,6.54E2,2.95E2,2.11E2,9.63E2,1.432E3,1.287E3,3.76E2,4.517E3,1.0875E4,1.802E3,2.3256E4,7E2,3.601E3,3.412E3,4.452E3,2.2584E4,5.4738E4,5.374E3,3.098E3,1.7686E4,8.046E4,4.094E3,6.938E3,1.81368E5,9.42829E5,2.07422E5,1.8838E4,5.6469E4,3.5011E4,2.283E3,1.214E4,6.17E2,5.69E2,3.438E3,6.91E2,2.4462E4,1.674E3,6.22E2,1.07E3,7.35E2,6.213E3,4.548E3,3.094E3],"tree_param":{"num_deleted":"0","num_feature":"7","num_nodes":"125","size_leaf_vector":"0"}},{"base_weights":[-1.7278562E-1,1.2881404E-1,-1.8885082E-1,3.146869E-1,4.6862155E-2,-2.1144941E-1,-1.5283356E-2,3.6702624E-1,2.6252502E-1,3.0621788E-1,2.6625711E-2,-9.543145E-2,-2.2575033E-1,-6.535661E-2,1.0843384E-1,3.6127478E-1,4.0363166E-1,3.6528817E-1,2.2631675E-1,3.6607462E-1,2.3977508E-1,2.1448155E-1,1.7198279E-3,-1.2761861E-1,9.1463074E-2,-9.349479E-2,-2.4013525E-1,-7.71928E-2,1.04047425E-1,6.7750216E-2,2.2481713E-1,3.5835937E-1,4.0814474E-1,4.0707594E-1,8.1118084E-2,3.4329623E-1,4.0606478E-1,3.1657758E-1,1.823513E-1,3.0938604E-1,3.9185777E-1,1.738205E-1,2.648194E-1,1.6846506E-1,3.517059E-1,4.8903983E-2,-2.75711E-2,9.980021E-3,-1.4049569E-1,2.3912044E-1,2.3865359E-2,-1.1298794E-1,1.712869E-1,-2.5057608E-1,-1.4489232E-1,1.2611708E-1,-8.78637E-2,2.3905762E-1,5.056227E-2,5.4150715E-2,1.7733423E-1,1.6908523E-1,2.7545905E-1,1.0991327E-1,1.0499672E-1,1.1852242E-1,1.3334991E-1,1.1871598E-1,1.2989731E-1,8.188175E-2,1.0617845E-1,1.1903387E-1,1.501164E-1,8.939246E-2,1.23910695E-1,6.6336624E-2,4.7212563E-2,6.746803E-2,9.7721174E-2,1.1081704E-1,1.25925E-1,2.3041962E-2,5.6101225E-2,7.5609855E-2,1.04859866E-1,7.360169E-2,4.3532014E-2,1.0028013E-1,1.4541197E-1,3.1909782E-2,1.0794792E-2,2.2259016E-2,-1.1359597E-2,5.040498E-2,-6.390304E-3,-3.166498E-2,-4.513347E-2,1.1712821E-1,6.376091E-2,-3.9166315E-3,4.2716872E-2,-5.901459E-3,-4.288742E-2,1.0169889E-1,3.300355E-2,-7.871044E-2,-4.2884808E-2,-4.9644932E-2,-1.3407705E-2,7.031157E-2,2.257035E-2,-3.337454E-2,-1.499526E-2,9.3709E-2,5.350353E-2,9.76214E-3,4.15864E-2,1.1777227E-2,4.7426436E-2,8.94064E-2,4.3722976E-2,4.5444913E-2,7.5338736E-2,7.502851E-2,9.379495E-2],"categories":[],"categories_nodes":[],"categories_segments":[],"categories_sizes":[],"default_left":[0,0,0,0,0,0,0,0,0,0,0,0,0,0,0,0,0,0,0,0,0,0,0,0,0,0,0,0,0,0,0,0,0,0,0,0,0,0,0,0,0,0,0,0,0,0,0,0,0,0,0,0,0,0,0,0,0,0,0,0,0,0,0,0,0,0,0,0,0,0,0,0,0,0,0,0,0,0,0,0,0,0,0,0,0,0,0,0,0,0,0,0,0,0,0,0,0,0,0,0,0,0,0,0,0,0,0,0,0,0,0,0,0,0,0,0,0,0,0,0,0,0,0,0,0],"id":1,"left_children":[1,3,5,7,9,11,13,15,17,19,21,23,25,27,29,31,33,35,37,39,41,43,45,47,49,51,53,55,57,59,61,63,65,67,-1,69,71,73,75,77,79,81,83,85,87,89,91,93,95,97,99,101,103,105,107,109,111,113,115,117,119,121,123,-1,-1,-1,-1,-1,-1,-1,-1,-1,-1,-1,-1,-1,-1,-1,-1,-1,-1,-1,-1,-1,-1,-1,-1,-1,-1,-1,-1,-1,-1,-1,-1,-1,-1,-1,-1,-1,-1,-1,-1,-1,-1,-1,-1,-1,-1,-1,-1,-1,-1,-1,-1,-1,-1,-1,-1,-1,-1,-1,-1,-1,-1],"loss_changes":[8.661168E3,1.3770455E3,6.6568633E3,7.542432E1,3.2928406E2,2.4914375E3,1.2112074E3,2.76062E0,5.1481262E1,1.7972015E1,2.7230557E2,9.9131104E2,2.5433203E3,2.7908362E2,2.6671564E2,1.4852295E0,7.4627686E-1,3.0969849E0,4.061798E1,3.3676147E0,3.5135803E0,4.2962006E1,7.102442E1,2.4908716E2,2.4165157E2,6.768994E2,1.1989297E3,2.822497E2,6.5627174E1,6.219948E1,4.1134644E1,6.26709E-1,1.5320587E-1,3.633728E-1,0E0,1.6620178E0,9.0408325E-1,5.8988953E0,6.641922E0,9.642868E-1,8.7080383E-1,7.4791527E-1,1.6016922E0,9.129395E0,3.8041077E0,1.4610519E1,3.321971E1,5.94794E1,4.467798E1,3.0498993E1,7.2682976E1,3.4161462E2,9.237842E1,1.3790078E3,2.4575635E2,3.5720123E1,1.0948596E2,1.14223175E1,1.0329922E1,5.7479218E1,1.7525131E1,9.99736E0,7.1314697E0,0E0,0E0,0E0,0E0,0E0,0E0,0E0,0E0,0E0,0E0,0E0,0E0,0E0,0E0,0E0,0E0,0E0,0E0,0E0,0E0,0E0,0E0,0E0,0E0,0E0,0E0,0E0,0E0,0E0,0E0,0E0,0E0,0E0,0E0,0E0,0E0,0E0,0E0,0E0,0E0,0E0,0E0,0E0,0E0,0E0,0E0,0E0,0E0,0E0,0E0,0E0,0E0,0E0,0E0,0E0,0E0,0E0,0E0,0E0,0E0,0E0,0E0],"parents":[2147483647,0,0,1,1,2,2,3,3,4,4,5,5,6,6,7,7,8,8,9,9,10,10,11,11,12,12,13,13,14,14,15,15,16,16,17,17,18,18,19,19,20,20,21,21,22,22,23,23,24,24,25,25,26,26,27,27,28,28,29,29,30,30,31,31,32,32,33,33,35,35,36,36,37,37,38,38,39,39,40,40,41,41,42,42,43,43,44,44,45,45,46,46,47,47,48,48,49,49,50,50,51,51,52,52,53,53,54,54,55,55,56,56,57,57,58,58,59,59,60,60,61,61,62,62],"right_children":[2,4,6,8,10,12,14,16,18,20,22,24,26,28,30,32,34,36,38,40,42,44,46,48,50,52,54,56,58,60,62,64,66,68,-1,70,72,74,76,78,80,82,84,86,88,90,92,94,96,98,100,102,104,106,108,110,112,114,116,118,120,122,124,-1,-1,-1,-1,-1,-1,-1,-1,-1,-1,-1,-1,-1,-1,-1,-1,-1,-1,-1,-1,-1,-1,-1,-1,-1,-1,-1,-1,-1,-1,-1,-1,-1,-1,-1,-1,-1,-1,-1,-1,-1,-1,-1,-1,-1,-1,-1,-1,-1,-1,-1,-1,-1,-1,-1,-1,-1,-1,-1,-1,-1,-1],"split_conditions":[-3.5351756E-1,-6.28692E-1,2.371902E-1,-8.534078E-1,-7.221854E-1,-1.9769423E-1,4.3346757E-1,-5.6551087E-1,-8.534078E-1,-8.534078E-1,-6.279686E-1,1.5929018E-1,-1.9771583E-1,5.045941E-1,6.235286E-1,-4.030808E-1,-8.534078E-1,-2.2090486E-1,-8.5335517E-1,-7.80512E-2,-1.773798E-1,5.29468E-2,-4.5051983E-1,-4.030808E-1,-4.2502147E-1,3.036844E-1,1.7839067E-1,0E0,-6.4077415E-2,6.235286E-1,7.123871E-1,-8.534078E-1,-2.5472638E-1,-4.2488515E-1,8.1118084E-2,-4.812413E-1,3.5661343E-2,-6.600561E-2,-7.221854E-1,-2.3127241E-1,6.926739E-2,-4.0290406E-1,-9.305042E-2,-8.5335517E-1,3.1271994E-1,-5.6536496E-1,-5.1834583E-1,-5.6536496E-1,-3.0882567E-1,-7.221854E-1,7.957177E-2,-3.4105626E-1,-5.6551087E-1,1.7840743E-1,3.036844E-1,-1.4317483E-1,3.2237005E-1,-1.9771583E-1,6.235286E-1,6.235303E-1,3.413754E-2,7.123871E-1,7.123871E-1,1.0991327E-1,1.0499672E-1,1.1852242E-1,1.3334991E-1,1.1871598E-1,1.2989731E-1,8.188175E-2,1.0617845E-1,1.1903387E-1,1.501164E-1,8.939246E-2,1.23910695E-1,6.6336624E-2,4.7212563E-2,6.746803E-2,9.7721174E-2,1.1081704E-1,1.25925E-1,2.3041962E-2,5.6101225E-2,7.5609855E-2,1.04859866E-1,7.360169E-2,4.3532014E-2,1.0028013E-1,1.4541197E-1,3.1909782E-2,1.0794792E-2,2.2259016E-2,-1.1359597E-2,5.040498E-2,-6.390304E-3,-3.166498E-2,-4.513347E-2,1.1712821E-1,6.376091E-2,-3.9166315E-3,4.2716872E-2,-5.901459E-3,-4.288742E-2,1.0169889E-1,3.300355E-2,-7.871044E-2,-4.2884808E-2,-4.9644932E-2,-1.3407705E-2,7.031157E-2,2.257035E-2,-3.337454E-2,-1.499526E-2,9.3709E-2,5.350353E-2,9.76214E-3,4.15864E-2,1.1777227E-2,4.7426436E-2,8.94064E-2,4.3722976E-2,4.5444913E-2,7.5338736E-2,7.502851E-2,9.379495E-2],"split_indices":[0,0,0,0,2,2,0,1,2,2,1,1,1,2,0,2,2,1,1,1,1,2,0,2,2,2,2,2,1,2,0,2,2,1,0,1,1,2,0,1,1,1,4,1,2,2,2,2,2,2,0,1,1,1,2,2,0,1,2,1,1,2,2,0,0,0,0,0,0,0,0,0,0,0,0,0,0,0,0,0,0,0,0,0,0,0,0,0,0,0,0,0,0,0,0,0,0,0,0,0,0,0,0,0,0,0,0,0,0,0,0,0,0,0,0,0,0,0,0,0,0,0,0,0,0],"split_type":[0,0,0,0,0,0,0,0,0,0,0,0,0,0,0,0,0,0,0,0,0,0,0,0,0,0,0,0,0,0,0,0,0,0,0,0,0,0,0,0,0,0,0,0,0,0,0,0,0,0,0,0,0,0,0,0,0,0,0,0,0,0,0,0,0,0,0,0,0,0,0,0,0,0,0,0,0,0,0,0,0,0,0,0,0,0,0,0,0,0,0,0,0,0,0,0,0,0,0,0,0,0,0,0,0,0,0,0,0,0,0,0,0,0,0,0,0,0,0,0,0,0,0,0,0],"sum_hessian":[1.78755E6,9.0401E4,1.697149E6,2.7661E4,6.274E4,1.501635E6,1.95514E5,1.3804E4,1.3857E4,4.54E3,5.82E4,1.64787E5,1.336848E6,1.39182E5,5.6332E4,1.1939E4,1.865E3,3.608E3,1.0249E4,2.386E3,2.154E3,6.812E3,5.1388E4,1.40577E5,2.421E4,1.31141E5,1.205707E6,1.30093E5,9.089E3,4.1742E4,1.459E4,1.1248E4,6.91E2,1.816E3,4.9E1,2.35E3,1.258E3,3.355E3,6.894E3,7.5E2,1.636E3,5.95E2,1.559E3,5.103E3,1.709E3,1.9682E4,3.1706E4,1.203E4,1.28547E5,7.602E3,1.6608E4,1.22149E5,8.992E3,1.08659E6,1.19117E5,6.487E3,1.23606E5,2.578E3,6.511E3,3.7135E4,4.607E3,6.948E3,7.642E3,5.723E3,5.525E3,5.17E2,1.74E2,1.274E3,5.42E2,3.12E2,2.038E3,1.15E3,1.08E2,2.816E3,5.39E2,2.698E3,4.196E3,1.24E2,6.26E2,9.14E2,7.22E2,7.2E1,5.23E2,1.358E3,2.01E2,1.187E3,3.916E3,1.514E3,1.95E2,3.612E3,1.607E4,2.912E3,2.8794E4,1.987E3,1.0043E4,2.849E4,1.00057E5,1.134E3,6.468E3,1.2664E4,3.944E3,2.9694E4,9.2455E4,2.405E3,6.587E3,9.79293E5,1.07297E5,9.8811E4,2.0306E4,2.073E3,4.414E3,7.6424E4,4.7182E4,1.166E3,1.412E3,5.406E3,1.105E3,3.2482E4,4.653E3,9.54E2,3.653E3,5.723E3,1.225E3,4.548E3,3.094E3],"tree_param":{"num_deleted":"0","num_feature":"7","num_nodes":"125","size_leaf_vector":"0"}},{"base_weights":[-1.20948E-1,7.553542E-2,-1.3312197E-1,2.005259E-1,1.3337927E-2,-1.4818355E-1,3.2409087E-3,2.422199E-1,1.3804558E-1,1.8167964E-1,-8.0124475E-4,-1.5844515E-1,-1.2074096E-2,-3.402245E-2,7.672118E-2,2.5697604E-1,2.1299638E-1,2.4959397E-1,1.1693077E-1,2.192633E-1,1.1069609E-1,1.3052656E-1,-1.9693617E-2,-1.0259503E-1,-1.7237942E-1,-5.0249394E-2,1.0187394E-1,7.434842E-2,-5.1476825E-2,5.7732143E-2,1.969833E-1,2.5413176E-1,2.9447412E-1,2.6302102E-1,1.8997376E-1,2.0970258E-1,2.811096E-1,9.548109E-2,2.475397E-1,1.286897E-1,2.3606172E-1,1.980248E-1,9.596319E-2,1.00076124E-1,2.71582E-1,2.6844664E-2,-2.8190337E-2,7.797038E-2,-1.0695332E-1,-1.8435238E-1,-1.2828282E-1,2.1623233E-2,-7.39356E-2,2.0351198E-1,6.117602E-2,1.6195315E-1,4.4295564E-2,-6.3696556E-2,7.4498914E-2,1.3687585E-1,4.516684E-2,1.6466598E-1,2.392816E-1,7.551552E-2,8.480057E-2,8.5659325E-2,9.845891E-2,6.591708E-2,8.6210325E-2,4.828024E-2,7.938689E-2,5.8773775E-2,8.4833995E-2,8.141429E-2,9.913374E-2,4.6852417E-2,2.635283E-2,6.969917E-2,1.02748156E-1,2.0820308E-2,4.306682E-2,8.03743E-2,6.0541824E-2,4.3335892E-2,7.757518E-2,1.3486473E-2,3.247957E-2,2.393897E-2,4.7033556E-2,7.79802E-2,1.19785294E-1,5.23152E-3,1.9734249E-2,5.6207096E-3,-1.1648916E-2,5.8410328E-2,1.2276541E-2,-1.1062351E-2,-3.5108216E-2,-5.9159975E-2,-3.8840093E-2,-1.9236673E-2,-4.3376558E-2,6.481421E-2,3.0598422E-3,-2.732082E-2,-1.1234592E-2,8.2540035E-2,4.9723893E-2,1.2691624E-2,5.5744547E-2,6.700854E-2,3.8150355E-2,8.976739E-3,3.849628E-2,-2.1997338E-2,-7.0189447E-3,9.545082E-3,3.6880463E-2,7.6792605E-2,3.5335854E-2,7.644639E-3,3.0834256E-2,9.193699E-2,4.694208E-2,6.5662675E-2,7.727649E-2],"categories":[],"categories_nodes":[],"categories_segments":[],"categories_sizes":[],"default_left":[0,0,0,0,0,0,0,0,0,0,0,0,0,0,0,0,0,0,0,0,0,0,0,0,0,0,0,0,0,0,0,0,0,0,0,0,0,0,0,0,0,0,0,0,0,0,0,0,0,0,0,0,0,0,0,0,0,0,0,0,0,0,0,0,0,0,0,0,0,0,0,0,0,0,0,0,0,0,0,0,0,0,0,0,0,0,0,0,0,0,0,0,0,0,0,0,0,0,0,0,0,0,0,0,0,0,0,0,0,0,0,0,0,0,0,0,0,0,0,0,0,0,0,0,0,0,0],"id":2,"left_children":[1,3,5,7,9,11,13,15,17,19,21,23,25,27,29,31,33,35,37,39,41,43,45,47,49,51,53,55,57,59,61,63,65,67,69,71,73,75,77,79,81,83,85,87,89,91,93,95,97,99,101,103,105,107,109,111,113,115,117,119,121,123,125,-1,-1,-1,-1,-1,-1,-1,-1,-1,-1,-1,-1,-1,-1,-1,-1,-1,-1,-1,-1,-1,-1,-1,-1,-1,-1,-1,-1,-1,-1,-1,-1,-1,-1,-1,-1,-1,-1,-1,-1,-1,-1,-1,-1,-1,-1,-1,-1,-1,-1,-1,-1,-1,-1,-1,-1,-1,-1,-1,-1,-1,-1,-1,-1],"loss_changes":[4.275801E3,8.1078876E2,3.4571465E3,9.0242065E1,1.6576051E2,2.1171602E3,4.5844083E2,8.907471E0,3.264389E1,1.4371292E1,1.5940291E2,1.0969453E3,4.6228403E2,2.1013942E2,1.2864322E2,1.3974609E0,7.9877014E0,2.7156982E0,3.2658875E1,5.3359222E0,2.3869495E0,3.467804E1,2.221047E1,2.2150366E2,5.955781E2,1.3551692E2,1.10302704E2,4.0566483E1,1.472966E2,4.8380493E1,1.0461639E1,8.1311035E-1,1.9792175E-1,2.2528381E0,1.0325943E1,9.3016434E-1,5.0068665E-1,4.6324615E0,2.2960968E0,4.7833633E-1,3.1909637E0,8.353529E-1,1.0003967E0,7.630867E0,2.0292587E0,3.1749187E0,2.371376E1,2.8682137E1,1.9401636E2,6.25584E2,2.5201196E2,4.3823647E1,3.742621E1,2.0578735E1,4.4786278E1,8.379356E0,1.3855783E1,3.384088E1,1.7487877E1,1.5125481E1,4.7620003E1,5.0143127E0,1.18573E0,0E0,0E0,0E0,0E0,0E0,0E0,0E0,0E0,0E0,0E0,0E0,0E0,0E0,0E0,0E0,0E0,0E0,0E0,0E0,0E0,0E0,0E0,0E0,0E0,0E0,0E0,0E0,0E0,0E0,0E0,0E0,0E0,0E0,0E0,0E0,0E0,0E0,0E0,0E0,0E0,0E0,0E0,0E0,0E0,0E0,0E0,0E0,0E0,0E0,0E0,0E0,0E0,0E0,0E0,0E0,0E0,0E0,0E0,0E0,0E0,0E0,0E0,0E0,0E0],"parents":[2147483647,0,0,1,1,2,2,3,3,4,4,5,5,6,6,7,7,8,8,9,9,10,10,11,11,12,12,13,13,14,14,15,15,16,16,17,17,18,18,19,19,20,20,21,21,22,22,23,23,24,24,25,25,26,26,27,27,28,28,29,29,30,30,31,31,32,32,33,33,34,34,35,35,36,36,37,37,38,38,39,39,40,40,41,41,42,42,43,43,44,44,45,45,46,46,47,47,48,48,49,49,50,50,51,51,52,52,53,53,54,54,55,55,56,56,57,57,58,58,59,59,60,60,61,61,62,62],"right_children":[2,4,6,8,10,12,14,16,18,20,22,24,26,28,30,32,34,36,38,40,42,44,46,48,50,52,54,56,58,60,62,64,66,68,70,72,74,76,78,80,82,84,86,88,90,92,94,96,98,100,102,104,106,108,110,112,114,116,118,120,122,124,126,-1,-1,-1,-1,-1,-1,-1,-1,-1,-1,-1,-1,-1,-1,-1,-1,-1,-1,-1,-1,-1,-1,-1,-1,-1,-1,-1,-1,-1,-1,-1,-1,-1,-1,-1,-1,-1,-1,-1,-1,-1,-1,-1,-1,-1,-1,-1,-1,-1,-1,-1,-1,-1,-1,-1,-1,-1,-1,-1,-1,-1,-1,-1,-1],"split_conditions":[-3.2909465E-1,-5.6536496E-1,2.6026815E-1,-7.221854E-1,-6.28692E-1,2.6019654E-1,4.3345323E-1,-8.534078E-1,-8.534078E-1,-7.221854E-1,-5.6551087E-1,-1.2555477E-1,4.5399177E-1,-9.52987E-2,7.1166646E-1,-4.812413E-1,-8.534078E-1,-1.7363366E-1,-1.812269E-1,-1.2554185E-1,-6.2885714E-1,1.0601091E-1,-4.8130792E-1,-4.5051983E-1,1.1662923E-1,-5.2786037E-2,-9.08063E-2,-3.6808956E-1,5.044142E-1,-9.993502E-2,7.126976E-1,-4.5051983E-1,-4.505985E-1,-3.8414258E-1,-3.5351756E-1,-2.9941487E-1,3.5661343E-2,-7.221854E-1,1.0006546E-1,-2.6134655E-1,-8.534078E-1,-3.186012E-1,-2.3671305E-1,-4.9260683E-2,3.820663E-1,-8.2193606E-2,-4.505587E-1,-6.28692E-1,-3.0878723E-1,1.1660515E-1,-6.7933775E-2,-6.279686E-1,3.5538918E-1,-3.8414258E-1,5.3579414E-1,-5.6536496E-1,2.425331E-1,3.8246346E-1,5.7239354E-1,-5.1834583E-1,5.7239354E-1,-2.4846318E-1,7.1165806E-1,7.551552E-2,8.480057E-2,8.5659325E-2,9.845891E-2,6.591708E-2,8.6210325E-2,4.828024E-2,7.938689E-2,5.8773775E-2,8.4833995E-2,8.141429E-2,9.913374E-2,4.6852417E-2,2.635283E-2,6.969917E-2,1.02748156E-1,2.0820308E-2,4.306682E-2,8.03743E-2,6.0541824E-2,4.3335892E-2,7.757518E-2,1.3486473E-2,3.247957E-2,2.393897E-2,4.7033556E-2,7.79802E-2,1.19785294E-1,5.23152E-3,1.9734249E-2,5.6207096E-3,-1.1648916E-2,5.8410328E-2,1.2276541E-2,-1.1062351E-2,-3.5108216E-2,-5.9159975E-2,-3.8840093E-2,-1.9236673E-2,-4.3376558E-2,6.481421E-2,3.0598422E-3,-2.732082E-2,-1.1234592E-2,8.2540035E-2,4.9723893E-2,1.2691624E-2,5.5744547E-2,6.700854E-2,3.8150355E-2,8.976739E-3,3.849628E-2,-2.1997338E-2,-7.0189447E-3,9.545082E-3,3.6880463E-2,7.6792605E-2,3.5335854E-2,7.644639E-3,3.0834256E-2,9.193699E-2,4.694208E-2,6.5662675E-2,7.727649E-2],"split_indices":[0,0,1,0,2,2,1,0,2,2,1,0,2,2,1,1,2,1,2,1,3,2,2,2,2,1,1,2,0,2,3,2,5,1,2,4,1,2,2,1,2,6,1,2,2,1,1,2,1,1,1,1,2,1,0,2,4,0,0,2,0,6,5,0,0,0,0,0,0,0,0,0,0,0,0,0,0,0,0,0,0,0,0,0,0,0,0,0,0,0,0,0,0,0,0,0,0,0,0,0,0,0,0,0,0,0,0,0,0,0,0,0,0,0,0,0,0,0,0,0,0,0,0,0,0,0,0],"split_type":[0,0,0,0,0,0,0,0,0,0,0,0,0,0,0,0,0,0,0,0,0,0,0,0,0,0,0,0,0,0,0,0,0,0,0,0,0,0,0,0,0,0,0,0,0,0,0,0,0,0,0,0,0,0,0,0,0,0,0,0,0,0,0,0,0,0,0,0,0,0,0,0,0,0,0,0,0,0,0,0,0,0,0,0,0,0,0,0,0,0,0,0,0,0,0,0,0,0,0,0,0,0,0,0,0,0,0,0,0,0,0,0,0,0,0,0,0,0,0,0,0,0,0,0,0,0,0],"sum_hessian":[1.78755E6,1.04293E5,1.683257E6,3.4653E4,6.964E4,1.51583E6,1.67427E5,2.0782E4,1.3871E4,5.395E3,6.4245E4,1.40956E6,1.0627E5,1.11091E5,5.6336E4,1.3804E4,6.978E3,2.206E3,1.1665E4,3.526E3,1.869E3,8.079E3,5.6166E4,2.81457E5,1.128103E6,7.9602E4,2.6668E4,1.541E4,9.5681E4,4.8655E4,7.681E3,1.2838E4,9.66E2,2.196E3,4.782E3,9.77E2,1.229E3,1.0021E4,1.644E3,5.53E2,2.973E3,2.68E2,1.601E3,6.646E3,1.433E3,8.671E3,4.7495E4,6.633E3,2.74824E5,8.87208E5,2.40895E5,1.9731E4,5.9871E4,7.624E3,1.9044E4,3.935E3,1.1475E4,8.7221E4,8.46E3,6.665E3,4.199E4,4.357E3,3.324E3,1.1846E4,9.92E2,7.71E2,1.95E2,7.94E2,1.402E3,3.445E3,1.337E3,8.25E2,1.52E2,1.032E3,1.97E2,1.118E3,8.903E3,1.42E3,2.24E2,1.12E2,4.41E2,1.537E3,1.436E3,1.44E2,1.24E2,3.12E2,1.289E3,4.897E3,1.749E3,1.316E3,1.17E2,6.985E3,1.686E3,8.778E3,3.8717E4,1.597E3,5.036E3,3.4542E4,2.40282E5,7.18921E5,1.68287E5,4.8816E4,1.92079E5,1.094E3,1.8637E4,4.0739E4,1.9132E4,2.63E3,4.994E3,1.6541E4,2.503E3,1.421E3,2.514E3,9.8E3,1.675E3,7.0401E4,1.682E4,4.498E3,3.962E3,9.19E2,5.746E3,3.1298E4,1.0692E4,2.36E2,4.121E3,1.578E3,1.746E3],"tree_param":{"num_deleted":"0","num_feature":"7","num_nodes":"127","size_leaf_vector":"0"}},{"base_weights":[-8.466218E-2,4.4910077E-2,-9.382738E-2,1.2867165E-1,-5.303827E-4,-1.0558591E-1,-4.974279E-3,1.6958398E-1,8.7688066E-2,1.2953179E-1,-8.570195E-3,-1.1412211E-1,-1.8299973E-2,-3.369264E-2,4.6110965E-2,1.8281417E-1,1.5007818E-1,1.7525105E-1,7.43455E-2,1.6103852E-1,7.35002E-2,7.991819E-2,-2.1842116E-2,-6.6169925E-2,-1.24268085E-1,-4.529613E-2,6.277051E-2,3.7072826E-2,-4.7603242E-2,2.2973796E-2,9.8438576E-2,1.7747185E-1,1.9554667E-1,1.8354712E-1,1.3023461E-1,1.178669E-1,1.8730922E-1,6.057676E-2,1.8067701E-1,9.5579356E-2,1.7632101E-1,1.5802151E-1,6.1158188E-2,5.4702103E-2,1.8766755E-1,9.58554E-3,-2.8252512E-2,-8.1739396E-2,-1.2487328E-2,-6.2003326E-2,-1.3366584E-1,7.4250606E-4,-6.4683974E-2,1.21147156E-1,2.6343036E-2,1.13526285E-1,1.8403381E-2,-6.0215484E-2,2.0430064E-2,7.573598E-2,7.831536E-3,8.135868E-2,1.5155107E-1,5.1743574E-2,5.9116036E-2,6.0485817E-2,3.68651E-2,5.406275E-2,7.7020094E-2,4.8676338E-2,3.0486409E-2,2.9820692E-2,5.529198E-2,5.3171072E-2,6.586448E-2,3.1453382E-2,1.5982077E-2,5.135632E-2,7.8700975E-2,4.3431118E-2,2.2757871E-2,5.972078E-2,4.7096312E-2,1.0891705E-2,5.3886604E-2,2.2492599E-2,9.490086E-3,1.2942677E-2,2.797956E-2,4.8194353E-2,7.589561E-2,1.2642569E-4,1.291881E-2,-9.022258E-3,1.9026317E-2,-1.7379308E-2,-2.7265308E-2,2.4375053E-2,-8.039175E-3,-2.5074309E-2,-7.5606923E-3,-4.301561E-2,-3.2042325E-2,2.8826298E-2,-3.352149E-3,-2.1749962E-2,-1.2482182E-2,2.4347002E-2,4.995643E-2,2.2676238E-3,3.2136124E-2,2.5760924E-2,5.427169E-2,3.6784215E-3,3.2645255E-2,-8.921976E-3,-2.00161E-2,-8.0844824E-4,2.3176083E-2,5.0298717E-2,1.9175893E-2,-2.286045E-3,1.594397E-2,3.5904914E-2,1.7500496E-2,4.2030815E-2,5.9252E-2],"categories":[],"categories_nodes":[],"categories_segments":[],"categories_sizes":[],"default_left":[0,0,0,0,0,0,0,0,0,0,0,0,0,0,0,0,0,0,0,0,0,0,0,0,0,0,0,0,0,0,0,0,0,0,0,0,0,0,0,0,0,0,0,0,0,0,0,0,0,0,0,0,0,0,0,0,0,0,0,0,0,0,0,0,0,0,0,0,0,0,0,0,0,0,0,0,0,0,0,0,0,0,0,0,0,0,0,0,0,0,0,0,0,0,0,0,0,0,0,0,0,0,0,0,0,0,0,0,0,0,0,0,0,0,0,0,0,0,0,0,0,0,0,0,0,0,0],"id":3,"left_children":[1,3,5,7,9,11,13,15,17,19,21,23,25,27,29,31,33,35,37,39,41,43,45,47,49,51,53,55,57,59,61,63,65,67,69,71,73,75,77,79,81,83,85,87,89,91,93,95,97,99,101,103,105,107,109,111,113,115,117,119,121,123,125,-1,-1,-1,-1,-1,-1,-1,-1,-1,-1,-1,-1,-1,-1,-1,-1,-1,-1,-1,-1,-1,-1,-1,-1,-1,-1,-1,-1,-1,-1,-1,-1,-1,-1,-1,-1,-1,-1,-1,-1,-1,-1,-1,-1,-1,-1,-1,-1,-1,-1,-1,-1,-1,-1,-1,-1,-1,-1,-1,-1,-1,-1,-1,-1],"loss_changes":[2.1228223E3,4.4946625E2,1.7442236E3,6.962323E1,8.005594E1,1.0985234E3,2.862473E2,5.3359375E0,2.4229507E1,7.85643E0,8.467912E1,6.533965E2,2.8745685E2,1.2295114E2,8.5006714E1,8.07312E-1,5.5582275E0,1.8759384E0,2.6353683E1,2.8362274E0,1.6656561E0,2.5540562E1,1.2631847E1,1.9602905E2,6.4861523E2,8.7948715E1,6.976985E1,2.9285576E1,8.956561E1,3.889813E1,1.9516006E1,8.1973267E-1,1.5853882E0,7.1739197E-1,4.821007E0,5.693083E-1,6.96579E-1,5.1493683E0,1.5544739E0,5.147772E-1,9.851227E-1,5.29819E-1,5.699754E-1,3.3937397E0,3.106121E0,3.2589986E0,8.698757E0,3.9579346E1,7.073429E1,1.154303E2,2.5140039E2,3.317595E1,1.2502411E1,2.2862381E1,3.0657158E1,7.488697E0,9.157583E0,1.7454315E1,2.1451885E1,1.178252E1,2.649013E1,1.4367683E1,2.7276E0,0E0,0E0,0E0,0E0,0E0,0E0,0E0,0E0,0E0,0E0,0E0,0E0,0E0,0E0,0E0,0E0,0E0,0E0,0E0,0E0,0E0,0E0,0E0,0E0,0E0,0E0,0E0,0E0,0E0,0E0,0E0,0E0,0E0,0E0,0E0,0E0,0E0,0E0,0E0,0E0,0E0,0E0,0E0,0E0,0E0,0E0,0E0,0E0,0E0,0E0,0E0,0E0,0E0,0E0,0E0,0E0,0E0,0E0,0E0,0E0,0E0,0E0,0E0,0E0],"parents":[2147483647,0,0,1,1,2,2,3,3,4,4,5,5,6,6,7,7,8,8,9,9,10,10,11,11,12,12,13,13,14,14,15,15,16,16,17,17,18,18,19,19,20,20,21,21,22,22,23,23,24,24,25,25,26,26,27,27,28,28,29,29,30,30,31,31,32,32,33,33,34,34,35,35,36,36,37,37,38,38,39,39,40,40,41,41,42,42,43,43,44,44,45,45,46,46,47,47,48,48,49,49,50,50,51,51,52,52,53,53,54,54,55,55,56,56,57,57,58,58,59,59,60,60,61,61,62,62],"right_children":[2,4,6,8,10,12,14,16,18,20,22,24,26,28,30,32,34,36,38,40,42,44,46,48,50,52,54,56,58,60,62,64,66,68,70,72,74,76,78,80,82,84,86,88,90,92,94,96,98,100,102,104,106,108,110,112,114,116,118,120,122,124,126,-1,-1,-1,-1,-1,-1,-1,-1,-1,-1,-1,-1,-1,-1,-1,-1,-1,-1,-1,-1,-1,-1,-1,-1,-1,-1,-1,-1,-1,-1,-1,-1,-1,-1,-1,-1,-1,-1,-1,-1,-1,-1,-1,-1,-1,-1,-1,-1,-1,-1,-1,-1,-1,-1,-1,-1,-1,-1,-1,-1,-1,-1,-1,-1],"split_conditions":[-3.087338E-1,-5.1834583E-1,2.3719464E-1,-7.221854E-1,-6.28692E-1,2.2698145E-1,3.9765203E-1,-8.534078E-1,-8.534078E-1,-7.221854E-1,-5.178314E-1,-1.3712025E-1,4.143902E-1,-6.790889E-2,5.724584E-1,-7.2211105E-1,-8.534078E-1,-2.5471967E-1,-1.4011277E-1,-5.8367632E-2,-6.2885714E-1,7.957177E-2,-4.5051983E-1,4.3481167E-2,-1.4953472E-1,-3.2018352E-2,-2.0711998E-2,-3.6808956E-1,4.1456866E-1,1.8870428E-2,7.121622E-1,-5.1834583E-1,-8.534078E-1,-1.700295E-1,-8.5335517E-1,-4.03089E-1,-1.2806996E-2,-7.2211105E-1,1.6529591E-1,-6.2885714E-1,-8.534078E-1,-2.9091957E-1,-3.842459E-1,-4.389471E-2,-3.5351756E-1,-7.3915735E-2,-3.5182673E-3,-2.3676924E-1,-3.6808956E-1,3.56683E-2,9.054067E-2,-3.8414258E-1,3.3233505E-1,5.3579414E-1,6.235286E-1,-3.870584E-2,2.0047297E-1,2.0376015E-2,5.3579414E-1,-1.1477501E-1,5.3579414E-1,9.624045E-2,7.123871E-1,5.1743574E-2,5.9116036E-2,6.0485817E-2,3.68651E-2,5.406275E-2,7.7020094E-2,4.8676338E-2,3.0486409E-2,2.9820692E-2,5.529198E-2,5.3171072E-2,6.586448E-2,3.1453382E-2,1.5982077E-2,5.135632E-2,7.8700975E-2,4.3431118E-2,2.2757871E-2,5.972078E-2,4.7096312E-2,1.0891705E-2,5.3886604E-2,2.2492599E-2,9.490086E-3,1.2942677E-2,2.797956E-2,4.8194353E-2,7.589561E-2,1.2642569E-4,1.291881E-2,-9.022258E-3,1.9026317E-2,-1.7379308E-2,-2.7265308E-2,2.4375053E-2,-8.039175E-3,-2.5074309E-2,-7.5606923E-3,-4.301561E-2,-3.2042325E-2,2.8826298E-2,-3.352149E-3,-2.1749962E-2,-1.2482182E-2,2.4347002E-2,4.995643E-2,2.2676238E-3,3.2136124E-2,2.5760924E-2,5.427169E-2,3.6784215E-3,3.2645255E-2,-8.921976E-3,-2.00161E-2,-8.0844824E-4,2.3176083E-2,5.0298717E-2,1.9175893E-2,-2.286045E-3,1.594397E-2,3.5904914E-2,1.7500496E-2,4.2030815E-2,5.9252E-2],"split_indices":[0,0,1,0,2,2,1,4,2,2,1,2,2,2,1,1,2,1,2,1,3,2,2,1,1,1,1,2,0,2,6,2,2,1,1,4,1,1,2,3,2,4,0,2,0,1,2,0,2,2,2,1,2,2,2,0,0,2,0,3,0,2,2,0,0,0,0,0,0,0,0,0,0,0,0,0,0,0,0,0,0,0,0,0,0,0,0,0,0,0,0,0,0,0,0,0,0,0,0,0,0,0,0,0,0,0,0,0,0,0,0,0,0,0,0,0,0,0,0,0,0,0,0,0,0,0,0],"split_type":[0,0,0,0,0,0,0,0,0,0,0,0,0,0,0,0,0,0,0,0,0,0,0,0,0,0,0,0,0,0,0,0,0,0,0,0,0,0,0,0,0,0,0,0,0,0,0,0,0,0,0,0,0,0,0,0,0,0,0,0,0,0,0,0,0,0,0,0,0,0,0,0,0,0,0,0,0,0,0,0,0,0,0,0,0,0,0,0,0,0,0,0,0,0,0,0,0,0,0,0,0,0,0,0,0,0,0,0,0,0,0,0,0,0,0,0,0,0,0,0,0,0,0,0,0,0,0],"sum_hessian":[1.78755E6,1.18088E5,1.669462E6,4.1531E4,7.6557E4,1.474351E6,1.95111E5,2.0782E4,2.0749E4,4.456E3,7.2101E4,1.34301E6,1.31341E5,1.24898E5,7.0213E4,1.2378E4,8.404E3,2.742E3,1.8007E4,2.851E3,1.605E3,9.403E3,6.2698E4,2.34538E5,1.108472E6,9.8531E4,3.281E4,2.0518E4,1.0438E5,4.8687E4,2.1526E4,8.73E3,3.648E3,3.125E3,5.279E3,4.78E2,2.264E3,1.5944E4,2.063E3,5.41E2,2.31E3,2.03E2,1.402E3,7.621E3,1.782E3,1.0622E4,5.2076E4,1.81808E5,5.273E4,1.45365E5,9.63107E5,2.9198E4,6.9333E4,1.2606E4,2.0204E4,4.026E3,1.6492E4,8.8056E4,1.6324E4,1.0856E4,3.7831E4,1.629E4,5.236E3,6.964E3,1.766E3,3.365E3,2.83E2,2.992E3,1.33E2,2.489E3,2.79E3,3.76E2,1.02E2,1.73E3,5.34E2,2.256E3,1.3688E4,1.851E3,2.12E2,1.53E2,3.88E2,1.057E3,1.253E3,3.1E1,1.72E2,9.54E2,4.48E2,5.865E3,1.756E3,1.263E3,5.19E2,8.34E3,2.282E3,5.1062E4,1.014E3,5.0456E4,1.31352E5,6.983E3,4.5747E4,9.1635E4,5.373E4,7.07184E5,2.55923E5,3.243E3,2.5955E4,5.179E4,1.7543E4,6.702E3,5.904E3,1.6393E4,3.811E3,2.856E3,1.17E3,1.5444E4,1.048E3,1.549E4,7.2566E4,1.1603E4,4.721E3,1.235E3,9.621E3,2.8212E4,9.619E3,6.112E3,1.0178E4,4.195E3,1.041E3],"tree_param":{"num_deleted":"0","num_feature":"7","num_nodes":"127","size_leaf_vector":"0"}},{"base_weights":[-5.926264E-2,5.6851007E-2,-6.4441286E-2,1.1328561E-1,2.4768176E-2,-7.315436E-2,-6.337008E-3,1.2376483E-1,8.161365E-2,1.66764E-2,1.3007765E-1,7.3989015E-3,-7.9239935E-2,-2.5230473E-2,3.476162E-2,1.20096356E-1,1.7847198E-1,7.24528E-2,2.0198825E-1,1.0336245E-1,8.449086E-3,1.17020145E-1,2.1886387E-1,8.9047536E-2,-1.5964247E-2,-4.821388E-2,-8.769129E-2,4.668444E-2,-3.0588292E-2,2.4353405E-2,1.23463646E-1,1.2836681E-1,1.0095956E-1,2.681035E-1,1.6131443E-1,1.11952774E-1,5.7157833E-2,1.8169247E-1,2.7134115E-1,1.3116981E-1,7.985093E-2,6.559972E-3,1.4602834E-1,2.4998987E-1,1.0672102E-1,3.1293875E-1,1.9270393E-1,6.445888E-2,1.3454282E-1,-2.59765E-2,2.7250329E-2,-5.934596E-2,-3.7594368E-3,-5.6758136E-2,-9.517978E-2,1.0792422E-1,3.3715785E-2,2.5615253E-2,-3.895413E-2,9.477133E-2,1.7799946E-2,9.498484E-2,1.5897468E-1,3.8065292E-2,5.363442E-2,3.528691E-2,2.4763452E-2,7.4592166E-2,1.2018805E-1,4.5964606E-2,7.7148445E-2,3.1982616E-2,6.8711884E-2,1.5820518E-2,3.3719435E-2,5.702283E-2,1.9606512E-2,8.654397E-2,3.7171695E-2,4.2480126E-2,3.19333E-2,2.920481E-2,1.7792098E-2,8.709935E-3,-5.436273E-4,6.0292713E-2,1.6542869E-2,4.3120384E-2,9.519688E-2,4.8966087E-2,2.8205452E-2,6.1995916E-2,1.0563042E-1,7.172719E-2,4.915948E-2,3.4758963E-2,1.4213214E-2,5.0870407E-2,3.1724975E-2,2.0790815E-3,-9.153471E-3,6.180108E-3,4.3549273E-2,-1.2716862E-2,-2.0342328E-2,-3.0346438E-3,1.9610653E-2,-2.2176988E-2,-7.450684E-3,-3.357282E-2,-2.1685017E-2,2.674269E-2,4.9568344E-2,9.354879E-3,3.376162E-2,4.723221E-3,2.7112432E-2,-1.4208356E-2,-7.668574E-3,2.5920112E-2,4.5176983E-2,2.8163137E-2,3.5798205E-3,1.9574028E-2,3.6965948E-2,8.235662E-2,4.661118E-2],"categories":[],"categories_nodes":[],"categories_segments":[],"categories_sizes":[],"default_left":[0,0,0,0,0,0,0,0,0,0,0,0,0,0,0,0,0,0,0,0,0,0,0,0,0,0,0,0,0,0,0,0,0,0,0,0,0,0,0,0,0,0,0,0,0,0,0,0,0,0,0,0,0,0,0,0,0,0,0,0,0,0,0,0,0,0,0,0,0,0,0,0,0,0,0,0,0,0,0,0,0,0,0,0,0,0,0,0,0,0,0,0,0,0,0,0,0,0,0,0,0,0,0,0,0,0,0,0,0,0,0,0,0,0,0,0,0,0,0,0,0,0,0,0,0,0,0],"id":4,"left_children":[1,3,5,7,9,11,13,15,17,19,21,23,25,27,29,31,33,35,37,39,41,43,45,47,49,51,53,55,57,59,61,63,65,67,69,71,73,75,77,79,81,83,85,87,89,91,93,95,97,99,101,103,105,107,109,111,113,115,117,119,121,123,125,-1,-1,-1,-1,-1,-1,-1,-1,-1,-1,-1,-1,-1,-1,-1,-1,-1,-1,-1,-1,-1,-1,-1,-1,-1,-1,-1,-1,-1,-1,-1,-1,-1,-1,-1,-1,-1,-1,-1,-1,-1,-1,-1,-1,-1,-1,-1,-1,-1,-1,-1,-1,-1,-1,-1,-1,-1,-1,-1,-1,-1,-1,-1,-1],"loss_changes":[1.0748779E3,1.381826E2,8.6633887E2,9.170837E0,4.1462997E1,7.29478E2,1.7327429E2,4.149536E0,7.572174E0,3.222762E1,3.999569E0,1.993901E2,3.6278223E2,5.890409E1,6.487881E1,3.07016E0,1.9621162E0,3.8571472E0,6.34779E-1,2.550434E0,1.072601E1,4.1214485E0,1.0323753E0,2.6005936E1,3.5164658E1,1.4657843E2,2.51875E2,8.414854E0,6.689632E1,2.9024551E1,7.448387E0,9.936218E-1,1.7955055E0,4.3688202E-1,8.121681E-1,1.0918617E0,1.1208563E0,3.5722733E-1,2.3715639E-1,4.4734573E-1,7.581358E-1,7.6604404E0,2.7805157E0,1.5069141E0,2.0035515E0,3.2266712E-1,4.2903233E-1,1.3251511E1,8.2092285E0,9.8473015E0,1.1984695E1,3.3984802E1,2.6064377E1,1.1612787E2,3.353247E2,1.9785271E0,1.7432032E0,1.1782566E1,1.39418335E1,2.4891434E0,2.5684269E1,3.4328613E0,1.3245316E0,0E0,0E0,0E0,0E0,0E0,0E0,0E0,0E0,0E0,0E0,0E0,0E0,0E0,0E0,0E0,0E0,0E0,0E0,0E0,0E0,0E0,0E0,0E0,0E0,0E0,0E0,0E0,0E0,0E0,0E0,0E0,0E0,0E0,0E0,0E0,0E0,0E0,0E0,0E0,0E0,0E0,0E0,0E0,0E0,0E0,0E0,0E0,0E0,0E0,0E0,0E0,0E0,0E0,0E0,0E0,0E0,0E0,0E0,0E0,0E0,0E0,0E0,0E0,0E0],"parents":[2147483647,0,0,1,1,2,2,3,3,4,4,5,5,6,6,7,7,8,8,9,9,10,10,11,11,12,12,13,13,14,14,15,15,16,16,17,17,18,18,19,19,20,20,21,21,22,22,23,23,24,24,25,25,26,26,27,27,28,28,29,29,30,30,31,31,32,32,33,33,34,34,35,35,36,36,37,37,38,38,39,39,40,40,41,41,42,42,43,43,44,44,45,45,46,46,47,47,48,48,49,49,50,50,51,51,52,52,53,53,54,54,55,55,56,56,57,57,58,58,59,59,60,60,61,61,62,62],"right_children":[2,4,6,8,10,12,14,16,18,20,22,24,26,28,30,32,34,36,38,40,42,44,46,48,50,52,54,56,58,60,62,64,66,68,70,72,74,76,78,80,82,84,86,88,90,92,94,96,98,100,102,104,106,108,110,112,114,116,118,120,122,124,126,-1,-1,-1,-1,-1,-1,-1,-1,-1,-1,-1,-1,-1,-1,-1,-1,-1,-1,-1,-1,-1,-1,-1,-1,-1,-1,-1,-1,-1,-1,-1,-1,-1,-1,-1,-1,-1,-1,-1,-1,-1,-1,-1,-1,-1,-1,-1,-1,-1,-1,-1,-1,-1,-1,-1,-1,-1,-1,-1,-1,-1,-1,-1,-1],"split_conditions":[-3.842459E-1,-6.28692E-1,2.175704E-1,-7.221854E-1,-6.795229E-2,-2.8307706E-1,3.975581E-1,-3.2909465E-1,-1.2555477E-1,-7.2211105E-1,1.5354548E-1,-5.178314E-1,-1.1220651E-1,3.413754E-2,7.123871E-1,-8.534078E-1,-8.534078E-1,-7.219082E-1,3.1064583E-2,-8.548921E-1,1.6232266E-1,-3.6828262E-1,-3.842159E-1,3.1048108E-2,8.5012235E-2,7.610943E-2,-8.861037E-2,-1.773798E-1,7.957177E-2,1.6227905E-1,7.123871E-1,1.623194E-1,-7.219082E-1,4.774533E-1,-9.993584E-2,4.19034E-2,-3.3699304E-2,6.235303E-1,7.1166646E-1,-8.534078E-1,-7.219082E-1,-5.1834583E-1,-4.506059E-1,2.8777194E-1,2.6026815E-1,1.8904267E-1,5.724584E-1,-6.28692E-1,-7.2211105E-1,-4.505587E-1,5.045941E-1,-2.2601943E-1,1.8186428E-1,6.430478E-2,7.097501E-2,7.123871E-1,5.3578323E-1,3.8216212E-1,3.0367738E-1,7.126976E-1,1.3271163E-1,7.1166646E-1,-3.2018352E-2,3.8065292E-2,5.363442E-2,3.528691E-2,2.4763452E-2,7.4592166E-2,1.2018805E-1,4.5964606E-2,7.7148445E-2,3.1982616E-2,6.8711884E-2,1.5820518E-2,3.3719435E-2,5.702283E-2,1.9606512E-2,8.654397E-2,3.7171695E-2,4.2480126E-2,3.19333E-2,2.920481E-2,1.7792098E-2,8.709935E-3,-5.436273E-4,6.0292713E-2,1.6542869E-2,4.3120384E-2,9.519688E-2,4.8966087E-2,2.8205452E-2,6.1995916E-2,1.0563042E-1,7.172719E-2,4.915948E-2,3.4758963E-2,1.4213214E-2,5.0870407E-2,3.1724975E-2,2.0790815E-3,-9.153471E-3,6.180108E-3,4.3549273E-2,-1.2716862E-2,-2.0342328E-2,-3.0346438E-3,1.9610653E-2,-2.2176988E-2,-7.450684E-3,-3.357282E-2,-2.1685017E-2,2.674269E-2,4.9568344E-2,9.354879E-3,3.376162E-2,4.723221E-3,2.7112432E-2,-1.4208356E-2,-7.668574E-3,2.5920112E-2,4.5176983E-2,2.8163137E-2,3.5798205E-3,1.9574028E-2,3.6965948E-2,8.235662E-2,4.661118E-2],"split_indices":[2,2,0,2,0,1,0,0,0,1,0,1,2,1,4,2,2,3,0,5,4,3,6,2,2,1,1,1,2,2,2,1,3,5,0,4,4,1,1,4,3,2,3,4,1,0,1,0,1,1,2,2,4,2,0,2,4,4,0,3,1,1,1,0,0,0,0,0,0,0,0,0,0,0,0,0,0,0,0,0,0,0,0,0,0,0,0,0,0,0,0,0,0,0,0,0,0,0,0,0,0,0,0,0,0,0,0,0,0,0,0,0,0,0,0,0,0,0,0,0,0,0,0,0,0,0,0],"split_type":[0,0,0,0,0,0,0,0,0,0,0,0,0,0,0,0,0,0,0,0,0,0,0,0,0,0,0,0,0,0,0,0,0,0,0,0,0,0,0,0,0,0,0,0,0,0,0,0,0,0,0,0,0,0,0,0,0,0,0,0,0,0,0,0,0,0,0,0,0,0,0,0,0,0,0,0,0,0,0,0,0,0,0,0,0,0,0,0,0,0,0,0,0,0,0,0,0,0,0,0,0,0,0,0,0,0,0,0,0,0,0,0,0,0,0,0,0,0,0,0,0,0,0,0,0,0,0],"sum_hessian":[1.78755E6,7.632E4,1.71123E6,2.7661E4,4.8659E4,1.488083E6,2.23147E5,2.0782E4,6.879E3,4.5188E4,3.471E3,1.04524E5,1.383559E6,1.52871E5,7.0276E4,1.9479E4,1.303E3,6.394E3,4.85E2,3.916E3,4.1272E4,3.028E3,4.43E2,2.3254E4,8.127E4,2.96195E5,1.087364E6,1.0599E4,1.42272E5,6.2897E4,7.379E3,1.3597E4,5.882E3,2.07E2,1.096E3,1.783E3,4.611E3,3.78E2,1.07E2,1.792E3,2.124E3,4.0714E4,5.58E2,2.16E2,2.812E3,9.4E1,3.49E2,1.5097E4,8.157E3,6.5983E4,1.5287E4,2.36877E5,5.9318E4,2.11932E5,8.75432E5,1.851E3,8.748E3,1.8433E4,1.23839E5,5.354E3,5.7543E4,4.097E3,3.282E3,1.3212E4,3.85E2,3.085E3,2.797E3,1.83E2,2.4E1,1.013E3,8.3E1,1.707E3,7.6E1,4.271E3,3.4E2,3.52E2,2.6E1,9.5E1,1.2E1,1.257E3,5.35E2,1.145E3,9.79E2,1.105E4,2.9664E4,3.47E2,2.11E2,8.5E1,1.31E2,5.14E2,2.298E3,2.7E1,6.7E1,1.31E2,2.18E2,3.764E3,1.1333E4,3.678E3,4.479E3,7.992E3,5.7991E4,1.4472E4,8.15E2,7.8859E4,1.58018E5,5.4324E4,4.994E3,1.37822E5,7.411E4,5.05833E5,3.69599E5,1.396E3,4.55E2,8.477E3,2.71E2,1.5996E4,2.437E3,7.6078E4,4.7761E4,4.658E3,6.96E2,4.119E3,5.3424E4,1.997E3,2.1E3,9.7E1,3.185E3],"tree_param":{"num_deleted":"0","num_feature":"7","num_nodes":"127","size_leaf_vector":"0"}},{"base_weights":[-4.1482717E-2,1.6937036E-2,-4.6677705E-2,6.437807E-2,-1.9274406E-3,-5.3710304E-2,-4.8639867E-3,8.433741E-2,4.438388E-2,-6.082522E-3,6.948632E-2,-5.9161786E-2,-6.9953203E-3,-1.9882046E-2,2.2361396E-2,9.23965E-2,7.312285E-2,3.9187178E-2,1.0281904E-1,-1.1029875E-2,5.2038636E-2,4.7714543E-2,1.20297365E-1,-4.0963627E-2,-6.748233E-2,-2.1302216E-2,3.4731627E-2,1.6629584E-2,-3.0437104E-2,1.4013429E-2,6.2091816E-2,9.023157E-2,1.426043E-1,9.006401E-2,6.2884696E-2,2.7597317E-2,7.332943E-2,1.0057763E-1,2.6128903E-1,1.0773804E-2,-1.6490085E-2,9.2312306E-2,3.1930707E-2,4.37737E-2,1.17291346E-1,8.231315E-2,1.6266555E-1,-4.5069605E-2,-4.076818E-3,-7.4167214E-2,-4.9081754E-2,2.751565E-3,-3.67242E-2,6.197572E-2,1.3435411E-2,1.0692413E-1,1.2781948E-2,-3.5343457E-2,2.4158252E-2,4.3796476E-2,3.1714134E-3,1.6516328E-1,5.7482146E-2,2.6728025E-2,4.509868E-2,4.0071595E-2,5.7765625E-2,2.6348922E-2,4.315114E-2,2.4069387E-2,1.3992596E-2,1.3630043E-2,5.9411456E-3,2.4824837E-2,1.1288578E-2,3.3655312E-2,2.4024403E-2,3.1769477E-2,8.652879E-2,1.7744071E-3,1.1791469E-2,5.3746905E-3,-5.6331805E-3,2.6381228E-2,5.7180844E-2,3.0263346E-2,8.216214E-3,1.2965343E-2,8.208587E-2,7.9325244E-2,3.0000705E-2,2.1956958E-2,5.1346272E-2,5.6317482E-2,1.9159041E-2,-1.4995093E-2,-3.8730423E-3,1.833767E-2,-3.1131848E-3,-2.5582582E-2,-1.5467296E-2,-4.070956E-3,-1.766751E-2,2.8920691E-2,1.610516E-4,-1.4319646E-2,-8.076298E-3,1.4789204E-2,3.3052858E-2,1.5463511E-3,2.6633902E-2,2.132111E-2,3.9878335E-2,3.4401845E-2,3.341537E-3,-1.1894888E-2,-5.541734E-3,2.7919428E-3,1.9285835E-2,6.2103573E-2,1.2231318E-2,-2.0879928E-3,9.32842E-3,7.0435636E-2,4.26146E-2,1.2982782E-2,2.6706995E-2],"categories":[],"categories_nodes":[],"categories_segments":[],"categories_sizes":[],"default_left":[0,0,0,0,0,0,0,0,0,0,0,0,0,0,0,0,0,0,0,0,0,0,0,0,0,0,0,0,0,0,0,0,0,0,0,0,0,0,0,0,0,0,0,0,0,0,0,0,0,0,0,0,0,0,0,0,0,0,0,0,0,0,0,0,0,0,0,0,0,0,0,0,0,0,0,0,0,0,0,0,0,0,0,0,0,0,0,0,0,0,0,0,0,0,0,0,0,0,0,0,0,0,0,0,0,0,0,0,0,0,0,0,0,0,0,0,0,0,0,0,0,0,0,0,0,0,0],"id":5,"left_children":[1,3,5,7,9,11,13,15,17,19,21,23,25,27,29,31,33,35,37,39,41,43,45,47,49,51,53,55,57,59,61,63,65,67,69,71,73,75,77,79,81,83,85,87,89,91,93,95,97,99,101,103,105,107,109,111,113,115,117,119,121,123,125,-1,-1,-1,-1,-1,-1,-1,-1,-1,-1,-1,-1,-1,-1,-1,-1,-1,-1,-1,-1,-1,-1,-1,-1,-1,-1,-1,-1,-1,-1,-1,-1,-1,-1,-1,-1,-1,-1,-1,-1,-1,-1,-1,-1,-1,-1,-1,-1,-1,-1,-1,-1,-1,-1,-1,-1,-1,-1,-1,-1,-1,-1,-1,-1],"loss_changes":[5.425044E2,1.3064316E2,4.8271924E2,1.6570496E1,3.0992981E1,3.5786377E2,9.663539E1,1.871582E0,6.297123E0,2.8382788E1,6.347433E0,1.9053955E2,8.7667694E1,5.870272E1,2.786723E1,1.3011627E0,1.5024529E0,7.538906E0,5.754204E-1,1.0829565E1,6.2674904E0,1.0976639E0,2.757862E0,5.9799927E1,1.0621777E2,4.056648E1,2.1753624E1,1.1866521E1,3.1652473E1,2.2421318E1,6.9221153E0,7.7950287E-1,1.9895077E-1,3.8059807E-1,1.5242195E0,1.9770174E0,1.6208935E0,3.887787E-1,6.645489E-2,2.5254347E0,5.724882E0,1.0918045E0,1.6154833E0,4.7472E-1,5.204451E-1,7.250495E-1,2.0009346E0,5.614624E1,1.6247574E1,1.5907886E2,8.0167786E1,8.861158E0,7.1893997E0,1.0047222E1,1.3130536E1,1.2920837E0,5.485444E0,7.8759003E0,5.8065333E0,9.142059E0,1.4401625E1,9.7084427E-1,6.254032E0,0E0,0E0,0E0,0E0,0E0,0E0,0E0,0E0,0E0,0E0,0E0,0E0,0E0,0E0,0E0,0E0,0E0,0E0,0E0,0E0,0E0,0E0,0E0,0E0,0E0,0E0,0E0,0E0,0E0,0E0,0E0,0E0,0E0,0E0,0E0,0E0,0E0,0E0,0E0,0E0,0E0,0E0,0E0,0E0,0E0,0E0,0E0,0E0,0E0,0E0,0E0,0E0,0E0,0E0,0E0,0E0,0E0,0E0,0E0,0E0,0E0,0E0,0E0,0E0],"parents":[2147483647,0,0,1,1,2,2,3,3,4,4,5,5,6,6,7,7,8,8,9,9,10,10,11,11,12,12,13,13,14,14,15,15,16,16,17,17,18,18,19,19,20,20,21,21,22,22,23,23,24,24,25,25,26,26,27,27,28,28,29,29,30,30,31,31,32,32,33,33,34,34,35,35,36,36,37,37,38,38,39,39,40,40,41,41,42,42,43,43,44,44,45,45,46,46,47,47,48,48,49,49,50,50,51,51,52,52,53,53,54,54,55,55,56,56,57,57,58,58,59,59,60,60,61,61,62,62],"right_children":[2,4,6,8,10,12,14,16,18,20,22,24,26,28,30,32,34,36,38,40,42,44,46,48,50,52,54,56,58,60,62,64,66,68,70,72,74,76,78,80,82,84,86,88,90,92,94,96,98,100,102,104,106,108,110,112,114,116,118,120,122,124,126,-1,-1,-1,-1,-1,-1,-1,-1,-1,-1,-1,-1,-1,-1,-1,-1,-1,-1,-1,-1,-1,-1,-1,-1,-1,-1,-1,-1,-1,-1,-1,-1,-1,-1,-1,-1,-1,-1,-1,-1,-1,-1,-1,-1,-1,-1,-1,-1,-1,-1,-1,-1,-1,-1,-1,-1,-1,-1,-1,-1,-1,-1,-1,-1],"split_conditions":[-2.7533302E-1,-5.1834583E-1,2.0878784E-1,-7.221854E-1,-1.1237781E-2,2.0455535E-1,3.6826217E-1,-8.5385734E-1,-1.0230607E-1,-4.9228694E-2,1.4535291E-1,-7.19352E-2,3.820663E-1,-2.2301858E-2,6.235303E-1,-3.0882567E-1,-8.534078E-1,-2.9093677E-1,5.6164406E-2,-4.2502147E-1,-7.221854E-1,-1.2813244E-2,-3.5351756E-1,1.1354911E-2,9.4274215E-2,0E0,-2.0093531E-3,-5.6536496E-1,4.540401E-1,5.29468E-2,3.801293E-3,-2.7528095E-1,-9.303291E-2,-3.4103796E-1,-8.5335517E-1,-6.279686E-1,-6.28692E-1,-5.6556326E-1,-7.229569E-1,-2.1600167E-1,-4.812413E-1,9.0541005E-2,-5.652055E-1,3.2238048E-1,-4.505985E-1,3.820663E-1,-5.6551087E-1,3.8037417E-3,-4.2502147E-1,7.268297E-2,-4.9260683E-2,-1.7363524E-1,2.0872384E-1,6.235286E-1,5.044142E-1,-1.8506655E-1,-3.5376397E-1,3.3233505E-1,5.7239354E-1,-6.28479E-1,5.3579414E-1,-2.0653445E-1,7.126976E-1,2.6728025E-2,4.509868E-2,4.0071595E-2,5.7765625E-2,2.6348922E-2,4.315114E-2,2.4069387E-2,1.3992596E-2,1.3630043E-2,5.9411456E-3,2.4824837E-2,1.1288578E-2,3.3655312E-2,2.4024403E-2,3.1769477E-2,8.652879E-2,1.7744071E-3,1.1791469E-2,5.3746905E-3,-5.6331805E-3,2.6381228E-2,5.7180844E-2,3.0263346E-2,8.216214E-3,1.2965343E-2,8.208587E-2,7.9325244E-2,3.0000705E-2,2.1956958E-2,5.1346272E-2,5.6317482E-2,1.9159041E-2,-1.4995093E-2,-3.8730423E-3,1.833767E-2,-3.1131848E-3,-2.5582582E-2,-1.5467296E-2,-4.070956E-3,-1.766751E-2,2.8920691E-2,1.610516E-4,-1.4319646E-2,-8.076298E-3,1.4789204E-2,3.3052858E-2,1.5463511E-3,2.6633902E-2,2.132111E-2,3.9878335E-2,3.4401845E-2,3.341537E-3,-1.1894888E-2,-5.541734E-3,2.7919428E-3,1.9285835E-2,6.2103573E-2,1.2231318E-2,-2.0879928E-3,9.32842E-3,7.0435636E-2,4.26146E-2,1.2982782E-2,2.6706995E-2],"split_indices":[0,0,1,0,2,2,1,6,2,1,2,0,2,2,1,2,2,1,3,0,2,3,0,1,1,1,1,2,0,2,3,1,2,4,1,1,2,6,6,1,1,4,3,4,5,2,1,2,2,2,2,0,0,2,0,0,3,0,0,6,0,3,3,0,0,0,0,0,0,0,0,0,0,0,0,0,0,0,0,0,0,0,0,0,0,0,0,0,0,0,0,0,0,0,0,0,0,0,0,0,0,0,0,0,0,0,0,0,0,0,0,0,0,0,0,0,0,0,0,0,0,0,0,0,0,0,0],"split_type":[0,0,0,0,0,0,0,0,0,0,0,0,0,0,0,0,0,0,0,0,0,0,0,0,0,0,0,0,0,0,0,0,0,0,0,0,0,0,0,0,0,0,0,0,0,0,0,0,0,0,0,0,0,0,0,0,0,0,0,0,0,0,0,0,0,0,0,0,0,0,0,0,0,0,0,0,0,0,0,0,0,0,0,0,0,0,0,0,0,0,0,0,0,0,0,0,0,0,0,0,0,0,0,0,0,0,0,0,0,0,0,0,0,0,0,0,0,0,0,0,0,0,0,0,0,0,0],"sum_hessian":[1.78755E6,1.45977E5,1.641573E6,4.1531E4,1.04446E5,1.405229E6,2.36344E5,2.0782E4,2.0749E4,9.8704E4,5.742E3,1.25838E6,1.46849E5,1.52321E5,8.4023E4,1.2088E4,8.694E3,1.9056E4,1.693E3,9.0962E4,7.742E3,4.021E3,1.721E3,3.94833E5,8.63547E5,1.09355E5,3.7494E4,3.4159E4,1.18162E5,6.9435E4,1.4588E4,1.1591E4,4.97E2,3.272E3,5.422E3,1.4228E4,4.828E3,1.671E3,2.2E1,1.8217E4,7.2745E4,2.577E3,5.165E3,3.807E3,2.14E2,9.09E2,8.12E2,3.55285E5,3.9548E4,6.33423E5,2.30124E5,4.2722E4,6.6633E4,1.6449E4,2.1045E4,1.395E3,3.2764E4,1.08419E5,9.743E3,1.853E4,5.0905E4,6.23E2,1.3965E4,1.1378E4,2.13E2,4.24E2,7.3E1,3.144E3,1.28E2,2.62E3,2.802E3,4.325E3,9.903E3,3.819E3,1.009E3,1.064E3,6.07E2,4E0,1.8E1,1.5567E4,2.65E3,4.534E3,6.8211E4,2.469E3,1.08E2,3.18E2,4.847E3,3.799E3,8E0,2.1E1,1.93E2,8.26E2,8.3E1,6.47E2,1.65E2,3.08192E5,4.7093E4,3.484E3,3.6064E4,4.24744E5,2.08679E5,4.9811E4,1.80313E5,9.86E2,4.1736E4,3.1386E4,3.5247E4,1.3025E4,3.424E3,1.8962E4,2.083E3,5.88E2,8.07E2,5.19E2,3.2245E4,8.6372E4,2.2047E4,7.112E3,2.631E3,3.36E2,1.8194E4,3.7353E4,1.3552E4,1.53E2,4.7E2,9.63E3,4.335E3],"tree_param":{"num_deleted":"0","num_feature":"7","num_nodes":"127","size_leaf_vector":"0"}},{"base_weights":[-2.9037146E-2,2.8066514E-2,-3.1827137E-2,5.3936347E-2,9.641134E-3,-3.532237E-2,7.2670737E-3,4.6719078E-2,9.874609E-2,6.2938905E-3,7.618664E-2,-1.0937063E-2,-3.955922E-2,3.24652E-2,-4.972499E-4,6.3099295E-2,3.69657E-2,1.3028483E-1,7.481944E-2,5.8245737E-2,2.4538934E-3,6.848142E-2,1.4828935E-1,4.3334313E-2,-1.6087385E-2,-4.5535706E-2,-1.6363118E-2,1.5723804E-1,2.9648865E-2,-8.534447E-3,3.6862794E-2,6.1852723E-2,1.7150517E-1,5.5096146E-2,2.8359262E-2,1.6720049E-1,8.829262E-2,5.392267E-2,1.452472E-1,7.456152E-2,4.288697E-2,-4.6769246E-3,1.8478313E-2,8.281428E-2,2.5051273E-2,1.3582873E-1,2.920258E-1,6.3994415E-2,2.7339214E-2,-2.312119E-2,3.328958E-3,-3.2014135E-2,-5.045739E-2,-2.1760616E-2,1.652495E-2,1.422676E-1,3.1551334E-1,2.503116E-2,9.425286E-2,-1.3084616E-2,1.3900195E-2,2.0353265E-2,6.392012E-2,1.9640509E-2,1.6014094E-2,3.5246078E-2,6.7097574E-2,1.280583E-2,2.1060904E-2,1.2900096E-2,6.0213096E-3,3.9383084E-2,6.1364803E-2,2.2005813E-2,3.898617E-2,4.2429876E-2,1.2577203E-2,6.341514E-2,3.1619154E-2,2.1630693E-2,3.269482E-2,1.0152362E-2,2.3205785E-2,5.973229E-4,-3.6369332E-3,5.0021685E-3,4.0042482E-2,5.618577E-2,2.2961853E-2,-6.187911E-3,2.2330794E-2,2.9012725E-2,4.6618957E-2,2.4335207E-2,9.442174E-2,2.8153276E-2,1.7862666E-2,6.096461E-3,2.6244866E-2,-4.070083E-3,-9.235984E-3,9.619554E-5,1.368695E-2,-1.18057E-2,-5.060701E-3,-1.7874993E-2,-1.0268997E-2,-3.9232962E-4,-9.368791E-3,3.6970389E-3,2.50051E-2,4.0381726E-2,6.481546E-2,6.590473E-2,1.03221044E-1,-2.4745078E-3,8.777487E-3,5.5434614E-2,2.2447828E-2,3.4134556E-4,-5.5552376E-3,8.210499E-3,1.0527744E-3,2.038572E-2,4.2347563E-3,1.5751276E-2,2.4620514E-2],"categories":[],"categories_nodes":[],"categories_segments":[],"categories_sizes":[],"default_left":[0,0,0,0,0,0,0,0,0,0,0,0,0,0,0,0,0,0,0,0,0,0,0,0,0,0,0,0,0,0,0,0,0,0,0,0,0,0,0,0,0,0,0,0,0,0,0,0,0,0,0,0,0,0,0,0,0,0,0,0,0,0,0,0,0,0,0,0,0,0,0,0,0,0,0,0,0,0,0,0,0,0,0,0,0,0,0,0,0,0,0,0,0,0,0,0,0,0,0,0,0,0,0,0,0,0,0,0,0,0,0,0,0,0,0,0,0,0,0,0,0,0,0,0,0,0,0],"id":6,"left_children":[1,3,5,7,9,11,13,15,17,19,21,23,25,27,29,31,33,35,37,39,41,43,45,47,49,51,53,55,57,59,61,63,65,67,69,71,73,75,77,79,81,83,85,87,89,91,93,95,97,99,101,103,105,107,109,111,113,115,117,119,121,123,125,-1,-1,-1,-1,-1,-1,-1,-1,-1,-1,-1,-1,-1,-1,-1,-1,-1,-1,-1,-1,-1,-1,-1,-1,-1,-1,-1,-1,-1,-1,-1,-1,-1,-1,-1,-1,-1,-1,-1,-1,-1,-1,-1,-1,-1,-1,-1,-1,-1,-1,-1,-1,-1,-1,-1,-1,-1,-1,-1,-1,-1,-1,-1,-1],"loss_changes":[2.8479126E2,3.9690605E1,2.3287903E2,1.1197128E1,1.08322315E1,1.6163037E2,2.7364685E1,4.764015E0,3.615429E0,9.237471E0,1.283762E0,6.472996E1,1.8477246E2,1.1572636E1,3.210609E1,1.4938545E0,2.9166718E0,3.1956406E0,4.015829E0,7.95434E-1,4.927175E0,1.3088646E0,3.615284E-1,6.6312523E0,2.8885616E1,7.0525635E1,4.8471428E1,1.677702E0,9.609581E0,8.982733E0,8.454802E0,3.3371353E-1,3.2869506E-1,1.1254272E0,1.5383215E0,1.4503613E0,5.948334E-1,2.2095828E0,1.6249361E0,1.2283993E-1,5.099287E-1,1.4816647E0,2.7531953E0,1.0233793E0,1.1835625E0,1.4419293E-1,5.5906415E-2,1.1583252E0,4.7739325E0,1.1370476E1,7.1563854E0,3.143045E1,1.1505994E2,4.542543E1,1.0807343E1,3.474226E-1,9.408474E-2,4.2306767E0,3.7655964E0,5.6527357E0,2.0764322E0,3.4899373E0,1.4817772E0,0E0,0E0,0E0,0E0,0E0,0E0,0E0,0E0,0E0,0E0,0E0,0E0,0E0,0E0,0E0,0E0,0E0,0E0,0E0,0E0,0E0,0E0,0E0,0E0,0E0,0E0,0E0,0E0,0E0,0E0,0E0,0E0,0E0,0E0,0E0,0E0,0E0,0E0,0E0,0E0,0E0,0E0,0E0,0E0,0E0,0E0,0E0,0E0,0E0,0E0,0E0,0E0,0E0,0E0,0E0,0E0,0E0,0E0,0E0,0E0,0E0,0E0,0E0,0E0],"parents":[2147483647,0,0,1,1,2,2,3,3,4,4,5,5,6,6,7,7,8,8,9,9,10,10,11,11,12,12,13,13,14,14,15,15,16,16,17,17,18,18,19,19,20,20,21,21,22,22,23,23,24,24,25,25,26,26,27,27,28,28,29,29,30,30,31,31,32,32,33,33,34,34,35,35,36,36,37,37,38,38,39,39,40,40,41,41,42,42,43,43,44,44,45,45,46,46,47,47,48,48,49,49,50,50,51,51,52,52,53,53,54,54,55,55,56,56,57,57,58,58,59,59,60,60,61,61,62,62],"right_children":[2,4,6,8,10,12,14,16,18,20,22,24,26,28,30,32,34,36,38,40,42,44,46,48,50,52,54,56,58,60,62,64,66,68,70,72,74,76,78,80,82,84,86,88,90,92,94,96,98,100,102,104,106,108,110,112,114,116,118,120,122,124,126,-1,-1,-1,-1,-1,-1,-1,-1,-1,-1,-1,-1,-1,-1,-1,-1,-1,-1,-1,-1,-1,-1,-1,-1,-1,-1,-1,-1,-1,-1,-1,-1,-1,-1,-1,-1,-1,-1,-1,-1,-1,-1,-1,-1,-1,-1,-1,-1,-1,-1,-1,-1,-1,-1,-1,-1,-1,-1,-1,-1,-1,-1,-1,-1],"split_conditions":[-3.6831507E-1,-5.6551087E-1,2.8762716E-1,-3.2909465E-1,7.7865355E-2,-1.699754E-1,5.3277262E-3,-8.534078E-1,2.6019654E-1,-7.221854E-1,3.9760527E-1,-5.1834583E-1,1.4799589E-1,-5.6556326E-1,5.7239354E-1,6.76361E-2,-8.5335517E-1,-6.279686E-1,5.7239354E-1,-8.534078E-1,-3.699088E-2,5.7785343E-2,7.1165806E-1,-7.221854E-1,9.6939184E-4,-7.192991E-2,3.975581E-1,7.1165806E-1,4.542368E-1,5.046012E-1,7.123871E-1,-8.533806E-1,-3.2922384E-1,-1.312211E-1,-6.2885714E-1,1.1662923E-1,1.5076247E-1,-8.5335517E-1,-7.2211105E-1,-5.1855713E-1,-5.1855713E-1,-4.0302798E-1,5.7239354E-1,-6.2904465E-1,5.3579414E-1,1.4016458E-1,3.2237005E-1,-8.533806E-1,-4.3897904E-2,-2.547225E-1,1.3029426E-1,1.5844306E-2,7.958398E-2,-3.5320637E-3,6.236886E-1,4.143793E-1,5.724584E-1,-2.392958E-2,-2.613552E-1,1.302876E-1,2.0455535E-1,2.6019654E-1,7.123871E-1,1.9640509E-2,1.6014094E-2,3.5246078E-2,6.7097574E-2,1.280583E-2,2.1060904E-2,1.2900096E-2,6.0213096E-3,3.9383084E-2,6.1364803E-2,2.2005813E-2,3.898617E-2,4.2429876E-2,1.2577203E-2,6.341514E-2,3.1619154E-2,2.1630693E-2,3.269482E-2,1.0152362E-2,2.3205785E-2,5.973229E-4,-3.6369332E-3,5.0021685E-3,4.0042482E-2,5.618577E-2,2.2961853E-2,-6.187911E-3,2.2330794E-2,2.9012725E-2,4.6618957E-2,2.4335207E-2,9.442174E-2,2.8153276E-2,1.7862666E-2,6.096461E-3,2.6244866E-2,-4.070083E-3,-9.235984E-3,9.619554E-5,1.368695E-2,-1.18057E-2,-5.060701E-3,-1.7874993E-2,-1.0268997E-2,-3.9232962E-4,-9.368791E-3,3.6970389E-3,2.50051E-2,4.0381726E-2,6.481546E-2,6.590473E-2,1.03221044E-1,-2.4745078E-3,8.777487E-3,5.5434614E-2,2.2447828E-2,3.4134556E-4,-5.5552376E-3,8.210499E-3,1.0527744E-3,2.038572E-2,4.2347563E-3,1.5751276E-2,2.4620514E-2],"split_indices":[1,1,1,0,3,2,2,4,2,2,5,2,2,6,0,3,1,1,2,0,2,4,5,2,1,1,2,5,4,1,0,3,6,2,3,2,2,1,1,4,4,0,2,4,2,4,0,3,4,0,6,2,1,1,4,4,1,0,3,2,2,2,2,0,0,0,0,0,0,0,0,0,0,0,0,0,0,0,0,0,0,0,0,0,0,0,0,0,0,0,0,0,0,0,0,0,0,0,0,0,0,0,0,0,0,0,0,0,0,0,0,0,0,0,0,0,0,0,0,0,0,0,0,0,0,0,0],"split_type":[0,0,0,0,0,0,0,0,0,0,0,0,0,0,0,0,0,0,0,0,0,0,0,0,0,0,0,0,0,0,0,0,0,0,0,0,0,0,0,0,0,0,0,0,0,0,0,0,0,0,0,0,0,0,0,0,0,0,0,0,0,0,0,0,0,0,0,0,0,0,0,0,0,0,0,0,0,0,0,0,0,0,0,0,0,0,0,0,0,0,0,0,0,0,0,0,0,0,0,0,0,0,0,0,0,0,0,0,0,0,0,0,0,0,0,0,0,0,0,0,0,0,0,0,0,0,0],"sum_hessian":[1.78755E6,8.3268E4,1.704282E6,3.4636E4,4.8632E4,1.564415E6,1.39867E5,2.9833E4,4.803E3,4.6304E4,2.328E3,2.31576E5,1.332839E6,3.2945E4,1.06922E5,1.1132E4,1.8701E4,2.07E3,2.733E3,3.186E3,4.3118E4,2.105E3,2.23E2,2.0071E4,2.11505E5,1.059784E6,2.73055E5,7.26E2,3.2219E4,8.7993E4,1.8929E4,1.1007E4,1.25E2,6.018E3,1.2683E4,1.1E3,9.7E2,2.109E3,6.24E2,1.543E3,1.643E3,2.984E4,1.3278E4,1.582E3,5.23E2,2.07E2,1.6E1,8.757E3,1.1314E4,1.5526E5,5.6245E4,2.82811E5,7.76973E5,2.3456E5,3.8495E4,6.65E2,6.1E1,3.0071E4,2.148E3,7.3156E4,1.4837E4,1.1757E4,7.172E3,7.71E3,3.297E3,6.3E1,6.2E1,3.306E3,2.712E3,4.583E3,8.1E3,5.63E2,5.37E2,7.16E2,2.54E2,2.53E2,1.856E3,2.33E2,3.91E2,1.443E3,1E2,1.303E3,3.4E2,1.5743E4,1.4097E4,1.3074E4,2.04E2,8.8E1,1.494E3,2.72E2,2.51E2,7.1E1,1.36E2,2E0,1.4E1,1.134E3,7.623E3,1.0133E4,1.181E3,6.9116E4,8.6144E4,5.2511E4,3.734E3,1.90505E5,9.2306E4,4.973E5,2.79673E5,7.4227E4,1.60333E5,3.6219E4,2.276E3,6.05E2,6E1,1.6E1,4.5E1,3.389E3,2.6682E4,3.78E2,1.77E3,2.0221E4,5.2935E4,6.461E3,8.376E3,1.361E3,1.0396E4,4.405E3,2.767E3],"tree_param":{"num_deleted":"0","num_feature":"7","num_nodes":"127","size_leaf_vector":"0"}},{"base_weights":[-2.0325217E-2,8.5834265E-3,-2.3302212E-2,3.697307E-2,1.149818E-3,-2.7455289E-2,-2.0633633E-3,3.4900807E-2,9.1966696E-2,-2.8216678E-3,2.353892E-2,-1.5293681E-2,-3.195868E-2,-5.876871E-3,2.2662586E-2,4.2492438E-2,2.3506764E-2,1.0886071E-1,1.0498341E-2,3.664329E-2,-5.946324E-3,2.1395914E-2,8.379689E-2,-2.4386428E-2,-3.0184467E-4,-1.5456114E-2,-3.8284604E-2,2.871391E-2,-8.784022E-3,1.5404277E-2,4.8973605E-2,4.1345745E-2,7.100383E-2,1.9826569E-2,5.3344257E-2,9.954827E-2,1.8017593E-1,-2.9017914E-2,2.2813685E-2,2.4922227E-2,8.3704986E-2,7.218005E-3,-8.926649E-3,2.5591416E-2,5.172636E-4,1.5405667E-1,7.035572E-2,-9.6258335E-3,-2.983324E-2,2.8932845E-2,-3.756011E-3,-2.6938573E-2,-2.0534215E-3,-5.056639E-2,-2.8365675E-2,2.2261962E-2,5.9993457E-2,1.274951E-2,-1.25998035E-2,3.3299953E-2,1.0055615E-2,9.858924E-2,4.4202417E-2,1.367354E-2,9.722229E-3,2.504253E-2,-6.6654007E-3,4.877549E-3,1.9165203E-2,1.7549317E-2,1.361392E-3,3.8183756E-2,2.5257673E-2,6.0655102E-2,1.0870914E-2,-1.134093E-2,-1.448278E-3,1.4448609E-2,4.3153064E-3,6.33959E-3,1.7666444E-2,4.9962718E-2,2.2581257E-2,1.768734E-2,1.5392982E-3,-4.086184E-3,9.6676586E-4,5.8050826E-3,1.6560411E-2,-1.4105095E-3,6.533575E-3,1.968849E-2,6.19226E-2,3.3472856E-3,2.6224433E-2,-4.6515483E-3,4.159793E-3,-1.3479482E-2,-6.969947E-3,3.7984126E-3,1.691844E-2,-2.2883138E-3,4.235436E-3,-3.205314E-3,-1.0347526E-2,-1.5108474E-3,1.2356868E-2,-1.6499415E-2,-8.714746E-3,-9.434648E-3,-2.3004794E-3,4.800767E-3,1.2690208E-2,2.8506972E-2,9.750263E-3,1.978223E-3,1.5612642E-2,-5.9424182E-3,-1.1382698E-3,1.731222E-2,5.0662784E-3,1.9366372E-3,1.3421789E-2,1.2411763E-2,3.453736E-2,9.377291E-3,1.7719254E-2],"categories":[],"categories_nodes":[],"categories_segments":[],"categories_sizes":[],"default_left":[0,0,0,0,0,0,0,0,0,0,0,0,0,0,0,0,0,0,0,0,0,0,0,0,0,0,0,0,0,0,0,0,0,0,0,0,0,0,0,0,0,0,0,0,0,0,0,0,0,0,0,0,0,0,0,0,0,0,0,0,0,0,0,0,0,0,0,0,0,0,0,0,0,0,0,0,0,0,0,0,0,0,0,0,0,0,0,0,0,0,0,0,0,0,0,0,0,0,0,0,0,0,0,0,0,0,0,0,0,0,0,0,0,0,0,0,0,0,0,0,0,0,0,0,0,0,0],"id":7,"left_children":[1,3,5,7,9,11,13,15,17,19,21,23,25,27,29,31,33,35,37,39,41,43,45,47,49,51,53,55,57,59,61,63,65,67,69,71,73,75,77,79,81,83,85,87,89,91,93,95,97,99,101,103,105,107,109,111,113,115,117,119,121,123,125,-1,-1,-1,-1,-1,-1,-1,-1,-1,-1,-1,-1,-1,-1,-1,-1,-1,-1,-1,-1,-1,-1,-1,-1,-1,-1,-1,-1,-1,-1,-1,-1,-1,-1,-1,-1,-1,-1,-1,-1,-1,-1,-1,-1,-1,-1,-1,-1,-1,-1,-1,-1,-1,-1,-1,-1,-1,-1,-1,-1,-1,-1,-1,-1],"loss_changes":[1.5383844E2,3.522106E1,1.4295251E2,3.9435005E0,1.1760716E1,7.4242676E1,2.4994648E1,2.8860016E0,1.7289009E0,1.3853114E1,2.5714426E0,4.9935905E1,1.03272644E2,2.3094505E1,6.763527E0,6.518898E-1,1.4646573E0,6.7340946E-1,1.0626641E-1,4.5443087E0,4.0842037E0,1.6856928E0,6.3511276E-1,1.8332352E1,1.3965848E1,4.218788E1,8.711731E1,3.5919647E0,1.7407373E1,2.6570811E0,1.8084869E0,7.270775E-1,9.005401E-1,1.867127E0,3.6821365E-1,3.8233185E-1,3.696401E-1,1.0868356E-2,3.4776367E-2,8.484373E-1,1.1353645E0,2.0747786E0,4.84063E0,2.960165E0,3.5751104E-1,4.9105835E-1,5.807061E-1,8.489378E0,1.659674E1,6.529498E0,8.559655E0,1.8125885E1,1.631532E1,3.046576E1,2.524582E1,1.8509283E0,2.928463E0,7.712672E0,1.1422619E1,2.5579538E0,2.668862E0,6.300664E-1,1.3425217E0,0E0,0E0,0E0,0E0,0E0,0E0,0E0,0E0,0E0,0E0,0E0,0E0,0E0,0E0,0E0,0E0,0E0,0E0,0E0,0E0,0E0,0E0,0E0,0E0,0E0,0E0,0E0,0E0,0E0,0E0,0E0,0E0,0E0,0E0,0E0,0E0,0E0,0E0,0E0,0E0,0E0,0E0,0E0,0E0,0E0,0E0,0E0,0E0,0E0,0E0,0E0,0E0,0E0,0E0,0E0,0E0,0E0,0E0,0E0,0E0,0E0,0E0,0E0,0E0],"parents":[2147483647,0,0,1,1,2,2,3,3,4,4,5,5,6,6,7,7,8,8,9,9,10,10,11,11,12,12,13,13,14,14,15,15,16,16,17,17,18,18,19,19,20,20,21,21,22,22,23,23,24,24,25,25,26,26,27,27,28,28,29,29,30,30,31,31,32,32,33,33,34,34,35,35,36,36,37,37,38,38,39,39,40,40,41,41,42,42,43,43,44,44,45,45,46,46,47,47,48,48,49,49,50,50,51,51,52,52,53,53,54,54,55,55,56,56,57,57,58,58,59,59,60,60,61,61,62,62],"right_children":[2,4,6,8,10,12,14,16,18,20,22,24,26,28,30,32,34,36,38,40,42,44,46,48,50,52,54,56,58,60,62,64,66,68,70,72,74,76,78,80,82,84,86,88,90,92,94,96,98,100,102,104,106,108,110,112,114,116,118,120,122,124,126,-1,-1,-1,-1,-1,-1,-1,-1,-1,-1,-1,-1,-1,-1,-1,-1,-1,-1,-1,-1,-1,-1,-1,-1,-1,-1,-1,-1,-1,-1,-1,-1,-1,-1,-1,-1,-1,-1,-1,-1,-1,-1,-1,-1,-1,-1,-1,-1,-1,-1,-1,-1,-1,-1,-1,-1,-1,-1,-1,-1,-1,-1,-1,-1],"split_conditions":[-2.5469577E-1,-5.6556326E-1,1.9280541E-1,2.2701092E-1,-8.4293485E-2,-8.010887E-2,5.0478864E-1,-7.229569E-1,3.975581E-1,-5.6551087E-1,5.354951E-1,9.6939184E-4,-5.8367632E-2,-4.046889E-2,7.121622E-1,-5.100378E-2,-5.100378E-2,6.233362E-1,5.045286E-1,-3.087338E-1,-4.2502147E-1,-5.837748E-2,-3.5351756E-1,-2.1125531E-1,-3.4120986E-1,4.6610028E-2,5.2949414E-2,2.9549965E-1,7.26904E-2,2.540555E-1,9.42742E-2,-8.5385734E-1,1.1448731E-1,-9.76226E-2,-2.4253063E-1,-8.5385734E-1,8.34932E-3,4.5426834E-1,5.045941E-1,1.6529591E-1,-8.5335517E-1,-7.219082E-1,-1.312211E-1,3.7253812E-2,2.8034198E-1,3.682319E-1,3.8246346E-1,-1.2009922E-1,-1.2009922E-1,-1.2555477E-1,3.2601785E-2,-1.700295E-1,3.6812916E-1,6.762124E-2,1.8904267E-1,1.1881452E-1,-1.5961355E-2,3.222337E-1,2.9547173E-1,3.1274664E-1,7.123871E-1,-1.3712025E-1,7.1165806E-1,1.367354E-2,9.722229E-3,2.504253E-2,-6.6654007E-3,4.877549E-3,1.9165203E-2,1.7549317E-2,1.361392E-3,3.8183756E-2,2.5257673E-2,6.0655102E-2,1.0870914E-2,-1.134093E-2,-1.448278E-3,1.4448609E-2,4.3153064E-3,6.33959E-3,1.7666444E-2,4.9962718E-2,2.2581257E-2,1.768734E-2,1.5392982E-3,-4.086184E-3,9.6676586E-4,5.8050826E-3,1.6560411E-2,-1.4105095E-3,6.533575E-3,1.968849E-2,6.19226E-2,3.3472856E-3,2.6224433E-2,-4.6515483E-3,4.159793E-3,-1.3479482E-2,-6.969947E-3,3.7984126E-3,1.691844E-2,-2.2883138E-3,4.235436E-3,-3.205314E-3,-1.0347526E-2,-1.5108474E-3,1.2356868E-2,-1.6499415E-2,-8.714746E-3,-9.434648E-3,-2.3004794E-3,4.800767E-3,1.2690208E-2,2.8506972E-2,9.750263E-3,1.978223E-3,1.5612642E-2,-5.9424182E-3,-1.1382698E-3,1.731222E-2,5.0662784E-3,1.9366372E-3,1.3421789E-2,1.2411763E-2,3.453736E-2,9.377291E-3,1.7719254E-2],"split_indices":[6,6,6,1,1,2,6,6,2,1,1,1,1,2,6,2,2,5,4,0,0,2,2,0,2,2,0,4,1,2,3,6,3,1,1,6,2,1,2,2,1,3,2,5,1,3,0,1,1,0,0,1,2,1,0,5,3,3,0,3,2,2,5,0,0,0,0,0,0,0,0,0,0,0,0,0,0,0,0,0,0,0,0,0,0,0,0,0,0,0,0,0,0,0,0,0,0,0,0,0,0,0,0,0,0,0,0,0,0,0,0,0,0,0,0,0,0,0,0,0,0,0,0,0,0,0,0],"split_type":[0,0,0,0,0,0,0,0,0,0,0,0,0,0,0,0,0,0,0,0,0,0,0,0,0,0,0,0,0,0,0,0,0,0,0,0,0,0,0,0,0,0,0,0,0,0,0,0,0,0,0,0,0,0,0,0,0,0,0,0,0,0,0,0,0,0,0,0,0,0,0,0,0,0,0,0,0,0,0,0,0,0,0,0,0,0,0,0,0,0,0,0,0,0,0,0,0,0,0,0,0,0,0,0,0,0,0,0,0,0,0,0,0,0,0,0,0,0,0,0,0,0,0,0,0,0,0],"sum_hessian":[1.78755E6,1.66894E5,1.620656E6,3.4631E4,1.32263E5,1.355583E6,2.65073E5,3.3375E4,1.256E3,1.12337E5,1.9926E4,3.66321E5,9.89262E5,2.29654E5,3.5419E4,2.0028E4,1.3347E4,1.04E3,2.16E2,8.241E3,1.04096E5,1.9243E4,6.83E2,2.28022E5,1.38299E5,2.74132E5,7.1513E5,1.7804E4,2.1185E5,2.7762E4,7.657E3,1.9256E4,7.72E2,1.1883E4,1.464E3,9.22E2,1.18E2,5.1E1,1.65E2,6.599E3,1.642E3,1.9216E4,8.488E4,1.6023E4,3.22E3,1.08E2,5.75E2,6.1463E4,1.66559E5,1.4613E4,1.23686E5,1.47642E5,1.2649E5,3.19507E5,3.95623E5,1.4761E4,3.043E3,3.1889E4,1.79961E5,6.387E3,2.1375E4,6.7E2,6.987E3,1.3065E4,6.191E3,6.81E2,9.1E1,1.0994E4,8.89E2,1.324E3,1.4E2,3.26E2,5.96E2,1.02E2,1.6E1,3.7E1,1.4E1,4E1,1.25E2,5.938E3,6.61E2,1.5E2,1.492E3,7.44E2,1.8472E4,6.1225E4,2.3655E4,1.3235E4,2.788E3,2.586E3,6.34E2,4.1E1,6.7E1,1.29E2,4.46E2,4.916E4,1.2303E4,5.0661E4,1.15898E5,9.177E3,5.436E3,1.01665E5,2.2021E4,4.6842E4,1.008E5,1.18329E5,8.161E3,2.64939E5,5.4568E4,3.4433E5,5.1293E4,1.1249E4,3.512E3,1.337E3,1.706E3,2.7571E4,4.318E3,9.8955E4,8.1006E4,2.567E3,3.82E3,1.9366E4,2.009E3,1.51E2,5.19E2,3.736E3,3.251E3],"tree_param":{"num_deleted":"0","num_feature":"7","num_nodes":"127","size_leaf_vector":"0"}},{"base_weights":[-1.4227307E-2,7.3151393E-3,-1.6344523E-2,2.5528422E-2,9.3521696E-4,-1.9205589E-2,7.415582E-4,2.3108076E-2,8.7106764E-2,-8.260058E-4,5.2143235E-2,-6.796801E-4,-2.0785714E-2,-7.44111E-4,5.050906E-2,3.122452E-2,1.4926801E-2,6.915325E-2,1.5253577E-1,-4.059906E-3,1.5553322E-2,4.5695987E-2,8.505936E-2,-3.877845E-3,4.0033687E-2,-2.2917856E-2,-7.7776625E-3,2.2982847E-2,-4.017066E-3,1.0060338E-1,4.0019345E-2,2.8723512E-2,4.439414E-2,1.090254E-2,4.1502766E-2,4.733948E-2,8.968812E-2,8.233418E-2,2.0261787E-1,-6.7849965E-3,1.0902845E-2,1.1258897E-2,4.179926E-2,5.999694E-2,2.9665362E-2,1.7616065E-1,8.124872E-2,3.9365213E-2,-5.3242263E-3,7.859884E-2,2.7776893E-2,-2.530047E-2,-8.5632475E-3,4.6048644E-3,-2.0830054E-2,5.2345116E-2,1.7758828E-2,-7.3984424E-3,9.930168E-3,1.8597478E-1,8.948549E-2,2.0834263E-2,5.2179683E-2,7.935165E-3,1.3724295E-2,1.2656024E-2,1.8010877E-2,2.0794938E-3,8.718635E-3,1.4557481E-2,5.605375E-3,6.507649E-3,1.8735792E-2,3.090583E-2,1.2172107E-2,4.433351E-2,2.130704E-2,6.975918E-2,2.16374E-2,1.1378448E-2,-2.344495E-3,4.712908E-3,-3.7349556E-3,1.1168874E-2,2.5029094E-3,1.6829448E-2,6.3170935E-3,9.335484E-3,2.2219237E-2,1.5964203E-2,5.4699485E-3,2.9165989E-2,8.033773E-2,1.2416922E-2,2.6595762E-2,1.0442808E-2,3.0638553E-2,-2.6267914E-3,3.2916162E-3,1.7579304E-2,3.966186E-2,5.281247E-3,1.4534926E-2,-5.1822197E-3,-9.168495E-3,6.173322E-5,-6.3916687E-3,1.8697822E-2,1.1416537E-3,-7.205308E-3,1.6710517E-3,3.9261494E-2,1.34077305E-2,4.1198838E-3,1.6363703E-2,2.765912E-3,-3.497509E-3,1.7183302E-2,2.4734198E-3,5.935457E-2,3.4960013E-2,7.228738E-2,2.60635E-2,4.254662E-3,1.7878002E-2,5.4766376E-2,1.503469E-2],"categories":[],"categories_nodes":[],"categories_segments":[],"categories_sizes":[],"default_left":[0,0,0,0,0,0,0,0,0,0,0,0,0,0,0,0,0,0,0,0,0,0,0,0,0,0,0,0,0,0,0,0,0,0,0,0,0,0,0,0,0,0,0,0,0,0,0,0,0,0,0,0,0,0,0,0,0,0,0,0,0,0,0,0,0,0,0,0,0,0,0,0,0,0,0,0,0,0,0,0,0,0,0,0,0,0,0,0,0,0,0,0,0,0,0,0,0,0,0,0,0,0,0,0,0,0,0,0,0,0,0,0,0,0,0,0,0,0,0,0,0,0,0,0,0,0,0],"id":8,"left_children":[1,3,5,7,9,11,13,15,17,19,21,23,25,27,29,31,33,35,37,39,41,43,45,47,49,51,53,55,57,59,61,63,65,67,69,71,73,75,77,79,81,83,85,87,89,91,93,95,97,99,101,103,105,107,109,111,113,115,117,119,121,123,125,-1,-1,-1,-1,-1,-1,-1,-1,-1,-1,-1,-1,-1,-1,-1,-1,-1,-1,-1,-1,-1,-1,-1,-1,-1,-1,-1,-1,-1,-1,-1,-1,-1,-1,-1,-1,-1,-1,-1,-1,-1,-1,-1,-1,-1,-1,-1,-1,-1,-1,-1,-1,-1,-1,-1,-1,-1,-1,-1,-1,-1,-1,-1,-1],"loss_changes":[8.1530334E1,1.8587454E1,7.956372E1,6.1827335E0,1.0684341E1,4.0811035E1,1.7260876E1,2.6509342E0,1.8325253E0,6.0665097E0,8.320408E-1,1.4266531E1,3.5627563E1,1.7603754E1,3.5518646E0,6.5888786E-1,2.1264353E0,5.480685E-1,1.1681571E0,3.8999848E0,2.1279678E0,7.53839E-1,2.0925331E-1,6.3540664E0,3.769843E0,3.774701E1,2.9238085E1,4.2140493E0,9.394795E0,1.0948124E0,1.304676E0,6.506891E-1,1.0785437E-1,1.2453501E0,4.1810274E-1,2.3121238E-1,4.109373E-1,9.461546E-2,7.482958E-1,3.72652E0,1.6543537E0,1.2287393E0,7.8626966E-1,7.049608E-1,4.1792512E-1,1.5480214E-1,1.792984E-1,9.366174E-1,5.4974914E0,2.0551834E0,1.2729316E0,3.997119E1,1.7555557E1,4.283131E0,7.4116096E0,2.4880466E0,3.454411E0,1.1350541E1,3.1015587E0,8.7430954E-2,3.8898468E-1,5.5941415E-1,9.1252136E-1,0E0,0E0,0E0,0E0,0E0,0E0,0E0,0E0,0E0,0E0,0E0,0E0,0E0,0E0,0E0,0E0,0E0,0E0,0E0,0E0,0E0,0E0,0E0,0E0,0E0,0E0,0E0,0E0,0E0,0E0,0E0,0E0,0E0,0E0,0E0,0E0,0E0,0E0,0E0,0E0,0E0,0E0,0E0,0E0,0E0,0E0,0E0,0E0,0E0,0E0,0E0,0E0,0E0,0E0,0E0,0E0,0E0,0E0,0E0,0E0,0E0,0E0,0E0,0E0],"parents":[2147483647,0,0,1,1,2,2,3,3,4,4,5,5,6,6,7,7,8,8,9,9,10,10,11,11,12,12,13,13,14,14,15,15,16,16,17,17,18,18,19,19,20,20,21,21,22,22,23,23,24,24,25,25,26,26,27,27,28,28,29,29,30,30,31,31,32,32,33,33,34,34,35,35,36,36,37,37,38,38,39,39,40,40,41,41,42,42,43,43,44,44,45,45,46,46,47,47,48,48,49,49,50,50,51,51,52,52,53,53,54,54,55,55,56,56,57,57,58,58,59,59,60,60,61,61,62,62],"right_children":[2,4,6,8,10,12,14,16,18,20,22,24,26,28,30,32,34,36,38,40,42,44,46,48,50,52,54,56,58,60,62,64,66,68,70,72,74,76,78,80,82,84,86,88,90,92,94,96,98,100,102,104,106,108,110,112,114,116,118,120,122,124,126,-1,-1,-1,-1,-1,-1,-1,-1,-1,-1,-1,-1,-1,-1,-1,-1,-1,-1,-1,-1,-1,-1,-1,-1,-1,-1,-1,-1,-1,-1,-1,-1,-1,-1,-1,-1,-1,-1,-1,-1,-1,-1,-1,-1,-1,-1,-1,-1,-1,-1,-1,-1,-1,-1,-1,-1,-1,-1,-1,-1,-1,-1,-1,-1],"split_conditions":[-2.6131368E-1,-5.1855713E-1,2.087255E-1,5.457276E-2,1.2103457E-1,-2.020613E-1,7.123871E-1,-7.228306E-1,9.2381775E-2,-1.1221998E-1,2.7312833E-1,1.1449086E-1,1.4802438E-1,5.6166936E-2,3.554328E-1,-4.505587E-1,-1.629846E-1,-4.8130792E-1,-3.36921E-2,-1.0230607E-1,-1.2274614E-1,-1.561474E-1,-2.9937243E-1,-5.652055E-1,-4.506059E-1,1.4018624E-1,3.2601293E-2,-1.812269E-1,4.540401E-1,2.371902E-1,7.1165806E-1,-2.7534187E-1,-5.83461E-2,-1.8507436E-1,-2.160254E-1,-8.858977E-2,2.540555E-1,-6.286044E-1,7.269668E-2,-7.219082E-1,-5.2790057E-2,-7.221854E-1,2.541141E-1,-3.6828262E-1,-3.5385573E-1,2.0051757E-1,-4.812413E-1,-6.6001095E-2,-5.100378E-2,1.7840743E-1,2.6643452E-1,-4.3935653E-2,2.3420403E-2,-5.1834583E-1,3.0367738E-1,-4.0290412E-1,3.8246346E-1,8.868128E-2,1.623194E-1,1.1015266E-1,-6.279686E-1,7.121622E-1,-1.2828216E-1,7.935165E-3,1.3724295E-2,1.2656024E-2,1.8010877E-2,2.0794938E-3,8.718635E-3,1.4557481E-2,5.605375E-3,6.507649E-3,1.8735792E-2,3.090583E-2,1.2172107E-2,4.433351E-2,2.130704E-2,6.975918E-2,2.16374E-2,1.1378448E-2,-2.344495E-3,4.712908E-3,-3.7349556E-3,1.1168874E-2,2.5029094E-3,1.6829448E-2,6.3170935E-3,9.335484E-3,2.2219237E-2,1.5964203E-2,5.4699485E-3,2.9165989E-2,8.033773E-2,1.2416922E-2,2.6595762E-2,1.0442808E-2,3.0638553E-2,-2.6267914E-3,3.2916162E-3,1.7579304E-2,3.966186E-2,5.281247E-3,1.4534926E-2,-5.1822197E-3,-9.168495E-3,6.173322E-5,-6.3916687E-3,1.8697822E-2,1.1416537E-3,-7.205308E-3,1.6710517E-3,3.9261494E-2,1.34077305E-2,4.1198838E-3,1.6363703E-2,2.765912E-3,-3.497509E-3,1.7183302E-2,2.4734198E-3,5.935457E-2,3.4960013E-2,7.228738E-2,2.60635E-2,4.254662E-3,1.7878002E-2,5.4766376E-2,1.503469E-2],"split_indices":[4,4,5,3,2,3,2,4,6,1,3,4,1,2,3,1,2,2,2,2,0,0,5,3,3,2,2,2,0,0,5,2,5,1,5,5,2,5,5,3,5,2,1,3,4,6,1,5,2,1,4,0,1,2,0,6,0,1,1,6,1,6,1,0,0,0,0,0,0,0,0,0,0,0,0,0,0,0,0,0,0,0,0,0,0,0,0,0,0,0,0,0,0,0,0,0,0,0,0,0,0,0,0,0,0,0,0,0,0,0,0,0,0,0,0,0,0,0,0,0,0,0,0,0,0,0,0],"split_type":[0,0,0,0,0,0,0,0,0,0,0,0,0,0,0,0,0,0,0,0,0,0,0,0,0,0,0,0,0,0,0,0,0,0,0,0,0,0,0,0,0,0,0,0,0,0,0,0,0,0,0,0,0,0,0,0,0,0,0,0,0,0,0,0,0,0,0,0,0,0,0,0,0,0,0,0,0,0,0,0,0,0,0,0,0,0,0,0,0,0,0,0,0,0,0,0,0,0,0,0,0,0,0,0,0,0,0,0,0,0,0,0,0,0,0,0,0,0,0,0,0,0,0,0,0,0,0],"sum_hessian":[1.78755E6,1.59961E5,1.627589E6,4.1496E4,1.18465E5,1.39414E6,2.33449E5,3.9928E4,1.568E3,1.14527E5,3.938E3,1.09565E5,1.284575E6,2.26683E5,6.766E3,2.0042E4,1.9886E4,1.232E3,3.36E2,9.5644E4,1.8883E4,3.295E3,6.43E2,1.01586E5,7.979E3,1.103672E6,1.80903E5,2.7478E4,1.99205E5,1.17E3,5.596E3,1.6846E4,3.196E3,1.7272E4,2.614E3,5.99E2,6.33E2,1.41E2,1.95E2,8.0909E4,1.4735E4,1.6229E4,2.654E3,1.74E3,1.555E3,2.4E1,6.19E2,3.287E3,9.8299E4,1.923E3,6.056E3,9.46559E5,1.57113E5,9.2834E4,8.8069E4,4.149E3,2.3329E4,1.60334E5,3.8871E4,1.33E2,1.037E3,2.172E3,3.424E3,1.4864E4,1.982E3,2.804E3,3.92E2,1.4174E4,3.098E3,1.998E3,6.16E2,2.23E2,3.76E2,4.97E2,1.36E2,1.9E1,1.22E2,1.58E2,3.7E1,1.821E3,7.9088E4,1.222E4,2.515E3,1.637E3,1.4592E4,1.57E3,1.084E3,5.71E2,1.169E3,5.07E2,1.048E3,1.4E1,1E1,9.8E1,5.21E2,3.066E3,2.21E2,8.12E4,1.7099E4,1.402E3,5.21E2,4.06E3,1.996E3,3.74789E5,5.7177E5,9.3067E4,6.4046E4,1.267E3,9.1567E4,7.8581E4,9.488E3,3.67E2,3.782E3,2.1029E4,2.3E3,3.2714E4,1.2762E5,1.335E3,3.7536E4,1.12E2,2.1E1,1.6E1,1.021E3,1.855E3,3.17E2,5.2E1,3.372E3],"tree_param":{"num_deleted":"0","num_feature":"7","num_nodes":"127","size_leaf_vector":"0"}},{"base_weights":[-9.958531E-3,2.07878E-3,-1.1982321E-2,2.0994902E-2,-8.050893E-4,-1.4627229E-2,6.436126E-4,1.9722812E-2,7.4021235E-2,-3.5503162E-3,1.4246887E-2,-6.8540475E-3,-1.7204165E-2,-1.7095611E-3,1.584995E-2,2.674657E-2,1.4824719E-2,8.2773216E-2,3.468719E-3,-7.6558483E-3,1.0954958E-2,1.0054515E-2,4.617122E-2,-1.6557975E-2,5.732308E-3,-7.390015E-3,-2.1920715E-2,1.3804914E-2,-4.5967996E-3,1.146468E-2,3.4875017E-2,2.4202902E-2,4.4536576E-2,1.2938451E-2,2.9855367E-2,5.5543516E-2,1.20141886E-1,-2.0365596E-2,8.161629E-2,-2.2140862E-3,-1.4577569E-2,8.306641E-3,3.9965477E-2,7.4677113E-3,4.197026E-2,4.3119796E-2,1.4789054E-1,-3.218568E-2,-1.1902348E-2,4.522051E-2,4.273731E-3,-1.9102095E-2,1.1584959E-3,-3.0879702E-2,-1.674208E-2,6.0804334E-2,1.0635364E-2,1.0702073E-2,-9.305068E-3,3.5132624E-2,6.294668E-3,8.345806E-2,3.1379055E-2,7.6480373E-3,-7.164021E-4,1.1859224E-2,2.864623E-2,2.979778E-3,8.124141E-3,1.5949944E-2,5.217924E-3,2.1230286E-2,4.683072E-3,3.0111535E-2,4.9203143E-2,-1.1040386E-2,1.504584E-3,7.358813E-3,2.5900329E-2,9.738335E-3,-8.240835E-4,-6.7685354E-3,-1.9779454E-3,1.2664377E-2,2.0387296E-3,1.9590514E-2,9.865369E-3,8.514852E-3,1.2173984E-3,9.70108E-3,2.3449048E-2,3.3655174E-3,1.5391744E-2,3.32074E-2,5.4954384E-2,-7.5695035E-3,-1.1672098E-2,-2.0819418E-3,-5.4358453E-3,5.153564E-3,1.7792858E-2,4.063733E-4,3.759652E-3,-3.250834E-3,-7.402777E-3,-6.957905E-4,3.3783664E-3,-1.0559826E-2,-4.3015196E-3,5.3736214E-5,-5.805306E-3,3.340824E-2,1.46170575E-2,1.3101508E-3,8.900899E-3,2.396197E-3,7.858128E-3,-6.643966E-4,-3.9151143E-3,2.027804E-2,8.311333E-3,7.565977E-3,4.62461E-4,5.2744772E-2,2.3196619E-2,4.5477986E-2,8.983126E-3],"categories":[],"categories_nodes":[],"categories_segments":[],"categories_sizes":[],"default_left":[0,0,0,0,0,0,0,0,0,0,0,0,0,0,0,0,0,0,0,0,0,0,0,0,0,0,0,0,0,0,0,0,0,0,0,0,0,0,0,0,0,0,0,0,0,0,0,0,0,0,0,0,0,0,0,0,0,0,0,0,0,0,0,0,0,0,0,0,0,0,0,0,0,0,0,0,0,0,0,0,0,0,0,0,0,0,0,0,0,0,0,0,0,0,0,0,0,0,0,0,0,0,0,0,0,0,0,0,0,0,0,0,0,0,0,0,0,0,0,0,0,0,0,0,0,0,0],"id":9,"left_children":[1,3,5,7,9,11,13,15,17,19,21,23,25,27,29,31,33,35,37,39,41,43,45,47,49,51,53,55,57,59,61,63,65,67,69,71,73,75,77,79,81,83,85,87,89,91,93,95,97,99,101,103,105,107,109,111,113,115,117,119,121,123,125,-1,-1,-1,-1,-1,-1,-1,-1,-1,-1,-1,-1,-1,-1,-1,-1,-1,-1,-1,-1,-1,-1,-1,-1,-1,-1,-1,-1,-1,-1,-1,-1,-1,-1,-1,-1,-1,-1,-1,-1,-1,-1,-1,-1,-1,-1,-1,-1,-1,-1,-1,-1,-1,-1,-1,-1,-1,-1,-1,-1,-1,-1,-1,-1],"loss_changes":[4.354654E1,1.4035057E1,5.1102615E1,2.2943468E0,9.224818E0,2.5343658E1,9.484138E0,1.1431255E0,4.918399E-1,1.1244133E1,4.608403E0,3.8474987E1,4.3984314E1,1.0281449E1,2.9629526E0,6.168356E-1,5.548849E-1,7.1476126E-1,1.6743301E-1,5.5429497E0,3.199751E0,2.5128057E0,1.2342463E0,1.2941219E1,7.898604E0,3.0880692E1,2.9775208E1,5.364105E0,1.3939145E1,3.532047E0,1.1273546E0,4.1011524E-1,4.3159747E-1,7.3951364E-1,6.332581E-1,2.4936998E-1,2.4198961E-1,2.8968072E-2,3.5384893E-3,1.5223898E0,4.1290226E0,1.9551382E0,6.2289524E-1,2.0080347E0,7.9311705E-1,1.0131907E0,1.3200688E-1,1.9072723E0,4.228218E0,1.9289646E0,3.188365E0,5.995556E0,6.2645674E0,1.679721E1,1.7954292E1,1.384059E0,4.0252934E0,1.9150229E0,3.9295692E0,1.2459493E0,2.1312463E0,2.3915696E-1,1.0666127E0,0E0,0E0,0E0,0E0,0E0,0E0,0E0,0E0,0E0,0E0,0E0,0E0,0E0,0E0,0E0,0E0,0E0,0E0,0E0,0E0,0E0,0E0,0E0,0E0,0E0,0E0,0E0,0E0,0E0,0E0,0E0,0E0,0E0,0E0,0E0,0E0,0E0,0E0,0E0,0E0,0E0,0E0,0E0,0E0,0E0,0E0,0E0,0E0,0E0,0E0,0E0,0E0,0E0,0E0,0E0,0E0,0E0,0E0,0E0,0E0,0E0,0E0,0E0,0E0],"parents":[2147483647,0,0,1,1,2,2,3,3,4,4,5,5,6,6,7,7,8,8,9,9,10,10,11,11,12,12,13,13,14,14,15,15,16,16,17,17,18,18,19,19,20,20,21,21,22,22,23,23,24,24,25,25,26,26,27,27,28,28,29,29,30,30,31,31,32,32,33,33,34,34,35,35,36,36,37,37,38,38,39,39,40,40,41,41,42,42,43,43,44,44,45,45,46,46,47,47,48,48,49,49,50,50,51,51,52,52,53,53,54,54,55,55,56,56,57,57,58,58,59,59,60,60,61,61,62,62],"right_children":[2,4,6,8,10,12,14,16,18,20,22,24,26,28,30,32,34,36,38,40,42,44,46,48,50,52,54,56,58,60,62,64,66,68,70,72,74,76,78,80,82,84,86,88,90,92,94,96,98,100,102,104,106,108,110,112,114,116,118,120,122,124,126,-1,-1,-1,-1,-1,-1,-1,-1,-1,-1,-1,-1,-1,-1,-1,-1,-1,-1,-1,-1,-1,-1,-1,-1,-1,-1,-1,-1,-1,-1,-1,-1,-1,-1,-1,-1,-1,-1,-1,-1,-1,-1,-1,-1,-1,-1,-1,-1,-1,-1,-1,-1,-1,-1,-1,-1,-1,-1,-1,-1,-1,-1,-1,-1],"split_conditions":[-1.8910426E-1,-5.652055E-1,1.9282429E-1,-3.2909465E-1,-9.52987E-2,-7.1927086E-2,5.044142E-1,-8.533806E-1,2.4813175E-1,-1.2009922E-1,1.1014463E-1,1.7525494E-2,-4.0441345E-2,1.0006546E-1,7.1165806E-1,-4.505587E-1,-2.9954886E-1,9.812845E-2,4.143902E-1,-2.8306085E-1,-1.9769423E-1,-1.9771583E-1,4.7759295E-1,-1.2009922E-1,-4.5051983E-1,2.4925929E-2,4.190322E-2,-1.8910584E-1,1.2561032E-1,3.1271994E-1,1.5352733E-1,-7.221854E-1,-2.8309503E-1,-2.7534187E-1,-6.28692E-1,7.26904E-2,3.8771268E-2,1.5637217E-1,-8.548921E-1,-7.232028E-1,-1.9769423E-1,-8.534078E-1,-2.2601943E-1,-3.8415805E-1,-1.2009922E-1,-3.842459E-1,-1.17398635E-1,-1.595799E-1,-9.993584E-2,-1.2555477E-1,3.2607842E-2,-9.302926E-2,5.457276E-2,5.777593E-2,9.6619537E-4,4.5426834E-1,2.9547173E-1,3.554328E-1,2.0455535E-1,4.541787E-1,3.2223496E-1,-2.4851364E-1,7.268297E-2,7.6480373E-3,-7.164021E-4,1.1859224E-2,2.864623E-2,2.979778E-3,8.124141E-3,1.5949944E-2,5.217924E-3,2.1230286E-2,4.683072E-3,3.0111535E-2,4.9203143E-2,-1.1040386E-2,1.504584E-3,7.358813E-3,2.5900329E-2,9.738335E-3,-8.240835E-4,-6.7685354E-3,-1.9779454E-3,1.2664377E-2,2.0387296E-3,1.9590514E-2,9.865369E-3,8.514852E-3,1.2173984E-3,9.70108E-3,2.3449048E-2,3.3655174E-3,1.5391744E-2,3.32074E-2,5.4954384E-2,-7.5695035E-3,-1.1672098E-2,-2.0819418E-3,-5.4358453E-3,5.153564E-3,1.7792858E-2,4.063733E-4,3.759652E-3,-3.250834E-3,-7.402777E-3,-6.957905E-4,3.3783664E-3,-1.0559826E-2,-4.3015196E-3,5.3736214E-5,-5.805306E-3,3.340824E-2,1.46170575E-2,1.3101508E-3,8.900899E-3,2.396197E-3,7.858128E-3,-6.643966E-4,-3.9151143E-3,2.027804E-2,8.311333E-3,7.565977E-3,4.62461E-4,5.2744772E-2,2.3196619E-2,4.5477986E-2,8.983126E-3],"split_indices":[0,3,0,0,2,2,0,3,2,1,2,1,1,2,5,1,6,4,2,0,2,1,2,1,2,2,0,2,1,2,1,0,6,2,2,1,6,6,5,5,2,2,0,4,1,0,5,0,0,0,5,0,3,1,2,1,0,3,2,6,1,1,2,0,0,0,0,0,0,0,0,0,0,0,0,0,0,0,0,0,0,0,0,0,0,0,0,0,0,0,0,0,0,0,0,0,0,0,0,0,0,0,0,0,0,0,0,0,0,0,0,0,0,0,0,0,0,0,0,0,0,0,0,0,0,0,0],"split_type":[0,0,0,0,0,0,0,0,0,0,0,0,0,0,0,0,0,0,0,0,0,0,0,0,0,0,0,0,0,0,0,0,0,0,0,0,0,0,0,0,0,0,0,0,0,0,0,0,0,0,0,0,0,0,0,0,0,0,0,0,0,0,0,0,0,0,0,0,0,0,0,0,0,0,0,0,0,0,0,0,0,0,0,0,0,0,0,0,0,0,0,0,0,0,0,0,0,0,0,0,0,0,0,0,0,0,0,0,0,0,0,0,0,0,0,0,0,0,0,0,0,0,0,0,0,0,0],"sum_hessian":[1.78755E6,2.57279E5,1.530271E6,3.4034E4,2.23245E5,1.265228E6,2.65043E5,3.3238E4,7.96E2,1.8881E5,3.4435E4,3.15013E5,9.50215E5,2.29525E5,3.5518E4,1.3654E4,1.9584E4,7.08E2,8.8E1,1.47159E5,4.1651E4,3.0439E4,3.996E3,1.77874E5,1.37139E5,3.08433E5,6.41782E5,3.6012E4,1.93513E5,2.8866E4,6.652E3,1.1948E4,1.706E3,1.7402E4,2.182E3,4.11E2,2.97E2,6.8E1,2E1,8.2388E4,6.4771E4,3.8168E4,3.483E3,2.8158E4,2.281E3,3.881E3,1.15E2,4.0826E4,1.37048E5,4.884E3,1.32255E5,1.30136E5,1.78297E5,2.35084E5,4.06698E5,2.274E3,3.3738E4,4.5539E4,1.47974E5,5.174E3,2.3692E4,4.45E2,6.207E3,1.1395E4,5.53E2,1.555E3,1.51E2,1.4353E4,3.049E3,7.59E2,1.423E3,2.97E2,1.14E2,2.07E2,9E1,4.1E1,2.7E1,2E0,1.8E1,1.246E3,8.1142E4,3.2385E4,3.2386E4,1.627E3,3.6541E4,7.59E2,2.724E3,3.946E3,2.4212E4,1.803E3,4.78E2,7.93E2,3.088E3,5.8E1,5.7E1,2.0068E4,2.0758E4,7.6215E4,6.0833E4,1.634E3,3.25E3,9.7716E4,3.4539E4,5.2412E4,7.7724E4,1.32638E5,4.5659E4,1.86404E5,4.868E4,5.4329E4,3.52369E5,4.37E2,1.837E3,2.5381E4,8.357E3,3.875E4,6.789E3,5.1147E4,9.6827E4,9.62E2,4.212E3,4.755E3,1.8937E4,2.6E1,4.19E2,7.2E1,6.135E3],"tree_param":{"num_deleted":"0","num_feature":"7","num_nodes":"127","size_leaf_vector":"0"}},{"base_weights":[-6.9706324E-3,1.2376419E-2,-7.670623E-3,9.7615365E-3,3.4568254E-2,-8.821855E-3,4.090026E-3,1.6586151E-2,3.8706511E-3,1.6054888E-1,3.2953516E-2,-1.6404479E-3,-1.0156742E-2,1.6987413E-2,1.14239E-3,1.6035428E-2,6.913475E-2,1.1342622E-3,1.5392116E-2,1.6863774E-1,2.8635671E-2,3.1321377E-2,1.1942706E-1,-3.8618143E-3,1.5899869E-2,-1.2087093E-2,-5.264203E-3,1.21476455E-2,3.1268466E-2,-1.9617013E-3,1.439453E-2,1.3899186E-2,2.7531244E-2,3.5232466E-2,9.765025E-2,-1.1441492E-3,7.498649E-3,3.4861047E-2,8.828012E-3,1.0284194E-1,1.8267098E-1,-1.922862E-2,2.7307518E-2,6.0396213E-2,2.8090447E-2,2.2141103E-1,9.8049775E-2,-5.6103715E-3,4.9625207E-3,1.3013524E-2,3.8083598E-2,-5.775517E-3,-1.50028225E-2,8.303299E-3,-7.900695E-3,4.463392E-2,1.0343857E-2,5.0487857E-2,2.2584587E-2,1.2361473E-2,-3.3619285E-3,9.150506E-2,1.1305698E-2,5.3379913E-3,2.6148532E-3,6.229148E-3,1.4876339E-2,1.293253E-2,-6.1873705E-3,6.682754E-2,2.7477292E-2,1.5039186E-4,-4.219163E-3,3.403887E-3,-1.5648181E-3,1.2145256E-2,5.3358087E-3,2.4278276E-3,3.5073064E-2,3.8346775E-2,-1.44045055E-2,5.890737E-2,3.622238E-2,1.609271E-2,1.0106393E-1,9.509699E-3,1.8142707E-3,7.957972E-3,6.908159E-2,-3.5263123E-3,3.1167354E-2,-2.587049E-3,1.815567E-4,1.0418119E-3,7.791282E-3,8.732365E-3,2.7408598E-3,2.4121149E-2,9.2691695E-3,-4.475933E-3,-1.1177937E-4,-2.133259E-3,-6.3986205E-3,6.569812E-3,1.6429155E-3,1.4731992E-3,-3.4478426E-3,1.0009277E-2,2.4872506E-2,-2.4625538E-3,4.0860553E-3,1.6444337E-2,-2.6516959E-3,3.7853017E-3,1.359246E-2,2.3775415E-3,1.030172E-2,-2.5459235E-3,3.871645E-4,2.0001875E-2,4.6447095E-2,1.711675E-3,7.6048183E-3],"categories":[],"categories_nodes":[],"categories_segments":[],"categories_sizes":[],"default_left":[0,0,0,0,0,0,0,0,0,0,0,0,0,0,0,0,0,0,0,0,0,0,0,0,0,0,0,0,0,0,0,0,0,0,0,0,0,0,0,0,0,0,0,0,0,0,0,0,0,0,0,0,0,0,0,0,0,0,0,0,0,0,0,0,0,0,0,0,0,0,0,0,0,0,0,0,0,0,0,0,0,0,0,0,0,0,0,0,0,0,0,0,0,0,0,0,0,0,0,0,0,0,0,0,0,0,0,0,0,0,0,0,0,0,0,0,0,0,0,0,0,0,0],"id":10,"left_children":[1,3,5,7,9,11,13,15,17,19,21,23,25,27,29,31,33,35,37,39,41,43,45,47,49,51,53,55,57,59,61,63,65,67,69,71,73,75,77,79,81,-1,-1,83,85,87,89,91,93,95,97,99,101,103,105,107,109,111,113,115,117,119,121,-1,-1,-1,-1,-1,-1,-1,-1,-1,-1,-1,-1,-1,-1,-1,-1,-1,-1,-1,-1,-1,-1,-1,-1,-1,-1,-1,-1,-1,-1,-1,-1,-1,-1,-1,-1,-1,-1,-1,-1,-1,-1,-1,-1,-1,-1,-1,-1,-1,-1,-1,-1,-1,-1,-1,-1,-1,-1,-1,-1],"loss_changes":[2.420845E1,3.6216612E0,2.3357063E1,2.2448325E0,1.3330483E0,1.5063248E1,5.847536E0,7.475333E-1,9.4488454E-1,8.3734274E-2,9.132252E-1,9.596686E0,1.25138855E1,1.9773331E0,5.150319E0,6.2834644E-1,2.556461E-1,3.5121527E-1,7.347752E-1,5.3233624E-2,4.0546894E-2,5.9744406E-1,2.3990762E-1,3.373194E0,1.7722354E0,1.748526E1,1.3409788E1,1.2519615E0,1.207542E0,2.0345316E0,5.658394E0,4.3564177E-1,5.9767604E-1,5.5440173E-2,8.951688E-2,3.7917966E-1,3.124237E-1,1.3850212E-1,3.410042E-1,6.643346E-2,2.9691696E-2,0E0,0E0,1.1714177E0,4.5654392E-1,2.8428793E-2,6.600356E-2,3.4171457E0,1.1315124E0,1.5286093E0,9.667735E-1,1.483341E1,3.2445755E1,2.3442574E0,1.4445044E1,4.820602E-1,1.2309799E0,5.787916E-1,1.129585E0,8.805425E-1,2.2031834E0,1.4283652E0,1.7966871E0,0E0,0E0,0E0,0E0,0E0,0E0,0E0,0E0,0E0,0E0,0E0,0E0,0E0,0E0,0E0,0E0,0E0,0E0,0E0,0E0,0E0,0E0,0E0,0E0,0E0,0E0,0E0,0E0,0E0,0E0,0E0,0E0,0E0,0E0,0E0,0E0,0E0,0E0,0E0,0E0,0E0,0E0,0E0,0E0,0E0,0E0,0E0,0E0,0E0,0E0,0E0,0E0,0E0,0E0,0E0,0E0,0E0,0E0,0E0,0E0],"parents":[2147483647,0,0,1,1,2,2,3,3,4,4,5,5,6,6,7,7,8,8,9,9,10,10,11,11,12,12,13,13,14,14,15,15,16,16,17,17,18,18,19,19,20,20,21,21,22,22,23,23,24,24,25,25,26,26,27,27,28,28,29,29,30,30,31,31,32,32,33,33,34,34,35,35,36,36,37,37,38,38,39,39,40,40,43,43,44,44,45,45,46,46,47,47,48,48,49,49,50,50,51,51,52,52,53,53,54,54,55,55,56,56,57,57,58,58,59,59,60,60,61,61,62,62],"right_children":[2,4,6,8,10,12,14,16,18,20,22,24,26,28,30,32,34,36,38,40,42,44,46,48,50,52,54,56,58,60,62,64,66,68,70,72,74,76,78,80,82,-1,-1,84,86,88,90,92,94,96,98,100,102,104,106,108,110,112,114,116,118,120,122,-1,-1,-1,-1,-1,-1,-1,-1,-1,-1,-1,-1,-1,-1,-1,-1,-1,-1,-1,-1,-1,-1,-1,-1,-1,-1,-1,-1,-1,-1,-1,-1,-1,-1,-1,-1,-1,-1,-1,-1,-1,-1,-1,-1,-1,-1,-1,-1,-1,-1,-1,-1,-1,-1,-1,-1,-1,-1,-1,-1],"split_conditions":[-4.2496142E-1,-2.909089E-1,2.7312627E-1,-6.286044E-1,-7.228306E-1,-1.6297904E-1,1.4535291E-1,-4.3924067E-2,-2.4852295E-1,1.8904267E-1,7.123871E-1,-3.870686E-2,9.622946E-2,3.3233505E-1,5.3579414E-1,-3.292163E-1,-3.2922384E-1,-2.0203444E-1,-5.6521046E-1,-6.993307E-2,2.3209223E-1,-5.1834583E-1,1.8904267E-1,-8.861037E-2,2.950425E-2,-6.219755E-2,4.0337518E-2,-5.6536496E-1,4.7755143E-1,5.4554306E-2,2.371902E-1,-8.548921E-1,-4.03089E-1,-2.5519034E-2,-8.534078E-1,-4.2502147E-1,-3.6808956E-1,2.7957652E-2,2.0047216E-1,3.554328E-1,3.9766E-1,-1.922862E-2,2.7307518E-2,5.358671E-1,2.6640064E-1,-4.506059E-1,-6.60043E-2,-1.3712025E-1,-1.3418946E-1,-3.0878723E-1,-3.4103796E-1,-3.870848E-2,-2.7124751E-2,7.442169E-2,4.6610028E-2,3.9765203E-1,-1.3121666E-1,5.045819E-1,4.774533E-1,3.682319E-1,3.6812916E-1,3.432182E-1,7.123871E-1,5.3379913E-3,2.6148532E-3,6.229148E-3,1.4876339E-2,1.293253E-2,-6.1873705E-3,6.682754E-2,2.7477292E-2,1.5039186E-4,-4.219163E-3,3.403887E-3,-1.5648181E-3,1.2145256E-2,5.3358087E-3,2.4278276E-3,3.5073064E-2,3.8346775E-2,-1.44045055E-2,5.890737E-2,3.622238E-2,1.609271E-2,1.0106393E-1,9.509699E-3,1.8142707E-3,7.957972E-3,6.908159E-2,-3.5263123E-3,3.1167354E-2,-2.587049E-3,1.815567E-4,1.0418119E-3,7.791282E-3,8.732365E-3,2.7408598E-3,2.4121149E-2,9.2691695E-3,-4.475933E-3,-1.1177937E-4,-2.133259E-3,-6.3986205E-3,6.569812E-3,1.6429155E-3,1.4731992E-3,-3.4478426E-3,1.0009277E-2,2.4872506E-2,-2.4625538E-3,4.0860553E-3,1.6444337E-2,-2.6516959E-3,3.7853017E-3,1.359246E-2,2.3775415E-3,1.030172E-2,-2.5459235E-3,3.871645E-4,2.0001875E-2,4.6447095E-2,1.711675E-3,7.6048183E-3],"split_indices":[5,0,5,5,4,4,2,3,2,0,2,3,0,0,2,1,6,1,4,2,0,2,0,1,0,2,1,2,1,1,0,5,4,2,2,0,0,2,4,3,6,0,0,6,1,3,3,2,2,1,4,1,1,4,2,1,4,3,5,3,0,4,2,0,0,0,0,0,0,0,0,0,0,0,0,0,0,0,0,0,0,0,0,0,0,0,0,0,0,0,0,0,0,0,0,0,0,0,0,0,0,0,0,0,0,0,0,0,0,0,0,0,0,0,0,0,0,0,0,0,0,0,0],"split_type":[0,0,0,0,0,0,0,0,0,0,0,0,0,0,0,0,0,0,0,0,0,0,0,0,0,0,0,0,0,0,0,0,0,0,0,0,0,0,0,0,0,0,0,0,0,0,0,0,0,0,0,0,0,0,0,0,0,0,0,0,0,0,0,0,0,0,0,0,0,0,0,0,0,0,0,0,0,0,0,0,0,0,0,0,0,0,0,0,0,0,0,0,0,0,0,0,0,0,0,0,0,0,0,0,0,0,0,0,0,0,0,0,0,0,0,0,0,0,0,0,0,0,0],"sum_hessian":[1.78755E6,6.2416E4,1.725134E6,5.5838E4,6.578E3,1.57132E6,1.53814E5,2.5868E4,2.997E4,8.2E1,6.496E3,2.46297E5,1.325023E6,2.8613E4,1.25201E5,2.5601E4,2.67E2,2.4219E4,5.751E3,7.7E1,5E0,6.377E3,1.19E2,2.18612E5,2.7685E4,9.50143E5,3.7488E5,2.1372E4,7.241E3,1.01441E5,2.376E4,2.1591E4,4.01E3,1.23E2,1.44E2,1.7835E4,6.384E3,1.449E3,4.302E3,1.5E1,6.2E1,2E0,3E0,6.36E2,5.741E3,1.9E1,1E2,1.82458E5,3.6154E4,2.4499E4,3.186E3,3.00236E5,6.49907E5,6.0995E4,3.13885E5,1.123E3,2.0249E4,2.252E3,4.989E3,9.033E3,9.2408E4,9.14E2,2.2846E4,1.2327E4,9.264E3,3.07E3,9.4E2,1.08E2,1.5E1,5E0,1.39E2,1.5821E4,2.014E3,4.901E3,1.483E3,1.089E3,3.6E2,4.274E3,2.8E1,1.3E1,2E0,4.9E1,1.3E1,6.22E2,1.4E1,4.933E3,8.08E2,1E0,1.8E1,5E0,9.5E1,1.22886E5,5.9572E4,3.3761E4,2.393E3,4.755E3,1.9744E4,4.61E2,2.725E3,1.11509E5,1.88727E5,2.89162E5,3.60745E5,1.0498E4,5.0497E4,6.8736E4,2.45149E5,8.69E2,2.54E2,3.039E3,1.721E4,2.099E3,1.53E2,3.469E3,1.52E3,7.517E3,1.516E3,4.3973E4,4.8435E4,6.58E2,2.56E2,1.6334E4,6.512E3],"tree_param":{"num_deleted":"0","num_feature":"7","num_nodes":"123","size_leaf_vector":"0"}},{"base_weights":[-4.8790285E-3,4.453154E-3,-5.79586E-3,3.3579427E-3,5.4942206E-2,-7.1580727E-3,9.939866E-4,1.2982007E-2,1.3420453E-3,2.098584E-3,6.4499274E-2,-7.6386016E-3,8.423046E-3,1.5801555E-2,-8.6715224E-4,1.1950237E-2,6.222941E-2,-2.4016146E-3,6.337822E-3,6.7761935E-2,-1.9906525E-2,5.009919E-2,8.856445E-2,-3.7735174E-3,-9.261244E-3,2.0672236E-2,9.986969E-4,5.2578535E-2,1.4249917E-2,-3.7039027E-3,4.841728E-3,1.1142146E-2,2.9660698E-2,4.240509E-2,1.2886113E-1,-3.73297E-3,1.1140294E-2,2.9435724E-3,1.9205794E-2,1.4026385E-2,1.0896329E-1,-4.1485656E-2,2.3736851E-2,7.223783E-2,2.4515092E-2,1.0175634E-1,6.700443E-2,-5.5087875E-3,7.893849E-3,1.0416079E-3,-1.0491035E-2,1.699809E-2,4.447584E-2,-1.0194987E-3,2.9482314E-2,1.8515818E-2,7.969208E-2,2.0089993E-2,7.3189326E-3,2.3273393E-3,-7.5217644E-3,2.0743256E-2,1.6792243E-3,3.3157005E-3,3.5738636E-2,4.875332E-3,1.2736172E-2,1.487282E-2,-2.599364E-2,2.1087699E-2,5.0171696E-2,7.9406635E-4,-1.9239071E-3,1.3952772E-2,2.6322342E-3,3.8883532E-4,7.38667E-3,9.741394E-3,3.360023E-3,-3.6092917E-3,1.3316906E-2,6.381985E-2,2.3000821E-2,-4.370288E-3,-1.8170202E-2,-2.6415759E-3,1.7230045E-2,1.2807903E-2,2.6694762E-2,-2.2697324E-4,1.2938885E-2,1.1799771E-2,3.413683E-2,8.232761E-3,3.4414202E-2,-2.0104488E-3,2.840242E-3,2.6066098E-3,-1.685547E-2,-4.5120096E-4,3.4434183E-3,2.9214155E-3,-3.3182984E-3,8.005613E-3,2.600826E-3,6.1424733E-3,2.050894E-2,-6.0701754E-4,9.540627E-3,1.794072E-2,6.189833E-3,2.62957E-3,2.0151727E-2,1.5818462E-2,3.033733E-2,5.7492005E-3,1.8392837E-2,-1.9759517E-3,3.2899424E-3,3.992961E-3,-1.4950127E-4,-1.2253472E-3,-4.3779267E-3,1.2767431E-2,4.989747E-3,-3.6442594E-5,5.554619E-3],"categories":[],"categories_nodes":[],"categories_segments":[],"categories_sizes":[],"default_left":[0,0,0,0,0,0,0,0,0,0,0,0,0,0,0,0,0,0,0,0,0,0,0,0,0,0,0,0,0,0,0,0,0,0,0,0,0,0,0,0,0,0,0,0,0,0,0,0,0,0,0,0,0,0,0,0,0,0,0,0,0,0,0,0,0,0,0,0,0,0,0,0,0,0,0,0,0,0,0,0,0,0,0,0,0,0,0,0,0,0,0,0,0,0,0,0,0,0,0,0,0,0,0,0,0,0,0,0,0,0,0,0,0,0,0,0,0,0,0,0,0,0,0,0,0,0,0],"id":11,"left_children":[1,3,5,7,9,11,13,15,17,19,21,23,25,27,29,31,33,35,37,39,41,43,45,47,49,51,53,55,57,59,61,63,65,67,69,71,73,75,77,79,81,83,85,87,89,91,93,95,97,99,101,103,105,107,109,111,113,115,117,119,121,123,125,-1,-1,-1,-1,-1,-1,-1,-1,-1,-1,-1,-1,-1,-1,-1,-1,-1,-1,-1,-1,-1,-1,-1,-1,-1,-1,-1,-1,-1,-1,-1,-1,-1,-1,-1,-1,-1,-1,-1,-1,-1,-1,-1,-1,-1,-1,-1,-1,-1,-1,-1,-1,-1,-1,-1,-1,-1,-1,-1,-1,-1,-1,-1,-1],"loss_changes":[1.5294384E1,8.84206E0,1.5054451E1,3.0365112E0,1.7144432E0,1.0150177E1,7.495522E0,1.3765664E0,2.4202669E0,7.5415695E-1,9.91868E-1,8.247856E0,3.6885068E0,1.7321868E0,3.9128768E0,3.796587E-1,7.289717E-1,1.3337439E0,2.4211402E0,2.8850263E-1,3.6922312E-1,1.0183101E0,2.9893017E-1,7.8729143E0,1.1735901E1,1.3378749E0,1.4517692E0,1.1335809E0,1.1793671E0,3.7167163E0,4.033366E0,2.4496412E-1,1.9796705E-1,4.0222538E-1,2.7370787E-1,1.1516597E0,5.5378264E-1,1.5665895E0,1.2283697E0,4.6422914E-2,2.3167276E-1,1.336917E-1,1.430584E-1,4.7360516E-1,3.937742E-1,4.9503994E-1,7.726066E-1,6.046708E0,2.5648127E0,2.6241076E0,9.540718E0,1.0696957E0,1.1716065E0,7.771421E-1,4.4712663E-1,2.584502E-1,3.8995075E-1,6.024275E-1,6.7602664E-1,1.9417152E0,2.402402E0,1.1924281E0,2.0282323E0,0E0,0E0,0E0,0E0,0E0,0E0,0E0,0E0,0E0,0E0,0E0,0E0,0E0,0E0,0E0,0E0,0E0,0E0,0E0,0E0,0E0,0E0,0E0,0E0,0E0,0E0,0E0,0E0,0E0,0E0,0E0,0E0,0E0,0E0,0E0,0E0,0E0,0E0,0E0,0E0,0E0,0E0,0E0,0E0,0E0,0E0,0E0,0E0,0E0,0E0,0E0,0E0,0E0,0E0,0E0,0E0,0E0,0E0,0E0,0E0,0E0,0E0,0E0,0E0],"parents":[2147483647,0,0,1,1,2,2,3,3,4,4,5,5,6,6,7,7,8,8,9,9,10,10,11,11,12,12,13,13,14,14,15,15,16,16,17,17,18,18,19,19,20,20,21,21,22,22,23,23,24,24,25,25,26,26,27,27,28,28,29,29,30,30,31,31,32,32,33,33,34,34,35,35,36,36,37,37,38,38,39,39,40,40,41,41,42,42,43,43,44,44,45,45,46,46,47,47,48,48,49,49,50,50,51,51,52,52,53,53,54,54,55,55,56,56,57,57,58,58,59,59,60,60,61,61,62,62],"right_children":[2,4,6,8,10,12,14,16,18,20,22,24,26,28,30,32,34,36,38,40,42,44,46,48,50,52,54,56,58,60,62,64,66,68,70,72,74,76,78,80,82,84,86,88,90,92,94,96,98,100,102,104,106,108,110,112,114,116,118,120,122,124,126,-1,-1,-1,-1,-1,-1,-1,-1,-1,-1,-1,-1,-1,-1,-1,-1,-1,-1,-1,-1,-1,-1,-1,-1,-1,-1,-1,-1,-1,-1,-1,-1,-1,-1,-1,-1,-1,-1,-1,-1,-1,-1,-1,-1,-1,-1,-1,-1,-1,-1,-1,-1,-1,-1,-1,-1,-1,-1,-1,-1,-1,-1,-1,-1],"split_conditions":[-2.613552E-1,2.1308243E-1,1.8908131E-1,-6.2885714E-1,-4.812413E-1,2.3717564E-1,7.442169E-2,-3.5351756E-1,-2.613506E-1,2.4813175E-1,-4.9249206E-2,-7.192244E-2,6.600322E-2,-4.5054963E-1,3.6812916E-1,-1.6641812E-1,-6.218764E-2,-1.5615612E-1,-2.3671305E-1,-7.2211105E-1,-8.2184516E-2,-3.6828262E-1,2.3210351E-1,-3.870686E-2,-8.6471006E-2,4.3345323E-1,3.6812916E-1,-3.842459E-1,1.7844006E-1,1.7840743E-1,2.425582E-1,3.4325612E-1,-5.6551087E-1,2.6640064E-1,-2.6133493E-1,-4.505985E-1,-6.28479E-1,1.351477E-1,-2.6133493E-1,-3.842459E-1,-5.6508356E-1,-6.286044E-1,5.045941E-1,2.9549965E-1,2.0879246E-1,-3.4105626E-1,4.3354556E-1,-1.754332E-2,4.145341E-1,-6.572587E-3,-9.080587E-2,1.6227502E-1,3.6822262E-1,5.3579414E-1,1.9664335E-1,5.046012E-1,-1.4008927E-1,7.1166646E-1,-1.0714676E-1,1.7839067E-1,2.2698145E-1,3.9765203E-1,7.1165806E-1,3.3157005E-3,3.5738636E-2,4.875332E-3,1.2736172E-2,1.487282E-2,-2.599364E-2,2.1087699E-2,5.0171696E-2,7.9406635E-4,-1.9239071E-3,1.3952772E-2,2.6322342E-3,3.8883532E-4,7.38667E-3,9.741394E-3,3.360023E-3,-3.6092917E-3,1.3316906E-2,6.381985E-2,2.3000821E-2,-4.370288E-3,-1.8170202E-2,-2.6415759E-3,1.7230045E-2,1.2807903E-2,2.6694762E-2,-2.2697324E-4,1.2938885E-2,1.1799771E-2,3.413683E-2,8.232761E-3,3.4414202E-2,-2.0104488E-3,2.840242E-3,2.6066098E-3,-1.685547E-2,-4.5120096E-4,3.4434183E-3,2.9214155E-3,-3.3182984E-3,8.005613E-3,2.600826E-3,6.1424733E-3,2.050894E-2,-6.0701754E-4,9.540627E-3,1.794072E-2,6.189833E-3,2.62957E-3,2.0151727E-2,1.5818462E-2,3.033733E-2,5.7492005E-3,1.8392837E-2,-1.9759517E-3,3.2899424E-3,3.992961E-3,-1.4950127E-4,-1.2253472E-3,-4.3779267E-3,1.2767431E-2,4.989747E-3,-3.6442594E-5,5.554619E-3],"split_indices":[3,4,3,3,1,4,4,0,2,2,5,5,3,4,0,5,5,5,1,1,5,3,1,3,6,1,0,2,5,1,2,2,1,1,0,5,6,2,0,0,5,5,2,4,6,1,4,4,1,4,4,6,6,2,2,1,6,1,6,2,2,1,5,0,0,0,0,0,0,0,0,0,0,0,0,0,0,0,0,0,0,0,0,0,0,0,0,0,0,0,0,0,0,0,0,0,0,0,0,0,0,0,0,0,0,0,0,0,0,0,0,0,0,0,0,0,0,0,0,0,0,0,0,0,0,0,0],"split_type":[0,0,0,0,0,0,0,0,0,0,0,0,0,0,0,0,0,0,0,0,0,0,0,0,0,0,0,0,0,0,0,0,0,0,0,0,0,0,0,0,0,0,0,0,0,0,0,0,0,0,0,0,0,0,0,0,0,0,0,0,0,0,0,0,0,0,0,0,0,0,0,0,0,0,0,0,0,0,0,0,0,0,0,0,0,0,0,0,0,0,0,0,0,0,0,0,0,0,0,0,0,0,0,0,0,0,0,0,0,0,0,0,0,0,0,0,0,0,0,0,0,0,0,0,0,0,0],"sum_hessian":[1.78755E6,1.59906E5,1.627644E6,1.56512E5,3.394E3,1.355664E6,2.7198E5,2.7105E4,1.29407E5,5.2E2,2.874E3,1.315106E6,4.0558E4,3.0367E4,2.41613E5,2.655E4,5.55E2,7.3974E4,5.5433E4,1.3E2,3.9E2,1.8E3,1.074E3,3.88859E5,9.26247E5,1.5305E4,2.5253E4,1.228E3,2.9139E4,1.61409E5,8.0204E4,2.5393E4,1.157E3,4.29E2,1.26E2,6.7353E4,6.621E3,4.3864E4,1.1569E4,5.7E1,7.3E1,2.61E2,1.29E2,9.64E2,8.36E2,6.64E2,4.1E2,3.38513E5,5.0346E4,9.8771E4,8.27476E5,1.326E4,2.045E3,2.3583E4,1.67E3,5.45E2,6.83E2,1.5813E4,1.3326E4,6.2568E4,9.8841E4,1.3304E4,6.69E4,2.5373E4,2E1,5.66E2,5.91E2,4.07E2,2.2E1,5.1E1,7.5E1,1.9924E4,4.7429E4,4.14E2,6.207E3,4.0767E4,3.097E3,4.353E3,7.216E3,3.1E1,2.6E1,1.6E1,5.7E1,1.09E2,1.52E2,6.6E1,6.3E1,3.5E2,6.14E2,3.55E2,4.81E2,1.08E2,5.56E2,2.25E2,1.85E2,3.13543E5,2.497E4,4.973E4,6.16E2,7.9404E4,1.9367E4,2.2675E4,8.04801E5,6.129E3,7.131E3,1.021E3,1.024E3,2.2884E4,6.99E2,3.76E2,1.294E3,4.55E2,9E1,3.04E2,3.79E2,1.5467E4,3.46E2,2.769E3,1.0557E4,1.2803E4,4.9765E4,6.6512E4,3.2329E4,2.108E3,1.1196E4,6.0437E4,6.463E3],"tree_param":{"num_deleted":"0","num_feature":"7","num_nodes":"127","size_leaf_vector":"0"}},{"base_weights":[-3.4150092E-3,1.9062047E-3,-4.395512E-3,-5.179146E-5,8.330739E-3,-6.447785E-3,-7.463051E-4,-1.5791666E-3,1.2139538E-2,5.415326E-3,2.4714014E-2,-7.485196E-3,6.5579913E-3,1.8107638E-2,-1.6736094E-3,5.2587553E-3,-4.7651576E-3,1.1250455E-2,7.3278E-2,1.6714072E-2,3.616076E-3,4.4242214E-2,2.0449983E-2,-9.07721E-3,-1.1417806E-4,-2.155394E-3,1.2874642E-2,1.4338446E-2,3.2266527E-2,7.9376055E-3,-2.9456634E-3,4.114618E-3,1.4599306E-2,-7.2143083E-3,1.8417076E-3,8.3420984E-2,1.0859174E-2,5.9359062E-2,1.20846964E-1,1.2009804E-2,3.5698317E-2,5.065813E-3,-4.2904053E-2,3.7699696E-2,6.262155E-2,1.4947898E-2,3.7039302E-2,-4.8180656E-3,-1.1952567E-2,4.631858E-3,-1.46158235E-2,3.8440008E-2,-4.5668976E-3,1.2423858E-2,1.7310297E-1,2.1202262E-2,1.0126747E-2,6.0522784E-2,2.7693173E-2,1.5946802E-2,5.0617913E-3,-5.680217E-3,1.6452762E-3,7.9783465E-4,4.253084E-3,3.3602167E-3,8.38668E-3,-1.220284E-3,-4.1514835E-3,-1.9908857E-3,4.564513E-3,1.5469058E-2,3.9243914E-2,2.3792097E-3,6.1546853E-3,1.6052159E-2,5.688595E-2,4.453237E-2,2.4718206E-2,1.0760921E-2,2.8938737E-3,1.3121718E-2,-4.299833E-3,2.2958778E-2,1.4357497E-3,-8.7382505E-3,-2.102493E-2,1.0315779E-2,1.9947799E-2,-1.1269817E-2,1.927579E-2,2.7698933E-3,8.1641935E-3,9.115913E-3,1.9306261E-2,-4.7142534E-3,-9.22372E-5,-1.3744188E-3,-4.7471933E-3,4.2234536E-4,3.3130585E-3,1.1192268E-3,-5.0188345E-3,1.1175935E-2,6.9948874E-2,1.32360505E-2,-1.7245526E-3,2.607196E-3,6.9211726E-3,6.274676E-2,3.0615365E-2,-3.4763864E-3,7.0550605E-3,3.0148024E-2,2.8913333E-3,3.181713E-2,6.978356E-3,5.25305E-3,1.3229166E-2,8.8878935E-3,2.9781512E-3,2.2164003E-4,5.2212933E-3,4.4712613E-4,-3.123569E-3,2.488036E-3,-3.1808187E-4],"categories":[],"categories_nodes":[],"categories_segments":[],"categories_sizes":[],"default_left":[0,0,0,0,0,0,0,0,0,0,0,0,0,0,0,0,0,0,0,0,0,0,0,0,0,0,0,0,0,0,0,0,0,0,0,0,0,0,0,0,0,0,0,0,0,0,0,0,0,0,0,0,0,0,0,0,0,0,0,0,0,0,0,0,0,0,0,0,0,0,0,0,0,0,0,0,0,0,0,0,0,0,0,0,0,0,0,0,0,0,0,0,0,0,0,0,0,0,0,0,0,0,0,0,0,0,0,0,0,0,0,0,0,0,0,0,0,0,0,0,0,0,0,0,0,0,0],"id":12,"left_children":[1,3,5,7,9,11,13,15,17,19,21,23,25,27,29,31,33,35,37,39,41,43,45,47,49,51,53,55,57,59,61,63,65,67,69,71,73,75,77,79,81,83,85,87,89,91,93,95,97,99,101,103,105,107,109,111,113,115,117,119,121,123,125,-1,-1,-1,-1,-1,-1,-1,-1,-1,-1,-1,-1,-1,-1,-1,-1,-1,-1,-1,-1,-1,-1,-1,-1,-1,-1,-1,-1,-1,-1,-1,-1,-1,-1,-1,-1,-1,-1,-1,-1,-1,-1,-1,-1,-1,-1,-1,-1,-1,-1,-1,-1,-1,-1,-1,-1,-1,-1,-1,-1,-1,-1,-1,-1],"loss_changes":[9.32649E0,3.4986699E0,1.1304306E1,3.9693267E0,3.1029034E0,1.3034969E1,9.499149E0,4.1269503E0,1.2892346E0,1.1211597E0,8.162961E-1,1.0499447E1,3.9281363E0,1.3588095E0,6.3313103E0,6.433966E-1,2.0910296E0,6.597178E-1,2.179439E-1,6.7616105E-1,3.2089713E0,2.0903397E-1,7.348559E-1,9.011059E0,1.0937996E1,2.9365647E0,2.9862995E0,5.813341E-1,6.901994E-1,1.3940582E0,5.7413816E0,7.8539485E-1,2.9791546E-1,1.9650168E0,3.962585E0,1.8348849E-1,6.578531E-1,1.9185537E-1,6.841147E-2,3.4213692E-1,6.056665E-1,9.228414E-1,5.363939E-1,1.21655226E-1,7.758427E-2,4.2399192E-1,3.6258316E-1,1.4574762E1,1.2535042E1,2.4751256E0,1.5196476E0,3.8004923E-1,1.6291344E0,1.6397347E0,2.7580333E-1,5.808046E-1,5.499939E-1,1.2615604E0,7.69294E-1,1.3164945E0,2.3763838E0,9.724488E0,3.070708E0,0E0,0E0,0E0,0E0,0E0,0E0,0E0,0E0,0E0,0E0,0E0,0E0,0E0,0E0,0E0,0E0,0E0,0E0,0E0,0E0,0E0,0E0,0E0,0E0,0E0,0E0,0E0,0E0,0E0,0E0,0E0,0E0,0E0,0E0,0E0,0E0,0E0,0E0,0E0,0E0,0E0,0E0,0E0,0E0,0E0,0E0,0E0,0E0,0E0,0E0,0E0,0E0,0E0,0E0,0E0,0E0,0E0,0E0,0E0,0E0,0E0,0E0,0E0,0E0],"parents":[2147483647,0,0,1,1,2,2,3,3,4,4,5,5,6,6,7,7,8,8,9,9,10,10,11,11,12,12,13,13,14,14,15,15,16,16,17,17,18,18,19,19,20,20,21,21,22,22,23,23,24,24,25,25,26,26,27,27,28,28,29,29,30,30,31,31,32,32,33,33,34,34,35,35,36,36,37,37,38,38,39,39,40,40,41,41,42,42,43,43,44,44,45,45,46,46,47,47,48,48,49,49,50,50,51,51,52,52,53,53,54,54,55,55,56,56,57,57,58,58,59,59,60,60,61,61,62,62],"right_children":[2,4,6,8,10,12,14,16,18,20,22,24,26,28,30,32,34,36,38,40,42,44,46,48,50,52,54,56,58,60,62,64,66,68,70,72,74,76,78,80,82,84,86,88,90,92,94,96,98,100,102,104,106,108,110,112,114,116,118,120,122,124,126,-1,-1,-1,-1,-1,-1,-1,-1,-1,-1,-1,-1,-1,-1,-1,-1,-1,-1,-1,-1,-1,-1,-1,-1,-1,-1,-1,-1,-1,-1,-1,-1,-1,-1,-1,-1,-1,-1,-1,-1,-1,-1,-1,-1,-1,-1,-1,-1,-1,-1,-1,-1,-1,-1,-1,-1,-1,-1,-1,-1,-1,-1,-1,-1],"split_conditions":[-1.773782E-1,-1.4313993E-1,9.052814E-2,-3.8704038E-2,-1.9769423E-1,1.3513228E-1,4.0342737E-2,-4.0302798E-1,4.143902E-1,-6.28692E-1,-2.2090861E-1,8.137981E-2,-1.3712025E-1,3.323297E-1,2.7938994E-2,-2.2090861E-1,-1.9771583E-1,-7.221854E-1,5.3579414E-1,-2.9953045E-1,1.6531599E-1,-1.3712025E-1,-7.80512E-2,-5.2817665E-2,0E0,-5.6536496E-1,5.354951E-1,6.762124E-2,-1.5277614E-1,1.7839067E-1,2.481146E-1,-2.6811367E-1,-3.5376397E-1,-2.4851578E-1,-1.9769423E-1,4.6610028E-2,-1.5615052E-1,-7.2211105E-1,-2.6818824E-1,-8.5385734E-1,3.5537016E-1,-6.28479E-1,2.6026815E-1,-1.3713238E-1,-3.842459E-1,-1.3712025E-1,-1.4012276E-1,-7.192991E-2,-4.9228694E-2,-6.7933775E-2,1.2857446E-2,5.358671E-1,-3.5383412E-1,2.0046104E-1,-3.5182673E-3,-2.3671305E-1,-3.8440156E-1,7.096543E-2,2.0458336E-1,-1.5960548E-2,2.3719558E-1,8.867273E-2,2.1757582E-1,7.9783465E-4,4.253084E-3,3.3602167E-3,8.38668E-3,-1.220284E-3,-4.1514835E-3,-1.9908857E-3,4.564513E-3,1.5469058E-2,3.9243914E-2,2.3792097E-3,6.1546853E-3,1.6052159E-2,5.688595E-2,4.453237E-2,2.4718206E-2,1.0760921E-2,2.8938737E-3,1.3121718E-2,-4.299833E-3,2.2958778E-2,1.4357497E-3,-8.7382505E-3,-2.102493E-2,1.0315779E-2,1.9947799E-2,-1.1269817E-2,1.927579E-2,2.7698933E-3,8.1641935E-3,9.115913E-3,1.9306261E-2,-4.7142534E-3,-9.22372E-5,-1.3744188E-3,-4.7471933E-3,4.2234536E-4,3.3130585E-3,1.1192268E-3,-5.0188345E-3,1.1175935E-2,6.9948874E-2,1.32360505E-2,-1.7245526E-3,2.607196E-3,6.9211726E-3,6.274676E-2,3.0615365E-2,-3.4763864E-3,7.0550605E-3,3.0148024E-2,2.8913333E-3,3.181713E-2,6.978356E-3,5.25305E-3,1.3229166E-2,8.8878935E-3,2.9781512E-3,2.2164003E-4,5.2212933E-3,4.4712613E-4,-3.123569E-3,2.488036E-3,-3.1808187E-4],"split_indices":[0,1,0,2,2,1,3,0,2,2,0,2,2,4,1,2,1,0,2,0,1,2,1,2,1,2,1,1,2,2,0,1,3,0,2,2,3,1,0,6,1,6,1,3,0,2,4,1,1,1,4,6,5,1,2,1,3,5,5,1,3,2,2,0,0,0,0,0,0,0,0,0,0,0,0,0,0,0,0,0,0,0,0,0,0,0,0,0,0,0,0,0,0,0,0,0,0,0,0,0,0,0,0,0,0,0,0,0,0,0,0,0,0,0,0,0,0,0,0,0,0,0,0,0,0,0,0],"split_type":[0,0,0,0,0,0,0,0,0,0,0,0,0,0,0,0,0,0,0,0,0,0,0,0,0,0,0,0,0,0,0,0,0,0,0,0,0,0,0,0,0,0,0,0,0,0,0,0,0,0,0,0,0,0,0,0,0,0,0,0,0,0,0,0,0,0,0,0,0,0,0,0,0,0,0,0,0,0,0,0,0,0,0,0,0,0,0,0,0,0,0,0,0,0,0,0,0,0,0,0,0,0,0,0,0,0,0,0,0,0,0,0,0,0,0,0,0,0,0,0,0,0,0,0,0,0,0],"sum_hessian":[1.78755E6,2.7813E5,1.50942E6,2.13165E5,6.4965E4,9.66097E5,5.43323E5,1.89433E5,2.3732E4,5.5152E4,9.813E3,8.94729E5,7.1368E4,2.5469E4,5.17854E5,6.0209E4,1.29224E5,2.3393E4,3.39E2,7.575E3,4.7577E4,1.757E3,8.056E3,7.35807E5,1.58922E5,2.9994E4,4.1374E4,2.0116E4,5.353E3,6.0527E4,4.57327E5,5.364E4,6.569E3,9.4276E4,3.4948E4,1.25E2,2.3268E4,2.64E2,7.5E1,6.072E3,1.503E3,4.614E4,1.437E3,1.298E3,4.59E2,6.051E3,2.005E3,2.96547E5,4.3926E5,1.19736E5,3.9186E4,1.681E3,2.8313E4,4.1259E4,1.15E2,7.648E3,1.2468E4,7.44E2,4.609E3,1.599E4,4.4537E4,2.8661E5,1.70717E5,4.6864E4,6.776E3,5.238E3,1.331E3,6.3915E4,3.0361E4,2.1389E4,1.3559E4,7.6E1,4.9E1,1.7855E4,5.413E3,2.54E2,1E1,4.2E1,3.3E1,5.46E2,5.526E3,1.295E3,2.08E2,1.79E2,4.5961E4,9.55E2,4.82E2,1.166E3,1.32E2,7E0,4.52E2,4.129E3,1.922E3,1.614E3,3.91E2,8.6819E4,2.09728E5,1.51261E5,2.87999E5,7.9674E4,4.0062E4,4.048E3,3.5138E4,1.672E3,9E0,6.7E2,2.7643E4,3.0549E4,1.071E4,7.5E1,4E1,5.04E2,7.144E3,6.6E1,1.2402E4,3.34E2,4.1E2,2.845E3,1.764E3,4.885E3,1.1105E4,3.2985E4,1.1552E4,1.1394E5,1.7267E5,4.9379E4,1.21338E5],"tree_param":{"num_deleted":"0","num_feature":"7","num_nodes":"127","size_leaf_vector":"0"}},{"base_weights":[-2.3901653E-3,2.4495593E-3,-3.0296168E-3,7.0243096E-4,8.995342E-3,-3.982299E-3,1.1531573E-3,